booster[0]:
bias:
-0.0473395
weight:
0
-0.00442354
-0.00356818
-0.00430532
-0.00300252
-0.00503299
-0.00463445
-0.0030081
-0.00276844
-0.00336713
-0.00285763
-0.00298391
-0.00202445
-0.00431208
-0.00338146
0.000711736
-0.00406117
0.00175266
-0.000450654
0.000775854
-0.00157613
-0.000539656
-0.00169014
-0.00347646
-0.00202082
0.000282028
-0.00089913
-0.00312504
-0.0029958
-0.00053469
-0.00298662
-0.00105124
-0.000595155
-0.00157205
-0.000595841
0.00146094
0.000427151
-0.000879898
-0.00176328
0.00177706
-0.000791239
-0.00282837
-0.00132867
-0.00303252
-0.00121367
-0.00249014
-0.00242528
-0.00501575
-0.00309952
-0.000882012
0.00061938
-0.000685975
-0.000928891
0.00133234
-0.00114576
-0.00092159
-0.000909123
-0.000741305
-0.00141299
-0.00158446
-0.00209834
0.00072867
-0.00214398
-0.00141197
-0.00101093
0.00133433
-0.00116752
-0.00247686
-0.0024672
-0.00282095
-0.0030517
-0.00236677
-0.000668172
-0.00140866
-0.00202546
-0.0013009
-0.00230918
0.000455581
0.000320022
0.000902158
-0.000426609
0.00123136
-0.000152633
-0.00219531
-0.000911669
-0.000611283
-0.00110164
0.000308533
-0.000113207
0.000948912
0.000141481
0.000218101
9.14112e-05
0.000848164
0.00117545
1.72391e-05
-9.00507e-05
-0.000827227
0.00082228
3.95211e-05
-0.00191744
0.000623405
-0.001096
-0.000251679
-0.00109939
-0.00154711
-0.00144961
-0.00347796
0.0015426
0.00106573
-0.000495454
-0.00233479
-0.00208187
-0.00107997
-0.00122611
0.00112376
0.00136514
-0.0015167
0.00050345
-0.000939717
-0.00870244
-0.00251054
0.0021151
-0.00486222
-0.00178644
-0.000355476
-0.000162183
0.00915291
0.000502765
-0.0036219
-0.0036067
-0.00446683
0.000998927
0.0132112
0.00392688
-0.00311486
-0.0339819
0.00127711
0.00126224
0.00530619
0.00195643
0.00306847
-0.00131906
0.0116885
0.000174975
0.00486909
0.00237087
0.00144087
0.0024724
0.000709291
-0.000820587
0.00443193
0.00319857
-0.00411418
0.0039592
-0.0123919
0.00306162
0.00337954
0.000283176
0.0035406
0.00315563
0.00168607
0.00393703
-0.000101488
0.00352247
0.000884631
0.00412943
-4.72939e-05
0.00224574
0.0071813
-0.00236937
0.0300523
-0.00132694
0.00186109
0.000300616
0.00162093
0.00354507
0.00733619
0.0238514
-0.0161997
0.00383381
0.0664529
-0.0103474
0.0422799
0.00625608
0.00122792
0.0242514
0.00193376
0.00223923
-0.000794253
0.00578909
0.000323853
0.00855568
0.00187052
0.00545083
0.0100659
0.00545004
0.0151887
-0.00656726
-0.0456605
-0.0374632
-0.0448952
0.0101581
-0.0149049
0.00218716
-0.00902295
0.00412273
-0.0322314
-0.0302908
-0.0164168
0.00304895
0.00857904
-0.00855295
0.00308267
0.00189965
0.00213361
-0.00392662
-0.00169108
-0.0107224
-0.0263356
-0.0318207
-0.000856876
-0.00619653
-0.00949009
-0.00991431
0.00490573
-0.0110246
-0.0101102
-0.00152844
0.00124777
-0.00046854
0.000369579
-0.00249409
-0.0154395
-0.00385407
-0.00571556
-0.00187447
0.00032889
-0.00100147
-0.0046184
0.00360478
0.00353454
-0.00658706
-0.000646861
0.00515297
-0.000743069
0.0103354
-0.0163058
-0.0341346
-0.000995728
8.26447e-05
-0.00481991
-0.0154929
0.0016169
-0.000347672
-0.00429424
-0.0016577
0.000410134
-0.00137779
0.00104824
-0.00392697
-0.00831224
-0.0306479
-0.00280915
0.0092831
0.0180336
0.00206786
-0.023219
0.00331448
-0.0585418
-0.0288623
-0.0107073
-0.00271223
-0.000510854
-0.0650906
-0.0048301
0.0116645
-0.00395533
0.000767656
-0.00256334
0.00135491
-0.00206852
-0.0221031
0.00135741
0.0079703
-0.0289228
-0.0159495
-0.0193337
0.00010531
0.00215504
0.00504423
0.00973391
-0.00306415
-0.0353497
0.000959723
0.00302655
-0.00404676
-0.0188159
-0.0195931
0.000583939
-0.00207902
0.00179722
-0.00506244
-0.011027
-0.0121404
-0.010898
-0.00108724
0.000678655
-0.0126073
-0.00738102
-0.00195467
-0.000642331
-6.91404e-05
-0.000185321
0.000495358
0.00159239
-0.00486939
-9.00205e-05
0.000246044
-0.00226128
-0.0062495
-0.000656465
-0.00318006
0.00470727
-0.0175056
0.00242031
0.025648
0.00437382
-0.00308709
-0.000127322
0.0200185
0.00411751
0.00158999
0.000756821
-0.000874092
-0.00466626
0.00653201
-0.0051899
-0.00906904
-0.00020106
-0.00197059
0.00175053
-0.00529545
0.00073573
0.00198302
0.000248924
-0.00287339
-0.0134154
0.0077453
8.23735e-05
-0.033845
-0.00554047
-0.00741979
0.000519214
-0.00214169
-0.000579364
-0.0179386
-8.74886e-05
0.00107871
-0.000139331
-2.09948e-05
0.00575204
0.00119952
-0.0064478
0.00274828
0.0112184
-0.00457164
0.006676
0.00219764
-0.00929641
0.00252128
-0.000828434
0.0184185
0.00250267
0.00392837
0.00341305
0.00074747
0.000628555
-0.0131259
-0.0129161
0.00114713
-0.00322578
-0.00507664
0.000444687
0.00425778
0.0015104
0.00922932
-0.0138145
-0.00165082
0.00280587
0.00264555
0.00211734
0.00541611
0.000741098
-0.069095
-0.0425482
-0.0420737
-0.0071207
-0.00984547
-0.00375755
-0.0014181
0.00259845
-0.00237701
-0.0153706
0.00325645
-0.0283613
-0.00024966
-0.0306513
0.00194721
0.00159972
-0.00237213
0.0357111
0.0109707
0.000898818
0.00178664
0.0219683
0.00200686
0.00560069
-0.0120956
-0.00439769
-0.0163948
-0.00446779
0.00275753
0.00120352
0.00126476
0.00259052
-0.00340738
0.0133766
-0.0083167
-0.00109708
0.00866257
-0.0149076
0.00192158
-0.000403785
0.0019057
0.0250543
4.58384e-05
0.00237315
0.000956828
-0.000916618
-0.0113085
0.000715011
-0.00175592
0.00214744
0.0250225
-0.00273404
-0.00032131
0.0146146
0.00181003
0.00635813
-0.0555551
-0.00547453
0.000947309
0.000351385
0.00259371
0.000158095
0.0033201
-0.000998185
0.00204096
-0.00199944
0.00332695
0.000884658
0.00245101
0.00368079
0.00302938
-0.0112234
0.00148468
0.00103093
0.000195838
0.00105009
0.0284139
0.000793043
0.00413141
-0.0103437
0.00695233
-0.00280362
-0.0010791
-0.035032
-0.00985656
-0.00312556
0.00344655
-0.00283251
-0.0651444
-0.00112651
0.00851692
0.00224535
-0.0140127
0.00162976
0.00143469
0.00155695
-0.0154036
0.00118704
0.00045164
-0.0215862
-0.00309234
0.00181631
0.000418305
0.0160743
0.0215082
0.0430463
0.00534491
0.00481845
0.0113738
0.0372773
0.000575297
0.0531366
0.0047111
0.0407932
0.0076322
0.00289555
-0.0116903
-0.00112755
0.00403365
-0.00258087
-0.00389904
0.00581704
0.00174395
0.00415134
0.00800673
0.0230205
-0.0287102
0.00403038
0.000784551
0.00136625
-0.00329207
-0.00509915
0.000585086
0.0501419
-0.000974243
0.000525309
0.0511368
0.00553207
0.00510507
-0.0572356
0.00793314
-0.0453365
-0.00152239
0.0812103
0.00433429
0.0034028
0.0201266
-0.0314153
0.00384623
0.000444563
-0.00235556
0.00189673
0.0469349
0.0103105
0.00259441
-0.00393688
-0.00181453
0.00297392
-0.0165217
-0.000496132
0.00351955
-0.00276706
-0.00205001
0.0321461
0.00121369
0.0534082
0.00388774
-0.0192744
-0.0108047
-0.00656556
-0.0115866
-0.00139728
-0.00490984
-0.00173385
0.00068133
0.0103673
0.0322654
-0.00131409
-2.10441e-05
-0.00259733
0.00223442
-0.00846693
0.00340013
-0.00749274
0.00107906
0.0176496
0.00218671
-0.00696107
0.0339777
0.000174215
0.0208376
-0.00459212
-0.00293322
-0.00105204
-0.00319583
0.00160597
-0.0112783
-0.00162083
0.00296844
0.00869347
-0.00793769
-0.00351931
-0.00737568
0.0475422
-0.00261388
0.0135739
-0.0612294
0.000784306
-0.000301065
-0.0141572
0.00245917
-0.00295875
0.00464346
0.0099493
0.00726843
0.00761807
-0.00525922
-0.000299146
-0.0012484
0.000108285
0.00149236
5.90373e-05
-0.00753839
-0.00393213
-0.00599192
0.000684638
-0.000524123
0.000931252
-0.0128837
-0.000521642
-0.000117592
-0.00332248
0.00703396
-0.000278344
0.0146471
0.0335323
0.0150227
0.00387268
-0.00203596
-0.000837084
0.00919192
-0.0178373
-0.0225803
0.000889407
0.00129764
-0.00238191
0.0108691
0.0135034
-0.00431277
-0.0118062
-0.00671993
-0.00173898
0.000839173
0.000509532
0.000966678
0.00172975
0.000737585
-0.00674234
-0.0181897
0.00239797
0.0217097
-0.00486311
0.0154397
-0.0216617
-0.00301265
0.0216452
0.00244417
-0.000174381
0.0296832
0.0402819
-0.0170701
-0.00441241
0.00607128
0.0367701
-0.0122314
0.00894403
0.00126805
-0.00235515
0.00910306
0.00532864
0.000540202
0.00220136
-0.0168669
0.00279308
-0.00302332
0.00395803
-0.0129603
0.0030234
0.00651539
-0.00333884
-0.0029413
0.00284405
0.00483323
0.0124391
0.00102396
0.00136593
0.000970255
0.00372695
-0.000111505
0.032253
0.00274999
0.00189433
-0.014648
-0.032733
0.000521795
0.00035623
-0.00702408
0.00274964
0.0029274
0.00254841
0.00161104
0.00647259
-0.0386873
-0.000183816
-0.01655
-0.00223147
0.000474132
0.000420628
-0.00703367
-0.0172294
0.00330717
-0.00051155
0.0159914
-0.00156891
0.00782699
0.000919496
-0.00252525
0.00250103
0.00415573
0.00522691
0.00283954
0.00508844
0.0021168
0.00313463
0.00101763
0.00329737
0.00129217
0.00114605
0.00785182
0.00138876
-0.0390248
0.00552235
-0.000242794
0.00315713
0.00341727
0.00177497
-0.00801367
0.000545338
-0.00447319
-0.0158649
0.0023637
0.00437024
0.00526149
-1.59258e-05
-0.000585157
-0.0127329
0.000167178
-0.039918
0.00207197
-0.000371312
0.00281159
0.000166566
0.00259769
-0.00345643
-0.00155023
-0.00404079
-0.00124565
0.00690243
0.00347293
0.00174117
0.00186079
0.00467514
-2.02062e-05
0.00271796
1.20062e-05
0.00101318
0.00119631
0.00125296
0.00102128
0.0024878
0.00199823
-0.00416435
-0.000213033
0.000748
-0.000173028
-0.000902829
0.00161187
0.00123714
0.0030675
0.000851782
0.00261283
-0.000448757
0.000991799
0.000944463
-0.00096575
-0.00106041
0.00376183
0.000961649
0.00124306
0.00169306
0.00133597
0.00122145
-0.00594765
0.00148193
-0.000243225
-0.000478032
0.00374288
0.00529691
0.00159494
0.00141735
0.000881918
0.00209179
-0.00256225
0.00265132
-0.000630526
0.00255947
8.71846e-05
-0.000606916
0.00391781
0.00282412
0.00181554
0.000166161
-2.90195e-05
-0.000155214
-0.000874946
-0.000210488
-0.000168097
-0.00130447
0.000551564
-0.00476173
-0.000919798
-0.000407994
0.00145034
-0.0070162
0.000489731
6.84095e-06
-0.000356923
-0.000182514
0.000284567
-0.00249281
-0.0057127
-0.000612429
-0.00217448
-0.0100392
-0.0172512
0.000646672
0.0251457
-0.000487689
0.00111092
-4.27983e-05
-0.000348148
0.000260317
0.000102213
0.023251
0.000347657
-0.000115729
-4.29167e-05
0.0011943
0.00494518
-0.000356603
-0.000390927
-0.000543107
0.000219625
0.000343065
-0.00115727
0.00275323
0.00135846
-4.58535e-06
-0.00046827
-0.00017341
0.000301139
-0.00797117
-0.00367498
-0.0126831
0.00452722
-9.57147e-05
-0.00461499
4.76466e-05
0.000602008
0.0109228
-0.00145647
0.00189919
-0.000325292
-0.000555174
0.00246445
-0.000457946
-0.000235603
-0.00614684
-0.00165246
0.00168035
0.00066992
0.000436416
0.000230191
0.000993056
0.000244007
-0.00112796
-0.000767464
-0.00127404
-0.000471218
-0.000128025
0.000126086
-0.0351591
0.000475771
0.000826462
-0.000341103
-0.000383166
0.000367708
0.000378995
0.000296896
-1.14638e-05
-0.000180123
-0.003654
4.74965e-05
0.000356413
8.7574e-05
-0.000636634
0.00375274
0.000676896
0.00217797
0.000354602
0.000674202
0.000241558
-0.00211041
-0.000239723
-0.000622659
-0.00284684
-0.000306825
0.000400864
-0.001596
0.00108174
0.000658803
-0.00084017
-3.78366e-05
2.40569e-05
0.000152054
0.000302348
0.000300737
-0.0011561
-0.000741212
0.000564145
-0.000102579
-0.000101208
0.000160674
-2.27136e-05
3.13411e-05
0.000195165
-0.00210258
-0.00610662
-0.00219804
-0.00348485
-0.00240717
-0.00077383
-0.000209084
0.000133668
-0.000660523
0.00152608
-0.000515207
-0.00194407
0.000747605
1.44639e-05
0.00013552
3.08532e-05
-0.000382633
0.000801409
-0.00219078
-0.00283342
0.000529368
-4.08969e-05
-0.000364389
-0.000220582
8.16747e-05
0.000176589
0.000548437
-0.00366532
0.00316712
-0.00351822
-0.0142775
-0.00299142
6.60316e-05
0.000162591
0.00832618
0.000203943
-0.00265554
0.000769717
-0.00014289
-0.000781239
0.00189922
-3.19065e-05
2.7121e-05
-0.00491979
9.92315e-05
-0.000154104
-0.00084209
-0.00171049
-0.00330704
-0.0055261
-0.00171631
-0.00266036
-0.00233
-0.000353933
-0.0006301
-7.98513e-05
-0.000139071
-0.000213268
0.000796427
-0.000800459
-0.000575344
0.000124859
-0.000549231
-0.000253164
0.000190298
-0.00116604
-0.000492028
-0.000141135
0.000124527
-0.000245431
-0.000359982
-0.00100318
-0.000909262
0.000223385
-0.000279525
-0.000128512
-0.000188145
-0.00193303
-0.00240292
-0.0007687
-0.000467936
0.000583065
-8.11505e-05
-0.00115924
-7.32664e-05
0.000251862
0.000330229
-0.000327801
-0.000144242
-0.000201751
-0.000809918
0.000149034
1.89124e-05
4.65082e-05
1.19161e-05
-9.0585e-05
-0.000212819
-0.001085
-2.65852e-05
0.000241496
0.000161253
-0.000329917
-7.10326e-05
-8.14885e-05
-0.00051148
0.00128126
0.000501279
0.000597579
0.00015841
0.000506185
0.000613809
-0.000585113
0.000343404
-0.000239877
-0.000709276
-0.000536206
-0.000407132
0.000284738
0.000239903
0.000149768
-7.20753e-05
0.00018363
-0.00127118
-0.000383761
-9.40754e-05
0.000439972
0.000417317
0.000314047
0.000516991
2.83053e-05
-0.000438788
0.000129467
0.000853194
0.000618304
0.000936094
0.000127623
0.00056491
-0.000126867
-0.000263116
0.00026923
-0.000588323
2.54427e-06
-0.000275621
-0.000361286
0.000483969
0.000119756
0.000489099
-0.000630079
-0.000177441
-0.000313528
0.000268089
0.000111626
0.000100738
0.000266207
-0.000143168
-0.000188725
-0.000316627
0.000570238
0.00117323
0.000154214
0.000148733
-7.41323e-05
0.000242142
-0.00027391
0.000386554
-0.000209455
0.00175401
0.000222819
-0.00684779
0.000460196
0.0001636
-0.000337491
-0.000121161
0.000267254
-0.000326843
0.00072883
-0.00099396
1.84076e-05
0.000292257
-7.243e-05
-0.00107554
4.72382e-05
0.000304229
0.000243747
0.000153459
6.55967e-05
0.000652553
-0.000186217
-0.000121495
9.82942e-05
-0.000283977
-0.000831875
-3.18231e-05
6.51846e-05
0.00026967
0.000242346
0.000120709
0.000424083
-0.00102075
0.000209981
0.000753021
0.000372315
0.000290661
0.000763107
-0.00013734
-0.000169509
0.000155037
0.00030409
6.54255e-05
-0.000155765
0.00316041
0.000496221
0.00144806
0.000212019
0.000607403
-0.000586612
0.00098484
0.00027955
3.37206e-05
-0.000636859
0.000764824
0.0004993
0.000938867
-0.000127946
0.000494601
7.98307e-05
0.000359401
-5.84943e-06
1.07066e-05
0.000655359
-4.80401e-05
-0.000331518
-0.000323999
-0.000234786
0.000284946
0.000368752
0.00154925
0.00517015
-0.000175907
0.000246251
-0.00172806
0.000427415
5.62706e-05
0.000168138
-0.000291326
-1.887e-05
-0.000230009
8.96628e-06
1.96638e-06
-0.000410554
0.000310714
0.00141414
0.000809353
0.000187775
0.000742763
-0.000223056
0.000210577
0.00186711
0.00231553
0.000522457
0.000114392
0.00319291
0.00144864
0.000272204
0.00149824
-0.000121206
0.000219963
3.70156e-05
-0.000836119
2.94908e-05
-0.000244759
0.000303278
-0.00137662
0.00212728
0.00215729
0.00065548
0.000357422
0.0020247
0.000226623
-4.45433e-05
9.94318e-05
1.15334e-05
0.000874616
-0.000163601
0.00188565
0.00183535
-0.000106611
0.00016423
-0.00214207
0.000209051
0.00131782
0.000590311
4.05546e-06
0.000182336
-0.000361507
-0.00215684
-0.000190938
0.000609662
6.29455e-05
-7.83303e-05
0.000285618
0.00223397
3.98783e-05
0.000388901
0.00223224
-3.35679e-05
0.000124485
-0.00130491
-0.000212405
-0.000102717
1.91614e-05
-0.000143141
-0.000742091
-0.0118684
-0.000624513
-0.0034422
-0.000888823
-0.0011067
-0.000170245
-0.0199449
-0.000588509
-0.00277057
-0.00086743
-0.000737246
0.000196702
-0.00836069
-0.000472724
-0.00234636
-0.000693042
-0.00046141
0.000333107
-0.00777811
7.51862e-05
-0.0018724
-0.000265461
-0.000229581
0.000678079
-0.0150792
0.0020659
0.0005871
0.00167776
-0.000115169
0.000754881
0.000346711
-0.00117761
-0.000234495
-0.00037173
0.00105891
0.000766241
-0.00229142
0.000295244
-0.000314361
0.00072078
-0.00019131
-0.00813022
3.59289e-05
0.000102554
0.000201638
-0.000519418
0.000579265
-0.0186456
-0.000234694
-0.00323269
-0.000532603
-0.000279565
0.000396484
0.000255865
-0.0055918
0.00184232
0.000461886
0.000517809
-2.05119e-05
0.000826613
8.47999e-06
-0.000708541
-0.000402748
-0.000227878
0.00084732
-0.00263989
0.0025296
0.000871207
0.00154594
8.68147e-05
0.00124313
-0.000558813
-0.000428761
-0.000208744
0.000591937
-0.0026212
-0.00278802
-0.000160546
-8.73618e-05
0.00034339
0.000499091
0.000428259
-0.00935804
-0.000789483
0.000207747
-0.000621121
0.00041028
-0.00320225
0.000656744
7.32554e-05
-0.000717652
0.000195178
-0.00220043
0.00285008
1.54561e-05
-0.00117233
-0.000277337
0.000195573
-0.000197135
-0.00188244
-0.000551157
-0.000239905
1.00416e-05
-0.00426686
0.00312165
0.000171924
-0.000559086
-0.000155526
0.000193585
-0.00032856
-0.00191289
-0.00055633
-0.000288375
-0.000183399
-0.00599855
0.00425658
0.000320692
0.000538099
9.3344e-06
0.000457445
-2.98981e-06
-0.000251081
0.000252892
0.000540706
-0.00525304
-2.44604e-05
-0.000940098
-0.000549247
-0.000214599
0.000450474
-0.00454737
0.000586669
-0.000168973
-0.000823373
-0.000374764
-5.44473e-05
-0.000274806
0.000765861
8.82304e-05
0.00103731
0.000329964
0.00103393
-0.000141158
-0.0010844
-0.000395277
-0.000407589
0.000362035
-0.00315254
0.00123879
2.27504e-05
-0.000589715
0.000550398
0.000759834
6.7882e-05
-0.000614256
-0.000263772
-0.000396052
-3.3899e-05
-5.54891e-05
0.00021856
-0.000189291
-0.00199499
-0.000955303
-0.0226458
0.00158404
-0.00238542
0.000304131
-0.00407898
-0.00016494
0.000947647
-0.000377877
-0.000139721
0.000210913
6.43356e-05
-0.00306925
-0.000125257
0.000287329
-0.000149194
4.48086e-05
0.00020335
5.70842e-05
-0.00548073
-0.000177138
0.002158
-0.00019221
-4.59817e-05
9.10238e-05
-0.00021113
-0.00273106
-0.000260127
0.000780518
-0.00016078
-1.51719e-05
0.000161301
0.000129356
-0.00234816
0.000155095
0.000244912
-0.000104002
9.66453e-05
-0.00170396
-0.000101863
0.000174226
-0.000131811
7.77054e-05
0.000139095
-0.0018292
-0.000176497
0.000604488
-0.000230396
0.000468182
0.00022484
9.49228e-05
-0.00167055
-8.01271e-05
0.000347087
-0.000172921
0.000446625
0.00015039
0.000138803
-0.00219651
-0.000258429
0.00123093
0.000213195
-9.17984e-05
0.000119709
0.000114104
-0.00264865
-8.98133e-05
-5.66932e-05
-0.000407832
0.000291234
0.000324864
0.000150926
-0.0013817
-0.0001918
0.00039977
-0.000126219
4.02668e-05
9.78087e-05
-0.000322837
0.000235633
0.000403382
-0.000109766
7.77151e-05
0.000183087
0.000106894
-0.00219204
-4.94004e-05
8.42993e-05
1.84353e-05
0.000490843
3.61548e-05
-0.000790831
9.22367e-05
0.000589442
-0.000252698
0.000497721
0.000388696
0.000112884
-0.000639539
-0.000231737
-0.00133112
-0.000307793
-3.73656e-05
-0.000364786
-0.000547137
-0.000495546
-6.13559e-05
0.000251943
-0.000866487
-0.0047084
-0.000821045
-0.00324133
-0.000777211
-0.000957888
0.000438158
0.0029492
-7.7114e-05
-0.00149166
-0.00217838
-0.00540073
-0.000777229
-0.0039171
-0.000649229
-0.000783541
-4.2171e-05
0.000139421
-0.000327569
-1.26042e-05
-6.6237e-05
-0.00103341
-0.000100113
-0.00111602
-0.000217913
-0.0001658
0.00128593
0.00233059
-5.18216e-05
-0.00043451
-0.000194246
-0.0083545
0.00118986
0.000170532
0.00021507
-0.000125723
0.000457242
-0.000219279
8.4086e-05
-0.000344724
-0.000100893
0.000233866
0.000132356
0.000539134
0.00031015
-1.46975e-06
2.54486e-05
0.000601952
-0.000169021
6.37708e-05
-0.000960884
-1.50821e-05
0.000233823
-0.00130315
-0.000216297
9.93753e-05
-0.000461786
-0.000122875
0.000235151
0.00243115
0.00281296
0.000968752
5.42705e-05
-4.12877e-05
-0.00739219
-0.000615948
0.00217292
-0.00109175
-0.000859584
0.000142654
-0.000130599
0.00328762
-0.000813797
-0.000107702
-0.000915184
-0.000172349
-7.62617e-05
0.000676973
2.41718e-05
4.12969e-05
6.36332e-05
-0.000259247
-0.00142962
-0.00167656
-9.61584e-05
-0.000708837
-0.000160917
-9.75117e-05
-0.000951373
6.20015e-06
-0.000215628
-5.04341e-05
0.000268516
0.000939954
-0.00135217
-6.47044e-05
-0.000676966
-0.000135398
-3.61636e-05
-0.000272133
-2.5424e-05
-0.000126677
0.000217998
0.000271855
0.00108501
-9.64642e-05
-6.89356e-05
-0.00125128
-0.000309021
-5.46301e-05
-0.000774442
0.000820789
0.000103652
-0.000302637
0.000369919
0.00507775
0.00183314
0.000357862
0.000450842
5.20195e-05
0.000574192
0.00014218
-0.00033062
-0.000702933
0.000253871
0.000294397
-0.00161317
0.0011978
0.000539941
0.00149685
0.000194042
0.000549091
2.86751e-05
0.000777127
-0.000211477
0.000121094
6.98091e-05
-0.00170318
0.0020235
0.000608713
0.00138834
0.000173149
0.000936634
0.000268004
-0.0144713
-0.000116731
0.00117274
0.000180694
0.0031997
-0.000156506
0.000615176
0.000110063
0.000426108
0.000401506
-0.00175678
2.07433e-06
-0.00157742
-0.000117538
0.000128835
9.30149e-06
-0.000312078
0.000860575
0.000299485
0.000986208
-8.30567e-05
0.000114416
-0.000443416
-0.00213448
7.70934e-05
0.000590467
0.000446789
0.00338799
0.000754356
0.000479968
0.00106291
0.000210062
0.000389363
-0.00060793
-0.0553908
0.000203051
0.000437808
0.000369281
0.00138214
0.000230539
0.00120794
-0.000117029
0.0003954
0.000271227
0.00394472
0.000284794
0.000176567
0.000189997
-0.000132153
-6.4107e-05
-0.000691944
0.000839137
0.00043098
0.000214591
9.09033e-05
-0.00938144
-0.0001488
0.000690406
0.000116019
0.00042161
0.000176086
-8.46324e-05
0.00268954
-9.59506e-05
0.000586109
0.000542837
0.000235719
0.000277786
0.000100651
-0.00272103
-1.4488e-05
0.000357374
0.000441048
0.000366746
0.000147898
-0.000474321
0.00583133
-0.000480196
-0.0309072
-0.00484079
0.000481691
0.000152309
0.00160365
-0.000364097
-0.00110692
-0.000281693
0.000313652
6.27521e-05
-0.0024494
-7.81012e-05
0.000445308
0.000108917
0.00276971
-0.000116984
-0.00343306
-0.000173429
6.51636e-05
7.23452e-05
-0.000144089
-0.000293655
0.00371222
-0.000314525
0.000143437
-0.00010145
-2.62935e-05
-6.72023e-05
-0.000399789
-0.00150393
0.000302096
0.000315552
0.000341055
2.14199e-05
0.000352282
-0.000142071
0.000518107
0.000337544
0.000650116
-6.94056e-06
-0.00283967
6.4808e-05
-0.000951629
8.82249e-05
0.000238187
3.76515e-06
0.00237712
-0.000249178
0.000550957
0.000418557
0.000468919
6.10785e-05
-0.00031334
-0.00515285
0.000189908
0.00080181
0.000471359
0.00025005
0.00016082
0.0199788
-0.000106324
0.000905049
-0.000330082
-0.000121229
-0.000619543
0.000423212
0.000332426
0.00109843
0.000199035
-0.000564925
0.000122592
1.95387e-05
0.000509103
0.000537848
-0.000245161
0.000313572
-0.000553199
0.000491464
0.000122035
-0.00022792
-0.00182026
0.000397217
-0.000499635
-0.000270606
-0.000224581
-0.000200652
-0.000264294
0.00128433
0.00129442
-0.000556336
1.89466e-05
-0.000328913
0.0040292
0.00122884
-0.000918094
-0.000310228
-0.000159885
-0.000431736
-0.000155778
0.00461594
-0.000439172
-0.000320405
0.000981992
-9.16807e-05
-0.00023727
0.000568362
-0.000406318
0.000203844
1.86553e-05
-0.000415293
-0.000181012
-0.00809159
-0.000857612
-7.48911e-05
0.000514954
-0.000331166
0.000257993
0.000720397
-0.000839723
-0.000230311
-2.19019e-05
-0.000517683
-7.12943e-05
-0.0118238
0.00143525
0.000422194
0.000561189
0.000524924
-0.000530775
0.000978475
0.00108103
0.000562252
0.000297874
-0.000163955
0.000225043
0.00203669
0.00842855
0.00013997
0.000789218
0.000117669
-0.000655374
0.00167376
0.00124261
0.000355932
0.000131755
-0.000235854
-0.000263534
0.0224739
0.0025625
0.000124912
0.000173222
-0.000135685
-0.00149998
0.000234754
0.000620969
0.000220337
1.04376e-05
-0.000184925
-6.11002e-05
0.000755606
0.00143864
0.000188361
0.000775854
0.000203222
-0.000355447
0.00126618
0.000344512
0.000279545
0.00021748
-0.000222759
0.000306769
0.0122602
-0.00685981
0.00399491
-0.000636384
-0.000819126
-0.000436173
-0.000355393
0.000510736
-0.000694923
-0.000302148
-0.000297628
-0.000420457
-0.000378349
-0.0039841
-0.00675366
0.0005537
0.00031
-0.000211416
-7.04007e-05
-1.61354e-05
-9.77032e-05
-0.000215766
0.00035228
0.000256687
-0.000474747
0.000441798
0.00120134
-0.000143279
0.000639529
0.000639026
0.000401735
-0.000262246
0.000790515
0.0006154
0.000290021
0.000159004
-0.000171035
0.000239179
0.00199628
0.000438648
6.31881e-05
0.000797452
-6.02552e-06
0.00178025
0.00196089
0.00139131
0.000260131
-0.000137736
-0.000642929
-0.000530655
0.0140645
0.000264538
9.42496e-05
0.000967358
0.000345961
-0.00037834
1.2294e-05
0.000414749
0.000386439
0.000300155
-0.000158218
0.000374891
0.000373619
0.00417639
0.00177005
0.000591848
0.00112193
0.000178607
-0.000580464
0.000377371
0.00178011
0.000213485
-0.000175675
-0.000459764
-0.000289584
0.00209261
-0.00362874
-1.87427e-05
6.40529e-05
-0.00106978
-2.94992e-05
0.000225447
0.000231132
0.000134749
-0.000255077
-0.00569284
0.000561682
0
0.000247651
0.00281044
0.00039794
8.57707e-05
-0.00188277
0.000143228
0.000254136
0.000345015
-5.13638e-05
-0.00113576
-0.000430153
0.000213665
-0.00151331
0.000114015
0.00180065
-0.00219342
0.00333112
0.000523271
0.00172411
-0.0001809
0.000287686
-5.5454e-05
-0.00182936
-0.000864678
0.00073222
0.000245595
-0.00182528
-0.00104591
0.000611677
-0.00175774
0.00032889
0.000720329
5.89356e-05
0.000513258
0.00134539
0.000704734
0.000157778
-0.000928011
0.001935
-0.000200972
-0.0023313
-0.00116024
-0.001482
-0.000764587
-0.00156047
-0.00122712
-0.00245496
-0.00220656
-0.000877653
-0.000156413
0.00029173
-1.0419e-05
0.00110595
-0.0010195
0.000136764
-0.00053641
-0.000285159
-0.000668327
-0.000731096
-0.00122892
0.000732025
-0.00157348
-0.000296795
-0.000131004
0.00153315
-0.000937786
-0.0041121
-0.0037808
-0.00361641
-0.00164321
-0.00246912
0.000626076
-0.000371608
-0.001356
-0.000591704
-0.00210294
0.00101835
0.00126758
0.00110874
0.000499465
8.47163e-05
0.00102911
-0.00140323
3.90372e-05
-0.000624734
5.08785e-05
0.000563543
0.000290019
-0.000674945
-4.93083e-05
9.29666e-05
-0.00165287
0.000269955
0.000287097
4.32676e-05
-0.00109279
3.90959e-05
-5.32262e-05
0.00112931
-0.00165033
0.00090696
-0.000125167
0.000547906
-0.00216308
-0.000474481
-0.000971249
-0.00359806
0.00125411
0.00123087
0.000316242
-0.00135353
-0.00127112
-4.39719e-05
-0.000602914
-0.000153478
0.00225462
-0.00129004
0.00145835
-0.000228865
-0.00858048
-0.00184169
0.00133243
-0.00383422
-0.00135003
-0.000120843
0.00206657
0.00807879
0.00262774
-0.00518648
-0.00851113
-0.0008249
0.000748914
0.00738236
0.00196169
-0.00123369
-0.00151902
-0.0052958
0.00538421
0.0109551
0.00516766
0.00350245
-0.00110927
0.0131314
0.00070595
0.00102748
0.00241076
0.000849917
-0.0022046
-0.00254305
0.000226518
0.0296991
0.000659764
-0.00742561
0.00341226
0.0255243
0.00178161
0.00212923
-0.000338705
0.0023897
0.00037321
0.0025206
0.00355998
0.000845892
0.00280311
0.00239214
0.00439392
0.000720652
0.00314689
0.00815091
-0.00178964
0.0248656
-0.00638551
-0.00121565
0.00120976
0.0032437
-0.000147333
0.00452027
0.0252594
0.0159711
0.000957016
0.0534537
0.000423955
0.0765911
0.00861021
0.000205151
0.0293158
0.00163076
0.00190324
-0.00606971
0.00405334
-0.00057991
0.00848561
0.00210219
0.00590102
0.00971607
0.00347648
0.0119203
-0.0059599
-0.011867
-0.0355233
-0.0390223
0.0224441
0.00939975
0.00147219
-0.00758899
0.00545455
-0.0274876
-0.0118823
-0.0149607
-0.00207879
0.0127027
-0.00589252
-0.00102846
0.000609118
-0.00479905
-0.00341618
-0.00463264
-0.00699579
-0.0210944
-0.0249517
0.000232833
-0.00127666
-0.00794092
-0.0064294
0.0106101
-0.0107922
-0.00789116
-0.00513411
0.00114054
-0.000160493
0.000363229
-0.00175653
-0.00986363
-0.00226768
-0.00476119
-0.0028252
-0.00141053
-0.00276109
-0.0075129
0.00548839
0.00179622
-0.0083188
-0.00389876
0.00509401
-0.00198027
0.00152943
-0.0239074
-0.022479
-0.00121175
-0.000172854
-0.00585673
-0.0118558
-0.000260291
-0.00263328
-0.0071575
-0.00151118
0.000405479
-0.00376581
-0.00052193
-0.00508795
0.00100077
-0.0117907
-0.000484919
0.00778519
0.0142636
0.00143875
-0.026214
0.00242965
-0.0313251
-0.0224884
-0.00948286
-0.00304644
-0.000916993
-0.0339727
-0.00294735
0.0130896
-0.00693384
-0.000251436
-0.00327
-0.00344347
-0.00583102
-0.0114977
0.00037819
0.00650338
-0.0243752
-0.0137603
-0.0131789
6.38685e-05
0.0023757
0.00298738
0.00583548
-0.00561576
-0.0225656
0.000941498
0.00152768
0.0024974
-0.011227
-0.0056181
-0.000856929
-0.00061608
0.00116921
-0.00142623
-0.00779082
-0.00972326
-0.00716239
-0.00250542
0.00367021
-0.00250156
0.000461933
-0.00115399
-0.00345338
-0.000488895
0.000530577
0.00131957
0.000740042
0.00114434
-0.000432953
-8.85362e-05
9.44865e-06
-0.000107945
-0.00221011
-0.00251339
0.00146101
-0.0176734
0.000983708
0.0317606
0.006551
-0.00030811
-0.0015819
0.0131176
0.00236149
0.0017488
0.000622539
-0.00115899
-0.00325865
0.00237215
-0.00543014
-0.00264978
0.000699607
-0.007674
0.000349286
-0.00564757
0.000879763
4.07204e-05
0.00739171
-0.00407353
-0.00431362
0.0154456
-0.000112731
-0.0245701
-0.00254502
-0.00356387
0.00118
-0.00214567
-0.000603784
-0.0118371
0.00179087
-0.000526151
-0.00120737
-0.00334547
0.000326687
0.000241562
0.00194233
0.00156991
0.0110509
-0.00314039
0.000814063
0.00445294
-0.00628174
-0.000493427
-0.00223918
0.0121589
0.00205695
0.00617538
0.00251267
-0.00314117
-0.00174028
-0.0112296
-0.0176189
-0.00110668
-0.00197211
-0.00448512
0.000353725
0.00703167
0.00155578
0.00755676
-0.0130241
-0.000318582
0.00363787
0.00217139
0.00101106
0.00414729
0.000852741
-0.047626
-0.0386855
-0.0379973
-0.0054768
-0.00945305
0.00461938
-0.00237476
0.00257393
-0.00312985
-0.0111241
0.000898665
-0.0379111
-0.000545581
-0.0234362
0.00297739
0.000223181
-0.00240726
0.0324405
0.00764038
5.14942e-05
0.00159162
0.0183914
0.00372763
0.00408409
-0.0108171
-0.00563163
-0.00710313
0.00218998
0.00232306
0.000832838
0.000905043
0.010701
0.00156689
0.0113956
-0.0072129
-0.00246582
0.0265492
-0.0119057
0.00193025
-0.000507846
0.000684961
0.0210015
0.00184379
0.00148632
-7.77452e-06
0.000128916
-0.0187972
-0.0016176
-0.00282781
0.00163375
0.0176781
-0.00217852
-0.000435221
0.020006
0.00190346
0.00642631
-0.0269643
-0.00523601
0.000673128
0.000247131
0.00251198
-0.00110188
0.00265666
0.000592565
0.00188896
0.000755966
0.00267247
0.00190673
0.00216636
0.0122326
0.00282597
-0.00621267
0.00124793
-0.00333517
-0.00272423
0.016174
0.0234159
-0.0011363
0.0143107
-0.00909021
0.00642733
-0.00532985
0.00346682
-0.0291379
-0.011672
-0.00467766
-0.00194637
-0.00231526
-0.0598318
-0.00220861
0.00997019
0.00121636
-0.0106788
0.00271046
0.000742907
0.00178844
-0.0114857
0.00357479
-0.000778694
-0.0180732
-0.00309927
0.00248097
0.000713013
0.0149202
0.0138906
0.0360349
0.00391289
-0.00293386
-0.0213056
0.0232911
-0.0094772
0.034609
0.00737826
0.0120784
0.0144742
0.00478847
-0.00423572
0.0106175
0.0106888
0.00749715
0.00300565
0.0111014
0.0092779
0.00923126
0.0179245
0.0201992
-0.0561282
0.00829957
0.00690356
0.009575
0.00473403
0.0026594
0.024891
0.0332582
0.00366067
0.00339893
0.0326094
-0.00217556
0.0121674
-0.0589343
0.00860675
-0.107407
-0.000131192
0.0733981
0.00959366
0.00724217
0.0270307
-0.0171492
0.0271224
0.00961706
0.0152464
0.0131852
0.0446817
0.0091092
0.00170906
0.00319677
0.0268028
0.0114576
-0.0305709
0.0145204
-0.00213194
0.0117706
0.00842654
0.0613811
0.00496469
0.0662808
0.0115886
-0.0240025
-0.0247808
-0.0148134
-0.0257668
0.0067603
0.00231417
0.00253476
0.0276513
0.0247461
0.0489688
0.00286967
0.00333517
0.0033712
-0.00128733
0.00190049
0.00213225
0.00497982
0.00619928
-0.00393445
0.0195267
0.00488694
0.0324827
-0.00905444
0.0120361
-0.0170215
0.00654138
0.00439664
-0.0105787
6.24934e-05
-0.0253932
0.00136128
0.000986134
0.0133604
-0.00264963
0.0247749
-0.0100234
0.0416408
-0.000178918
0.011687
-0.0620648
-0.00260363
0.00218186
-0.0167579
0.00836303
0.00188076
0.0151991
0.0141147
0.00986786
0.00234259
0.00927923
0.00557118
0.00294112
0.00189748
0.0041417
0.00233301
0.00225393
0.000261772
-0.00681164
-0.00032799
0.00517155
0.00332951
-0.00398653
0.00172933
-0.00255577
0.00360791
0.0142048
0.00167947
0.00834065
0.0154695
0.018856
0.00617046
-0.0004037
0.000611427
0.0066209
-0.0362291
-0.0441025
0.00244478
0.00345181
0.00242037
0.0151002
0.0169763
-0.000868702
-0.00916904
-0.00028942
-0.00261261
0.00259969
0.00214106
0.0029671
0.00372516
0.00105914
-0.00765714
-0.0306193
0.00420255
0.0116182
-0.00780248
0.0199259
-0.0213148
-0.0131734
0.023529
0.000673674
-0.000714188
0.0280297
0.037382
-0.0151773
-0.00237313
0.00580834
0.0273521
-0.0228347
0.00958391
0.00240259
-0.00137963
0.0183393
0.0128633
0.00278796
0.00415585
-0.00754498
0.00527233
-0.00176571
0.00731012
-0.0160869
0.0068545
-0.00340704
-0.0129901
-0.0145631
-0.00548027
0.00497445
0.0120336
0.00240192
0.0021516
0.00200837
-0.0060885
-0.0105752
0.0251363
-0.00818267
-0.00573002
-0.0338839
-0.0681028
0.00106446
-0.010197
-0.0210885
0.00476567
0.00453738
0.00446043
0.00397172
0.00906976
-0.0374517
-0.00103968
-0.0197316
-0.00354849
0.00122515
0.00135379
-0.0126199
-0.031092
0.00257517
-0.00276291
0.0216782
-0.00447694
0.0121333
-0.000685488
-0.00290361
0.00258127
0.00623986
0.00556263
0.00289736
0.00745273
0.00446093
0.00152934
0.0019832
0.003178
0.00114696
0.00063636
0.00848337
0.000772643
-0.0499311
0.00547262
0.000465348
0.00774488
0.00137754
0.00283576
-0.00505026
-0.0056654
-0.00484929
-0.0109399
-0.00123642
0.00683836
0.00783973
-0.00129343
0.00065856
-0.0113216
0.00138073
-0.0447744
0.00237323
-0.00220105
0.00298006
-0.000957718
0.00215815
-0.0064825
-0.000637359
-0.00345274
-0.000706996
0.00745548
0.00229752
0.00296783
0.00152543
0.00355482
-0.00157814
0.00253894
-0.00146442
-0.0010306
-0.000345171
0.000145359
0.000542464
0.0024764
0.00259798
-0.000386415
-0.000416064
0.00102869
-6.37816e-05
-0.00136008
0.00211041
0.00160899
0.00400078
0.000165023
0.00226133
-0.00119511
7.0033e-05
0.00100815
-0.00197089
-0.0012228
0.00405775
0.00067949
0.00287446
0.00270698
0.000956163
0.00105273
-0.00681009
0.00104521
-0.00162508
-0.00127007
0.00350087
0.00566028
0.00066469
0.00098906
0.000419452
0.00329593
-0.00456985
0.00401456
-0.00167323
0.00265854
-0.00132246
-0.00168135
0.00411028
0.00264641
0.00205015
0.000863797
0.000230606
-0.000745861
-0.00118106
-0.000212338
-0.000108622
-0.00214948
0.000911552
-0.01111
0.000230388
-0.00066604
0.001013
-0.0139238
0.00122982
0.000128513
-7.18351e-05
-0.000138114
0.000502759
-0.0033812
-0.00750176
-0.000528228
-0.00279431
-0.0107143
-0.0249166
0.000746089
0.0329338
-0.000261914
-0.000302355
-0.000301705
-0.000385998
0.000594207
-5.9277e-05
0.0313846
0.00109379
-9.65984e-05
-6.91646e-05
0.00162899
0.0059009
-0.00109985
-0.000593429
-0.000713434
-4.51671e-05
0.000487228
-0.00145202
0.00456734
0.00203284
0.000141267
-1.3695e-05
-9.93269e-05
0.000572327
-0.00916804
-0.00356906
-0.0127135
0.00720893
0.000582195
-0.00620006
0.00051546
0.00113914
0.00621554
-0.000934252
0.00323744
-0.000271197
-0.000504542
0.00252925
-0.000860927
-0.000174028
-0.00303575
-0.000832721
0.00167056
0.000667464
0.000448706
0.000196947
0.00095
0.00039572
-0.00126687
-0.000920958
-0.00166577
-0.000575951
-6.38787e-05
0.000295784
-0.0350323
0.000584291
0.00149459
-0.000489658
-0.00044139
0.000629274
0.000485424
0.000378102
9.96646e-05
-0.000155793
-0.00481402
0.000600261
0.000613581
0.000201144
-0.000742005
0.0038073
0.000619848
0.00240522
0.000260766
0.000579068
0.000102619
-0.00303568
7.363e-05
-0.000695425
-0.00436791
-0.000362342
0.000542852
-0.0021693
0.000792981
0.00129793
-0.00130133
-2.85664e-05
0.000166914
0.000141131
0.000378159
5.29474e-05
-0.00147197
-0.000505918
0.000886422
0.000147335
0.000670729
0.000310533
0.000696321
0.00015511
0.000365216
-0.000316082
-0.00659317
-0.0016365
-0.0022005
-0.00329828
-0.000932002
-7.59019e-05
0.000464476
-0.00133455
0.00266585
-0.000945619
0.000256585
0.00132448
6.36224e-06
3.67115e-05
-0.00027371
-0.00048163
0.0026119
-0.00302462
-0.0037386
0.00084483
1.36488e-05
-0.000151408
-0.000202341
0.000184505
-0.000280601
0.00510267
-0.00401595
0.00645297
-0.00268008
-0.0181158
-0.00516261
3.94331e-05
4.87148e-05
0.00554931
6.73584e-05
-0.00380863
0.00121913
-0.000461433
-0.000436411
0.00286665
-0.000183174
-0.000114189
-0.0076938
-7.85783e-05
-0.000982676
-0.00140221
-0.00088997
-0.00454488
-0.00847022
-0.00367672
-0.0058301
-0.00172245
-0.00044631
-0.000668238
-0.00029131
-6.53595e-05
-0.000363908
0.00146749
-0.000825518
-0.000506347
5.56726e-05
-0.000770436
-0.000387101
0.000501907
-0.0017698
-0.000534018
-0.000438913
0.000266764
-0.000404391
-0.000644974
-0.00104781
-0.00151512
0.000444178
-0.000677438
-0.000104095
-0.000426305
-0.00247094
-0.00364868
-0.000944238
-0.000900626
0.00074558
-0.000290011
-0.00149656
-0.000297277
0.000444234
0.000241804
-0.000443021
-0.000341131
-0.000641358
0.00010445
8.30428e-05
0.00014194
-0.000144525
0.000179497
-0.000231561
-0.000341448
-0.0009025
-0.000336193
0.000379635
-2.32184e-05
-0.00049537
-0.000272837
-0.00035582
-1.65738e-05
-0.00040169
3.49222e-05
-0.000426667
-0.000197934
-5.53305e-05
0.000375664
-0.000983828
0.00104763
-0.000791384
-0.00160482
-0.00185656
-0.00172079
-0.000171541
-0.000263641
-0.000275193
-0.000681411
2.42566e-05
-0.00174939
-0.000668761
-0.000297833
0.00047794
0.000299518
0.0002767
0.000213281
-0.000179657
-0.000709524
9.1577e-05
-0.000239966
0.00152104
0.00106454
6.6278e-06
0.000533403
-0.000342831
-0.000279147
0.000290942
-0.000679649
-0.00011741
-0.000429467
0.00298456
0.000256029
0.000269623
0.000568924
-0.000697525
-0.000340478
-0.000518213
0.0024063
-1.33829e-05
0.000248708
0.000217063
-0.000131138
-0.000376651
-0.000563343
0.00244774
0.00131927
0.00012493
0.000267657
-0.000112796
0.00020794
-0.00329733
0.000559715
-0.000756029
0.00312152
-0.000119629
-0.000225907
0.000310832
4.7099e-05
-0.000456816
-0.000219299
0.000171344
-0.000763808
0.00108324
-0.00145041
0.000332685
9.50563e-05
0.000421109
-0.00142529
-0.000116181
9.34696e-05
0.00012762
8.52828e-05
0.000538971
0.00115415
-0.00031778
5.86935e-05
-0.00012098
0.0018117
-0.00108062
-0.000252475
-0.00023599
0.000126207
0.000111902
0.000902976
7.08295e-05
-0.00131212
0.000151072
0.000602462
0.000252652
0.000150076
0.00204927
1.91452e-05
-0.000393592
9.61514e-05
0.000216814
-7.65908e-05
0.000171174
0.00200149
0.000229328
0.000991362
1.58126e-05
0.000367062
-0.00041908
0.00124806
0.000205908
-0.000178697
0.000669915
-2.92462e-05
0.000331431
0.000403834
-0.000212112
0.000275605
0.00015551
0.000591822
-0.000166548
3.32801e-05
0.000516067
0.00116163
-0.000358147
-0.000673819
-0.000353351
0.000135303
0.00160709
0.00130665
0.00686155
-0.000242715
-7.44302e-05
0.00774166
-0.000737739
-0.000106412
-0.000482438
-0.000416573
-0.000185534
-0.000288787
0.000127108
-0.000128939
-0.000512414
5.12469e-05
0.00366452
-0.000197207
2.37987e-06
7.52046e-05
-0.000304875
3.90724e-05
0.00258912
0.00338083
0.000763562
-9.99795e-05
0.0131067
0.000346268
0.000123377
0.000808051
-0.000216239
4.21234e-05
1.73636e-05
-0.00106145
-8.33599e-05
-0.000286516
7.9246e-05
-0.00031039
0.00272265
0.00301555
0.00088431
0.000226006
0.00643629
0.000476717
-0.000118298
0.000224467
-0.000147562
0.00260893
-0.000273789
0.00286708
0.00251565
-0.000165423
-6.26949e-05
0.00133181
1.88968e-05
0.00195128
0.00069482
-3.21852e-05
-5.32192e-05
-0.000761868
0.00372796
-0.000330098
0.000932912
-2.33452e-05
-0.000133873
0.000134718
0.00631019
-0.000120475
0.000644623
0.00295646
-0.000108091
-0.000171909
0.000871207
-0.000363325
-7.74437e-06
-6.45806e-05
-0.000187947
-7.47531e-05
0.00401459
-8.54803e-06
0.000293132
-0.000215002
-4.10698e-05
-1.17089e-07
0.00521794
-0.000194189
-1.82583e-05
6.79115e-06
-0.00017604
2.15773e-05
0.00339036
-0.000364427
-0.000420048
-0.000268821
-5.60172e-05
-2.18872e-05
0.00240237
-0.000201938
0.00033501
0.000441157
0.00033762
7.26066e-05
0.00191757
-0.00051258
1.05085e-05
1.41479e-05
-0.000199231
-8.24728e-05
0.000141424
0.000562761
0.000335598
-0.000156137
-7.75886e-05
-0.000122246
-0.000142742
0.00180227
-4.13989e-06
-0.000180148
-0.00154796
0.00497734
-0.000340246
0.00288636
0.00127017
-0.000164944
-0.000135404
-0.000213697
-0.000160811
-0.00165371
-0.000299371
0.000159852
2.93494e-05
-0.000218987
0.00193917
-2.05346e-05
0.000367171
0.000567858
6.5768e-05
0.00036016
-0.000278809
0.000450774
-0.000403074
-0.000153851
0.000173742
0.0025864
0.000289085
0.00031269
0.000689442
-1.75015e-05
0.000436069
0.000566423
-0.000195846
-5.885e-06
0.000268208
0.000184637
-0.00176476
0.000329925
0.000399759
0.000150489
5.60602e-05
0.000185269
0.00579049
0.000311802
0.000937562
-0.000386819
-0.000232072
0.0013917
0.00169394
0.000661614
-0.000421325
-0.000291529
0.00411027
0.00218061
5.94227e-05
-0.000296758
-0.000169276
0.000161037
-0.000287911
-0.00170749
-0.000490709
2.98666e-05
-0.000286158
-0.00019744
0.00212513
0.000149479
0.000145283
-0.000106433
8.41646e-05
-0.000509801
-0.00161919
-0.000501386
-0.000134955
-0.000484383
-0.000154486
0.00260738
0.000309025
0.000847231
7.91587e-05
0.000460787
0.000426745
8.15281e-06
0.00111054
0.00017739
0.00172508
2.50269e-05
-0.000402573
-0.00049981
0.000169565
0.000182198
-2.37411e-05
-0.000745956
-0.000184764
-0.00037381
-0.000332201
-0.000113599
-0.000696548
0.001831
0.000803882
0.00221954
-0.000109948
0.0119326
-0.000218092
-0.000569442
-0.000246479
-0.000233659
-7.20944e-05
0.00101683
0.00141532
0.000500682
-0.000626489
0.000611418
0.000397804
6.52018e-05
0.00542113
-0.000158463
0.00021622
0.00043885
0.00016912
0.000104903
-0.000230051
0.00270045
-0.0010235
-0.016744
0.0050591
0.00162913
-9.74944e-05
0.0108215
-2.77869e-05
0.00193563
-0.00015612
-3.59573e-05
-0.000112298
-0.000118103
0.000175223
-8.35845e-05
0.000653978
0.000203847
0.000357124
-7.44082e-05
-4.12983e-05
0.00357538
-3.22891e-05
0.00240875
0.000137222
0.000335632
-1.70054e-05
-0.00021407
0.00148892
-0.000113579
0.00109304
0.000213894
0.000261259
-8.45227e-05
1.59349e-05
0.003867
4.76705e-05
0.000662438
0.000135794
-0.000342986
0.00230549
-5.93001e-05
0.000516369
9.27768e-05
0.000257153
-8.30328e-05
0.00153294
-0.000161172
0.000765344
-0.000142483
0.000632819
-9.58948e-05
-7.24573e-05
0.0018364
-6.75463e-05
0.000581325
-2.63718e-05
0.000730262
-0.000119492
-5.4921e-05
0.0039962
-0.000200858
0.00150386
0.000571402
0.000174544
-8.36836e-05
9.60732e-05
0.00201587
0.000182731
0.000192028
-0.000266428
0.000718259
0.000200802
0.000177562
0.00306643
-9.99205e-05
0.000329351
0.000134222
0.000311457
-0.000111453
-0.000506376
0.00591153
0.000644699
3.74307e-05
0.000337128
4.98364e-05
1.65435e-05
0.00187632
3.26443e-05
0.000172824
0.000284335
0.000788197
-0.000132502
0.00195149
0.000315655
0.00037405
-5.81692e-05
0.00122067
0.000200537
0.0027341
-0.000888991
-9.52979e-05
-0.000656319
-0.000165242
-4.76825e-05
-0.00023655
-0.000400017
-0.000573778
0.000139306
-8.7922e-05
-0.000225726
-0.00536191
-0.000839879
-0.00290763
-0.000776678
-0.000969902
0.000551202
0.00539176
6.01001e-05
-0.00230375
-0.00327617
-0.0064466
-0.000876939
-0.00410361
-0.000688114
-0.000861519
1.79017e-05
0.000504401
-0.000212854
-0.000272189
0.00355317
-0.00173354
-4.15166e-05
-0.000652253
-0.00010534
-0.000126231
0.00177081
0.00592977
0.000302993
-0.000658006
-0.000202581
-0.00826019
0.0010091
0.000304947
0.00087054
2.68669e-05
0.000511838
-2.50387e-05
0.000310639
-0.000336435
0.000348181
-3.43477e-05
0.00130525
-0.00032264
0.000302183
7.48617e-05
6.7184e-05
0.000307849
-5.1108e-05
0.000169454
-0.00134681
0.000361669
-4.89086e-05
-0.000128742
-0.000840102
5.90324e-05
-0.000388976
-0.000119753
8.54314e-05
0.00233014
0.00402127
0.00232016
-0.000415107
-0.00050985
0.0008516
-0.00121446
0.00251939
-0.0013965
-0.00052785
-0.000176969
-0.000767774
0.0106641
-0.0015598
-9.06074e-05
-0.000602314
-0.000127056
-4.5352e-05
0.000968235
0.000240968
0.000336902
-0.000160866
-0.000419013
0.00156121
-0.00279085
-0.000144679
-0.000593448
-0.000164887
-0.00020385
-0.00122379
0.000111632
-0.000312462
-3.72385e-05
-0.000125432
0.0053783
-0.00306735
-0.000197078
-0.00103593
-0.000217224
-0.000247621
-0.000417888
-5.48138e-06
-0.000195434
0.000273636
-6.93659e-05
0.00386669
-0.000602225
-7.18505e-05
-0.00116364
-0.000309196
-3.52341e-05
-0.000793523
0.00112505
0.000187853
-0.00026549
7.58234e-05
0.00820514
0.00114271
0.000362441
0.000644771
7.90703e-05
0.000509695
0.00019401
-0.000327506
-0.00100734
0.00041444
9.43996e-05
-0.00157509
0.000227747
0.000561186
0.00137704
0.000311646
0.000522755
0.000239596
0.000802438
-0.000239605
0.00034716
-0.000131686
-0.00178717
0.00230638
0.000807396
0.00199245
0.000391784
0.00102931
0.000525218
-0.0129112
-6.51014e-05
0.00195475
-8.14299e-05
0.00778918
-7.72466e-05
0.000518679
0.000257975
0.000839963
0.000292054
0.000865564
0.000112623
-0.00212872
-0.000156622
0.000299714
-0.000247746
0.000321505
0.00038299
0.000249345
0.00100309
-0.000101461
6.04224e-05
-0.000558407
-0.00270162
0.000139191
0.000916121
0.000211394
0.00829498
-0.000320958
0.000341967
0.000702368
0.000178797
0.000147022
-0.000950927
-0.0518068
0.00031244
0.000675834
3.80434e-05
0.00367083
0.00062453
0.00107946
-0.000160227
0.000679514
-3.40442e-06
0.0146792
-0.000897092
2.71965e-05
-0.000105294
-0.00020828
-0.000223665
-0.000896257
0.000821866
0.000616034
0.000503906
-9.54642e-05
-0.0108847
-1.34152e-05
0.000833208
0.000157816
0.000701192
7.73057e-05
-0.000148563
0.00828549
3.38519e-05
0.000737052
0.000812176
0.000522386
0.000213142
0.000174838
0.00103192
3.72288e-05
0.000431925
0.000557986
0.000429941
4.12573e-05
-0.000771707
0.0124185
-0.00055368
-0.0330682
-0.00571468
0.000989359
1.95922e-06
0.0118096
-0.000420335
-0.000718975
-0.000405117
-0.0023774
-0.000971779
-0.0583318
-0.00095716
-0.00538135
-0.00175243
-9.7344e-05
-7.65575e-05
-0.0260981
-0.00320128
-0.00165716
-0.00125541
-0.000451004
-0.000678375
-0.0226515
-0.000788529
-0.00257649
-0.00143299
-0.000770145
-2.8606e-05
-0.000306212
-0.0277881
0.00130278
0.000430256
-7.44601e-05
-7.45559e-05
0.000791083
-8.7914e-05
-0.00220599
-0.00151813
-0.0004492
0.00114386
-0.0260851
-0.00155303
-0.00314773
-0.0004125
0.000973371
0.000488466
-0.0210002
-0.00037473
-0.00167858
-0.000484044
-5.2879e-05
8.97616e-05
0.000159239
-0.0331428
0.000877896
-0.00010979
2.62093e-05
-1.80575e-05
0.0008019
0.00511442
0.000290351
-0.00193445
-0.00101758
-0.000522606
-0.000463161
-0.00366811
0.00100669
0.00130899
0.000509276
-0.00408731
-0.000432046
-0.000470001
0.00084517
0.00103354
-0.000550586
0.000812105
-0.00901962
0.000689673
0.000956471
0.000165143
-0.00651117
0.000206808
-0.000638063
5.79811e-05
0.000305748
-0.000412742
0.000206594
-0.00398286
0.00126455
-0.00057102
0.000357559
-0.000182837
0.00267099
0.000643051
-0.00200351
-0.000355806
4.85625e-05
-0.000566343
0.000288325
-0.00203528
-0.0012553
-0.000211443
0.00169875
0.000320357
-0.00415038
-8.73505e-05
-0.000919463
0.000489623
0.000424024
-0.000741275
0.000303944
-0.0264827
-0.00222208
0.000352881
0.00144617
-0.000105611
-0.000405825
0.000347014
-0.00163957
-0.000170289
0.000259424
-0.00107681
0.000295046
-0.030476
0.000851164
0.000487807
0.000550226
0.000656972
-0.00175372
0.000195891
0.000947632
0.000648267
0.000669978
-0.000602048
0.000457643
-0.00362103
0.00668168
-0.000737601
0.0008838
-0.000269681
-0.00276174
0.000373636
0.000400417
0.000408584
0.000551571
-0.000705109
-4.70906e-05
0.020213
0.00108628
-7.40614e-05
9.12124e-05
-0.000573477
-0.00326326
-0.00054872
-0.000301172
0.000202192
0.000218404
-0.000721869
-0.000123832
-0.00607905
-3.96641e-05
-9.96191e-05
0.000809331
0.000187054
-0.00132538
0.000677338
6.41186e-06
0.000201047
0.000355632
-0.000850402
0.00048956
-0.00866352
-0.0211446
-0.00020019
-0.0010271
-0.0012472
-0.000515491
-0.00327189
-0.000100557
-0.00123159
-0.000413913
-0.000376009
-0.000737637
-0.000403677
-0.0040826
-0.0157978
0.000296193
0.000661245
-0.000320998
-0.000162285
-0.000256657
-0.000646795
-0.000335654
0.000485868
0.000346891
-0.0010012
0.000663055
0.000781502
-0.000695065
-9.3591e-06
0.000524171
1.3916e-05
-0.000841667
0.000202589
0.000387223
0.000216138
0.000228243
-0.000515142
0.000337569
0.000234964
0.000302232
-0.000257092
0.0010543
-0.000186206
0.00206057
0.000779398
0.000272348
0.000261867
1.15209e-05
-0.00117806
-0.000383426
0.0172847
0.000326108
0.000104747
0.00105585
0.000353162
-0.000566784
-0.000293376
0.000326582
0.000430553
0.000411224
-0.000542103
0.000525497
-0.000750336
0.00338317
0.00188181
0.000146258
0.00114616
0.000139035
-0.000915257
0.000443027
0.00162477
0.000178048
-4.15833e-05
-0.000916884
3.93306e-05
0.00209224
-0.0124095
-0.000191607
-0.000213909
-0.00176276
-0.000423003
-0.000194057
0.000111073
0.000140982
-0.000609663
-0.0130101
0.000314819
0
0.00204067
0.00315078
0.00229091
-5.88113e-05
-0.00300299
0.000113772
0.00165414
0.000963755
0.00118593
-0.00174024
-0.000220877
0.000940208
-0.00206125
0.000899288
0.00241152
-0.00271114
0.00432612
0.000478569
0.00256612
-2.90186e-05
0.000523892
0.00119083
-0.00186953
-0.000253895
0.00080087
0.00120086
-0.00161037
-0.00103705
0.0013059
-0.00158446
0.00057715
0.00153965
0.00115305
0.00141635
0.00145372
0.00162858
0.000769556
-0.000947463
0.00253225
0.000106356
-0.00495934
-0.0028288
-0.00297383
-0.00210278
-0.00346794
-0.00249704
-0.00322624
-0.00482744
-0.000919925
-0.000540089
0.000546881
0.0015285
0.00113424
-0.00126761
0.00101102
-0.000198957
-0.000471395
-0.00083437
-0.00114827
-0.00257975
0.00121388
-0.00185493
-0.000518664
4.54294e-05
0.00260442
-0.000801999
-0.00519186
-0.00670286
-0.00606863
-0.00111374
-0.00559199
0.000540421
-0.00111677
-0.0042169
-0.00254638
-0.00637982
0.000758183
0.00154581
0.000512126
-0.000921548
-0.000309333
0.000818624
-0.00319645
-0.000341791
-0.00271347
-0.000968483
0.00243777
-0.000797283
-0.00168213
-0.000226207
-0.000285788
-0.00316478
4.72532e-05
-0.000170213
-0.000906749
-0.00256968
-0.00151465
-0.00061976
0.00156504
-0.00353493
0.000619311
-0.00120992
-4.97273e-05
-0.00488145
-0.000825399
-0.00376558
-0.00692667
0.00245376
0.00220078
-0.000211647
-0.00196214
-0.00205686
-0.000505694
0.00039919
-0.00159517
0.00215928
-0.00244461
0.00146798
-0.00105886
-0.011931
-0.000711408
0.00203277
-0.00415534
-0.00169466
-0.000380032
0.00299806
0.02325
0.00260719
0.000354589
-0.0116715
-0.00232519
0.00143808
0.0182874
0.00144902
-0.00371315
0.00232197
-0.00399429
0.00699393
0.0213433
0.00491755
0.00686921
-0.00609736
0.0213239
-0.00346368
-0.00418235
-0.000466926
0.00100812
-0.00146155
-0.0045566
-0.0015237
0.0326672
0.000244236
-0.00411166
0.00914979
0.0372138
0.00174348
0.00284838
0.000298061
0.00252647
2.25928e-05
-0.00143739
0.00402378
-0.00308178
0.00278357
-0.000219545
0.0070457
0.00266079
0.00161592
0.012633
-0.00471849
0.0133195
-0.014426
-0.000898124
-0.00477585
-0.00140339
0.000305534
0.00611262
0.00931709
-0.00283487
0.000171807
0.0326425
0.00126589
0.0593489
0.00991345
-0.00132388
0.0217029
0.00297966
0.00333913
-0.0120455
0.00614453
-0.000132317
0.00448344
0.00042395
0.00401072
0.00576024
0.00302006
0.00898616
-0.0117345
0.00251181
-0.055799
-0.0437878
0.00716585
0.0100663
0.00280531
-0.00906085
0.0127835
-0.0477047
-0.012043
-0.0205701
-0.00205758
0.0116405
-0.00537137
-0.00229829
0.00141057
-0.00294035
-0.00321103
-0.00234291
-0.00774765
-0.017494
-0.0196582
-0.00125745
-0.00167506
-0.0105655
-0.00557065
0.00440404
-0.010536
-0.00669018
-0.0132981
0.000935887
0.000123023
0.000575097
-0.00236131
-0.0101272
-0.00956074
-0.00567996
-0.000155161
0.00256921
-0.00414657
-0.00752394
0.0062905
0.00205397
-0.0111791
-0.00917557
0.00467496
-0.00261896
0.000349659
-0.0284138
-0.00396037
-0.000473742
0.00034252
-0.0065149
-0.0122047
-0.000698301
-0.00366732
-0.00895882
-0.000948642
0.000802242
-0.0050195
-0.00160949
-0.00751148
0.0144747
-0.00171321
-0.00315464
0.00763137
0.00841075
0.00580404
-0.0324558
0.000820136
-0.00902639
-0.0294058
-0.009705
-0.00344459
-0.00157035
-0.0107628
-0.00455822
0.00785117
-0.00941183
0.00411999
-0.00438897
-0.007382
-0.0115523
0.00347716
-0.000333211
0.00562176
-0.027257
-0.0206402
-0.010919
-0.000181968
0.00339672
0.00236322
0.00611496
-0.00441998
-0.0154197
0.0014789
0.000739562
0.0105863
-0.0136018
0.0084043
-0.00366022
-0.00559277
0.00200022
-0.00153392
-0.0160351
-0.0212886
-0.0156712
-0.00202524
0.00258051
-0.00322453
-0.000620643
-0.00237633
-0.0171035
-0.00212961
-0.00271707
-0.00111357
0.00102167
0.000942103
4.85382e-05
0.000310853
-0.000651303
0.00185164
-0.00268135
-0.00264339
0.00171571
-0.0108968
0.000696193
0.0258808
-0.00166369
-0.00112065
-0.00178282
0.0107418
-0.00283585
0.00315789
0.00143445
-0.00211715
-0.00231362
-0.000603808
-0.00733359
0.00795446
-0.00126265
-0.0166246
-0.00166448
-0.00605323
0.00205043
-0.00127652
0.011478
-0.00445053
0.00418328
0.0157605
-0.00128264
-0.0196043
-0.00478292
-0.00485288
0.00153391
-0.00274924
-0.000619964
-0.00505647
-0.00289983
-0.00242208
0.00279278
-0.00772639
-0.00375796
0.00480791
0.00658439
0.000717223
0.00947507
-0.00478273
-0.00333577
0.00404961
-0.00453608
-0.00299924
-0.00348908
0.00844998
0.00120367
0.010137
0.00347597
-0.0065783
-0.0034151
-0.0114786
-0.0209706
-0.00188863
0.00146345
-0.00292215
0.00132617
0.00869196
0.0019627
-0.00298848
-0.0184481
-0.00265391
0.00266542
0.00271071
0.000809017
0.00426085
-0.00300499
-0.0337035
-0.0551288
-0.0525542
-0.00789811
-0.0138227
0.0162425
-0.00142714
0.00337775
-0.00733734
-0.00792497
-0.00167395
-0.0647465
-0.00675208
-0.0119006
0.00376058
-0.000767936
-0.00555153
0.0333952
0.00508937
-0.00499812
0.00134264
0.016302
0.00353463
0.00272758
-0.0156383
-0.0050754
-0.00435222
1.54841e-05
0.00144497
-4.24472e-06
0.000277586
0.0118159
0.00499057
0.0107875
-0.0059368
-0.00449672
0.0177631
-0.0170885
0.00206016
-6.96869e-05
-0.000349236
0.015541
-0.00161732
0.00167784
-0.000435633
-0.0030097
-0.0311111
-0.0118216
-0.00447004
0.00174035
0.0191404
-0.00669752
-0.00188683
0.0339388
0.00314375
0.00192806
0.0115273
-0.0053453
0.000810197
-0.000761406
0.002969
-0.00214645
0.00239206
0.000305966
0.0020804
0.00184199
0.00235262
0.00399347
0.00188444
0.0206724
0.00267879
-0.00879963
0.000994655
-0.0128706
-2.49027e-05
0.0349171
0.0116895
-0.00213015
0.0243902
-0.00613819
0.00741651
-0.00567603
0.00991979
-0.0195191
-0.0147788
-0.00539306
-0.00990344
-0.00573282
-0.0559423
-0.00402438
0.0185548
0.000255018
-0.0121436
0.002499
0.000162033
0.00175977
-0.00587311
0.00729151
-0.00165972
-0.0167233
-0.00264858
0.00172521
0.000324495
0.0067889
-0.00298965
0.0261552
0.00420798
0.00723251
-0.00124964
0.0176343
0.00683254
0.0168181
0.00396045
0.0132358
0.00742451
-0.000629083
-0.0168306
-0.00468336
-0.00182046
-0.00135591
-0.00594822
0.00518671
0.000552035
0.00211572
0.00286768
0.0265508
-0.0297701
0.00313896
-0.000390447
-0.000274797
-0.00490711
-0.00451385
0.00149152
0.0708807
-0.000491062
0.000655973
0.0266733
0.00405702
0.00697846
-0.0519538
0.00924814
-0.0302336
-0.00130806
0.0707463
0.00245887
0.0035533
0.00156729
-0.00983344
0.00906513
-0.009007
0.00643087
0.000793432
0.0219732
0.0168001
0.00357769
-0.00829745
-0.00378403
0.0236928
-0.0121935
-0.00203988
0.0198857
-0.00631475
0.00430988
0.0343102
0.00927374
0.0325746
-0.0179137
-0.00146368
-0.0273328
-0.0182237
-0.0303672
-0.00544245
-0.00838226
-0.00431686
0.00497614
0.00667685
0.0339062
-6.11122e-05
-0.000651339
-0.00313182
-0.00110464
-0.00714108
0.0088844
-0.012534
-0.000158788
0.0443331
0.00533202
-0.00889869
0.0160219
-0.00970617
0.0161874
-0.00515578
-0.00547276
-0.00156656
-0.00228986
-0.00283642
-0.028245
-0.00125699
-0.00198538
0.0106432
-0.00670697
0.0191005
-0.0118178
0.0293533
-0.00393689
0.011804
-0.0117599
0.00842853
-0.00196306
-0.00826191
2.89058e-05
-0.00447079
-0.00118081
0.00830259
0.00547701
-0.00825351
0.00758411
-0.000243085
-0.00279777
-0.000312461
0.000959459
-0.00112231
-0.00713491
0.00376609
-0.00645307
0.00159303
-0.00308645
-0.00236037
-0.0124015
0.0205779
0.0283354
-0.00770589
0.00546143
-0.00321995
0.0159278
0.00269541
0.0133838
0.00139895
-0.00542368
0.000545271
0.0500747
-0.0378585
-0.0358531
-0.000361217
0.00184744
-0.00643088
-0.000885191
0.0170058
-0.00493961
-0.00734451
-0.0121246
0.0038853
-0.000637336
-0.000842092
0.000194042
0.00121161
-0.00383765
-0.0105894
-0.0410274
0.00152606
0.0197252
-0.00522745
0.0177327
-0.00857063
0.0132423
0.0174243
0.0122192
-0.00175996
0.0270021
0.0308761
-0.00149912
-0.00109608
0.00908044
0.0290978
-0.0123951
0.00674969
0.00739668
-0.00216944
0.0281695
0.0135806
-0.00472229
0.00145916
-0.00900547
-0.00220501
0.000362916
0.0241911
-0.00313715
0.00376411
0.00202152
-0.0106074
-0.0143661
-0.00273563
0.00326264
0.0122703
0.00015375
0.0020209
0.00221651
0.00112479
-0.00778941
0.0316904
-0.00260535
-0.00211416
-0.0246536
-0.0467125
5.34541e-05
0.00839808
0.00275705
0.00370664
0.00372588
0.00276881
0.000947572
0.0036644
-0.0146459
-0.00191459
-0.00667683
-0.000506623
0.00022419
-5.5246e-05
-0.0112745
-0.0294881
0.00441104
0.000139131
0.022419
0.0169333
0.0119171
-0.00497416
-0.00252566
0.000363859
0.00442812
0.00176781
0.00191792
0.00638214
0.00154692
-0.00430932
0.00103735
-0.00175854
-0.00105466
-0.00200141
0.00594093
-0.00257969
-0.0198812
0.00530969
-0.000582105
0.000906541
-0.00250736
0.00205343
-0.0111172
-0.0248603
-0.00502615
-0.0131219
-0.0101008
0.0061985
0.00173479
-0.00245846
0.000785608
-0.00310971
0.000437908
-0.0297929
0.000889872
0.00240452
0.00456501
-0.000404295
0.00309714
-0.00721579
-0.000400221
-0.00308647
-0.00105625
0.00770836
-0.0018492
0.00338645
0.00162098
-0.000447119
-0.00422304
0.00196919
-0.00425275
-0.00455193
-0.00301005
-8.39039e-05
-0.00172001
0.00175915
0.00268684
0.00448733
-0.00222661
-0.000838306
-0.000911521
-0.00345354
-0.000518652
-0.00111826
0.00293357
-0.00302545
-0.00129891
-0.003106
-0.00455476
-0.00027356
-0.00394924
-0.000187409
0.00345587
-0.00105164
0.00414046
0.00360586
-0.00305095
-0.00159352
-0.0127167
-0.000565651
-0.00471803
-0.00244396
0.00124452
0.00350719
-0.00196525
-0.00278625
-0.000803801
0.00449326
-0.00371942
0.004687
-0.00352026
0.00174086
-0.00637968
-0.00313535
0.0016232
-0.000846789
0.001513
-0.000737854
0.000404159
-0.0018889
0.00098031
-0.000826649
-0.000630276
0.00511307
0.00108359
-0.021455
0.0137496
-0.00196116
-0.000763559
-0.0179795
0.000399353
-0.000101075
4.58237e-05
-0.000216808
0.00018696
-0.00442045
0.0081719
0.0199875
0.00101536
0.00844441
-0.0130405
0.00147125
0.0497779
-6.39781e-05
0.0162393
-0.00255918
-0.000697307
0.000675508
0.00040768
0.0505867
0.00275284
-0.000552217
-0.000769809
0.00470957
0.0115673
0.000517914
-0.00141923
0.00714859
0.000370178
0.000169033
-0.00221979
0.00979714
0.00112956
9.8877e-05
0.000829465
-0.000103231
0.000421187
0.0151936
-0.0017632
-0.00428477
0.0155293
0.0010772
-0.00822508
0.001133
0.00069161
-0.0062376
-0.000162316
0.0138271
-0.00173933
-0.00155288
0.00319457
-0.00186452
-0.000941472
0.0221639
0.000418341
8.19554e-05
0.000392939
1.21325e-05
4.91472e-05
0.000287692
-5.37692e-05
-0.00100743
-0.000925282
-0.00192269
-0.000653411
-0.000138342
0.000507329
-0.00609956
0.000726308
0.00100599
-0.000418105
-0.000407157
0.00133947
-0.000104093
-0.000150712
0.000365862
-6.89654e-05
-0.00657676
0.00317357
0.000566541
0.000274228
-0.000648859
0.00301538
0.00044344
0.0032758
0.0001147
0.000402086
-0.000477689
-0.000862144
0.00179232
0.000302569
-0.00524873
-0.000363511
0.000958277
-0.00396152
0.000527629
0.00181284
-0.00210351
0.000200476
0.000611589
-0.000138499
8.88668e-05
0.000481538
-0.00205273
0.00284775
0.00133439
0.00106171
-0.000611164
2.42518e-05
0.000418609
6.11128e-05
-2.49338e-05
0.00855807
-0.00518103
0.00328299
0.00374764
-0.00500124
-0.000401274
-6.36524e-05
0.00113886
-0.00255842
0.00201429
-0.00257122
0.012723
0.00335951
-0.000565424
-0.000625844
-0.001014
-0.000805959
0.0105898
-0.00339208
-0.00236601
-0.00104232
-0.000288484
-0.000754727
-0.000322234
-0.00026804
-0.00183687
0.0292283
-0.00373084
0.0130851
0.00124286
-0.022244
-0.00323064
-0.000430861
-0.000585665
0.0205746
-0.00125541
-0.00350486
0.000138113
-0.00113592
0.00163266
0.0109979
-0.000889856
-0.000752482
-0.00393898
0.000543219
-0.00119714
-0.00216474
0.00491547
-0.00337937
-0.00711957
-0.00170167
-0.00328705
0.00794535
-0.000564986
-0.000354477
-0.000753789
0.00121986
-0.000821281
0.0029865
-0.000817603
-7.47443e-05
0.000180935
-0.00558074
-0.00130715
-0.0482838
-0.00563166
-0.00622535
-0.00575987
-0.00445434
-0.00136581
-0.00041232
-0.0158911
-0.00286477
-0.00290007
-0.00635218
-0.00277184
-0.000750943
-0.0398908
-0.00861071
-0.00644287
-0.0042724
-0.00119727
0.000133575
-0.0162188
0.000733952
-0.00202532
-0.00156745
-0.00356121
-0.000375339
0.00101982
-0.0128944
0.002971
-0.00216537
-0.00223157
-0.00154577
-0.000269486
0.000472514
-0.0127
0.0017473
-0.00155078
-0.00244221
-0.00339401
-0.000226537
0.000768252
-0.0105254
-0.000269685
-0.000189777
-0.00128289
-0.000667005
0.000167443
0.000637811
-0.00251419
0.0073309
-0.00333098
-0.00685868
-0.00925984
-0.0113582
0.00043688
0.000246773
-0.000837933
-0.000404901
0.000676501
-0.00601993
-0.0026317
0.000169441
-0.000113968
0.000851125
0.0015091
0.00199397
-0.00157221
-0.00114859
0.00118321
-0.0138869
-0.00803292
0.000260476
0.000835783
0.00163401
9.5866e-05
-0.001663
0.000319107
-0.00220881
-9.25623e-05
0.000406916
-0.00494043
0.00298704
-0.00045133
-0.000384506
-0.00195108
-0.000137954
0.000501209
-0.00355862
0.00166531
-0.000332431
-0.00108856
-0.00120585
-0.000294766
-4.55744e-05
-0.000201062
0.00228883
0.000200202
0.00064695
-8.36046e-05
0.000702083
-0.00235182
-0.000739524
-0.00359005
0.00495776
0.000554148
-0.0234975
0.00172158
0.000232924
0.000255644
-0.000159565
0.000828849
0.000341298
0.000539166
-0.00226184
0.00133838
0.000591439
-0.00156287
-0.00461092
-0.00228129
-0.00120433
0.000343537
0.000522457
-0.00968352
0.000487655
-0.00174664
3.68112e-05
1.02972e-05
-0.00381617
-0.00342223
-0.00272891
-0.00221722
0.00024805
0.000402234
-0.0106566
-0.000226645
-0.00375448
-0.0013341
-0.000386077
0.000649074
0.000743181
-0.0102186
-0.00151122
-0.00229094
-0.000651948
0.000774683
0.000500443
-0.00810965
0.0021184
-1.52873e-05
0.000881178
-0.00032704
0.000141213
-0.000993204
-0.00166284
-0.000742587
0.000222135
-0.010065
6.20914e-05
0.000359691
0.000294223
-0.000288995
0.000411301
0.000844024
0.000485995
-0.00209446
0.000124476
0.000962688
-0.00254384
-0.000875778
-0.00305763
-0.00040684
0.000361261
-0.00231978
-0.00577713
-0.000750211
2.56863e-05
0.000202202
-0.00080535
-0.00136086
-0.000227381
-0.00102322
-0.000585139
-0.000146186
0.000157738
-0.000519784
-0.00176854
-0.000822718
4.58931e-05
0.00102724
-0.00163352
-0.000283244
-0.00108891
-0.000493318
4.75361e-06
0.00216778
0.00416762
0.00128359
6.55281e-05
0.000911065
-0.000232074
0.000145568
0.000644119
-0.000241365
0.000146996
0.000504657
-0.00187498
-0.00101275
-0.000146354
0.000315087
-0.00646166
0.00297949
0.00201205
0.00193355
0.000558333
0.00899132
0.000633426
-0.000814167
0.000768788
-1.13951e-06
0.000393
-0.000217252
0.00431236
0.00308573
-0.000370587
-4.1564e-05
-0.00770765
0.000222637
0.00237287
-5.82495e-05
-0.00013437
-6.83741e-05
-0.000870705
-0.00225242
-0.000269672
0.00105945
-0.000319644
-0.000164953
0.000273343
0.00680317
4.88137e-05
0.000826095
0.00305108
-7.6267e-05
-0.000129294
-0.00433472
-0.000510469
1.79346e-05
-0.000943155
-0.000339796
-0.000202247
0.00428515
6.43127e-05
0.000563814
-0.000746768
-5.88259e-05
-4.94765e-05
0.00679445
7.86719e-06
-0.000196496
-0.0010632
-0.000297178
-4.55039e-05
0.000634812
-0.000437727
-0.000479295
-0.00125686
2.41495e-05
2.95135e-05
0.00109154
7.8918e-05
0.000627343
0.000738703
0.00102489
0.000195709
-0.00158965
-0.00136359
-0.000126984
-0.000745759
-0.000264207
-0.000253417
0.000521192
0.000602194
0.000219119
2.55251e-05
-5.70212e-07
-5.75484e-05
-0.000490597
0.00231909
6.41197e-07
-0.000204852
-0.00174411
0.00679034
-0.000328967
0.00454582
0.000874713
-0.000226224
-0.000228717
-0.00303451
-0.000838209
-0.00316984
-0.0013326
-0.000438598
5.60215e-05
-0.000114388
0.000400713
-0.000480137
0.000460835
0.000827175
0.000206857
0.000382876
-8.59529e-05
0.000939748
-0.00148081
-3.55311e-05
0.000268412
0.00396385
-0.000381852
0.000273474
0.000626109
7.49083e-05
0.000378576
0.00114311
-0.000928154
0.000143054
0.000366164
-0.000905975
-0.00316919
0.000175964
3.31377e-05
2.7913e-05
0.000102885
0.000261578
0.00916964
0.000565652
0.00287325
-0.0007153
-0.000178773
0.00138463
0.00234611
0.00178075
-0.000624927
-0.000286508
0.00671664
0.00234
-0.000176769
-0.000178622
-0.000451838
2.20194e-05
-0.000369413
-0.00318608
-0.000987287
-4.02753e-05
-0.000261725
-0.00136267
0.00242866
3.81929e-05
0.0009226
-0.00024963
1.92556e-05
-0.000351592
-0.002562
-0.00036189
0.000109598
-0.000271067
-0.00151467
0.0018718
0.000174176
0.00136218
-2.19456e-05
0.000392966
0.000684382
0.000956659
0.00255361
0.000406068
0.00386672
0.000172387
-0.000655246
-0.00144115
0.000411624
0.000288238
-0.000813509
-0.00154004
-0.000439425
-0.000225304
-0.000645609
-0.000322121
-0.000442552
0.00340583
0.00603977
0.00511004
-2.63391e-05
0.0191361
-0.000118895
-0.000954361
-0.000684679
-0.00054457
-6.62083e-05
-0.000465159
0.00235983
0.0010528
-0.0016076
0.00101731
0.00054084
0.000198916
0.0116215
-0.000259022
0.000660799
0.000783821
0.00012947
0.000158898
-0.00011697
0.00506448
-0.00176417
-0.0295989
0.0140792
-0.003234
0.000330453
0.0207359
0.000129449
0.00330174
-0.00104672
-0.000161499
-0.000236123
-0.000105038
-0.000996596
-0.00012981
0.00103633
0.000497547
-0.000170223
-7.12739e-05
-4.05078e-06
0.00703794
6.02093e-05
0.003352
0.000288659
-5.88228e-06
-6.09923e-06
-0.000182111
0.00200345
-0.000205701
0.00156256
0.000763296
-0.00026821
-0.000129762
8.55276e-05
0.00751226
4.64007e-05
0.00302963
5.87878e-05
-0.000573522
0.0066205
2.67373e-05
0.00105286
0.000268707
2.09496e-05
-0.000109306
0.00183068
-0.000342429
0.0010688
-0.000376725
0.000154408
-0.000172226
-8.52451e-05
0.00357864
-7.28226e-05
0.000945358
0.000332011
0.00062589
-0.000266795
-0.00014869
0.0100223
-0.000212509
0.00227065
0.00078862
-0.000696097
-0.000263919
4.33349e-05
0.00397901
0.000376447
0.000824208
-0.0003144
0.00166686
0.000125255
0.000347758
0.00617734
-4.52638e-05
0.000120274
2.52694e-05
-0.000324569
-0.000143922
-0.000423419
0.00874874
0.00137659
-0.000121997
0.000675984
2.63597e-05
7.11739e-05
0.00889929
6.84212e-05
0.00045674
0.000382359
0.000916371
-0.000219447
0.00389372
0.000553458
0.000431627
0.000723791
0.00263525
8.52979e-05
0.00446917
-0.00233804
-0.000435611
-0.00107241
-0.000488941
-0.000556793
-0.000692381
-0.000283322
-0.00144427
0.000139941
-0.000355784
-0.00322851
-0.00707127
-0.00124347
-0.00353694
-0.0012
-0.00140565
0.00106632
0.00667853
-0.000250653
-0.00308431
-0.00733746
-0.00916474
-0.00131337
-0.00599089
-0.00108762
-0.001278
9.36334e-05
0.00169473
-0.00132253
-0.000603152
0.00955612
-0.00312357
-0.000363302
-0.00148867
-0.000406747
-0.000502366
0.00290036
0.00766383
3.25504e-05
-0.00116615
-0.000349623
-0.0140953
-0.000163356
0.000156996
0.000976525
-9.12904e-05
0.000297874
5.87723e-05
0.000688094
-0.000856182
0.00099902
-0.000185726
0.00337952
-0.00209586
0.000117525
-0.000599671
-7.27283e-05
-0.000227533
2.91007e-05
0.000487907
-0.00306445
0.00100796
-0.000195387
0.00151352
-0.0012189
-0.000101274
-0.000503509
-0.000293534
-4.53985e-05
0.0029127
0.00539631
0.00320639
-0.000662956
-0.000649783
0.0197562
-0.00236866
0.00374765
-0.0021133
-0.00331582
-0.00020782
-0.00170477
0.020782
-0.00298455
-0.00042054
-0.00167037
-0.000494578
-0.000399103
0.00153303
-0.000231233
3.95451e-05
-0.000393749
-0.000730299
0.00725494
-0.00425437
-0.000478613
-0.00105127
-0.000454658
-0.000503017
-0.00205612
0.000329469
-0.00073361
-0.000217687
-0.000312287
0.0166226
-0.00402406
-0.000397975
-0.00141475
-0.000425332
-0.000409982
-0.000670971
0.000242059
-0.000135691
0.000183369
-0.000119445
0.0115269
-0.00221939
-0.000262165
-0.00176811
-0.000496941
-0.000229587
-0.00105771
0.00226471
0.000598787
-0.000368777
-0.000262808
0.0130304
0.000548724
0.000306217
0.000577471
-1.48038e-05
0.000449249
0.000119551
-0.000299237
-0.00230245
0.000272954
-3.49172e-05
-0.00332733
-0.00218669
0.000384254
0.00018274
0.000293759
0.000197561
0.000126445
0.00138124
-0.000717119
0.000486712
-0.000498085
-0.0034793
0.000981764
0.000579459
0.00148244
0.000303467
0.000382729
0.0005811
-0.00963642
0.000768066
0.00367967
-0.000580928
0.0186942
-0.000240463
0.000262283
0.000429614
0.000877767
0.000272706
0.00243985
0.000150601
-0.00290446
0.000370855
0.000400513
-0.00050659
0.00057303
-0.000207377
-5.67319e-06
0.00109315
-0.000256697
-2.51526e-05
-0.00103721
-0.00395459
0.00155553
0.000234949
0.000278212
0.022424
-0.002304
-7.16036e-05
-0.000450946
-5.00167e-05
-0.000458825
-0.00197867
-0.0449601
0.0024118
0.00106775
-0.000341556
0.00844598
0.00033938
0.00109667
0.000478259
0.00113599
-0.000334183
0.0335266
-0.00311749
-0.000425384
-0.00105206
-0.000492191
-0.000558523
-0.00129549
0.00102423
-0.00111612
-0.000118784
-0.000168823
-0.025832
0.000124508
0.00147149
0.00015538
0.00113125
-4.99088e-05
-0.000285032
0.0304186
0.000141696
0.00146281
0.00182171
0.000895826
9.20364e-05
0.000210976
0.0134437
-0.000110168
0.000539357
0.00118936
-0.000769454
-0.000105367
-0.00146622
0.0301786
-0.00101545
-0.0393787
-0.00749122
0.000852832
5.7283e-05
0.0315277
-0.000519379
6.96966e-05
0.000335185
0.000991594
-0.000274982
0.0113365
0.000157751
0.000335775
0.000975042
0.00818382
-0.000471608
-0.00157273
0.000180267
0.000405557
-0.000344031
-0.000583973
-0.000497435
0.0156897
-0.000612307
0.000639984
-0.000649412
-0.000351713
-0.000436742
-0.000665773
0.00609684
-0.00101806
0.000381011
0.000965866
6.46797e-05
0.000281324
-0.00010826
0.000459529
0.000192134
0.00244164
-0.000364908
0.00189195
0.000373079
-0.00403966
0.000742668
-0.000421797
0.000126983
0.0262281
-0.00049153
0.000470646
0.0013224
0.000501849
-0.00022416
-0.000566058
-0.00549326
0.000153569
0.00102828
0.00349181
0.000883532
-0.000262863
0.0369775
0.00028385
0.00183388
-0.000364627
0.000321846
-0.00139601
0.000879191
-0.000418174
0.000575011
0.000149056
0.000578842
-0.000107507
0.000801553
0.000340082
0.000126979
-0.000920144
0.000329425
0.00228422
0.00395197
-0.000380932
-0.000381833
0.000396837
0.00172475
-0.000885848
-0.00065867
-0.000802707
-0.000775393
-0.000677283
0.0091802
0.00483797
-0.000804082
-0.000596826
-0.000108778
0.00580769
0.00342494
-0.000484486
-0.000778159
-0.000758205
-0.000754722
-0.00023852
0.0194295
0.00149511
-0.000535177
0.000398688
-0.000152881
0.00410944
0.000902061
-0.000742579
8.02033e-05
-0.000271517
-0.00111535
-0.000362373
-0.00475689
-0.000891343
-0.000353041
-0.00278833
-0.000737963
0.00156422
0.00271149
-0.00153126
-0.000720146
-0.000403208
-0.00181537
-0.00048801
-0.0168463
0.00386228
-6.37732e-05
-2.92909e-05
7.07061e-05
-0.000713442
0.00168061
0.00221746
0.000316353
5.35144e-06
-0.000754112
-0.000227638
0.0119099
0.0129779
-0.00135241
6.83965e-05
-0.00133379
-0.00136938
0.00232504
0.00180243
-8.47283e-05
-7.45181e-05
-0.000604207
-0.00103643
0.0466964
0.00545155
-0.000509375
-0.000418528
-0.00146319
-0.00242893
0.000138634
-0.000137036
-0.000125954
-0.000350089
-0.000460193
-0.000622627
0.00311744
0.000873091
-0.000931367
0.000197432
-6.3133e-05
-0.000940891
0.00296493
0.00017425
-0.000160713
-0.000211387
-0.00103685
0.000189722
0.014118
-0.00636746
-0.00147089
-0.000982028
-0.00150346
-0.000661937
0.00356098
0.000286889
-0.000583118
-0.000824737
-0.0009897
-0.00101938
-0.000784004
0.0199777
0.0178824
0.00460094
0.000426636
-0.000673963
0.00011535
0.000406462
-0.000623068
-0.000186731
0.000360993
0.000225567
-0.00112407
0.000724154
0.00200351
-7.9321e-05
-0.000357549
-0.000101132
-0.00045971
-0.00061364
0.00130929
0.000504897
-0.000101936
-0.000296836
-0.000563743
2.73762e-05
0.0125417
0.00102119
-0.000638336
0.000397627
-0.000967587
0.00268034
0.00101093
0.000109871
-0.000196661
-0.000603884
-0.00165703
-0.00101897
0.0347312
0.00337325
0.000132562
0.000737268
0.000107935
-0.000152408
0.000124263
0.000852247
0.000248862
2.78288e-06
-0.000763814
0.000336613
0.00701638
0.0213766
0.005286
-0.00029205
0.000527008
-0.000137836
-0.00103418
0.00363451
0.00307159
-0.0001547
-0.000466596
-0.00139111
-0.00037482
0.0201261
-0.0253232
-0.000649147
-0.000568703
-0.00196911
-0.000330902
-0.000446707
-0.00024444
-0.000267474
-0.000776891
-0.000267356
0.00116881
0
0.00188151
0.00442132
0.00216036
-0.00256392
-0.00296286
0.00176518
0.00240708
-0.000499514
0.000445579
-0.00344524
-0.00131958
-0.000191652
-0.00315256
0.000275514
0.00107393
-0.00468707
0.00440571
-0.000125036
0.00278715
-0.00127675
-0.000689155
0.000883105
-0.00156331
-4.30336e-05
5.05112e-05
0.00133902
-0.00203941
0.000613182
0.00145259
-0.000296857
0.00147071
0.000884618
0.00239543
0.0021959
0.000873442
0.00251449
0.00134842
-0.00188314
0.00199761
-0.000180895
-0.00522908
-0.00264693
-0.000785538
-0.00122718
-0.00256125
-0.000869959
-0.00104496
-0.00395001
-0.00327444
-0.00254774
0.000525407
0.00193242
0.000753746
-0.000956958
0.00114368
0.000271552
-0.00106981
-0.000653977
-0.00038621
-0.00252969
0.0016008
-0.00237258
-0.000676326
0.000413427
0.00300176
-0.00129025
-0.0067607
-0.00940824
-0.00776038
-0.000353299
-0.00655344
0.00204032
-0.000106144
-0.00420439
-0.0028437
-0.00796815
0.00188046
0.00324054
0.00111934
-0.00043576
-0.00233089
0.00124628
-0.00264773
0.00157099
-0.00261992
0.000580979
0.0033353
-4.20514e-05
-0.00242572
0.000408773
-8.64809e-06
-0.00448631
0.00032443
-0.000285994
-0.000415619
-0.00321994
-0.000715256
-0.000876875
0.00354314
-0.00232186
0.00179727
-0.000820389
0.000514607
-0.00684157
0.000832582
-0.00359448
-0.0106103
0.00209291
0.00153118
0.00116163
0.00107534
-8.70807e-05
0.000774479
0.00014029
-0.00437013
0.00157546
-0.00328989
0.000761075
-0.000486011
-0.013492
-0.000527098
0.000679253
-0.00447072
-0.00133305
-4.84416e-05
0.00118421
0.0234942
0.000385966
-0.0116438
-0.0182745
-0.00367261
-0.00236886
0.0193814
-0.000278513
-0.00771914
0.0414551
-0.00531191
0.00508091
0.0220153
0.00330549
0.00107038
-0.00981896
0.00918431
-0.00725749
-0.0203394
-0.00413142
-0.00459559
-0.00332997
-0.00806175
-0.00547512
0.0252116
-0.00138002
-0.00815612
0.00891293
0.0289078
0.000920861
0.00220491
-0.000426432
0.00185154
-0.00112051
-0.00516187
-0.00195286
-0.00617244
-0.00452444
-0.00260832
0.00390333
0.00597484
-5.56821e-05
0.00951201
-0.00728626
0.00227707
-0.0211793
-0.00182051
-0.00935914
-0.0072071
-0.000426343
0.00606134
-0.00643047
-0.000157046
-0.00118166
0.0194086
0.0193479
0.0346837
0.00985707
-0.00197848
0.0120362
0.00324562
0.00344118
-0.0176306
0.00610746
-0.00092758
0.000165232
-0.00338998
-0.00107335
-0.00131707
0.00158415
0.00606848
-0.0181315
0.0126764
-0.0465857
-0.025859
0.001985
0.0164045
0.00264857
-0.0077109
0.0117044
-0.027035
0.0037298
-0.0143837
-0.00320074
0.0128974
-0.00154987
-0.00482575
0.00102425
-0.00449835
-0.00206647
-0.00244853
-0.00268969
-0.00377145
-0.00873056
-0.000804057
0.00515461
-0.00762311
-0.00156703
-5.17251e-07
-0.00732288
-0.00346704
-0.016115
0.000747374
0.000351201
0.000376589
-0.00283196
-0.00344523
-0.0143868
-0.00375345
0.00157547
0.00363409
-0.00528637
-0.00826809
0.00909119
0.00112457
-0.0144418
-0.0143484
0.00116317
-0.00364707
-0.00243504
-0.0347536
0.00476633
-0.000694646
2.35032e-05
-0.00395921
-0.0214772
0.00435409
0.00241225
-0.00186688
0.00384107
0.00506286
0.00379038
0.00782112
0.00230686
0.0361841
-0.00149313
-0.023495
0.014747
0.0148462
0.0221595
-0.0193469
0.0188723
0.00282754
-0.0489202
0.011823
0.00583521
0.00389721
-0.00307308
-0.0154285
0.0082465
0.00660708
0.0308074
0.00508902
0.00868788
-0.00255723
0.0415602
0.00607051
0.0209856
-0.019537
-0.0124872
-0.00486769
0.0121947
0.0100938
0.0177298
0.0339935
0.0129931
0.00594876
0.00751232
0.0104986
0.0383288
-0.00288678
0.0168931
0.0120358
-0.0137027
0.0139163
0.0125838
-0.027772
-0.0424015
-0.0341873
0.00866643
0.0124386
-0.0140753
-0.00516252
0.0129964
-0.00730784
0.00410218
0.00598317
0.0212746
0.0152201
0.00853088
0.00785847
0.00632109
-0.00521835
0.00876659
0.00509253
0.00564728
0.029145
0.0208985
0.00825853
0.0184392
0.000247112
0.00844098
0.00713975
0.0382725
0.0115949
0.0100964
0.00715538
0.0118553
0.00549108
0.0176437
-0.00324522
0.0204493
-0.00299649
-0.00780946
0.00389926
0.000962472
0.0106014
0.0090209
0.0259558
0.00347046
-0.00654862
0.0235852
0.00110035
-0.00466369
-0.00278027
0.00689512
0.00755028
0.00280538
0.00265846
0.0095645
-0.00543669
0.00753988
0.0209509
0.00201466
0.0101757
0.0304202
0.0121534
0.00698771
0.0272588
-0.0044977
0.0138409
0.00845966
0.00458023
0.00483244
0.00359925
0.0263102
0.00766523
0.028773
0.0111234
0.00211881
0.00331071
-0.00349682
-0.00639773
0.00490889
0.0105166
0.00297333
0.00869687
0.0236942
0.00651421
-0.0105923
-0.0233493
-0.00330811
0.0101113
0.00977887
0.00789193
0.011542
-0.0060677
-0.0311908
-0.0713246
-0.0682107
-0.00759515
-0.0192299
0.0332327
0.00751925
0.00778252
0.00320215
-0.0124249
0.00329828
-0.0725487
-0.0137617
-0.0151775
0.0102249
0.00224363
-0.00244048
0.0416077
0.0112857
-0.00170877
0.00414532
0.0236258
0.00329414
0.00861797
-0.0266551
-0.00061565
-0.0040433
0.00102112
0.00397663
0.00247778
0.0026861
0.0130206
0.0119041
0.0174816
-0.00269125
0.000692326
0.00476341
-0.0181856
0.00456029
0.00253216
0.00237138
0.0136675
-0.00940706
0.00669585
0.00227074
-0.00943935
-0.0269553
-0.012353
-0.00230873
0.00408026
0.0242141
-0.00876324
-0.00181086
0.0459089
0.00797639
-0.00237719
0.0267099
-0.00267888
0.00287137
0.00353897
0.0054711
0.000617349
0.00458951
0.00381312
0.0044416
0.00565442
0.00493159
0.00959442
0.00397708
0.0309116
0.00528448
-0.00669296
0.00314576
-0.0101051
0.0143233
0.0414302
0.0133406
0.0025398
0.0322734
0.00329702
0.0137892
0.0015305
0.0189357
-0.00266429
-0.0137243
-0.000435729
-0.00792791
-0.0102
-0.0481286
-0.00307109
0.024371
0.00255069
-0.0119054
0.00409659
0.00198656
0.00531466
0.00214833
0.0111613
0.000662311
-0.00693979
0.000129058
0.00345902
0.00194313
0.00273896
-0.00851529
0.022246
0.0079676
0.00716505
-0.0012822
0.0136885
0.00821674
0.0066523
0.00636626
-0.0226674
0.0103384
0.000841789
-0.0141267
-0.00176122
-0.000149008
0.00266542
-0.00402218
0.00691287
0.00386598
0.00465711
0.00595599
0.0173004
-0.0265648
0.00432898
0.00144595
0.00143013
-0.00311479
-0.00210381
0.00533989
0.0388425
0.00194765
0.00202249
0.0247175
-0.00265236
0.00933158
-0.0247798
0.010102
-0.0151215
0.00165904
0.0395538
0.00439432
0.00437445
-0.00569257
0.0106669
0.0212056
-0.0127769
0.016872
0.00763954
0.00238098
0.0170671
0.00184942
-0.00829386
0.00418851
0.0274352
-0.0190357
0.00137906
-0.00230218
-0.00227422
0.0031671
0.0407568
0.00286828
0.0289572
-0.0182575
-0.0115156
-0.0613351
-0.0448245
-0.0690536
-0.00488645
-0.00743615
-0.00378772
0.0083368
-0.000322433
0.0300305
0.00298016
0.000409133
-9.97177e-05
-0.00513389
-0.0046498
0.00215447
-0.0135716
0.00106093
0.0225364
0.0102795
-0.0150613
-0.00418718
-0.0138892
0.0118437
-0.0105656
-0.00348636
0.000620695
-0.00741071
-0.0022926
-0.0582848
0.000529728
-0.00203181
0.00692163
-0.00533031
0.0246164
-0.0160451
0.0243168
-0.00597901
0.0109951
-0.00386267
0.00162561
-0.00236899
-0.0065218
0.000737504
-0.00411024
-0.000869462
0.00293904
0.000123484
-0.020378
0.0122257
0.000882436
-0.00269344
-9.36695e-05
0.0015155
-0.00085399
-0.00447365
0.00189401
-0.006954
0.00275155
-0.00106791
-0.002147
-0.00599262
0.0150535
0.0242883
-0.0032346
0.0102461
-0.00217922
0.0165204
0.00830418
0.0203162
0.00431822
-0.00444198
0.00291228
0.0400659
-0.0555469
-0.038248
0.000263883
0.00337267
-0.00467889
-0.000842229
0.0168094
-0.00209003
-0.00444049
-0.0111729
0.00652512
0.000592622
0.000282493
0.0017404
0.00273581
-0.00896126
-0.00894169
-0.042637
0.00252935
0.0196972
-0.0124174
0.022129
0.0131691
-0.00187871
0.0135734
0.00780917
-0.00450754
0.0296934
0.0345789
0.00413967
0.00501413
0.010461
0.0324007
-0.0203382
0.00433145
0.00750814
-0.00120445
0.0350166
0.0189953
-0.0036825
0.00264082
-0.0135282
-0.00393024
0.00280314
0.0302641
-0.0121945
-0.0042552
-0.0091902
-0.0197876
-0.0315823
-0.012091
0.00358108
0.0128643
0.0012377
0.00312412
0.00367976
0.000427714
-0.011524
0.0301253
-0.00382059
-0.00253967
-0.0501473
-0.0402162
0.000707726
0.00279647
-6.20921e-05
0.00393486
0.00326414
0.00372922
0.00190838
0.00424156
-0.014785
-0.00135867
-0.0144487
-0.000900795
0.000253952
7.54043e-05
-0.0170698
-0.0354876
0.00488968
-0.00204619
0.0207084
0.0138273
0.00849564
-0.00987521
-0.00359609
-5.78998e-05
0.0065465
0.00241972
0.00154707
0.008812
0.00180547
-0.00888301
0.00146843
-0.00470926
-0.00236934
-0.00363033
0.00368621
-0.00454903
-0.0123016
5.65978e-05
-0.000319193
-0.000530639
-0.00965118
0.00250396
-0.0124937
-0.0453843
-0.00426275
-0.0116303
-0.0148726
0.0078929
-0.000450347
-0.00678322
0.00127677
0.00162613
0.00116247
-0.0173955
0.00046922
0.0044892
0.00509401
-0.000750583
0.00219796
-0.00834876
0.00101007
-0.00173355
-0.000383728
0.0079423
-0.00393972
0.00500345
3.99399e-05
-0.00192293
-0.0056051
0.00197987
-0.00524966
-0.0067667
-0.00374607
-0.00137706
-0.00251819
-0.000366504
0.00104249
0.00439238
-0.00519869
-0.0031967
-0.00315585
-0.00566633
-0.00299158
-0.00409367
0.000873441
-0.00442599
-0.00308936
-0.00421129
-0.00707096
-0.000314518
-0.00482203
-0.00160903
0.00372062
-0.00435143
0.00234098
0.000329196
-0.00417571
-0.003881
-0.0175517
-0.000304997
-0.00611528
-0.00236773
0.00109471
0.00276596
-0.00349407
-0.00363232
-0.000962063
0.00227496
-0.00488089
0.00177824
-0.00366968
0.00178258
-0.00848262
-0.00328914
0.00173207
-0.00171309
-0.00148545
-0.00109643
0.000799878
-0.00721837
0.00321649
-0.00103272
-0.000841308
0.0077301
0.00124323
-0.0579418
0.0206276
-0.00271612
-0.00276957
-0.0370054
6.23206e-05
-0.000327954
0.000140169
-0.000452115
-1.85068e-05
-0.00556325
0.0117437
0.0194467
-0.00395291
0.00979959
-0.0290467
-0.00137384
0.0513254
-0.00143467
0.017187
-0.00304257
-0.00157269
0.00134027
0.00242013
0.0488336
0.00366296
-0.00079647
-0.000986285
0.00475595
0.0139188
0.000444064
-0.00205769
0.0112234
-0.0014347
-0.00145506
-0.00398626
0.00404521
0.000223206
-0.000168071
0.000954891
-0.000381721
0.000142964
0.0201491
-0.00154911
0.00260077
0.0138857
0.000987064
-0.0141676
0.000606635
0.000958635
-0.0151796
2.36285e-05
0.0259165
-0.00244958
-0.00184661
-0.00135911
-0.00435471
-0.00138684
0.0234761
0.00173472
-0.00166589
1.28641e-05
-0.000708834
-0.000274704
-0.000264695
-0.000434538
-0.00305368
-0.00167245
-0.00407471
-0.00147107
-0.000963523
-1.45159e-05
0.000834282
3.5205e-05
0.00120114
0.00147512
-0.000820094
0.00118959
-0.000180562
-0.000187873
-0.000307433
-0.000612986
-0.00880361
0.000184474
3.8138e-05
-2.14171e-05
-0.00122276
0.0037376
0.000478169
0.00532537
5.93165e-05
0.000424984
-0.000903405
-0.00382603
0.00321776
0.000118465
-0.00796163
-0.00141074
0.00089589
-0.0066954
-8.9338e-05
0.00219998
-0.00304769
-0.00029115
0.00086582
3.67127e-05
0.000114659
-0.00309389
-0.00254436
0.00406014
0.00138833
0.000946663
0.000125048
8.79787e-05
0.00152227
0.000110404
1.61526e-06
0.0108132
-0.0106461
0.00460174
0.00325989
-0.0093745
-0.00355559
-0.00123342
0.00110606
-0.00450835
0.00243104
-0.00218323
0.0152882
0.00402834
-0.000729548
-0.000792717
-0.00501322
-0.00137226
0.0122866
-0.00740254
-0.00565434
-0.00204241
-0.000547154
-0.00120417
-0.000520137
-0.000578424
-0.00248792
0.0264139
-0.00633815
0.00588408
-0.00442544
-0.03064
-0.00560401
-0.00212034
-0.00238228
0.0347099
-0.00224482
-0.00481607
-0.000692398
-0.000505427
0.000702895
0.0156334
-0.00129836
-0.00105039
-0.00248674
0.000787094
-0.00337186
-0.00301881
0.00343307
-0.00708352
-0.00746888
-0.00221706
-0.00246896
0.00854515
-0.00055736
-9.74166e-05
-0.00224454
0.00295776
-0.000960643
-0.00218857
-0.000596125
0.000177232
0.000577121
-0.00023683
-0.000727747
-0.0210342
-0.00395486
0.000196815
-0.0039339
0.00543888
-0.00122711
-0.00135487
0.00441894
-0.00299322
0.00120622
-0.002194
0.00196273
-0.00120927
0.00294263
-0.00570313
-0.00272323
-0.00527118
0.00540096
-0.000790643
-0.00556973
-0.000455513
0.00112545
0.00217125
0.00169107
-0.00120217
-0.00182146
0.0198347
0.000557797
0.0009569
-0.000445687
0.00308393
-0.0010665
-0.00106306
0.00595815
-0.000713656
0.000969516
-0.000545423
0.00338736
-0.00106389
-0.00109247
0.0115797
-0.00325745
-0.000785713
-0.000112382
-0.000883814
-0.000747757
-0.000882854
-0.000509885
0.00863772
-0.000485892
-0.0040117
-0.00634957
-0.00610237
-0.000662196
-0.00044231
-0.00017559
-0.00167241
0.000133039
-0.00497846
-0.00195954
-0.000370759
0.00106957
0.000172833
0.000384948
-0.000291332
-0.00152976
-0.000859406
0.000461067
-0.0112592
0.00590777
0.00495122
0.000293169
0.00109889
0.000744144
-0.000296403
0.00700889
0.00065512
-0.0010089
-0.00102342
0.042923
8.69571e-06
0.00107268
0.00396988
0.00102203
-0.00108016
-0.000949786
0.028184
-0.000205391
0.000909442
0.001017
0.00233249
-0.00111363
-0.00112117
0.0239085
0.000312438
-0.000380357
0.00103618
-0.000396671
-0.000186656
-0.00862312
-0.00134892
0.00598949
0.0126184
-0.000782582
0.0206595
-0.000235453
-0.000562327
0.00031667
-0.000647335
-0.000168978
-0.00215093
-0.000353556
-0.00252946
0.00231275
-0.000572872
0.00198361
-0.00288886
-0.00056141
-0.00070398
3.07777e-05
0.000387188
0.000759911
0.000840837
0.00205753
0.00124133
-0.000944939
0.0232889
-0.00255696
-0.00245161
-0.00226702
-6.92125e-06
0.000264987
0.00484261
-0.000676903
-0.00233875
0.00137366
0.00104018
0.000390323
0.000388322
0.00987606
-0.000551116
-0.000718331
-0.000405228
0.000357996
0.000231436
-0.00453688
-0.000678319
-0.000433416
0.00124194
-0.000542956
-0.000265659
-0.00100898
0.00102561
-0.000221746
-0.000173255
0.0146188
-0.00308218
-0.0005261
-0.00159919
-0.000629561
-0.000627517
0.000563652
0.00143966
-0.000458562
0.00030736
0.000297475
-0.00311437
-0.000234821
-0.00384948
-0.00084969
-0.000496002
0.000569386
-0.00768753
-0.000821804
5.70794e-05
-0.000500723
-0.00161853
-0.00505096
-0.000975894
-0.00353787
-0.00105146
-0.000924181
0.000191159
-0.000802072
0.000523917
-0.000881718
-0.000488299
0.00913578
-0.00425461
-0.000958149
-0.00338211
-0.000884076
-0.000903419
-0.00024798
0.014252
0.00336612
-0.000529129
0.00151584
-0.00372159
-0.000619843
-0.00197883
-0.000686293
-0.000642295
0.000522498
-0.00256552
0.000960671
-0.000594129
-0.00031967
0.00146054
0.00271489
0.00701938
0.00203435
0.000152978
0.0210907
0.00104303
0.000859375
0.00101631
-0.000510652
-0.00701931
-0.000483577
0.00359938
0.0135318
-0.000337599
-0.000478001
0.00519227
-7.94542e-05
0.00117589
0.00523422
7.46047e-06
-0.000455121
-0.00140195
0.0023748
-0.000354532
0.000774188
0.000428254
-0.000155646
-9.99122e-05
0.00742133
-0.000244278
-2.58986e-05
0.0118213
-6.90192e-05
-0.000554014
0.0124514
-0.000689031
0.000208101
0.000766496
-0.000415504
-0.000573741
0.0158572
-0.000114508
0.00107207
-0.000774135
-7.89516e-05
-0.000336755
0.0132824
2.99505e-05
-0.000216635
0.00102964
-0.000260023
-0.00032767
0.000765389
-0.000492564
-0.000179421
-0.00156274
-1.40415e-05
-0.000314459
0.00251132
-1.24396e-05
-0.000487275
0.00623316
0.00144937
-9.63778e-05
0.000434686
-0.00408346
-0.000775617
-0.00301973
-0.0006166
-0.000937258
0.000558915
-0.00022238
0.00504688
-0.000296257
-0.000375879
-0.000387328
-0.00127335
0.00998616
-3.82837e-05
-0.000569061
-0.0020865
0.0154566
-0.000617756
0.00372451
0.00473064
-0.000138315
-0.000585862
0.00274306
-0.000941141
-0.00291342
-6.07121e-05
-8.585e-05
0.000106506
-4.1524e-05
0.0105406
-0.00189857
0.000222449
0.000322614
2.80106e-05
-7.11324e-05
-4.70426e-05
0.00166019
-0.00142487
-1.40019e-05
-4.67293e-05
0.00671432
-0.00259544
-0.00025622
-0.000861529
-0.000265897
-0.000279334
0.00187264
-0.000121672
0.000146427
0.000150958
0.000626712
-0.00386073
0.00272451
0.000267098
-0.000148377
-4.05711e-05
0.000195819
0.0252175
0.000250515
0.0111993
-0.000607055
-0.000428582
0.00306188
0.000491273
0.00813917
-0.000183678
-0.000445452
0.00993998
0.00277644
-0.000162751
0.00213595
-0.000478241
0.000108935
-0.000516577
-0.00515425
-0.000679304
-6.49797e-05
-0.000462304
0.00126776
0.00221389
-3.7983e-05
0.00286679
-0.000373688
-0.000107314
-0.00065449
-0.00449564
0.00038024
-0.000227444
-0.000680009
0.00240549
-0.00120314
-0.000501283
0.000107538
-0.000575911
-0.000237666
-0.000869161
0.00533149
0.00393389
0.000122574
0.000705314
9.76612e-05
-0.00146655
-0.0019973
0.000771404
0.000108615
-0.0030291
-0.00275964
-0.000589684
0.000621163
-0.000861168
-0.000496755
-0.00100026
0.00238313
0.0230063
0.00703432
-0.000363473
0.00259135
-7.2915e-05
-0.0020425
0.000398803
-0.000451906
-0.000261666
-0.00976817
0.00262854
0.00116137
-0.00178841
0.00111781
0.000544123
0.000305708
0.00892183
1.85706e-05
0.000226653
0.00448764
0.00020777
0.000218158
7.06239e-05
0.00834534
-0.0020099
-0.0298999
0.0386836
-0.000345899
0.00102543
0.025763
0.000505205
0.00391665
-0.00112131
-0.000324247
-0.000397857
-1.50803e-05
-0.00564753
-0.000161434
-0.000100232
0.00187431
-0.00102942
-0.000165033
-7.76377e-05
0.0110856
0.00017459
0.00124382
0.00171301
-0.000539796
-0.000117425
-0.000233695
0.0047515
-0.000346977
0.000500089
0.00286904
-0.00119302
-0.000298278
-5.76794e-05
0.00972148
-0.000786575
0.0103856
-0.000409307
-0.000929955
0.00624755
4.90208e-06
0.000952135
0.0019574
-0.000177493
-0.000146996
0.0019218
-0.000461473
0.000171997
2.71757e-05
-0.00104949
-0.000293496
-0.000262165
0.00540162
-0.00018548
-7.3771e-05
0.00243161
0.00015378
-0.000407942
-0.000290616
0.0131796
-0.000180732
0.00128418
0.00129484
-0.00169409
-0.000326706
0.000122044
0.00649632
0.00065817
0.000663735
0.00210922
0.00248067
5.36073e-05
0.00038987
-0.00425811
0.000230548
-0.00145922
0.00134213
-0.000742142
-0.000189108
-0.000247398
-0.00305582
0.00162405
0.000992107
0.000800039
-0.00013051
-9.99362e-05
0.0168172
0.000266429
6.55534e-05
-0.0154369
-0.00535538
-0.00118889
-0.0608882
0.000321442
-0.0148288
-0.0098741
-0.00467681
0.000434629
-0.0465258
-0.00223403
-0.00108333
-0.00291695
-0.00129504
-7.18478e-05
-0.000917327
-0.00593213
-0.00992069
-0.00230257
0.000725733
-0.0397356
-0.00287133
-0.000497086
-0.00131755
-0.000909371
-0.000256933
-0.0042351
-0.035008
-0.00186044
0.000199815
0.000573664
-0.00582001
-0.00038631
-0.0041455
-0.000540565
0.000130314
-0.00477633
-0.00326064
-0.00464654
5.63508e-05
-0.0373103
0.00117139
-0.000302731
-0.000724585
-0.000819242
-7.54439e-05
-0.00324045
-0.0438518
-0.00271246
-1.0822e-06
0.000264763
-0.0178876
0.004352
0.000976411
0.0038244
0.000320508
0.00186316
0.00131578
-0.00237694
-0.00771371
1.43947e-05
0.00143148
-0.00609488
0.00392632
0.00156924
0.00350949
0.000804061
0.00214567
0.00143049
-0.0018077
-0.00910537
0.000823249
0.00124921
-0.0231847
0.00379615
0.0010385
0.00240006
0.000192411
0.00167534
-0.000320138
-0.0213803
0.00285784
0.000883291
0.00128938
0.00335089
-0.000380907
-0.00483522
-0.0296336
-0.00933264
0.00181827
3.33927e-06
-0.0347575
0.00209359
0.000203075
9.36798e-05
-0.000271924
0.000561571
-0.000207244
-0.00819622
-0.000959025
0.00118701
0.000685861
-0.0244354
0.00179511
0.000293674
0.0031946
-9.37996e-05
0.00069546
-0.00109039
-0.00188251
-0.00571519
-0.00141849
0.000921252
-0.0205107
0.00137807
0.000206464
0.00165117
-0.000200644
0.000636418
4.67088e-05
-0.00130824
-0.00333906
-0.000871302
0.0010973
-0.0134947
-0.000954189
-6.01082e-05
-0.00120212
-0.000552079
0.000218125
-0.000754341
0.000318476
-0.0017911
-0.000986973
0.000841952
-0.010179
0.00501262
0.00087766
0.00328187
0.000182807
0.00156138
0.00068182
-0.00172604
-0.00697461
-0.000540143
0.000984908
-0.0213934
0.000195348
0.00104875
0.0020809
0.000592139
0.00093007
0.000721699
0.00171834
-0.00502718
0.000224394
0.000228398
-0.0117898
0.00280552
0.00125181
0.00305816
0.000679013
0.00135836
0.00155651
-0.0221482
0.000567253
0.0038148
0.000177104
-0.00991384
0.000415122
-0.00302765
-0.00354572
-0.00126027
0.00154218
-0.0409148
0.000796258
-0.00833239
-6.41878e-05
-0.000482955
0.000546486
-0.0114342
0.0033322
0.000583866
0.00417951
-5.45894e-05
0.00078642
-0.000522563
-0.0106669
-0.00254186
-0.00592489
0.00118147
-0.0182199
-0.00135651
0.000242266
0.000903152
0.000316456
0.000258468
-0.00155136
-0.0380498
0.00734388
0.000993779
0.000432697
-0.00709613
0.000203609
7.44102e-05
0.00104345
0.00133082
0.000489857
-0.00567668
-0.000357563
5.19169e-05
0.001405
-0.000287903
0.000139104
-0.000676648
-4.93783e-05
-0.0228778
-0.00194243
0.000857884
-0.0837144
0.000827455
0.00178733
-0.00234735
0.00197879
0.000504743
0.000327043
0.0230094
0.000793596
0.00178272
0.00134781
0.00164159
0.000786615
0.000943961
-0.0020619
0.000673814
-0.000624309
0.000436391
-0.0016669
0.000580806
-0.000818226
0.010487
-0.000624441
-0.03534
-0.0051281
-0.00213042
0.00103965
0.00697393
-0.000182069
-0.00308009
0.00162427
0.000609899
0.000238699
-0.0218739
0.000513404
-0.00110317
0.00199894
0.0128617
0.000346716
-0.029662
-0.000636238
-0.000495313
-0.00129632
-0.000225281
-0.000252541
-0.0194867
-0.000431017
0.000386657
-0.00369151
-0.00075303
9.9785e-05
-0.000112673
-0.020763
0.000165142
0.000863214
0.00306275
0.000441673
0.000805622
0.000208304
-0.000532688
-0.00323423
0.00458927
0.000643583
-0.0279733
0.000511126
-0.012089
0.00128556
-6.71708e-06
0.000730409
0.0117691
-0.000206993
-0.000943193
0.000965329
0.000681237
0.000226582
3.81082e-05
-0.0310825
0.000439126
0.00187717
0.0123832
0.00102501
0.000211613
-0.00227193
0.000837908
0.00236921
-0.000168345
0.00015303
-0.0012919
-0.00350255
-0.000189041
0.000977696
0.000516715
0.00103043
-0.00260937
0.00170461
0.000794953
0.000422268
-0.00219323
0.000783046
-0.0177352
0.0102861
-0.000289171
-0.000537042
0.00216745
0.00273724
-0.00114912
-0.000644845
-0.000823154
-0.00177294
-0.000640532
0.00473883
0.00850687
-0.000791822
-0.00041984
0.000337627
0.00939042
0.0021927
-0.000758122
-0.000808841
-0.000702123
-0.000891203
3.67743e-05
0.00343323
-0.000362775
-0.000669327
0.000510444
-6.57636e-05
0.00516142
-0.00197424
-0.00169724
0.000323371
-8.03476e-05
-0.00199878
-0.000212667
-0.0195348
-0.0036233
-0.000202527
-0.00324033
-0.000897976
0.000746586
0.00537178
-0.00343236
-0.000681235
-0.000146995
-0.0029248
-0.000271239
-0.0431619
0.00796503
0.000533085
0.000376887
0.00032632
-0.00103631
0.000287611
0.00347341
0.000865656
0.000751313
-0.00149396
0.000120529
0.00278514
0.00818622
-0.00125125
0.000600181
-0.00163727
-0.00360706
-0.00599789
0.00202377
0.000663386
0.000648937
-0.000915067
-0.000482068
0.00602339
0.00465837
-1.2193e-05
-1.5879e-05
-0.00183314
-0.00474085
-0.00338451
-0.00162719
0.000445543
0.000227217
-0.000682631
-0.000270879
-0.0160039
-0.00452137
-0.000650873
0.000646479
0.000219339
-0.00143485
0.00404002
0.000625761
0.000196994
0.000224676
-0.00244251
0.00065671
0.00155988
-0.0326852
-0.0239505
-0.00136396
-0.00189875
-0.00105792
0.0044493
-0.00501751
-0.00156812
-0.00125684
-0.00138006
-0.00159188
-0.0010205
0.0382161
0.00659423
0.006024
0.000563013
-0.00074353
0.000184553
0.00130425
-0.00307666
-0.000160485
0.000509154
0.000303245
-0.00186686
0.000913992
0.00117688
0.000193671
-2.56119e-05
0.000133889
-0.000655779
-0.00143597
-0.000786994
0.000465199
4.27618e-05
2.66954e-05
-0.000947652
0.000353501
0.00867607
0.000183328
-0.000203002
0.000924875
-0.00122592
0.00301744
-0.00822577
-0.00422448
0.000226618
-8.5292e-05
-0.00261325
-0.000668701
0.00324697
0.00733755
0.000217957
0.00104603
-8.60724e-05
-0.000311171
-0.00105416
0.00101494
0.000353695
7.53164e-05
-0.00200128
0.000393125
-0.00233107
0.0225814
0.00720516
-0.000247401
0.000916928
-0.000110478
-0.00253527
0.01397
0.00381431
0.000283829
-3.07757e-05
-0.00256436
0.000164655
0.0112909
-0.0397655
-0.000390026
-0.000815832
-0.00345158
-0.00160727
-0.00105827
-0.000147382
1.29115e-06
-0.00142126
-0.00838905
-0.000520514
0
0.00501128
0.0107414
0.00509258
-0.00158864
-0.00155524
0.00727589
0.00712943
0.000818475
0.00168047
-0.0019607
0.000219404
0.00252007
-0.0020679
0.00220628
0.00316262
-0.0044446
0.00823339
0.00400009
0.00697709
-0.000528097
0.000787517
0.00108801
0.00109956
0.00265644
0.00216381
0.00518182
-0.00121643
0.00490469
0.0064374
0.00240937
0.00613517
0.00314731
0.0059194
0.00676002
0.0036658
0.00731834
0.00475656
-0.00132877
0.00510678
0.00266516
-0.00194814
0.001637
0.00517768
0.00368976
0.00212923
0.00499036
0.00230059
0.000448479
-0.00447612
-0.00159142
0.00347641
0.00342743
0.0035998
0.00142992
0.00266357
0.00303414
0.000333862
0.00180032
0.00347826
0.00180986
0.00690139
-0.00161401
0.00135102
0.00404077
0.0068016
-5.28126e-05
-0.00434325
-0.0103081
-0.00698124
0.00234736
-0.00211244
0.00724394
0.00627973
0.00135888
0.00184302
-0.00421373
0.007981
0.00948033
0.0067019
0.00435786
-0.00056483
0.00517563
0.00200457
0.00787305
0.00180275
0.00573721
0.00676799
0.00499044
0.000641052
0.00539601
0.00394725
-0.00195133
0.00432538
0.00336422
0.00376429
-0.000384831
0.00303284
0.00214785
0.00915541
0.00286957
0.00705354
0.00203777
0.00384028
-0.00517483
0.00460904
-0.00052718
-0.013702
0.00413557
0.00255345
0.00627144
0.0082193
0.00579955
0.00599416
0.00235774
-0.00294913
0.00426999
-2.44502e-05
0.0036312
0.00406945
-0.012896
0.00276827
0.00437006
-0.00330465
0.00248959
0.00499836
0.0062907
0.0335733
0.00698572
-0.00320542
-0.0227653
0.00275736
-0.00146871
0.0268117
0.0016291
-0.00443723
0.0326905
-0.0025187
0.0141079
0.0273268
0.0164761
0.00503613
-0.00168308
0.0112082
-0.00101333
-0.020299
0.00320998
-0.00521242
-0.00198008
-0.0128882
-0.00357445
0.0147249
-0.000776604
-0.0104406
0.0134558
0.0159461
0.00134317
0.00315388
-0.000676447
0.00313984
-0.000348673
0.00422827
-0.00210617
0.00314079
-0.00670935
0.00566585
0.00711987
0.0119384
0.00845479
0.0135731
-0.00324577
0.00204865
-0.0244206
3.53722e-06
0.00442824
0.00403867
0.00236961
0.00955715
-0.0092643
0.00525968
0.00030197
0.0141076
0.0337378
0.0168385
0.0126218
0.00141729
0.00878775
0.00501032
0.00511819
-0.017671
0.0112603
0.00050765
0.00167204
0.000146438
0.0010597
-0.000734436
0.00388227
0.00963446
-0.00800818
0.0122133
-0.0360793
-0.0105087
0.00372461
0.0162459
0.00425268
-0.00379683
0.0149918
0.013805
0.016254
-0.0106118
0.00287978
0.0194483
0.00244263
-0.00385763
0.00303305
0.000750871
0.00188603
0.000713025
0.010048
0.0154224
0.00734145
0.00304417
0.0128234
-0.00216957
0.00734819
-0.00198357
-0.000771796
0.00102539
-0.0153942
0.00159384
0.000525348
0.000473787
-0.000362146
0.0063596
-0.00154852
-0.000305954
0.00611313
0.00830398
-0.00460616
-0.00400381
0.0132816
0.00255637
-0.0152517
-0.0177831
0.000481622
-0.00164786
0.00120576
-0.0373033
0.0146333
0.000625939
0.00160973
-0.00568572
0.00653744
-0.00112501
-0.00267851
-0.00847675
0.000306668
0.00163448
-0.00607214
0.000653414
-0.00694754
0.0262078
0.00521325
0.00405232
0.00932931
0.00513998
0.0160921
-0.0209008
-0.000543365
0.0199174
0.0106054
-0.00455721
-0.00127126
-0.00181658
0.00575309
0.00816917
0.00409133
-0.00567479
0.0159883
-0.00299741
-0.00513427
-0.016403
0.0221738
-3.53068e-05
0.00729041
-0.0225097
-0.0132765
-0.0108694
0.0033363
0.00573026
0.00412908
0.00866006
-0.000287246
0.0369784
0.00348339
0.00214319
0.0155717
-0.0190874
0.00571626
-0.0114109
-0.00445518
0.00576949
0.00304277
-0.0171422
-0.0275261
-0.0180683
-4.76401e-05
-0.00155633
-0.0107435
-0.0127269
-0.00308474
-0.0286009
-0.00311279
-0.0041532
0.0212137
0.00366469
0.0013212
0.00166497
0.00100334
0.00841747
0.000578354
-0.00177216
-0.00109849
0.0259587
0.00393832
0.00164462
0.00982168
-0.00888181
-0.00544516
0.000412556
0.0169725
-0.018446
0.00776313
0.00424043
-0.00181808
-0.00394758
-0.00216548
-0.0092279
0.0166121
0.00215535
-0.0122122
-0.00307776
-0.00424143
0.00556234
-0.000501181
0.0191326
-0.00299334
-0.0103766
0.00212713
-0.00261718
-0.00567266
-0.0175402
0.00939507
0.00228875
-0.00256807
-2.58154e-05
0.00947043
0.00401955
-0.00167296
0.0118789
-0.00873205
-0.000758464
0.0145671
0.00282858
0.00134416
0.0101894
-0.0100742
-0.00311576
-0.000933434
-0.00252517
-0.00265041
-0.00135556
0.00913568
0.00101327
0.0569617
0.00656635
-0.00442851
-0.000582815
0.00841275
-0.01034
-0.000773028
0.00971755
0.0029479
0.00860994
0.0310687
0.0056789
-0.00468947
0.0117843
0.012134
0.00553727
0.00734522
0.00481944
0.00802977
0.00324911
-0.0105081
-0.024606
-0.0216544
0.0192796
0.019451
0.0603141
0.00643768
0.00670713
-0.00941078
-0.0135409
-0.00238325
-0.0469126
-0.00350428
-0.00966204
0.00665562
-0.00135111
-0.00820696
0.0349056
0.0102066
-0.00816286
0.00249036
0.0191325
0.0132557
0.00476739
-0.00241779
-0.00331842
0.0411604
0.00924833
0.00117831
0.000315828
0.000988683
0.00917777
0.0155054
0.0191378
-0.00386411
-0.00561492
0.013865
-0.0161678
0.00330606
0.000647866
-0.000455792
0.0118629
0.00168112
0.00729891
0.000969481
-0.0031717
-0.0308324
-0.00214047
-0.00220836
0.0049062
0.0204596
-0.0118871
-0.00146909
0.0518876
0.0126732
-0.00171395
0.0297993
-0.00304194
0.0019611
-0.00332534
0.00420797
-0.00190503
0.00306062
0.00245789
0.00340056
0.00101504
0.00323667
0.00982123
0.00275578
0.031714
0.00418146
-0.0114264
0.0019168
-0.0174509
0.0126392
0.0402374
0.00230701
0.00216533
0.0293586
0.00204502
0.017785
-0.000673892
0.0206723
0.0475551
-0.0147162
0.000284326
-0.0137509
0.00428179
-0.0369942
-0.0030063
0.0188355
0.00301265
-0.0142932
0.00925374
0.00103364
0.00527801
0.00135108
0.0197941
-0.000549242
0.0321987
0.00500233
0.00120124
0.000648716
-0.00505775
-0.0168063
0.0192348
0.00712354
0.00671148
0.00130774
0.00662647
0.0123573
0.00917593
0.00589469
-0.034494
0.00934007
0.000185756
-0.0178634
-0.00332806
-0.00221067
0.00295129
-0.00450595
0.00821722
0.00360461
0.00502627
0.0111914
0.0188909
0.000439418
0.004202
0.000566702
0.000524153
-0.00294155
-0.000704929
0.00305867
0.028625
0.00165449
0.00206686
0.0328856
0.0095724
0.0118751
0.00488737
0.0167039
0.0178226
0.00539025
0.0308685
0.00527612
0.00444635
-0.0108438
0.0230978
0.0243699
-0.0152114
0.019751
