booster[0]:
bias:
-0.0372403
weight:
0
-0.00263945
-0.00226963
-0.0013405
-0.000488257
-0.00355786
-0.00333073
-0.0028373
-0.000444669
-0.000951961
-0.00127385
-0.000545677
0.000320814
-0.00157258
-0.00121241
0.00025098
-0.00129119
0.00030576
-0.000622338
-0.000697184
-3.56491e-05
0.000514265
0.000279544
-0.00229269
-0.00133235
0.00100781
0.000257723
-0.00278364
-0.00269537
-0.000207828
-0.00221339
-0.000289686
0.0010297
-0.000878967
-0.000378369
4.26762e-05
0.000597284
0.000256339
-0.000554005
0.00156988
-0.000378763
-0.00248865
-0.000363878
-0.00251412
-0.000846896
-0.00165506
-0.00120582
-0.0062456
-0.00268456
0.00179422
0.000615367
0.000309753
-0.00117599
1.1419e-05
-0.000818364
-0.000274023
-0.00125306
-0.000285259
-0.00101091
-0.00112263
-0.00144245
0.000803992
-0.00204316
-0.000243622
-0.00127445
-0.000348958
-0.0008106
-0.0030384
-0.0013114
-0.00212717
-0.0024828
-0.00220591
-0.000828382
-0.00268568
-0.00244566
-0.00177185
-0.000647621
0.000861823
0.000663852
0.000155266
-0.000398147
-0.000717366
-0.000977751
-0.00258116
-0.00129016
-0.000471852
-0.00135557
0.000386048
-0.000666587
0.000804985
0.000677451
0.000536029
0.000682826
0.00125901
0.00138082
0.000961605
0.000584706
-0.0011675
0.00124386
0.00109697
-0.00121188
0.000584727
-0.000699
-0.000539014
-0.000385435
-0.00239212
-0.000546357
-0.00378756
0.00254294
0.0005226
-0.00131317
-0.00200731
-0.00181726
-0.00176025
-0.0019463
-0.00151101
-0.000257593
-0.00118823
-0.000195116
-0.000478365
-0.0093692
-0.0047185
-0.000335481
-0.00466063
-0.00163829
-2.33588e-05
0.0011424
0.0205357
0.00234632
-0.00571212
-0.013499
-0.00151291
0.000523794
0.0084532
0.00248486
-0.000660188
-0.0636669
-0.00220713
0.00351986
0.00246275
0.0046854
0.000766248
0.00156843
0.0046482
0.00302413
0.0118469
0.00424001
0.00173226
0.00279126
0.000461881
0.00141193
-0.0164232
0.00276517
0.00527787
-0.010438
0.00953235
0.00242775
0.00169146
-0.000100958
0.00194956
0.00427641
0.00502929
0.0051497
0.00313853
0.00542139
0.00278904
0.00302506
-0.00524063
0.00378102
0.00658259
-0.000175499
0.0128901
0.00602629
0.00242224
0.00433844
0.00481541
0.00156007
0.00496504
0.0204042
-0.00590127
0.00217085
0.0108103
-0.010513
0.0104448
0.00348756
0.00461492
0.0206961
0.000786039
0.0011535
0.00294839
0.00659553
0.000185186
0.00975748
-0.00398945
-0.000265617
0.000866665
0.00392976
0.0065324
-0.000189567
-0.0221817
-0.024652
-0.028337
0.0102481
0.00745842
0.00118433
-0.00499902
0.0149773
-0.0235019
-0.0167238
-0.00791194
-0.00252567
0.00700974
-0.00413376
0.00479457
0.00250683
-0.00458943
-0.00344815
0.00382098
0.00100762
-0.0192252
-0.0225888
0.00155144
-0.00543361
-0.00596543
0.00118541
0.0247185
-0.00796758
-0.00418143
0.00557968
0.0017558
0.000143662
0.000692059
-0.00274825
-0.00425119
0.000896017
-0.00465129
0.00270352
0.00297045
0.00286131
0.00216088
0.00429265
0.00319923
0.00119814
0.00562184
0.00797924
0.000291078
0.00942476
0.0226645
-0.0226504
-0.00133911
-0.000625341
-0.00481434
-0.00582319
0.0030012
0.000988106
-0.00239704
-0.00141156
0.00017241
0.00126462
0.00135064
-0.00138046
0.00298586
-0.0205759
0.00254816
0.0070991
0.0407003
-0.000806
-0.0109239
0.0155064
-0.0396725
-0.0195961
0.010365
-0.00327015
-0.00108938
-0.0414303
-0.000729288
0.0182244
4.45007e-05
-0.000388486
0.0035161
0.00166434
0.00247726
-0.0240118
0.00230343
0.000649719
0.0204291
-0.0114973
-0.0144933
0.0018026
0.000546977
0.00678529
-0.000845076
-0.00182976
-0.0131257
-0.000183826
0.000168572
0.00251547
0.00644466
-0.0106156
0.000759763
0.0015249
0.000310805
0.00158285
-0.00455371
-0.00506821
-0.00345813
4.70748e-06
0.00487367
-0.00924759
-0.00651401
0.00505566
0.00488409
0.000218406
0.00740352
0.014892
0.00146659
0.00294112
-0.00130068
-0.000183569
0.000500013
0.00172596
-0.000296643
0.00171282
0.0121291
-0.01106
0.00283335
0.0672979
0.00373359
0.00112376
0.000132505
0.0104536
0.0169098
0.000522811
0.000311542
-0.00263268
-0.0018023
-0.016224
-0.00626795
-0.0173426
0.00148693
0.00208426
-0.00142824
-0.00398194
-0.00151714
-0.00096257
-0.0142097
-0.0024947
-0.012142
0.00379234
-0.000810464
-0.0226957
-0.00714198
0.0030031
-0.000493075
-0.00310334
-0.000653718
-0.00673983
0.00229032
0.000369554
0.0018801
0.000640672
0.01322
-0.00198799
-0.00507933
0.00131876
-0.014679
-0.00390985
0.00474224
-0.00504287
-0.00371112
0.00150374
-0.00322193
-0.0105835
0.00440421
0.0107476
0.00128954
0.000422503
-0.000346491
-0.00830813
-0.00960517
0.00253674
-0.00422452
-0.00738819
-0.00238944
0.00398297
-0.000427668
0.00900915
-0.0163852
0.00122931
0.00275612
0.00310357
0.00138468
0.00398337
0.0054761
-0.0315244
-0.0221257
-0.0233259
-0.00339636
-0.00730832
0.0058447
-0.00212448
-0.000105129
-0.000895436
-0.00537553
0.00111394
-0.0213785
0.00187986
0.0115264
0.00450532
0.0014992
0.00338703
0.0299778
0.0116506
0.00414053
0.00441785
0.0269907
0.000270073
0.000835505
-0.00843124
-0.000182399
0.011524
-0.00844166
0.00360579
0.00188779
0.00136149
0.0186085
0.000580011
0.00434959
-0.00298339
0.000773114
0.0357305
-0.00866512
0.000839178
0.000121065
0.00151143
-0.00132036
0.00139039
0.00794765
0.00160907
0.000739257
-0.00847972
0.00129388
0.000895604
0.00178401
0.0413637
0.0121298
0.000196456
0.0247937
-0.000799958
0.0233863
-0.0193131
-0.00172458
0.00061654
0.00487854
0.00144537
0.00111873
0.00158379
0.00967833
0.00144973
0.0109121
0.00141988
0.00239287
0.0014194
0.0151361
0.00162191
0.0155603
0.00123285
0.00337469
0.0108239
0.0166596
-0.0150001
0.00440444
0.0496789
-0.00763646
0.00287451
-0.00163329
0.0177621
-0.046231
-0.00137076
0.00383986
0.00260497
0.00142552
-0.00763171
0.00078435
0.00787683
0.00203295
-0.00664332
0.0011828
0.000917081
-0.000813897
-0.00873316
-0.00143212
-0.000445609
-0.021263
-0.00242709
3.10207e-05
-0.000486652
0.00290563
0.00123832
-0.0193282
0.00315594
-0.00873465
-0.0137613
0.022273
-0.00098962
0.0300224
0.00213441
0.0187514
0.000165597
0.000797598
-0.00976325
-0.00484302
0.00239619
-0.00296818
-0.00258076
-0.000894572
-3.37988e-05
0.000508628
0.00280093
0.010862
-0.0313621
0.000272307
0.000290305
-0.000157861
-0.000414341
-0.00390781
0.00599822
0.0080091
-0.00199289
-0.000235821
0.0164047
-0.000104281
0.00202745
-0.0670416
0.00107103
-0.0503514
-0.0044772
0.0187104
-0.000208529
-0.0015049
-0.0018212
-0.0441231
0.00236621
2.36313e-05
-0.00042615
-0.00134051
0.0171417
-0.000947733
0.0106213
-0.00131039
0.00319863
-0.00288178
-0.00879169
0.00110883
0.0108873
0.0015593
0.0174227
0.0107228
-0.00140622
-0.00430034
-0.00557912
-0.00718142
-0.0111348
-0.00668974
-0.0119301
-0.00141966
0.000177185
-0.000475901
0.00641648
0.0124093
0.0223536
-0.00200535
-0.00155259
-0.00595527
0.0021584
0.000943115
0.00135792
0.00667
-0.00135303
0.091856
-0.00381822
0.00251684
0.0113326
0.00304306
0.0250248
0.00301914
-0.000111012
-0.00102598
0.000363448
0.00161551
-0.0120385
0.000420849
0.00403145
-0.00842119
-0.00490474
-0.00055481
-0.0186202
-0.016612
-0.00405273
-0.0011564
-0.0561675
0.00891114
-3.69601e-05
-0.0130733
-0.00211184
-0.00544478
-0.00386718
-0.00978079
-0.0111701
-0.0234791
-0.000248874
0.00161459
0.000731928
-0.000874752
7.16266e-05
-0.000989924
-0.00343899
0.00304658
-0.00179883
0.00168625
0.000895164
-0.000213846
-0.0104044
0.0172689
0.00600717
-0.0116592
0.000843561
0.00127306
0.0081923
-0.000709263
-0.00236225
-0.00118866
-0.000841394
-4.09342e-05
0.000255929
-0.0185372
-0.0249937
-0.000614775
0.000756592
0.0012789
0.00243547
0.0137087
0.000638363
-0.00449001
0.0026797
-0.00352794
-0.000448294
-0.000505324
-0.000862881
-0.000416812
0.001555
-0.00793296
-0.026322
0.000280866
-0.046401
-0.000876092
-0.0143072
-0.0472703
-0.00080949
0.00961802
-0.0161649
0.00161401
0.0180308
0.0217718
-0.00914758
0.00492124
0.00904652
0.0205995
-0.0089653
-0.00295774
0.0014931
-0.00396321
-0.00526194
0.00820427
0.00291595
0.00124304
0.00540747
-0.00345339
-0.00143898
0.0027257
-0.0169874
0.039269
0.00764961
1.46899e-05
0.000870498
0.00329421
0.00129382
0.00430022
-0.000491641
0.000517479
-0.000207629
0.00578058
0.00307978
0.0234296
0.00447151
0.0036347
-0.0131641
-0.0317346
-7.19924e-08
-0.00127286
-0.00950072
0.000845666
0.000964451
0.000210641
0.000828371
0.00175639
0.0176159
-0.00185786
0.0162149
-0.0035388
0.000243122
0.000293799
-0.00876088
-0.0171535
-0.00104945
-0.000932529
-0.0065439
0.00378641
0.00448033
-0.00472757
0.000211681
0.000630572
0.000553661
0.00248584
0.00107556
0.00120935
0.00805914
0.00196887
0.00166347
-0.000386373
-0.00103381
-0.000424515
0.00496482
0.000934247
-0.0290643
0.0050045
-0.000648736
-0.00769957
0.00262928
0.00025031
-0.00424836
0.00387159
-0.00358245
0.000875844
0.00448679
0.00237918
0.0053148
0.0029733
-0.00205471
-0.0127161
-0.0017106
-0.0357891
0.00165398
-0.000906391
0.000116265
-0.00185658
0.000529994
-0.00285378
-0.00043003
-0.00315077
-0.00153764
0.0042139
0.00293209
0.000191753
0.00466365
0.00126548
0.00109002
0.00341791
0.00122863
0.00235944
0.0019707
0.00192486
0.00178812
0.0029284
0.00231714
-0.0154976
0.000512632
0.000377698
-0.000362922
-9.84021e-05
0.00156016
0.00129899
0.00192155
0.00299462
0.00349736
0.000651102
0.00316306
0.00171462
0.000161578
0.000535486
0.00398654
0.00203548
0.00172629
0.00196706
0.00416041
0.00291556
-0.00359092
0.000841332
0.00233336
0.00139546
0.00371333
0.0047889
0.0010913
0.0011848
0.00281029
0.00395573
-7.15115e-05
0.00403065
0.000701084
0.0031378
0.00295246
0.000756202
0.00371154
0.00130186
0.000183586
0.00151605
4.38066e-05
-0.000450105
-0.000817304
-0.00019773
-0.000103534
-0.000940324
0.000370903
-0.00468165
-0.00243266
-0.000877004
0.000580529
-0.00652371
-0.000571364
-6.49165e-05
-0.000780095
-0.000197399
4.96267e-05
-0.0016493
0.00386462
-0.0039505
-0.00153399
-0.000312894
-0.0122836
0.000100686
0.0144665
-0.0008548
-0.00122152
-0.00110671
-0.000881117
5.93963e-05
0.000136737
0.0179388
-9.32965e-05
6.66148e-05
2.06809e-05
0.00130368
0.00541511
-0.000648856
-0.000403233
0.000370171
0.0010381
-0.000287928
-0.000496249
0.00244839
0.000130382
-0.000102212
-0.000314098
-0.000180612
-7.85383e-05
-0.000569729
-0.00219592
-0.010139
0.00399991
2.50433e-05
-0.00506594
-0.000173195
0.000268069
0.0215092
-0.000774595
0.00248347
-0.00107436
-0.000892538
0.00207826
-0.000232079
-0.000469198
0.00313999
-0.000789002
0.000578553
0.000261012
-0.000333559
-8.7484e-05
0.000481153
9.82415e-05
-0.00040223
-0.000432877
-0.000817058
-0.000234219
-9.42778e-05
0.000197266
-0.0273565
0.000301732
0.000517801
-0.0002155
-0.000148333
0.000150043
-7.32168e-05
5.76355e-05
0.000130526
-6.48468e-05
-0.00142291
0.000727468
0.00046324
0.00010273
-0.000393512
0.00140236
0.00021653
0.000756646
4.51786e-05
0.000203825
-0.000384266
-0.00115457
0.000419148
-0.000579145
-0.00163163
-0.000699204
2.53583e-05
-0.00152088
5.72193e-05
0.000680735
-0.000542826
-7.06539e-05
-0.00013775
-0.000355414
0.000282272
0.00031598
-0.0010783
0.000961713
0.000240566
1.90728e-05
-0.00188146
-0.000152054
-0.00151585
-0.000183505
-0.000334738
-2.835e-05
-0.00425394
-0.00157983
-0.00252165
-0.00155419
-0.000759573
-0.00062108
0.000815679
-0.00341287
0.00147937
-0.000461641
0.000708614
-0.000552463
-0.000117041
8.70698e-05
0.000817116
-0.000217627
0.00376807
-0.00184291
-0.00232907
-0.000631355
-6.83162e-05
-0.000759669
-0.000194896
-0.00011689
-0.00012136
0.00519794
-0.00216467
0.00699041
0.000686201
-0.0100553
-0.00122761
-0.000234576
0.000432008
0.0120958
-0.000158908
-0.00425309
-2.38776e-05
-9.58335e-05
6.30829e-06
0.000726908
3.82642e-05
0.000135478
7.81511e-05
0.000268128
-0.000411835
-0.000636608
0.00171421
-0.00414706
-0.000311469
0.000891656
0.00312
0.00189457
-0.000410781
-0.000451151
-7.27842e-05
-0.000746625
-0.000426256
0.000981336
-0.000859276
-0.000261349
0.000111832
-0.000878377
-0.000398747
0.00326732
-0.00219375
-0.000251913
-0.00015241
0.000109301
-5.41561e-05
-0.00052262
-0.0004862
-0.00149382
0.000258778
-0.000221562
-0.000525516
-0.000152165
-0.00124723
-0.00217674
-0.00032772
-0.000355709
0.000402091
-0.000204822
-0.000665697
-0.000443646
0.000138523
0.000236462
-0.000389169
9.66282e-05
-0.000259925
0.00029362
5.96765e-05
0.000188341
5.31006e-05
-0.0001503
0.000160357
-0.000401999
-0.000497038
-0.000565903
0.000125113
0.00010677
-0.000620506
0.000131271
-0.000225013
9.21097e-05
0.00128649
0.000279079
0.000606963
7.33272e-06
0.00044124
4.2133e-05
-0.00013653
0.000821067
-0.000212002
-0.000570494
-0.000167064
-0.000309925
0.000391236
0.000451924
0.000173676
-6.74883e-06
5.86345e-05
-0.000747179
-0.000287271
-2.18194e-05
0.000203714
0.000355933
8.01562e-05
0.000359527
0.000124783
-0.000261526
-1.60016e-05
0.00096232
-0.00053538
0.000694599
0.00017325
0.000382655
-0.000106304
-1.49107e-05
0.000230714
-0.000354305
0.000216015
-0.000150879
0.000692134
-6.16959e-06
6.13362e-05
0.000327443
-0.000836677
1.7171e-05
-0.000389243
0.00122383
0.000102794
4.18822e-05
0.000155003
-0.000394566
8.9827e-05
-0.000257429
0.00203812
0.000139646
7.50966e-05
-0.000213982
-8.64029e-05
0.000160519
-0.00399632
-0.000137537
3.99127e-05
0.000969573
0.000233889
-0.0122246
-5.87697e-05
0.000100794
-0.000292962
-0.000110463
0.000258023
-0.0001558
0.000110668
-0.00020777
0.000219163
0.000492754
7.11425e-05
-0.00080795
-4.62253e-05
0.000396797
0.000356354
0.000163314
9.20448e-05
0.000507859
-6.80657e-05
-0.000199865
0.000213524
0.000390147
-0.000470167
-6.25698e-05
0.000111071
0.000375625
0.000219686
-7.19241e-05
0.000511088
-0.000588327
0.00015437
0.000806645
0.000392798
0.000347388
0.000810902
-0.000415895
-6.25013e-05
0.000172925
0.000307737
0.000171328
0.000409099
-0.000447289
-0.000130567
-0.000274476
-0.000202535
-9.60009e-05
-0.000306891
0.000634121
4.17755e-05
-0.000116821
-0.00174999
0.00306549
0.00111591
0.00315482
0.00029456
0.00142216
0.000535125
0.000347053
1.4935e-05
0.000271365
0.00013615
-0.00036909
-0.000150278
-0.000272352
-0.000105728
0.000106203
0.00123194
-0.00848238
0.00341617
-0.000139756
-9.00988e-05
0.00679317
-0.000350466
7.34694e-05
-0.000118009
-0.000139419
0.000106435
-8.72703e-05
-5.2119e-05
4.89181e-05
-0.000271785
7.56954e-05
-5.69939e-05
0.000244632
0.000187292
8.8468e-05
-0.000102916
0.000258575
0.00054915
0.00122311
-0.000151257
-0.000276894
0.0130167
-0.000374671
-2.61387e-05
-0.000312815
-0.000152093
-4.5543e-05
-0.000361068
-0.000495823
1.21454e-05
-0.000300416
-7.15775e-06
-0.0015962
0.000344749
0.00157864
0.000167744
3.38539e-05
0.00434581
8.72877e-05
-4.89646e-05
4.76734e-05
-0.000273892
0.00206813
-0.000351525
-0.000268225
0.00123033
-0.000251175
-0.000201544
-0.00240971
-2.05214e-05
-9.20383e-05
0.000218971
-0.000185761
-7.86338e-05
-0.000271514
0.000968128
-0.000312294
0.000267124
0.000117252
-0.000181828
4.03189e-05
0.00258957
-0.000256551
-0.000120381
0.00191187
-0.000206579
-0.000128237
-0.00181244
-0.000283034
-0.000109289
7.30378e-05
-0.000139151
-0.000608131
-0.0104575
-0.000658187
-0.00267085
-0.000500841
-0.000933422
-0.000328772
-0.0136525
-0.000673248
-0.00210335
-0.000555727
-0.000574437
3.21179e-05
-0.00772367
-0.000527397
-0.00160252
-0.000398636
-0.000501399
0.00014276
-0.007387
-0.000156244
-0.00161511
-5.52199e-05
-0.000445059
0.00026848
-0.0129446
0.000946142
0.000416186
0.000770155
-6.99773e-05
0.00054517
4.17798e-05
-0.00105412
-4.0212e-05
-0.000232457
0.000652866
0.000464006
-0.00226197
0.000309972
-0.000284651
0.000401377
0.00016796
-0.00676953
-0.000184616
-0.00112784
1.47838e-05
-0.000472212
0.000224616
-0.0149025
-0.000154499
-0.00240342
-0.000398687
-0.000152879
0.000448671
0.000184041
-0.00489814
0.000979474
0.000292077
0.000458514
-4.7487e-05
0.000518488
-0.000201918
-0.000858885
-0.000294734
-1.87773e-06
0.000502075
-0.00174225
0.00164285
0.000577172
0.000919056
7.00116e-05
0.0008946
-0.000674048
-0.000225828
6.30572e-05
0.000511642
-0.00187712
-0.00186956
-9.34845e-05
-0.000152976
0.000245857
0.000155264
5.20029e-05
-0.00901842
-0.000757794
0.000202829
-0.000928934
0.000109258
-0.00270856
-9.47368e-05
8.99442e-05
-0.00116098
0.000131253
-0.00208605
9.76482e-05
-0.000251053
-0.001557
-0.000381258
-0.000251361
-0.000217439
-0.00101897
-0.000306652
-0.000105443
0.000184341
-0.00458726
0.000441859
-0.00018347
-0.000974171
-0.000306296
-0.000214119
-0.000136606
-0.000985981
-0.000158838
-3.22949e-05
0.000163309
-0.00727169
-0.000391819
-0.000529484
-0.00136372
-0.000509865
-0.000447024
-9.14624e-05
-1.19951e-05
-8.73244e-05
0.0003288
-0.00249095
-0.000371164
-0.00065657
-0.000312936
-0.000225799
0.000326888
-0.00342756
-0.00225503
-0.000662504
-0.00255321
-0.000625826
-0.000636217
0.000175919
0.00130538
0.000447254
-3.43499e-05
0.000145816
0.00408685
-0.000324048
-0.000696884
-0.000234035
-0.000409734
0.000142401
-0.00251108
0.00150669
0.000269949
-0.00032897
0.000133605
0.000387143
-2.32728e-05
0.000730037
6.7404e-05
-0.000186962
7.59107e-05
0.000157634
0.000345178
-8.5378e-05
-0.00100681
2.53005e-05
-0.0182631
-0.000809916
0.000651906
-7.42143e-05
-0.00236833
0.000237098
-0.00121254
-0.000301123
1.54494e-05
0.000139026
0.000159607
-0.000836464
-0.000186832
-0.000442312
-0.000284216
-0.000248037
0.000293627
-9.07097e-05
-0.00322009
-0.000250167
0.000359379
-0.00022118
-0.00028315
0.000233653
-0.000240086
-0.00215982
-0.000364752
4.66895e-05
-0.000265194
-0.000394423
0.000191498
-0.000109623
-0.00230876
0.000263037
0.00010956
-0.00245806
1.44697e-05
-0.000803412
-0.000152243
-3.73134e-05
-2.98119e-05
-8.75347e-05
0.000291753
-0.00148469
-0.000209992
-8.86293e-05
-0.000165139
-0.000271262
0.000352067
-4.88137e-05
-0.000921987
-0.000162521
1.39827e-05
-0.000159792
4.79422e-05
0.000328566
-1.35814e-06
-0.000619396
-0.000203967
0.000161245
-0.000299501
-0.000313892
0.000176673
-0.000140429
-0.00179809
0.000447966
0.000222483
-2.61535e-05
0.000320494
0.000421932
0.000315679
0.00281674
-8.42726e-06
0.000370724
-0.00025849
0.000298939
0.000115589
-0.000125442
0.000173775
-0.000240332
-9.92409e-05
0.000188909
0.000279259
5.74352e-05
-0.000389287
0.000458733
0.000105457
-3.89006e-05
0.000414032
0.000313821
-0.000558626
5.40258e-05
-7.84119e-05
-7.25165e-05
5.97629e-05
0.000420819
0.00122406
-0.00135459
-0.000504747
-0.00162166
-0.000491977
-0.000472364
-0.000287472
-0.000285003
-0.000351341
-5.59722e-05
0.000160991
-0.000549373
-0.0062778
-0.00168447
-0.00553081
-0.00155042
-0.001937
0.00030282
-0.000380019
-0.000700288
-0.000987928
0.00498444
-0.00664464
-0.00161741
-0.00576798
-0.00140166
-0.00178102
0.000176999
0.000134314
-0.00129167
0.000100357
0.000959799
-0.000119207
-3.31995e-05
-0.000174592
-0.000135451
-6.53299e-05
0.00010292
0.00178213
0.000225162
-0.000121755
1.85737e-05
-0.00316699
0.00184621
0.000405596
0.000963133
0.000104369
0.000781144
7.02086e-05
-0.000160721
-0.000216241
0.000121219
0.000227629
0.000423473
0.00126964
0.000345635
0.000705129
9.34793e-05
0.000821279
6.35906e-05
-0.000201479
-0.000678231
0.000137527
0.0002916
-0.000912444
0.000672988
8.34495e-05
0.00010989
-0.000147244
0.000307175
0.000585783
0.00157114
0.00110028
-0.000163272
-0.000326365
0.0154747
0.000395074
6.22333e-05
-0.000723576
0.00115252
0.000284023
9.83838e-05
0.00640921
0.0010227
9.29038e-05
0.00026052
-3.79918e-05
0.000176316
0.000228058
-2.56549e-05
0.000189577
8.70497e-05
6.52255e-05
-0.000942879
-0.000734087
-4.17573e-05
8.30841e-05
-0.000120378
1.53026e-05
-0.000298282
-0.000126653
-0.000243803
-0.000201269
0.000139617
0.000433931
-0.000809089
-3.41722e-05
-0.000195661
-9.35194e-05
-5.46499e-06
-4.37472e-05
-3.2357e-05
-9.32537e-05
-4.36063e-05
0.000196428
0.000387823
-0.000384539
-1.44225e-05
-0.000481776
-0.000151589
0.000110084
-0.000407562
0.000810483
0.000156748
-6.49836e-05
0.000264164
0.00386359
0.00342443
0.00054792
0.00202721
0.000215522
0.000773099
0.000177318
-0.000103889
-0.000433151
-5.36763e-06
0.000476532
-0.0011716
0.000779467
0.000383642
0.00131864
0.000173526
0.000406295
4.52306e-05
0.000539864
-0.000214676
6.35711e-05
2.57748e-05
-0.000832967
0.00461648
0.00144041
0.00372877
0.000723976
0.00240405
0.0008307
-0.015303
-0.000106566
0.000540358
0.00029799
0.00877902
8.03767e-05
-0.000443826
-0.000234726
3.41592e-05
0.000196903
0.00240555
0.000311659
-0.00175101
-0.000141922
7.02422e-05
-6.96749e-07
-0.00027493
0.00201629
0.000485901
0.00170118
0.000126335
0.000538322
0.000960848
-0.00189771
0.000240209
0.000997241
0.000351355
0.015062
0.00398303
0.00113101
0.00365613
0.00064264
0.00128554
0.000520872
-0.0606113
1.00976e-05
0.00038475
0.000431645
0.00143937
0.000847098
6.22254e-05
-0.000159015
6.89661e-05
-0.000126242
0.00199616
0.000713439
0.000153558
0.000728016
-1.17047e-05
0.000179704
-0.000328771
0.000163875
0.000169891
-1.46871e-05
-0.000113368
-0.00408293
0.000238892
-0.000146912
6.44924e-05
0.000201814
0.000275918
-5.04644e-05
0.00580899
0.000333607
-0.000281181
0.000408565
0.000356358
0.000270119
0.000182578
0.00209494
0.00016133
0.000265107
1.4847e-05
0.000684305
0.000230619
-0.000322957
0.0156142
-1.91528e-06
-0.0464377
-0.00529091
0.000471815
7.77215e-05
-0.00881162
-7.07129e-05
-0.000680931
-0.000187442
0.000135323
0.000107538
0.00383818
0.000213662
0.000172322
2.30353e-05
0.000962654
-0.000128142
0.00289839
-0.000169885
-0.000162319
-3.63774e-06
-7.02513e-05
-0.000229878
0.00497738
6.57437e-05
6.39478e-06
-0.000191072
1.0259e-05
4.88315e-05
-0.000248583
0.000945539
0.0013364
0.000451225
0.00117093
0.000196302
0.000704672
0.000243303
-0.000109686
-4.18285e-05
0.000504782
-1.3565e-06
0.00694004
-0.000117069
-0.00160513
0.000309745
0.000195889
0.000206126
0.00423796
-2.81087e-05
0.000415639
-2.59125e-05
0.000258396
0.000207477
-0.000157185
0.00286005
0.00016771
9.84627e-05
0.000112879
-4.59736e-05
-0.000134353
0.0241971
0.000138053
0.00117778
-0.000191261
1.7892e-05
-0.000308414
0.00147826
-0.000311302
0.000117121
-0.000307244
-0.00119673
-3.47699e-05
0.000168887
0.000231055
9.66012e-05
-0.000185663
-0.000173044
-0.00235068
0.000328522
-0.000156785
-0.000559638
-0.00134239
0.000144314
-0.000573409
-0.000258162
-0.000255337
-0.000181401
-0.00037384
0.000593003
0.000500088
-0.000413264
-1.57186e-05
-0.000121828
0.00123025
0.00035001
-0.00015285
-0.00015852
-0.000163742
-0.000235883
-0.000113401
0.0025626
-0.00323563
-0.000737644
-0.000166677
-0.000577492
-0.002561
-1.3951e-05
-0.000256171
-0.000213314
-0.000332618
-0.000293742
-0.000467185
-0.00751609
-0.00121675
7.17552e-05
-0.000153227
-0.000225148
-0.000470503
0.000225962
-0.000243611
5.03684e-06
6.32287e-05
-0.00042246
-8.73168e-05
-0.0112591
0.000112124
-0.000213496
0.000137658
-0.000244511
-0.000609061
0.000423751
0.000275173
0.000180913
-6.19256e-05
1.03149e-05
-0.000333182
0.000949029
0.0060537
8.10635e-05
3.71577e-05
0.000340598
-0.000444219
0.0010272
0.000559157
3.2027e-05
-9.32528e-05
-9.05965e-05
4.72431e-05
0.0258989
0.000963987
-0.000156969
-3.46638e-06
0.000176527
-0.00112882
3.4873e-05
0.000482605
0.000216024
-3.21937e-05
1.00808e-05
0.000206893
0.000420878
0.000686324
0.000538387
0.000341626
0.000355249
-2.75429e-05
0.000837931
0.000328489
0.000180779
-0.000203294
-2.61037e-05
-8.26221e-06
0.0157379
-0.00964729
0.00360884
-0.000689357
-0.000848145
-0.0005735
-0.0022186
-8.25822e-05
-0.000378158
-0.000179019
-0.000308967
-0.000284143
-0.000474574
-0.0104292
-0.00341455
-0.000541999
0.000816034
-2.77606e-05
4.34008e-05
2.72123e-05
-4.91187e-05
7.81559e-05
0.000373392
0.000322497
-0.000278011
0.000329246
0.00109489
-0.000106537
-3.91667e-05
-0.000108025
-4.16939e-05
-0.000375872
0.000225649
0.000205805
0.000222168
-0.000122986
-5.83274e-05
-9.77606e-05
0.00478933
0.000389205
-0.000259281
-0.0001029
0.000254633
0.00131606
0.0013743
0.00113345
7.52511e-05
-0.000449378
-0.000362415
-0.000357041
0.00949501
0.000698198
-0.000582154
1.7263e-05
-0.000359737
-0.000244627
-6.99261e-05
-2.19176e-05
2.97469e-05
-7.30638e-05
4.02927e-05
-0.000233304
-0.00170493
0.00449881
0.000913581
-2.08255e-05
0.000271734
0.000110033
-3.35237e-05
0.00016761
0.00155506
0.000201915
-0.000340135
-0.000201865
-9.84496e-05
0.00343617
-0.00282019
-0.00032632
5.05037e-05
-0.000667127
-0.000127482
0.000219551
0.000280742
6.2971e-05
-9.76924e-05
-0.00624777
0.000317487
0
-0.000302779
0.00258223
0.00125797
0.00131584
-0.00175289
-0.00019127
-0.00162199
0.00116874
0.000706632
-0.000657559
0.000748192
0.00129067
2.98621e-05
0.000684244
-3.54328e-05
-0.000684053
0.000739408
-0.000514849
-0.000858547
0.000435637
0.000599646
0.000875045
-0.00132519
-0.000659441
0.00133844
0.000660831
-0.00255082
-0.00134521
0.000309309
-0.00193866
0.000520324
0.00173955
-7.05621e-05
-9.634e-05
-0.000468299
0.00049529
0.00117426
-0.000455115
0.00106554
-0.000604587
-0.00187702
-6.64925e-05
-0.00117343
-0.000194776
-0.000803174
3.60767e-05
-0.00451579
-0.00167163
0.00103437
-0.000220248
0.000986586
-0.000952128
-0.000758542
-0.00083481
7.40382e-05
-0.00148067
-0.000415701
-0.000694429
-0.000580222
-0.000723299
0.000822057
-0.00171428
0.00101763
-0.000507477
-0.000365463
-0.00082893
-0.00432326
-0.0019689
-0.00265553
-0.00162096
-0.00181798
9.5173e-05
-0.00177477
-0.000848261
-0.000986252
0.000511867
0.00153353
0.00172527
0.000466926
0.000562722
-0.00222038
-0.000299779
-0.00185705
-0.000547816
0.000232086
-0.00023905
0.000272396
-0.000214949
-0.000569297
0.000351065
0.000331239
-0.000652797
0.000476851
0.000276472
0.000832054
-0.000349492
-0.000471557
0.000272999
0.00188973
-0.000539337
0.000846898
0.000221476
0.000131614
-0.000588693
-0.00137254
0.000585965
-0.00370058
0.00178723
-7.44203e-06
-0.000627788
-0.00116604
-0.000986907
-0.0010427
-0.00205697
-0.00298152
0.000327125
-0.000521913
0.000414352
0.000673346
-0.00794761
-0.00389705
-0.00116932
-0.00411574
-0.00159254
5.39385e-05
0.00122983
0.016578
0.00214268
0.000223577
-0.0145702
-0.000866673
0.000446207
0.00306048
0.0016234
-0.00133694
-0.0502494
-0.00469352
0.00396932
0.00448152
0.00444215
0.00232887
6.75982e-06
0.00720337
0.00174601
0.0133822
0.00210362
0.00181754
0.00305342
0.000429956
0.00074596
-0.00470624
0.00125926
-6.69096e-05
-0.00692658
0.0413992
0.00158269
0.000724377
5.78672e-05
0.00151272
0.00313478
0.00368317
0.00561763
0.00206601
0.00591178
0.00226641
0.00423687
-0.00332453
0.00227069
0.00869716
-0.000666634
0.0172715
0.00530051
0.00108412
0.00392885
0.00402109
3.74072e-05
0.00529877
0.0244615
0.0311815
0.00100261
0.0151083
-0.00510918
0.0318807
0.00493975
0.00515599
0.0276221
0.000151878
0.000494615
0.00119078
0.0066607
0.000182647
0.0109821
-0.00343508
-0.000736905
0.000406613
0.00370641
0.00786996
-0.000761668
-0.00087106
-0.0230384
-0.0229347
0.0257074
0.029877
0.000906948
-0.00269677
0.0188239
-0.0197992
-0.00254501
-0.0102107
-0.00392478
0.0132649
-0.00293242
0.00239061
0.00163547
-0.00573246
-0.00306581
0.00221964
0.00410535
-0.0143495
-0.0150346
0.00363773
-0.00273224
-0.00378033
0.00627659
0.0294038
-0.00757664
-0.0021471
0.00353027
0.00203643
0.000630447
0.000533962
-0.00231614
-0.00136999
-0.000789802
-0.00383631
0.00804907
0.00423784
0.00242756
0.00363744
0.00751471
0.00292772
0.00144465
0.00572576
0.0083413
0.00086514
0.0146908
0.0232179
-0.00787071
-0.000536065
0.000245881
-0.00368124
-0.0024829
0.00303806
0.00146446
-0.00204197
-0.000456444
0.000824566
0.00116767
0.00220863
0.00121239
0.00889565
-0.002263
0.00292839
0.00705915
0.0417322
-0.00218952
-0.00767226
0.0166589
-0.0102772
-0.0119221
0.0157856
-0.00284229
-0.000798221
-0.0105181
0.000522763
0.0182973
-0.000662482
0.00334556
0.00431144
-0.001072
0.000635038
-0.0137896
0.00216474
0.00225868
0.035298
-0.0078615
-0.0110964
0.0033519
0.000545138
0.00672758
-0.000884864
-0.00377209
-0.00188872
-7.56451e-05
-0.00031648
0.00494724
0.00179729
-0.00462402
-0.000448469
0.00120774
-0.000109188
0.00286614
-0.000909919
-0.000998971
0.00107463
-0.000677493
0.00523516
-0.0070051
-0.00641164
0.00538479
0.00638868
-3.85435e-05
0.00972854
0.0207501
0.00148839
0.00792949
-0.00118857
-0.000343793
0.00112953
0.00278142
-0.000998376
0.00278208
0.00462806
-0.00774995
0.00256116
0.0612926
0.00856066
0.00265655
7.79127e-05
0.0135995
0.0129419
0.000597297
0.000613275
0.000759254
0.00650892
-0.0115148
-0.00605654
-0.0159681
0.0011489
-0.0026687
-0.00224278
-0.00386673
-0.00116666
-0.00103463
-0.00870411
-0.00253368
-0.00436421
0.0114338
-0.000834637
-0.0125639
-0.00554702
0.00870709
0.00055478
-0.00256617
-0.000610715
-0.00552941
-0.000527795
-0.000200067
0.00356756
-0.00078164
0.0105439
0.000828771
0.00360187
0.00109465
-0.00835397
-0.00211262
0.00341558
-0.00339481
-0.00324833
0.00110667
-0.00328436
-0.00572938
0.00357632
0.0147028
0.000751582
-0.000916499
-0.0017574
-0.00466843
-0.00974182
0.00334428
-0.00109368
-0.00559954
-0.000421747
0.00748511
7.35667e-05
0.00565866
-0.0158109
0.00230996
0.00408013
0.00376837
0.000588825
0.00332665
0.00435368
-0.0146046
-0.0169044
-0.0181012
-0.000718928
-0.0066623
0.0154382
-0.00317263
-0.000183684
-0.00636622
-0.00536706
-0.000712919
-0.0293134
-0.000623923
0.00115865
0.00416599
0.0014824
0.00446389
0.0312737
0.0120831
0.00615919
0.00483102
0.0261471
0.00141822
0.00119685
-0.00758283
-0.000410459
0.024685
0.000650192
0.00410966
0.0021297
0.00160167
0.0226501
0.00397514
0.00488609
-0.000782433
0.00276671
0.0417913
-0.00338212
0.00146588
0.0011933
0.00193694
0.0054507
0.00167177
0.00899484
0.001619
0.000188498
-0.0124315
0.00308528
0.00135796
0.00241329
0.0349588
0.0141339
0.00109646
0.0294134
-0.000753232
0.0171961
0.00333343
-0.000726877
0.00134792
0.00646626
0.00196029
0.001271
0.00184069
0.0102227
0.00189687
0.00989952
0.00157332
0.0026648
0.0015697
0.0142684
0.00184714
0.00981887
0.00146364
0.00286854
0.013108
0.0244983
-0.00934097
0.00476268
0.0533111
-0.00859857
0.00370913
0.000115164
0.0219797
-0.0406651
-0.00122381
0.00271396
0.00412548
0.00213109
6.25453e-05
0.000564298
0.0102587
0.00204045
-0.00620383
0.00171441
0.00100131
-0.000561695
-0.00148981
0.000154756
-0.000555497
-0.0145632
-0.00245385
0.000187499
-0.000381367
0.000869276
-0.00186246
-0.00265
0.00331121
-0.010536
-0.0257165
0.012955
-0.0106959
0.0138748
0.00374342
-0.00619124
0.0042026
0.00183166
-0.00304047
0.00376745
0.00825991
0.00365144
0.00173339
0.00213592
0.00646087
0.00498924
0.0100386
0.00583408
-0.0565738
0.00297553
0.00514165
0.00499065
0.00636986
0.00272324
0.0238676
-0.0193672
0.00132975
0.00174685
0.00273125
-0.00938561
0.00530886
-0.0664171
-0.00148833
-0.102433
-0.00550318
-0.000223644
0.0028505
-0.00104782
-0.00236419
-0.0270655
0.0156154
0.00682741
0.010576
0.00775768
0.0203979
0.00196627
0.010414
0.00302973
0.0227277
-0.000332438
-0.0199061
0.0118142
0.00512904
0.0109048
0.0189838
0.0273964
-0.00410701
0.0110926
-0.00276745
-0.0143659
-0.0232717
-0.0139419
-0.0246647
0.00368634
0.00554849
0.0022747
0.0256138
0.0186982
0.0322432
0.000975295
0.000897622
-0.000422774
-0.000419879
0.00875541
-0.00173409
0.015804
0.00187993
0.0868567
0.00572215
0.0080108
0.013954
-0.00413986
0.0192909
-0.00587117
0.00578145
0.00281163
-0.00538242
1.00709e-05
-0.0245776
0.00279601
0.00155791
-0.00860373
-0.000933431
0.0158912
-0.0146064
0.00144974
-0.00208146
0.00211203
-0.055224
0.00111939
0.00207439
-0.0176849
0.0036382
-0.0019283
0.00705515
-0.000498081
-0.00583223
-0.023266
0.0120381
0.00535111
0.00337785
0.00013498
0.00159357
0.000378102
0.00247435
0.00552808
-0.00186864
0.000476138
0.00501099
0.00136963
-0.00485677
0.0213874
0.00850446
-0.00615118
0.00707826
0.0033132
-0.000414155
-0.00633564
0.00107717
0.0010148
0.000568235
0.00158712
-0.0034498
-0.0338159
-0.0434541
0.000680403
0.00241997
0.00418548
0.0132839
0.0171907
0.00451561
-0.00280485
0.00709288
-0.00478846
0.000748772
0.000633855
0.000201569
0.000568641
0.00165139
-0.00848444
-0.0376156
0.00107449
-0.0268272
-0.00667248
-0.00891279
-0.0372123
-0.0137804
0.0116168
-0.0186827
-0.000868006
0.0145275
0.0155463
-0.0117888
0.00524692
0.00798849
0.0140225
-0.015247
8.05846e-05
0.00277186
-0.00341146
0.0133469
0.0113089
0.00541546
0.00271406
0.006686
-0.00120551
-0.00141958
0.0123509
-0.0335185
0.0262426
0.000332006
-0.0084195
-0.00872709
-0.00593851
0.000516816
0.00181773
-0.000152704
0.00121622
0.0005154
-0.000670203
-0.00449373
0.0186474
-0.00398262
-0.00265169
-0.0262402
-0.0601721
0.000303677
-0.0086972
-0.0208929
0.00186611
0.00166608
0.00110775
0.00311553
0.00401136
0.0053549
-0.00291216
0.0089726
-0.00504666
0.000907691
0.00105266
-0.0137595
-0.0288409
-0.00265944
-0.00339537
-0.00723948
0.00229019
0.00638109
-0.00814473
0.000112641
-0.000977767
0.00152893
0.000868887
-0.00079926
0.00239136
0.0108539
-0.000636713
0.00237706
-0.00169981
-0.00245618
-0.00188308
0.00456019
-0.000206273
-0.0320804
0.00267543
0.000299697
-0.00802308
-0.000604926
0.000960366
-0.00342366
-0.00308662
-0.00364315
0.00316936
0.000811164
0.00416592
0.00797926
0.000828386
-0.00137017
-0.0109217
-0.00110968
-0.0370133
0.0024187
-0.00315063
-0.000721298
-0.00377937
-0.000851259
-0.00528304
0.000461767
-0.00244359
-0.000789351
0.00365181
0.000260203
0.00110486
0.00367678
-0.0012119
-0.000379483
0.00250947
-0.000142896
0.000447444
8.16048e-05
0.000877722
0.000841452
0.00255537
0.00212622
-0.0195373
-0.000197718
-0.00037901
-0.00102302
-0.000561492
0.000791061
0.000527002
0.00151563
0.00226214
0.00258819
-0.000200698
0.0016834
0.00114793
-0.000877496
-0.000277249
0.00397031
0.00103841
0.00160383
0.00171844
0.00333719
0.00193749
-0.00544716
0.000659434
0.00132989
0.000730911
0.00285212
0.00467996
-0.000201857
0.000249605
0.00232774
0.00372221
-0.000925927
0.00335206
-0.000469064
0.00322725
0.00153541
0.000181146
0.00408293
0.000483093
-0.000705204
0.000674946
0.000339244
-0.000816765
-0.00094763
-6.84829e-05
5.40143e-05
-0.00203439
0.000906756
-0.0101608
-0.00247957
-0.000934845
0.00147279
-0.0132436
-7.16475e-05
0.000112523
-0.00049951
-8.91028e-05
0.0003239
-0.00191806
0.00668042
-0.00631702
-0.00215776
0.00187959
-0.0175431
0.000136474
0.0199101
-0.00085417
-0.00128753
-0.000807524
-0.000967749
0.000298745
0.000157182
0.0247432
0.000388153
0.000251658
0.000273022
0.0034012
0.00854039
-0.000177797
-0.000204684
0.000169314
0.00231924
0.00017236
-0.000404052
0.00436824
0.000953471
0.000119134
0.000335907
-3.61164e-05
0.000252629
-0.000668103
-0.00181679
-0.0108609
0.00524869
0.000678307
-0.00549694
9.13113e-05
0.000731576
0.0224718
-0.00025401
0.0036457
-0.000866543
-0.000610997
0.00272862
-0.000225203
-0.000252851
0.00820084
0.000536327
0.00173462
0.000587992
0.000413753
0.000104839
0.000924524
0.000401526
-0.000118827
-0.000272418
-0.000830004
-6.80959e-06
0.000163434
0.000498134
-0.0225291
0.00060645
0.00103958
-0.000255569
-8.45447e-06
0.000381498
0.000177726
0.000225693
0.000373702
0.000172038
-0.000933201
0.000657644
0.000682292
0.000257867
-0.000399089
0.00101387
0.000166994
0.000670071
2.10972e-06
0.00017624
-0.000390174
-0.00147686
0.000901472
-0.000657542
-0.00180994
-0.000457308
0.000136544
-0.00177488
-0.00014482
0.00137548
-0.000876811
-5.95556e-05
-0.0001745
-0.000363994
0.000299832
8.85385e-05
-0.00136306
0.000679298
0.000244221
-0.000111092
-0.00200611
-0.000125658
-0.00167226
-0.000178405
-0.00033916
-0.000206968
-0.00633614
-0.00260137
-0.00346808
-0.0024184
-0.00140376
-0.000825225
0.000945058
-0.0040333
0.00198972
-0.00108616
0.00128102
-0.000586983
-2.12926e-05
0.000102403
0.000970896
-0.000356909
0.00553547
-0.00286436
-0.00360906
-0.000701946
-8.08062e-06
-0.000766194
-0.000163036
-6.97585e-05
-0.000296377
0.00884563
-0.00240938
0.0092066
0.000399145
-0.0136049
-0.00227601
-0.000238237
0.000487321
0.0134537
-0.000306818
-0.00517674
0.000174277
-0.00031509
0.000202997
0.00126686
8.15578e-05
0.000211587
-0.000686418
0.000353972
-0.000487039
-0.000776272
0.00250582
-0.00504814
-0.00110263
0.000336317
0.00239806
0.00292318
-0.000407176
-0.000544806
-0.000198343
-0.00094822
-0.000465011
0.00133446
-0.000847407
-0.000277008
9.30399e-05
-0.00118202
-0.000400704
0.00369544
-0.00279691
-0.000310186
-0.000354331
0.00024618
-9.05266e-05
-0.000594066
-0.000604394
-0.00186368
0.000358167
-0.000471863
-0.00066056
-0.000150113
-0.00209634
-0.00308041
-0.000434089
-0.000639913
0.00053047
-0.000195587
-0.00105395
-0.000629389
0.000235531
0.000274796
-0.00047734
0.000119501
-0.000335776
0.000986213
1.94852e-05
0.000257572
-4.49933e-05
-0.000136364
0.000161642
-0.000556429
-0.000702507
-0.000869897
0.000184512
4.95277e-05
-0.00074579
0.000152658
-0.000296553
0.000461354
-4.55494e-05
2.46056e-05
-0.000173595
-0.00019295
0.000166587
-0.000163906
-0.000348738
0.00134219
-0.000546091
-0.00120566
-0.000954937
-0.00105572
0.000232021
0.000293931
-5.20496e-05
-0.000217285
-9.53885e-05
-0.00108975
-0.000568522
-0.00024138
6.27487e-05
0.000320159
8.43994e-05
0.000221971
-1.26608e-05
-0.000407714
-8.07555e-05
-8.00605e-05
-0.000861083
0.000980995
0.000145213
0.000382632
-0.000217643
4.36479e-05
0.000241487
-0.000275856
0.000250349
-0.000224131
0.00301596
6.72203e-05
0.000122435
0.000461844
-0.000953308
1.49431e-05
-0.000495195
0.00294514
-8.14494e-06
6.05238e-05
0.000128004
-0.000485375
5.72367e-05
-0.000394012
0.00395219
-0.000201601
3.22335e-05
-0.000361619
-0.000129842
0.000117568
-0.00711459
-6.54524e-05
-0.000581643
0.00159424
0.000207299
-0.0169303
-0.0001963
9.77791e-05
-0.000334214
-0.000139911
0.00028737
-0.000392587
0.00020982
-0.000553123
0.000313093
0.000496122
-0.000526452
-0.00111445
-0.000164733
0.000360362
0.000376669
0.000145989
0.000220355
0.000684404
-0.000144981
-0.000175368
0.000222437
0.00163105
-0.000638394
-0.000183162
-6.23321e-05
0.000390717
0.000179978
4.46561e-05
0.000416737
-0.000784816
0.000135435
0.000828004
0.000416963
0.000317812
0.00134434
-0.000772209
-0.000184629
0.000241666
0.000414954
0.000307475
0.000693872
-0.0013114
-0.000278171
-0.000903664
-0.000340123
-0.000230915
-0.000544082
0.000891473
-8.06445e-05
-0.000180276
-0.00175477
0.00229135
0.00101152
0.00272052
0.00027711
0.00130165
0.000694863
0.000587939
-2.05007e-05
0.00038473
0.000117236
0.000154799
-7.64983e-05
-0.00043748
-0.000110674
0.000111951
0.00256571
-0.00666022
0.0049209
-9.71789e-05
-0.000169647
0.0145201
-0.000940306
9.72892e-05
-0.000308167
-0.000129057
0.000119238
2.12294e-05
0.00011357
2.20106e-05
-0.000299665
-5.39581e-05
0.000891312
-0.000300804
0.000186356
-0.000275336
-9.12759e-05
0.000251683
0.00123077
0.00182542
0.000217518
-0.00031478
0.0199742
-0.000914752
-1.13607e-05
-0.000580418
-0.000138436
-3.56804e-05
-0.000286991
-0.000713096
1.36996e-05
-0.000344785
-2.92483e-05
-0.000717238
0.00116907
0.00233764
0.000308365
2.15025e-05
0.00839758
0.000227603
-0.000100283
0.000142422
-0.00035174
0.00365681
-0.000402417
0.00022573
0.00185638
-0.000284533
-0.000258358
-0.00175305
5.45162e-05
0.000330928
0.000394621
-0.000134568
-5.32793e-05
-0.000244323
0.00438119
-0.000264041
0.000594394
0.000206232
-0.000132577
0.000125379
0.00593177
-0.00019473
0.000164786
0.00310348
-0.000190657
-0.000142686
-0.000695859
-0.000308001
1.78781e-06
0.00011228
-0.000148956
-4.09592e-05
0.00174796
-0.000217937
7.43424e-05
1.60765e-05
-0.000260622
-0.000173039
0.00688558
-0.000394122
-5.71139e-05
6.13615e-05
-0.000211413
-0.000110635
0.00146848
-0.000435206
-0.000212427
-0.000118904
-0.000325819
-0.000135071
0.000540372
-0.000376736
-9.72101e-05
0.000430173
-0.000249116
-0.000109509
0.000855433
-0.00108574
2.87615e-05
-0.00053522
-7.85123e-05
5.17985e-05
-4.87962e-05
0.000308371
0.0004697
-0.00023421
-0.000147578
-5.43664e-05
-0.000643611
0.0012859
-0.000142225
-0.000222151
-0.000508525
0.00341405
-0.000493879
0.000891231
0.000688451
-0.000235636
-0.000198547
-0.00168453
6.23406e-05
-0.00119646
-0.000258682
0.000297654
0.000313413
-9.45192e-05
0.00113833
-0.000127372
0.00037596
0.00101518
0.000157085
0.000390328
-0.000263246
5.73462e-05
-0.000209321
0.0001873
0.000156589
0.00290281
0.000262179
0.000329545
0.000713349
0.000106675
0.000460094
0.000132877
-5.24845e-05
0.000296896
0.00040723
0.00040799
-0.00108568
0.000246975
0.000135411
0.000199229
-6.82413e-05
-0.000111092
0.00107292
4.51423e-05
0.000586722
-0.000783139
-0.000134113
0.000635711
0.000663964
0.000422892
-0.0010171
-5.71229e-06
0.00246347
-0.000653793
-0.000154576
-0.000922173
-0.000252761
-0.000177692
-0.000314777
-0.00091014
-0.000307194
1.71e-05
4.52602e-05
-0.00252263
-0.000394208
-0.000154842
-0.000572634
-0.000255118
-0.000252573
-0.000361206
-0.000874845
-0.000286596
-8.06273e-05
-8.16398e-05
-0.00426064
-0.00104372
-0.000533074
-0.00122855
-0.000499578
-0.000476627
0.000207021
-3.92e-05
0.000144225
5.78252e-05
0.00208394
-0.000446234
-0.000322233
-0.000379023
-0.00016292
9.81716e-05
-0.000590234
-0.00363488
-0.000758251
-0.00277085
-0.000693953
-0.00083367
-0.000498427
0.00185845
6.25232e-05
-0.000465503
-0.000265523
0.0100944
-0.000474863
-0.000203607
-0.000152009
-0.00029668
-0.000130803
-7.70584e-05
0.00164588
0.000640842
-0.000450135
2.76898e-05
0.000106959
-6.64055e-05
0.00579238
0.000197221
4.11424e-05
0.000344696
0.000325985
0.000302995
-0.000149364
0.00273827
0.000253973
-0.0111721
-0.000177277
0.00604112
-3.9832e-05
0.00892305
0.000432936
-0.000118711
-0.000128172
0.00013169
-4.28676e-05
0.00010785
0.00230067
-0.000104717
-0.000254444
-0.000399253
-0.000115324
0.000208575
-0.000161994
0.00276818
-0.000171652
0.000419968
-0.000185715
-8.30052e-05
0.000256291
-0.000228532
0.000696094
-0.000276334
0.000161688
-0.00026831
-0.000254438
0.000181525
-0.000136407
0.00151735
0.000168908
0.000152493
-0.00264206
-7.26161e-05
0.00192784
-0.000131123
5.61717e-05
2.9521e-05
7.87383e-06
0.000268023
0.000492969
-0.000167791
-8.10974e-05
-0.000241843
-0.000369572
0.000272976
-0.000165146
0.00138622
-0.000187383
7.73817e-06
-0.000395822
8.31325e-05
0.000212836
-0.000152425
0.00307957
-0.000238974
0.00025475
-0.000798955
-0.000241176
3.48282e-05
-0.000253209
0.00052459
0.000566813
0.000109113
-0.000105462
0.000351509
0.000331351
0.000197179
0.00603889
7.69485e-05
0.000245012
-0.000233891
0.000714196
0.000114768
-3.74149e-05
0.00414233
-0.000122259
6.22581e-05
0.000442615
0.000316283
6.58465e-05
0.00335301
0.000816244
0.000139307
0.000199988
0.00074012
0.000362374
0.00136277
0.000250315
-0.000175408
-5.92555e-05
0.00022689
0.000311733
0.00276033
-0.00162376
-0.000362899
-0.00112111
-0.000361169
-0.000402575
-0.000231
-0.000363871
-0.000463741
-7.54129e-06
2.50996e-05
-0.000466647
-0.00499227
-0.00134452
-0.00428772
-0.00128381
-0.00151224
0.000349962
-0.000999697
-0.000671884
-0.00101676
0.00431017
-0.00584706
-0.00130315
-0.0048536
-0.00114836
-0.0013921
0.000170521
0.00025598
-0.00125412
0.000105525
0.00349902
-0.000156836
0.00013527
0.00072034
3.59621e-05
9.3492e-05
0.000744384
0.00460091
0.000630305
-0.000123504
8.07473e-05
-0.00201968
0.00181183
0.000602286
0.00176278
0.00032891
0.000951776
0.000237666
-1.76265e-05
-0.000195625
0.000441707
0.000191857
0.000852111
0.00118806
0.000523666
0.00141618
0.000292988
0.000833923
0.000247234
-0.000119169
-0.000973411
0.000446182
0.000266214
-0.000149372
0.00108866
0.000344654
0.00102731
5.26171e-05
0.000582373
0.000661508
0.00244551
0.00312393
-0.000223341
-0.00034063
0.0239614
0.000301926
0.000220115
-0.00197544
0.0029822
0.00029078
-0.000123665
0.0101546
0.00151032
0.00042448
0.00162625
0.000243972
0.000522222
0.000474384
5.60614e-05
0.000641309
8.62324e-05
0.000146586
0.000686242
-0.000888629
0.000159867
0.00101906
4.52787e-05
0.000201838
-0.000214566
-0.000300918
-0.000399728
-0.000279345
1.44675e-05
0.00313208
-0.00101762
0.000142667
0.000581153
5.30079e-05
0.000139991
3.56688e-05
-9.15514e-05
-0.000195
-4.73412e-05
6.72053e-05
0.00180382
-0.000850549
-8.81085e-06
-0.00035836
-0.000173967
9.43405e-05
-0.000528298
0.00074099
0.000139394
-0.000187215
-3.69055e-05
0.00546297
0.00290712
0.000667826
0.00282076
0.000330416
0.000801381
0.000226195
-0.000276298
-0.000747923
6.25184e-05
0.000410508
-0.00191008
-9.61249e-06
0.000453153
0.00139496
0.000324246
0.000486741
0.000326635
0.000627967
-0.000256643
0.000228516
-2.51382e-05
-0.00100635
0.00539293
0.00185989
0.00505189
0.00111777
0.00273318
0.0010692
-0.0112702
-0.000166825
0.000900482
0.000218688
0.0136842
0.000255482
-0.000261546
-0.000181989
0.000379347
0.000293327
0.00590686
0.000512201
-0.00185459
-0.000199906
0.000229831
-4.38784e-05
-0.000163408
0.00219629
0.000643734
0.00220199
0.000227792
0.00065753
0.00133569
-0.00242245
0.000122692
0.00168862
0.000394337
0.0197908
0.00406385
0.00133338
0.00443935
0.000863076
0.00140341
0.000467675
-0.0578442
-0.000153885
0.000502631
0.000288094
0.00209291
0.00164316
-0.0001139
-0.000300828
0.000182583
-0.000232409
0.0066461
0.000344726
0.000154468
0.000955056
2.88003e-07
0.000160642
-0.000391893
0.000136067
0.000393525
0.000285707
-0.000136658
-0.00485123
0.000388889
-4.87623e-05
8.00566e-05
0.000273446
0.000305083
-7.75436e-05
0.0102236
0.000487947
-0.000199498
0.000638514
0.0005283
0.000260591
0.000211007
0.00552425
0.000269112
0.000246511
-0.000144467
0.00107792
0.000277512
-0.000484111
0.0231318
4.54227e-05
-0.0397124
-0.00598211
0.00110344
0.000151126
-0.00966654
-7.69446e-05
-0.0007395
-0.000336667
-0.00148542
-0.000400739
-0.0409833
-0.000208613
-0.00376783
-0.00108572
-0.00118932
-5.43334e-06
-0.0140076
-0.00219286
-0.00114484
-0.000730517
-0.000109714
-0.000302912
-0.0165603
-5.83327e-05
-0.00181203
-0.000985748
-0.000365176
0.000220854
-5.18641e-05
-0.0215177
0.00246339
0.00071494
0.00145707
0.000273939
0.00119155
0.000471249
-0.0020916
-0.00106369
-0.000343846
0.000820316
-0.00968462
-0.00117722
-0.00332815
0.000111825
0.00077735
0.000711154
-0.0152542
8.83776e-05
-0.000962296
-0.000546084
0.000125505
0.000490674
0.000452041
-0.0178845
0.000913711
-0.000344857
0.000216753
0.000217815
0.000499347
0.011847
0.000600498
-0.000282657
-0.000376933
-1.41718e-05
-6.84985e-05
-0.00158133
1.16337e-05
0.000121264
-0.000208281
-0.00398284
-0.000355562
-0.000201586
0.000458285
0.000465296
-0.000297029
0.000178963
-0.0104114
0.00104423
0.00052026
-0.000119544
-0.00423723
0.000143235
-0.000504385
0.000106721
0.000247461
-0.000218756
6.47098e-05
-0.00415163
0.00089184
-0.00031418
0.000242009
9.44515e-05
0.00169758
-3.29247e-05
-0.000458563
-7.49143e-05
6.60696e-05
-0.000198328
0.000293256
-0.00476243
-0.00112686
-0.000817852
0.00026005
-0.000386163
-0.00639541
-0.000415825
-0.000646069
-9.18327e-05
-9.85199e-05
-0.000451111
-0.00016893
-0.0233078
-0.00174147
0.000497887
1.94987e-05
-1.93994e-05
-0.000898781
0.000202104
-0.000520361
0.000175439
0.000362456
-0.000434146
0.000231149
-0.0286134
0.00047979
-0.00014768
0.000213112
-0.000173497
-0.001292
0.000194375
0.000142642
0.000360539
0.000325583
-0.000127861
-6.1828e-05
-0.00469416
0.00805733
-0.00023599
0.000236963
0.000411626
-0.00130059
0.000445214
0.000132867
0.000171935
0.000352827
-0.000249525
0.000420605
0.0239682
0.000805654
-0.000161949
1.16303e-05
7.69954e-05
-0.00232582
-0.00049416
-6.60415e-05
0.000274537
0.000169223
-0.000283716
0.000285518
-0.00641304
-0.000205553
0.000341538
0.000388552
0.000377213
-0.000353193
0.000683712
6.65817e-05
0.000146681
-9.78182e-05
-0.000364782
3.02371e-05
0.00232379
-0.0253062
0.00144753
-0.00103239
-0.00123939
-0.000675282
-0.00511787
-0.000652803
-0.000715847
-0.000258562
-0.000381195
-0.000425294
-0.000536456
-0.0137315
-0.0156413
-0.00056767
0.00109214
-3.61617e-05
4.43514e-05
5.03884e-05
-0.000392147
8.1777e-05
0.000559693
0.000449759
-0.00057692
0.000558059
0.000883664
-0.000384563
-0.00039355
-0.000104432
-0.000294459
-0.000596637
-0.000222389
-2.4413e-05
0.000249783
-3.53026e-05
-0.000263314
-7.71005e-05
0.00361495
0.000471011
-0.0004412
-4.3645e-05
0.000414101
0.00235128
0.000916223
0.000462319
0.000198224
-0.000271011
-0.000567983
-0.000113894
0.00304956
0.00118147
-0.000586553
5.75321e-05
-0.000418856
-0.000251053
-0.000205011
-0.000211593
8.86141e-05
6.21529e-05
-9.77906e-05
-0.000140457
-0.00203352
0.00284166
0.00154473
-0.000259565
0.000277532
0.000178095
0.000165804
0.000425166
0.0017323
0.000321413
-0.000167293
-0.000373386
0.000174179
-0.00384709
-0.00682756
-0.00046385
-0.000151895
-0.00104325
-0.00041137
-0.000108723
0.000270955
0.000142825
-0.000304782
-0.0151247
0.000266749
0
-6.59419e-05
0.00200219
0.00231213
0.00116411
-0.00287242
-0.00041728
-0.00211989
0.00176647
0.0016383
-0.0017209
0.00106489
0.00181759
-0.000153713
0.00180544
-0.000705771
-0.000721257
0.0013165
-0.0002403
-0.00110537
0.000991291
0.00108555
0.00250918
-0.000714736
0.000392017
0.00226827
0.0016797
-0.00290796
-0.00160539
0.000114894
-0.00226997
0.000881298
0.00313124
0.00107499
8.05758e-05
-0.0010093
0.0011301
0.00292967
-0.000229914
0.00159664
-0.000697788
-0.00419937
-0.00186532
-0.0026746
-0.00178851
-0.00236924
-0.000976285
-0.0054293
-0.00402589
0.000856023
-0.000823727
0.0021836
-0.000141782
-0.00191324
-0.00129494
0.000604479
-0.00217316
-0.000484127
-0.000832021
-0.000711525
-0.0018202
0.000539551
-0.00243368
0.00197952
-0.00028268
-9.71531e-05
-0.00112775
-0.00634889
-0.00431056
-0.00493217
-0.00171901
-0.0039212
-0.000674804
-0.00277873
-0.0025575
-0.00291502
-0.00195392
0.00110445
0.002074
-0.000471654
-0.000733096
-0.00462204
-0.00138721
-0.00353507
-0.0015517
-0.00134258
-0.00128146
0.000939489
-0.00162459
-0.00231223
-0.00098876
-0.000479409
-0.00240081
-0.000659678
-0.000796031
-0.000444579
-0.00166259
-0.00165381
-0.000964136
0.0024193
-0.00149892
0.000814339
0.000420119
0.000294726
-0.00195539
-0.00137358
0.000219898
-0.00480139
0.00231305
0.000703048
-0.000701908
-0.000982399
-0.000743255
-0.00138577
-0.00186352
-0.00494853
0.000761903
0.000181763
0.000475735
0.00113174
-0.00924787
-0.00213658
-0.0016073
-0.00385298
-0.00273636
-0.00104857
-0.000429854
0.0229511
0.000511931
0.00992882
-0.0133313
-0.00265746
-0.000261355
0.00647944
0.0026115
-0.00472468
-0.0673759
-0.00050893
0.00430565
0.010053
0.00256795
0.00646569
-0.00459529
0.0105168
-0.00264547
0.0175304
-0.00276347
0.0017901
0.00580518
0.00145053
-0.00240959
-0.00209528
0.000229848
-0.00383387
0.00426198
0.05267
0.0014958
0.000936211
0.00127765
0.00158869
0.00242282
-0.0013316
0.00727772
-0.00292791
0.00846701
-0.00112634
0.00818979
-0.00153192
-0.00321505
0.0144006
-0.00518069
0.0177322
-0.000866702
-1.75502e-05
-0.00211278
-0.00268389
-0.00067545
0.00643427
0.0148576
0.0252384
0.000160779
0.015522
-0.00864455
0.02226
0.00487027
0.00351769
0.0247672
6.76966e-05
0.000434867
-0.00270591
0.00716617
0.000251753
0.00784206
-0.00645426
-0.00595634
-0.00516433
0.00329708
0.00736964
-0.00838341
0.008465
-0.0380053
-0.0268577
0.0156991
0.038203
0.00165527
-0.00326379
0.0223648
-0.039703
-0.00272996
-0.0254024
-0.00325151
0.0139662
-0.00460541
0.00104742
0.00181259
-0.00267763
-0.00367171
0.00286191
0.00303251
-0.0112961
-0.00998422
0.00476732
-0.00586592
-0.00391552
0.00633495
0.0235589
-0.00647726
-0.000552326
-0.00397031
0.00192939
0.00124152
0.000402304
-0.00337132
-0.00152576
-0.00830614
-0.00449273
0.0129636
0.0066781
0.000820015
0.00449503
0.00801547
0.00249161
-0.00164024
0.00198692
0.00246645
0.000819616
0.0167749
0.0251432
0.00736935
1.84952e-05
0.000757189
-0.00523945
-0.00270389
0.00209295
0.00128298
-0.00253163
0.000381196
0.00137163
0.000170759
0.00226221
0.00288931
0.0131906
0.00415045
0.000655713
0.00741177
0.0367375
-0.000542625
-0.00714423
0.0162565
0.00485938
-0.0116187
0.0194751
-0.00213467
-0.000485909
0.00162445
0.00227742
0.0138799
-0.00229118
0.00835926
0.00395288
-0.0055157
-0.00338078
-0.00390703
0.00214153
0.00457836
0.0501345
-0.00910596
-0.0130124
0.00502226
0.000729215
0.00698576
-0.000257372
-0.00469592
0.000379073
7.32141e-05
-0.00127066
0.00507639
-0.00927237
0.00783297
-0.00327164
-0.0024114
-0.000152791
-7.7585e-05
-0.00187475
-1.10703e-05
0.0028184
-0.0010153
0.00255074
-0.00656745
-0.0104882
0.00266454
-2.79727e-05
-0.00194942
0.00827591
0.020656
0.000392889
0.00920299
-0.00134108
-0.000777458
-0.00155576
-0.00515449
-0.0027339
0.00194603
-0.0110222
-0.00568348
0.00155165
0.0420873
0.00711929
-0.00169434
-0.000637344
0.0113461
-0.00133577
5.00869e-05
0.000444361
0.000978363
0.00899082
-0.00710348
-0.00755052
-0.0139685
-0.00438088
-0.0164602
-0.00484326
-0.00434885
-0.000983182
-0.00257335
-0.00417564
-0.00296281
0.0108783
0.0165253
-0.00187428
-0.00497559
-0.00602013
0.0135934
0.000755709
-0.00233366
-0.000652788
-0.00437569
-0.0109161
-0.0025515
0.00592444
-0.00454885
0.00577397
0.00447614
0.0137402
0.000407314
-0.0010478
-0.000711899
0.00201999
-0.00139304
-0.00898197
0.000415012
-0.0036455
0.000192748
0.00177177
0.021197
0.000727215
-0.00330758
-0.00297286
-0.0023177
-0.0113106
0.00379772
0.00195315
-0.00388307
0.00261102
0.0093027
0.000242077
-0.0047384
-0.0198339
0.00191581
0.00240981
0.00480127
-0.00045259
0.00315513
-0.000825789
-0.00272673
-0.0224321
-0.0226817
0.00287932
-0.00804005
0.0334417
-0.00353474
-5.63931e-05
-0.0150725
-0.00772189
-0.00412255
-0.0505272
-0.0112842
-0.00544522
-0.000654403
0.000287666
0.000568832
0.0284054
0.00826896
0.00286195
0.0035271
0.0164307
0.00034217
-0.00268079
-0.0138808
-0.00210609
0.0415986
0.00143849
0.00266782
0.000952677
0.000350107
0.0193114
0.00191377
0.00159239
1.7342e-05
0.00147934
0.025799
-0.0036179
0.00142808
0.00179835
0.00110428
0.00919964
-0.00459603
0.00771084
0.000453439
-0.00749818
-0.0279797
-0.00264897
-0.000632489
0.00214838
0.0219681
0.0072314
-0.00125758
0.0341882
-0.00352422
0.00782086
0.0264846
-0.00198897
0.00176419
0.00280703
0.00194786
-0.000408841
0.00149245
0.00455731
0.0019049
0.00222679
0.00121815
0.00112634
0.00133732
0.00660543
0.00170913
-0.00779392
0.00152518
-0.000289558
0.0148703
0.0340974
-0.00184709
0.00477263
0.0542901
-0.0100963
0.00443053
0.00152864
0.0256968
-0.0229774
-0.00294921
-0.000789171
0.00264443
0.00228199
0.00146878
-0.000612005
0.0102514
0.00186538
-0.0135043
0.000721595
0.000432288
-0.00184744
0.00308781
0.00181016
-0.00166725
-0.00782158
-0.00303601
-0.00192181
-0.00187838
-0.00845111
-0.0147896
0.0118557
0.0016774
0.00309726
0.00270981
0.00738321
0.00073782
0.00218686
0.00069793
0.00183655
-0.00161136
-0.00269099
-0.0105348
-0.00561897
-0.000323338
-0.00508342
-0.00575576
-0.00254039
-0.00138037
-0.00349742
-0.00223236
0.00824449
-0.0350356
-0.00162929
-0.00117237
-0.00310158
6.74501e-05
-0.00139962
0.0108697
-0.0011245
-0.00155174
-0.000474376
0.00644561
-0.0153588
0.00126469
-0.0353965
-0.00985253
-0.00664734
-0.00808053
0.0035331
-0.000703886
-0.00467325
-0.0193976
0.00388244
0.00113907
-0.00494105
-2.88642e-05
-0.00131423
0.0311599
0.0134448
0.016253
-0.00724629
0.00164138
0.00475141
-0.00214704
-0.000388648
0.0250532
-0.00403452
0.00484573
0.00724573
-0.00966951
0.00357703
-0.0272968
-0.00231391
-0.0263976
-0.0179891
-0.0300912
-0.00437242
-0.00177334
-0.00234215
0.0161005
0.00247682
0.0198053
-0.00198709
-0.00156108
-0.00203221
-0.00466966
0.00358869
-0.00680079
0.0028982
-0.00132816
0.118054
-0.00513894
-0.00688053
0.0298491
-0.00500548
0.0279675
0.0059925
-0.00382626
-0.000788426
0.00276044
-0.00652607
-0.0273521
0.00116983
-0.0060604
-0.00685344
-0.000619455
0.0060799
-0.0065971
0.0212615
-0.00663448
0.00786307
-0.0104889
0.000935676
-0.00110365
-0.0134552
-0.000256744
-0.00548639
0.00692842
0.0149866
0.0129235
-0.00835444
0.0160486
0.00145283
-0.000622129
-0.00189323
-0.000820086
-0.00224573
-0.00368948
0.00425952
-0.00141833
-0.00198474
-5.63214e-05
-0.00311389
-0.0119002
0.0304719
0.039647
-0.00822804
0.00425031
-0.000850575
0.000542424
-0.00729411
-0.000118357
-0.000784187
-0.00408393
0.00133661
0.0372189
-0.0361788
-0.0394645
-0.00255223
0.000376333
-0.0034744
0.0117676
0.0165532
0.00277999
-0.00237173
0.00157326
0.00171772
-0.00126758
-0.00115116
-0.00190415
-0.00123541
-0.00350602
-0.00896762
-0.048004
-0.00122348
0.0197968
-0.0215892
-0.00202264
0.00690513
0.0118161
0.013548
0.00123935
-0.00911902
0.01593
0.00981583
-0.00826236
0.00331071
0.00932492
0.0153371
-0.000574781
0.00392368
0.0109342
-0.00386286
0.0448952
0.00849267
0.00193808
0.000895692
-0.0051569
-0.00495274
-0.00393714
0.0253453
-0.0476895
0.00855286
0.0121701
-0.0073912
-0.0058877
-0.00596992
0.000142114
0.00238504
-0.00228308
0.00154969
0.00061314
0.00931991
-0.00175993
0.0262337
-0.000260397
-0.000240648
-0.0115496
-0.0294107
-0.0007336
0.0105034
0.00410238
0.000776309
0.000629202
-0.000240425
0.00130954
0.000373353
-0.00383158
-0.00410627
0.00484616
-0.00413431
0.000525059
0.000112097
-0.0146012
-0.0248618
-0.00105446
-0.00326132
-0.0102748
0.0198703
-0.000234719
-0.0112088
0.00119644
-0.00771896
-0.0010208
-0.00813796
-0.00711073
0.000419758
0.00876238
-0.00861551
0.00154039
-0.0101601
-0.00879544
-0.00801947
-0.00268446
-0.00617859
-0.012298
-0.00503753
0.000253058
-0.0140978
-0.00664414
0.000277291
-0.00934309
-0.0219642
-0.0034675
0.00116416
-0.00762965
0.00390128
0.0059168
-0.00355146
-0.0016556
-0.00115908
-0.00264315
-0.0208479
0.00183183
-0.00151009
-0.00222861
-0.00629394
-0.00295467
-0.00572955
0.00062598
-0.00202952
-0.000714487
0.0022075
-0.00831058
0.00103709
0.000888205
-0.00836725
-0.004512
-0.00159499
-0.00469433
-0.00533875
-0.00621458
-0.000697103
-0.00360333
0.000280358
-0.000711854
-0.0261003
-0.00491732
-0.00605682
-0.00548118
-0.0045096
-0.00623355
-0.00635549
-0.00407447
-0.00203438
-0.00348658
-0.0038512
-0.00631179
-0.00216986
-0.00423601
-0.00237231
0.00257829
-0.00359882
-0.00312273
-0.00182702
-0.00254199
-0.00255302
-0.015664
-0.00115129
-0.00272618
-0.00239357
-0.0031304
0.000895756
-0.00526787
-0.0057259
-0.00036543
-0.000267903
0.00155299
-0.00221487
-0.00412139
0.00156736
-0.00541701
-0.00110477
0.00162671
-0.00487454
-0.00491928
-0.00497138
0.000430561
-0.00154168
0.000166819
-0.000391402
-0.00019638
-0.000854835
0.00168996
-0.0210243
0.00135573
-0.00185519
0.00156472
-0.025152
-0.000536268
0.000107857
-0.000149361
-5.82226e-05
0.000223436
-0.00216779
0.024153
-0.00268842
-0.00144864
0.0184851
-0.0119656
2.67501e-05
0.0300238
-0.00121478
0.01118
-0.00228481
-0.00132453
0.000399983
0.00104106
0.0352021
0.000830774
0.000131357
0.000106376
0.00681528
0.0161187
0.00142846
-0.000571685
0.00371107
0.00577696
-0.000125844
-0.000618147
0.00648432
0.000479385
0.000236576
0.00158636
0.000102376
0.000302452
0.00765073
-0.000724863
-0.00796601
0.00679911
0.00105106
-0.00571785
-0.0001047
0.000832718
0.0156342
0.000294786
0.00885939
-0.00188487
-0.0012608
0.00258396
-0.000976638
-0.00094988
0.0318579
0.00118099
0.000997772
0.000536567
0.000366243
7.75513e-05
0.000636906
-9.45126e-05
0.000123347
-0.000308443
-0.00107288
-4.6719e-07
-1.36051e-05
0.000460112
-0.00127461
0.000597425
0.000661284
-0.000334145
-0.000144923
0.000639297
-0.00026323
-0.000499341
0.000299959
-9.95508e-05
-0.00147653
-0.000518481
0.000166093
0.000131435
-0.000483916
-0.0010022
-0.000159552
0.000234473
-0.000230214
-0.000180275
-0.00110293
-0.00088528
0.00186656
-0.000682622
-0.0015147
-0.000576146
9.99324e-05
-0.00309753
-0.000502803
0.00297534
-0.00149557
-9.15419e-05
-0.000153765
-0.000607501
-4.82384e-05
0.000504564
-0.00173627
0.00254153
0.000460138
0.000269366
-0.00271303
-6.04332e-05
-0.0016344
-5.32257e-05
-0.00047174
0.00210336
-0.00721955
-0.00349535
-0.00334265
-0.00378285
-0.00215338
-0.0011537
0.000931967
-0.00481153
0.00106867
-0.00323276
0.0064441
-0.000175076
-0.000244461
-0.000373214
0.00111364
-0.000898064
0.0132812
-0.00393473
-0.00429961
-0.00244288
-0.00013963
-0.00138978
-0.000177833
-0.000420869
-0.00115769
0.0213805
-0.00238933
0.0121686
-0.00016604
-0.0184289
-0.000896353
-0.000285521
0.000168791
0.025273
-0.00156294
-0.00560248
-0.000312341
-0.000375541
0.00140712
0.00542247
-0.00020615
1.48656e-06
0.00269873
0.000655943
-0.00107584
-0.00122107
0.00663234
-0.00514326
0.00234663
0.00170265
0.00495453
0.00964285
-0.000336693
-8.06288e-05
-0.000181227
-0.000681269
-0.000728851
0.00204534
-0.00080355
0.000437906
0.000684013
-0.00501966
-0.000981739
-0.0342272
-0.00542202
-0.00403906
-0.00378749
-0.00312427
-0.000815818
-0.0005689
-0.0137312
-0.00262293
-0.00153283
-0.00387097
-0.00272908
-7.98271e-05
-0.0355081
-0.00675929
-0.00354884
-0.00271544
-0.000674588
0.000264757
-0.0141951
-0.000462065
-0.00118952
-7.34672e-05
-0.00310613
0.000296884
0.000645122
-0.0107639
0.00118906
-0.000970127
-0.000931746
-0.00151985
0.000333815
-0.000236714
-0.012523
-0.000210557
-0.000785494
-0.000749006
-0.00320895
0.000454467
0.000417711
-0.0086678
-0.00140895
-0.000213838
-0.00151047
-0.000574376
0.00021325
-2.90266e-05
-0.00103721
0.00605732
-0.00240019
-0.00526138
-0.00672751
-0.00799048
0.000549419
0.000300305
-0.000810794
-0.000345486
0.000216588
-0.00336648
-0.00134621
7.17344e-05
-0.000289639
0.000732455
0.000936786
0.00109504
-0.00121385
-0.000747362
0.000478586
-0.0111204
-0.0116473
0.000691839
0.000573866
0.000765079
-0.000295348
-0.000618879
0.00103803
-0.0014407
0.000361598
0.000136868
-0.0058218
0.00137526
-0.000182182
0.000972312
-0.00239866
0.000329742
5.45759e-05
-0.00140239
0.000689412
-0.000147917
-3.89111e-05
-0.00170412
0.000312333
-5.26204e-05
0.00359432
0.000270775
0.000221592
4.90287e-05
-5.89823e-06
0.000539735
-0.0116521
-0.000855203
-0.00194405
0.00248189
0.000826454
-0.0517599
0.000558971
0.000375051
0.000341828
2.32955e-05
0.000886934
0.0001024
-0.000585561
-0.00103946
0.00100705
0.000956832
-0.0052067
-0.00316884
-0.00119203
-0.000377395
0.000553251
0.00033726
-0.00960081
-0.000129789
-0.000524623
-0.000221501
0.00062233
-0.00388584
-0.00174731
-0.00121434
-0.00134454
0.000634334
0.000367301
-0.0117018
0.000336737
-0.00190066
-0.000108014
0.000343857
0.00067678
0.000488003
-0.0118253
-0.00294339
-0.0012857
8.26476e-05
0.000838477
0.000906471
-0.00705856
-0.00226017
-0.000606439
-0.00223016
-0.000744832
-0.000524272
-0.00136605
-0.000933929
-0.00107798
-6.7524e-05
-0.013728
0.00103644
0.00071317
0.00155865
0.000168841
0.00085057
0.000975598
0.00105273
-0.000912623
0.00045972
-8.11189e-05
-0.00434576
-0.000100391
-0.00179612
-0.000421674
-5.28299e-05
0.00035659
-0.00153821
-0.00025227
-5.23856e-05
-0.000376238
0.00982303
-0.00250012
-3.57158e-05
-0.00128331
-0.000221615
-4.4821e-05
0.000161313
0.000326913
-0.00073722
-0.000419171
-0.000347394
-0.00285127
-0.00206481
-5.82849e-05
-0.00169307
-0.000177035
4.71919e-05
0.00306542
0.00306354
0.000605187
-0.000370562
0.00105134
-0.00222931
-7.95196e-05
-0.00134431
-0.000124576
-5.22041e-05
1.11427e-06
-0.00102817
-1.13293e-06
-0.000271645
4.17639e-05
0.000189484
0.00427387
0.00339627
0.000985619
0.00032393
0.0140412
0.000929946
-4.29226e-05
0.000804073
-0.00024342
0.0039729
-0.000353061
0.00196485
0.00491695
-0.000404389
-0.000365851
-0.013698
0.00014573
0.00145568
0.00096077
-0.000207885
-0.000190725
-0.000420648
-0.00261516
-0.00030053
0.00140875
0.000249299
-0.0002602
5.51379e-05
0.00731654
-0.000369167
0.000733067
0.00575148
-0.000415159
-0.000450547
-0.00645864
-0.000490722
0.000375781
2.99836e-05
-0.000254699
-0.000175717
8.34596e-05
-0.000317386
0.000968336
-8.61922e-05
-0.00042205
-0.000303879
0.0144168
-0.000255195
0.000383705
0.000133007
-0.000255367
-0.000145827
-0.000243604
-0.000428365
0.000203176
-0.000315346
-0.000390477
-6.88327e-05
-0.000225707
-0.000207615
0.000418551
0.00165872
-0.000122257
-6.80169e-05
0.000848406
-0.00264735
-0.000204107
-0.00201954
-0.000139579
-0.000203499
0.000174927
0.00117321
0.00157183
-5.20289e-05
-0.000238944
0.000112922
-0.000249295
0.00364326
-0.00010946
-0.000318043
-0.000568803
0.00576999
-0.00060221
0.00238306
0.00177629
-0.000229187
-0.00033215
-0.00889345
-0.000236671
-0.00197308
-0.000584801
5.54565e-05
0.000451692
-0.000130234
-0.00336629
-0.00101869
0.000586732
0.00140801
0.000413473
0.000430855
-0.000165252
0.000316222
-0.000742895
0.000508392
0.00021534
0.00343905
-0.00084532
0.000311515
0.000587246
0.000260366
0.00040148
0.000503436
-0.000459153
0.000720636
0.000665568
-0.00150077
-0.00178891
0.000660326
-0.000492638
0.000173276
-6.47464e-05
-0.000243357
-0.00529112
0.00036149
0.00221284
-0.00138184
8.76467e-05
-0.00185958
0.000642938
0.00147358
-0.00165533
0.000229417
0.00194637
-0.00214009
-0.000289716
-0.00131022
-0.000407105
-0.000307015
-0.000519957
-0.00171362
-0.000600627
-0.00021071
0.000173187
-0.0083822
-0.00158924
-0.000220672
-0.000543737
-0.000316467
-0.000280915
-0.000388378
-0.00128785
-0.000209424
-7.62478e-05
0.000130851
-0.0115874
-0.000857395
-0.000715111
-0.00105743
-0.000670112
-0.000547319
0.000464625
0.000779652
0.000571623
0.000439902
0.000213109
-0.00030845
-0.000222583
-0.000656334
-0.000160517
0.000457346
-0.00418295
-0.00390524
-0.000973412
-0.00304509
-0.000924352
-0.0010698
0.000124918
0.00293806
0.00234587
-0.00105638
-0.000207736
0.0118773
-0.000463084
-0.000209331
-9.02892e-05
-0.000609945
-5.19958e-05
-0.00499113
0.0024332
0.00127019
-0.000828448
5.7406e-05
0.00012939
-2.86213e-05
0.0129301
0.000251483
-5.1274e-05
0.000854802
0.00042258
0.000383608
-0.00024177
0.00315894
-4.59784e-05
-0.0170187
-0.00119528
0.00510181
-4.00898e-06
0.0168499
0.000550553
0.000960951
-0.000772941
-8.06698e-05
-0.000385748
-5.8874e-05
0.00222179
-1.59133e-05
-0.000352393
-0.000557681
-0.000728794
0.000392699
-1.74707e-05
0.000110842
-1.94316e-05
0.000279001
-9.10417e-05
-0.000524588
0.000437823
-0.000184842
-0.00227887
-0.000340646
0.000237933
-0.000369273
-0.00107192
0.000246347
-0.000114727
-0.00236385
-9.01586e-05
0.00120315
-0.00475665
-0.000115906
0.00298002
-9.06045e-05
0.000200034
0.000145785
-0.000358589
0.000412313
-0.00325193
-0.000228545
-0.000284734
-0.000521459
-0.00148634
0.000359661
-0.000167748
-0.00081772
-0.00016479
-0.000139552
-0.000770355
-0.000328501
0.000285191
-0.00015465
0.0027362
-0.000227238
0.000253663
-0.00193022
-0.00105006
-9.309e-06
-0.000270631
-0.00296077
0.000943658
-6.53693e-05
-3.73217e-05
0.000729197
0.000420169
0.000164776
0.0085309
0.000130043
6.15753e-07
-0.000537577
0.000585021
0.000153241
5.77568e-06
0.00635632
-0.00013661
6.98934e-05
0.000746943
0.000307954
-7.32631e-05
0.00999259
0.001048
0.000154339
0.000351077
0.000575183
0.00038787
0.000478783
0.000439964
-0.000781045
0.000126433
0.000539423
0.000110186
0.00233745
-0.00291496
-0.000415912
-0.000949346
-0.000403261
-0.000546174
-0.000579462
-0.000736671
-0.00112306
-0.000206124
-8.89144e-05
-0.00458777
-0.00411987
-0.00114166
-0.00321577
-0.0011773
-0.00116629
0.000532118
-0.0055747
-0.00119377
-0.00122688
0.000499935
-0.00559066
-0.00106999
-0.00444075
-0.00104755
-0.00107292
-7.9344e-05
0.000846719
-0.00262158
8.38291e-05
0.00731484
-0.00107891
8.85563e-05
0.00134691
1.498e-05
3.45281e-05
0.00231254
0.00775419
0.000738188
-0.000578207
3.72057e-05
-0.00599969
0.00131487
0.000742556
0.00291457
0.00052996
0.00100914
0.000342747
-8.5229e-05
-0.000590208
0.000971587
-1.8062e-06
-0.000599807
-0.000329732
0.000458153
0.00160926
0.000337768
0.000323069
0.000269292
-0.000404795
-0.00235604
0.000921006
0.000104422
-4.44164e-05
0.00154529
0.000684804
0.00262386
0.000289637
0.000906359
0.000662096
0.00349015
0.00479436
-0.000417569
-0.000467815
0.0436577
-0.000501958
-0.00123051
-0.00812261
0.00488011
0.000306753
-0.000882568
0.00976622
0.00149373
0.000854417
0.00405834
0.000614432
0.000963933
0.000791711
-0.000140383
0.0010428
2.55705e-05
0.000174331
0.00276686
-0.00172462
0.000337496
0.00239623
0.000202767
0.000368379
-0.000426085
-0.000887447
-0.000849134
-0.000451992
-0.000127384
0.0103586
-0.00162647
0.000336532
0.00194228
0.000231196
0.000323238
9.97606e-05
-0.000303705
-0.000204015
-8.76816e-05
0.000124178
0.00573418
-0.00169607
8.76636e-05
0.000477657
-0.000116948
0.000198125
-0.000626968
0.000488966
0.000987919
-0.000265483
-0.000327941
0.00814827
0.00315971
0.00117718
0.00577011
0.000782425
0.0011833
0.000597248
-0.00060533
-0.00160535
7.88725e-05
0.000600202
-0.0055832
-0.001682
0.00055587
0.00131223
0.000590273
0.000396275
0.000564034
0.00110485
-0.000503166
0.00044741
-0.000375947
-0.00216029
0.00534645
0.00217549
0.00647981
0.00155785
0.00245447
0.00104403
-0.00769318
-2.49453e-05
0.00101771
-0.00051867
0.0252049
9.59789e-05
-0.000560304
-0.000191861
0.000514561
0.000157387
0.0142418
0.000714185
-0.00355334
0.000198577
0.000508674
-0.000506306
-0.00123312
0.00171339
0.000701575
0.0028351
0.000347413
0.000710559
0.00193999
-0.00476684
0.000553194
0.00305108
0.000532424
0.0388817
0.00390472
0.0016173
0.00605564
0.00129287
0.00150836
0.000186475
-0.0451117
0.0010513
0.000981163
7.87714e-05
0.00287673
0.00294271
-0.000464214
0.000377903
0.000364508
-0.00046984
0.017483
-0.000492665
5.76137e-05
0.00161781
1.98784e-05
4.81383e-05
-0.000538288
-2.97718e-06
0.00035518
-1.77712e-05
-0.000109411
-0.0165845
0.000823873
0.000271791
0.00053822
0.000336171
0.000349855
-0.000241796
0.0313611
0.000756403
-0.000113007
0.00204502
0.000799119
0.000178903
0.000206476
0.0199853
0.00020667
-0.000480484
-4.27222e-06
0.000787667
0.000330521
-0.00118436
0.047328
-4.1791e-05
-0.0248325
-0.00632676
0.00245119
0.000291986
-0.00300994
-0.000144775
-0.00227433
-0.000167311
0.000500148
0.000116372
0.012415
0.000567721
0.000391395
0.000876773
0.00141217
-0.000586329
0.0120184
-0.000588873
-0.000549677
-0.000376415
-0.000338323
-0.000312595
0.00922123
9.81998e-05
-0.000103216
-0.000695925
-0.000140803
-9.38088e-05
-0.000485406
-0.000287164
0.000734052
0.00090816
0.00309062
0.000611232
0.00102945
0.000508327
-0.0004986
-0.000463095
0.000870563
-0.000541945
0.024295
-2.48049e-05
-0.00701754
0.000999729
-0.000340816
0.000354889
0.0299537
6.22104e-05
0.000322091
0.000244249
0.000176448
0.000337346
-0.000152311
0.00953619
0.000235504
0.000338696
0.00201777
0.000322639
-0.000391939
0.0370229
0.000497135
0.00240478
-0.000256666
0.000151857
-0.00126686
0.00026608
-0.00156635
-0.00055006
-0.000787472
-4.21732e-05
0.00035072
0.000539538
-4.71269e-05
-0.000342188
-0.0004913
-0.000474285
-0.00257866
0.00234252
-0.000298473
-0.000356101
0.00292093
0.00145747
-0.000559804
-0.000288238
-0.000434345
-0.000341927
-0.00050576
0.00472993
0.00283712
-0.000508301
-0.000436246
0.000293409
0.00642026
0.00253378
0.00114127
-0.000346683
-0.000541107
-0.000230648
-0.000247724
0.0074072
-0.0035511
-0.00139097
-0.00101483
-0.00113252
-0.003758
0.000976083
-0.000906096
-0.000753537
-0.000847742
-0.000715406
-0.00101872
-0.0132759
-0.00247937
-0.000468053
-0.00328113
-0.000593392
-0.000329394
0.00198149
-2.6804e-06
-0.000274398
-0.00026471
-0.000862801
-0.000523493
-0.0185441
0.0014022
-0.000519611
4.01239e-05
-0.00061567
0.000102573
0.00229103
7.71692e-05
0.000144074
-0.000233101
-0.00012044
-0.000705651
0.0028752
0.00414048
-0.000401793
-0.000585092
-1.91554e-05
0.000948331
0.00418813
0.000238419
-0.000365337
-0.000238681
-0.000163457
-0.000205002
0.0403977
0.00172711
-0.000508794
-0.000309226
-0.000180127
-0.00132363
0.000155497
9.37642e-06
2.61884e-05
-0.000338819
-0.000144956
-0.000101515
-0.00462751
0.000128008
-0.000491677
-0.000419796
-0.000143509
0.00100936
0.00410386
-0.000367367
-0.000283211
-0.00063234
-0.000334404
-0.000452468
0.028139
-0.0264315
0.00669694
-0.0011285
-0.00149649
-0.000839321
-0.00435446
-5.61952e-06
-0.000413218
-0.000619308
-0.000905961
-0.000555583
-0.000908437
-0.0224773
0.00796018
-0.00052994
0.000649856
-0.000206944
0.000323384
0.00086541
-4.42714e-05
0.000219103
0.000481758
0.000286414
-0.000718098
0.000360657
0.0023693
-0.000136292
-0.000565533
-0.000614769
-0.000655773
-6.17884e-05
0.00149201
-0.000410806
0.000141666
-0.000394758
-0.000256138
-0.000487503
0.0147024
0.00107085
-0.00050687
-0.000940329
0.000123374
0.00463144
0.00383839
-0.000212828
-0.000225461
-0.000896947
-0.000956223
-0.000632933
0.0071237
0.00144416
-0.000918837
-0.000214366
-0.0008531
6.95544e-05
4.92063e-05
-0.000495189
-0.000139952
-0.000330144
-0.000278012
-0.000584595
-0.00545377
0.0115196
0.00285818
-0.000587932
-0.000617299
-0.000253449
0.000700424
0.00151689
0.0018954
3.43096e-05
-0.00058263
-0.000595852
-0.000271471
-0.00190824
-0.0103646
-0.000655921
-0.000355255
-0.000736067
7.13909e-05
-0.000430009
0.000191103
-4.75389e-05
-0.000332956
-0.00922176
0.000710586
0
-0.00136508
0.00196487
0.0016111
-0.00149622
-0.00347627
0.000255196
-0.00353844
8.55433e-06
0.000483444
-0.00431204
-0.000423962
-0.00012244
-0.00207946
0.00128041
-0.00348685
-0.00314862
0.000549985
-0.00157345
-0.00271166
-0.000165542
-2.97626e-06
0.00288508
-0.000782243
0.000265918
0.00136907
0.00134195
-0.00448555
-0.00165408
-0.00150578
-0.00235483
0.000990446
0.00252791
0.00210194
-0.000910127
-0.00286764
0.000675896
0.00344518
-0.0020251
8.21739e-05
-0.00227759
-0.00524384
-0.00286769
-0.00189995
-0.00260284
-0.00266504
-0.000806192
-0.00457319
-0.00422009
-0.00135715
-0.00363226
0.00280095
-0.000433773
-0.00402356
-0.00230528
0.000654858
-0.00296193
-0.000775854
-0.000514209
0.000151553
-0.00211987
9.29275e-05
-0.00341089
0.00300688
0.000254286
-0.000272538
-0.00219511
-0.00932181
-0.00643641
-0.00679472
-0.00122872
-0.00432987
0.000422225
-0.00209586
-0.00126178
-0.00263732
-0.00143639
0.00204116
0.00415857
-0.000326487
0.000254165
-0.0073289
-0.000885721
-0.0032366
-0.000891342
-0.00179023
-0.00043508
0.000885655
-0.00215167
-0.00396722
-0.00163441
-0.000618327
-0.00413027
-0.00170415
-0.00194044
-0.000701607
-0.00306888
-0.0014565
-0.00228655
0.00357695
-0.00124954
0.00110733
0.00182391
0.00131225
-0.0029432
-0.000521984
0.00134513
-0.00750486
0.00109274
-0.000163827
-0.000277557
0.000753869
0.000470598
-0.000928603
-0.00302671
-0.00833108
0.000856039
0.00102783
0.000152015
0.00206881
-0.00995382
-0.00207932
-0.00448362
-0.00336562
-0.00351997
-0.00192142
-0.00155395
0.0101213
-3.66729e-05
-0.00450041
-0.0164578
0.000775794
-0.00577568
0.000153927
0.000935544
-0.00675381
-0.0346765
-0.00115698
0.00740123
0.00799797
0.00376593
0.00272919
-0.00593742
-0.0063446
-0.00407762
0.00759252
-0.00487082
-0.00324517
0.00507508
-0.00109424
-0.00452853
-0.000599172
-0.00268425
-0.0164604
0.00334435
0.0435689
0.000439504
-0.00040232
0.000596627
0.000385728
-0.000331701
-0.00235319
0.00379838
-0.00349004
0.00542208
-0.000150901
0.00769438
0.0020395
-0.00440263
0.0145437
-0.00571747
0.016586
-0.0076707
-0.00111763
-0.000796081
-0.00410652
-0.00200382
0.00513616
0.00428586
0.024703
-0.00126619
0.0127895
0.0072635
0.0137088
0.00281695
0.000418219
0.0172338
-0.000510596
-0.000154735
-0.00672025
0.00551533
-0.000119167
0.00441083
-0.00956258
-0.0113858
-0.0121708
0.00201775
0.00518011
-0.012531
0.0227045
-0.0235013
-0.00958295
0.0146045
0.0524264
0.00143337
-0.00218144
0.0167206
-0.0369534
0.00786159
-0.0327062
-0.00481477
0.014841
-0.0063123
-0.00219148
0.000873812
-0.00531706
-0.00391057
0.00105597
0.00442068
-0.00297074
-0.00466979
0.00621998
-0.0040812
-0.000917762
0.00217958
0.0172327
-0.00415062
0.00120633
-0.00925457
0.00163656
0.00160814
-3.59887e-05
-0.00499277
0.00808178
-0.0100339
-0.0036435
0.01146
0.00491405
-0.00120073
0.0021713
0.00869795
0.000987319
-0.0061752
-0.00323016
-0.00584093
-0.000311877
0.0133429
0.0228284
0.0134844
-0.000220818
0.000606668
-0.00777692
-0.00632626
0.00327566
0.00359865
0.000866235
0.00234166
0.00341238
0.00358478
0.00611626
0.00716814
0.0206795
0.000322298
-0.0041534
0.0112826
0.0366103
0.00956457
-0.000482245
0.0257906
0.000788705
-0.0306566
0.0294745
0.00311243
0.00278442
-0.00662573
0.00400953
0.0119275
0.00463905
0.0189284
0.00787231
0.0012222
7.15968e-05
0.0110126
0.00523783
0.0126152
0.0584648
-0.00598926
-0.0150425
0.0122512
0.00439656
0.0159668
0.0148604
0.0045287
0.00130057
0.00343867
0.00387626
0.0191046
-0.0051247
0.0241143
0.0058088
-0.00188476
0.00647223
0.00494446
-0.00341793
-0.00173214
0.0013402
0.004486
0.00781808
-0.00197499
-0.00751527
0.00867012
0.00209528
0.000450602
0.0113471
0.0285858
0.00700751
0.0150645
0.00324792
0.00310122
0.0029267
-0.00120195
0.00155018
0.00744264
-0.000603786
0.0132849
0.00604116
0.0300452
0.0106254
0.00323325
0.00404113
0.0220856
0.0024653
0.00332262
0.00318391
0.00747233
0.0122536
0.0041846
-0.00650702
-0.00705604
-0.00520319
-0.0167674
-0.00270119
-0.000311529
0.00375215
0.00186712
0.00307168
0.000806554
0.0177097
0.0232685
-0.00122595
0.00314314
-0.00510701
0.0195979
0.002572
-0.000223927
0.000696274
0.00712822
-0.0148414
0.000951847
0.0121793
-0.00158007
0.0112846
0.0141133
0.0177688
0.00281501
0.00800491
-0.00124361
0.00889794
0.000270821
-0.0130669
0.00332299
-0.00115341
0.00595401
0.00437936
0.0291391
0.00342013
-0.000995517
-5.80916e-06
-0.00191612
-0.00627921
0.0064203
0.00572748
-0.00164445
0.0068808
0.0147441
0.00187401
-0.00969833
-0.0262706
0.00429762
0.00308116
0.00777927
0.00187644
0.00598838
-0.00267326
-0.00321064
-0.0343298
-0.0344375
0.00660573
-0.0126947
0.0472474
-0.00130339
0.000985618
-0.0140951
-0.0115639
-0.00290329
-0.0581348
-0.0160787
-0.00889216
-0.00121333
0.00128919
0.000663512
0.0297324
0.00907816
0.00397015
0.00418604
0.0119886
0.00223229
-0.00272226
-0.028916
-0.00198212
0.0503291
0.000678259
0.00198843
0.000945023
3.12163e-05
0.0156439
-0.00122492
0.000105126
-0.000456183
0.00189062
0.0142346
-0.00649775
0.00201474
0.00237219
0.00116542
0.00848357
-0.00882969
0.00787992
0.000400122
-0.0133831
-0.0346657
-0.00650587
-0.00176049
0.00212921
0.010339
0.000182489
-0.00534435
0.0328824
-0.00466553
0.00137315
0.0275349
-0.00403325
0.00205269
-0.00105019
0.00212613
-0.00179122
0.00159681
-0.00117856
0.00228135
-0.0043852
0.00155369
-0.000292799
0.00169518
0.00162718
0.0022035
-0.018686
0.00202718
4.20344e-05
0.0138229
0.0335324
0.00410391
0.00540204
0.0509281
-0.00952564
0.00588321
0.00228449
0.0282053
0.000121574
-0.00332124
-0.000699309
0.00426026
0.010562
0.00202219
-0.00032601
0.000179041
0.00347397
-0.0180942
0.00217924
0.000858699
-0.00132931
0.00501647
0.0023156
-0.0015764
-0.00551168
-0.00288459
-0.00247009
-0.00224159
-0.0147648
-0.021711
0.0150743
0.00142207
0.00398749
0.00148599
0.00256028
0.00170009
-0.00699041
0.00100467
-0.0174085
-0.000870964
-0.00294694
-0.00999648
-0.00575363
-0.000258378
-0.00415322
-0.00550106
-0.00232356
-0.000445734
-0.00368638
-0.00336222
0.00203056
-0.0354753
-0.00154482
-0.000681899
-0.00328564
0.000556611
-0.0011983
0.0126631
-0.0189301
-0.000230755
0.000106583
0.00709849
-0.0203085
0.00243785
0.00273399
-0.0121964
0.0172713
-0.0087608
-0.00924991
-0.000177612
-0.00636857
-0.0275894
0.0293362
0.00262259
-0.0090103
0.00311068
0.00131698
0.014023
0.0141869
0.0151868
-0.0078785
0.00156742
0.0113582
0.00530843
-0.000422479
0.001802
-0.00528834
0.00238607
0.00625202
-0.00786572
0.00353322
-0.034015
-0.0146927
-0.0608137
-0.046275
-0.0707417
-0.00559674
-0.00233027
-0.00303795
0.0149275
-0.00942222
0.0123594
-0.00134714
-0.00170569
-0.00285555
-0.00324827
0.00261267
-0.0103894
0.000160267
-0.00144679
0.0806565
-0.00571606
-0.0162821
0.01413
-0.0115944
0.0261825
0.00466163
-0.00441093
-0.000412176
0.000455299
-0.00633239
-0.0549898
0.00203618
-0.00592879
-0.00525137
0.000735011
0.0056873
-0.00928889
0.0247667
-0.00836492
0.00792823
-0.00338928
-0.00621263
-0.00189249
-0.00979143
-0.00118636
-0.00588435
0.0108879
0.0181505
0.0187205
-0.00625029
0.0192448
0.00123675
-0.00156572
-0.00250058
-0.00130652
-0.0026168
-0.00332396
0.000757989
-0.000327931
-0.00025854
0.000367284
-0.00386668
-0.00917077
0.0285706
0.0485782
-0.00525131
0.00662225
-0.000950708
0.00113019
0.000666788
0.00436865
0.000790063
-0.00464267
0.00292128
0.0687204
-0.0503588
-0.0408296
-0.00256808
0.00163992
-0.00389471
0.0131772
0.0144474
0.00339901
-0.00205823
0.00324279
0.00637993
-0.000354444
-0.000262443
-0.0010492
-0.00022854
-0.00775499
-0.00659654
-0.0491218
-0.000539914
0.0273569
-0.0304281
0.00322244
0.0428181
0.0176988
0.0141153
0.00864171
-0.0102663
0.0198894
0.0138238
-0.00704079
0.00508036
0.0105785
0.0208104
0.00526612
0.00396211
0.0125065
-0.00406769
0.057526
0.00658807
0.000865765
0.000598529
-0.0191233
-0.00819759
-0.0052772
0.0264225
-0.0463483
0.000360361
0.0146739
-0.0130405
-0.0105493
-0.0122882
0.000206652
0.00249365
-0.00251607
0.00232216
0.00143878
0.0164467
-0.00071171
0.030913
0.00214947
0.000869941
-0.0124571
-0.013772
-0.000822052
0.0109795
0.0198915
0.000575061
-0.00037092
-0.000321173
-0.002479
-0.0012496
-0.0110338
-0.00576669
-0.00447596
-0.00605898
0.00032016
-0.000293635
-0.0264349
-0.0371503
-0.00101731
-0.00928758
-0.0122209
0.0163109
-0.00661184
-0.0157042
0.000128304
-0.0086081
-0.00107993
-0.00946685
-0.0076013
0.000857695
0.00737547
-0.0109
0.00149483
-0.0133104
-0.0106616
-0.00928915
-0.00550543
-0.00665776
-0.00911263
-0.00359504
0.000681263
-0.0145657
-0.00695856
0.000359376
-0.0101243
-0.0334522
-0.00279786
0.0027649
-0.00645896
0.00467986
0.00505985
-0.00452789
-0.00196562
0.00572613
-0.00243067
-0.00439303
0.00209348
0.00463989
5.10929e-06
-0.00488817
-0.0019164
-0.00313506
0.000818321
-0.00195882
-0.00107011
0.00469732
-0.0127727
0.0008544
0.00171274
-0.0109726
-0.00485073
-0.00178496
-0.00514833
-0.00655092
-0.00777321
0.000746409
-0.00375485
0.00204954
-0.000669861
-0.024234
-0.00699865
-0.00850695
-0.00734082
-0.00543403
-0.00848111
-0.00936945
-0.00641011
-0.00137804
-0.00340714
-0.00261759
-0.00738867
-0.00103828
-0.00308132
-0.000590588
0.00651139
-0.00394183
-0.00474258
-0.00168354
-0.00264068
-0.00247644
-0.0204852
0.00154282
-0.00128711
-0.00113943
-0.00300193
0.00362625
-0.00475778
-0.0061092
0.000928514
-0.00190514
0.00734889
-0.00566545
-0.00465932
0.00380184
-0.00739521
0.00160802
0.00370866
-0.00549798
-0.00689139
-0.00647856
0.000754306
-0.00672003
0.000936392
-0.000607872
-0.000346546
-0.00899109
0.00189694
-0.0596781
-0.000557772
-0.00293714
-0.000853897
-0.060613
-0.00121981
-0.000144674
-0.000295683
-0.000350773
-0.000164833
-0.00351328
0.0210539
-0.0244818
-0.0099063
0.015867
-0.0356765
-0.00427461
0.0215373
-0.00367118
-0.00217825
-0.00539092
-0.00290802
0.000456254
0.0023652
0.0210831
0.00012181
-0.000119718
-7.8259e-05
0.00463737
0.0175845
-0.00214094
-0.00130013
0.0052095
0.00579037
-0.00197316
-0.00122833
-0.000636232
-0.00094556
-9.31139e-06
0.00182015
-0.000136743
-6.79157e-05
-0.0125441
-0.00129395
-0.00741909
-0.00140099
0.000754761
-0.0124842
-0.00161819
0.000874031
-0.0030273
0.00019218
0.00694006
-0.00304656
-0.00197722
-0.00629472
-0.00423874
-0.00167712
0.0480827
0.00186058
0.000296188
0.000412363
0.000561291
-2.24795e-05
0.000370989
-0.000355098
-1.2113e-06
-0.000512744
-0.00148779
-0.000355132
-0.000479341
0.00012882
0.00235805
0.000194133
0.000156656
0.00218341
-0.000493884
0.00137725
-0.000190889
-0.000614943
0.000157503
-0.00042256
-0.00256434
-0.00425244
-0.000143243
0.000181946
-0.000437558
-0.00110142
-0.00011314
0.00139074
-0.000199024
-0.000207828
-0.00139432
-0.0023915
0.0032304
-0.000716606
-0.0025952
-0.00136063
-0.000163635
-0.00555321
-0.00119022
0.00361728
-0.000825169
-0.000816407
0.000450001
-0.000891182
-0.000464695
-0.00335973
-0.0027495
-0.00445555
0.000313602
0.000212824
-0.00383243
-0.000136491
-0.00201518
-0.000106934
-0.000808789
0.00441209
-0.00830786
-0.00460424
-0.00257397
-0.00602013
-0.00392544
-0.00174366
0.000810777
-0.0067476
-0.00206892
-0.00508808
0.0086041
-0.000901505
-0.000372501
-0.000740062
-0.00147936
-0.00165038
0.0184227
-0.00547465
-0.00562191
-0.00408126
-0.000314601
-0.00196621
-0.000239534
-0.000740337
-0.00109829
0.0117087
-0.00331476
0.00888905
-0.00165144
-0.0218919
-0.00113185
-0.000298711
-0.000515357
0.0272253
-0.00277738
-0.00654977
-0.00186419
0.00233192
0.00256713
0.00383924
-0.00037888
-2.41754e-05
0.00436015
-0.000136458
-0.00534148
-0.00174544
0.01089
-0.00797191
0.00413985
0.00170919
0.00576144
0.0131474
-0.000142283
0.000679036
0.000222755
-0.000437943
-0.00100199
-0.00147551
-0.000897557
0.00154191
0.00287876
-0.00231592
-0.000672509
-0.01429
-0.00404804
0.000356523
-0.000530488
0.00387991
-0.000810719
-0.00132434
0.0012317
-0.00295853
0.000972501
-0.000500671
-0.000410407
-0.000539133
-0.00569365
-0.00499641
-0.00106144
-0.00369935
0.00416416
-0.00050872
-0.00755413
-0.00173795
0.000665125
0.00511456
-6.80104e-05
-0.000246988
-0.00134078
0.0151944
-0.000819504
0.000951979
0.00151169
0.00109853
-0.000251825
-0.00173582
-0.000381176
-0.00240378
0.000567347
0.00321499
0.000943864
-0.000159128
-0.00110342
0.00982405
-0.0049025
-0.000949165
-0.00179036
-0.000861384
-0.000655152
-0.00158768
-0.000466708
0.00360133
-0.00026166
-0.00345899
-0.0042224
-0.00258986
-0.000249497
-0.000117695
-0.000125841
-0.00142239
-0.000492825
-0.00212925
-0.000375823
-0.000536614
0.000350426
0.000174464
-3.01176e-05
-0.000481226
-0.00228703
-0.00158696
-0.000463684
-0.0177197
-0.00794201
0.000698535
4.67683e-05
0.000254153
8.06953e-05
1.22717e-05
0.00620598
0.00059738
-0.000226673
-0.000808877
0.0321178
4.2404e-05
0.000435462
0.00759791
-0.00114794
-0.000234083
-0.000948617
0.030338
-0.00049267
0.000262785
0.0039818
-0.000298648
-0.000165865
-0.000855017
0.0278476
-0.00155838
-0.000212801
0.000319555
-0.000309485
-0.000248603
-0.0197618
-0.00220812
0.00310987
0.00473911
-0.000171854
-0.00409673
-0.00110603
-0.000157346
0.000576088
-0.000354174
0.000185476
-0.00198891
-0.00330359
-0.00234071
0.00103382
2.07509e-06
-0.00879774
-0.00250609
0.00176907
0.000184888
0.000215003
-2.51444e-05
-0.00195176
-0.00150806
0.00277635
-0.000160659
-8.16386e-05
0.0192377
-0.00112677
0.000762277
-0.00144067
0.000314432
-3.67061e-05
0.000479439
9.11615e-05
-0.000737358
0.00373428
0.00130855
0.000316224
-1.67175e-05
0.00139684
-0.00390803
0.000179143
0.000673538
0.000570411
0.000880417
-0.00464113
-0.00458498
-0.000986146
-0.00246985
-0.000996153
-0.00089889
-0.00180986
0.00159087
-0.00134135
-0.000602901
0.00583193
-0.0019698
-0.000151357
-0.000456341
-0.000189216
-0.00010553
0.00100032
0.00200258
0.00153728
0.000832687
-0.000885158
-0.00517295
0.000332763
-0.00167036
-0.000832103
-0.000839615
0.00694868
0.0103867
0.00346231
-0.000320539
-0.00115925
0.0253133
-0.00648823
-0.000755247
-0.00383136
-0.000584989
-0.000817108
0.000361686
0.000538904
0.00181225
-0.000450889
-0.00107269
0.00855316
-0.00504801
-0.000690752
-0.00420018
-0.000525401
-0.00079096
0.00408094
0.0109218
0.00253179
-0.00102389
0.0114839
-0.00611694
-0.000878105
-0.00465709
-0.000633647
-0.00104403
-0.000100433
-0.00139649
0.00280025
-0.000953961
-0.000780908
0.0364401
0.00775514
0.00962252
0.000397872
-0.000223879
0.0346788
0.000827737
0.000965535
0.00102931
-0.000924084
0.00327365
-0.00080384
0.00029086
0.0175024
-0.00092582
-0.00115952
0.0102118
-0.000269323
0.000517456
0.00813905
-0.000451268
-0.000730708
-0.000892195
0.0205913
-0.000385848
0.00190646
0.000999821
-0.000394095
-0.000322768
0.0241295
-0.000660916
0.000647643
0.0229696
-0.000671908
-0.000920375
0.0250058
-0.000583759
0.000979918
0.00290314
-0.000356008
-0.000584919
0.0213589
-0.000638913
0.00245516
-7.26627e-05
-0.00079337
-0.000755388
0.0464033
-0.000293376
0.00100697
0.00408421
-0.000391636
-0.000633045
0.0131672
-0.000535835
0.000699614
2.0835e-05
-0.00098046
-0.000588208
0.0127269
-0.000482618
-0.000359163
0.00775334
-0.000924611
-0.000601562
0.0234918
-0.00593481
-0.000944348
-0.00493919
-0.00056532
-0.000988605
0.000161551
0.00149847
0.00862328
-0.000441475
-0.000890626
-0.000190072
-0.000406652
0.0147068
-0.000426868
-0.000893566
-0.000903105
0.0350435
-0.000999143
0.000423739
0.00889773
-0.000316308
-0.000841451
0.0104123
-0.00026877
-0.00154692
0.0013993
0.000344325
0.000352218
-0.0003857
0.000401379
-0.00260428
0.00063182
0.00159048
0.000590548
0.000201739
-3.2862e-05
0.000724058
-1.87565e-05
0.00107713
3.47933e-05
0.00813922
-0.00261976
4.56908e-05
-0.000169901
0.000230449
-5.73051e-05
0.00107602
0.000281834
0.00136371
0.000708998
-0.00269076
-0.00200298
0.00386928
-0.000961871
-4.54302e-05
-0.000432388
-0.000667244
-0.00584724
0.000253269
0.00815219
-0.00228092
-0.000130117
-0.00408243
-0.00191647
0.00611457
-0.00297557
0.000113429
0.0053929
-0.00375392
-0.000366139
-0.000373391
-0.000470813
-0.000471255
-0.000945984
-0.00280612
-0.000725691
-0.000642282
-8.46912e-05
-0.0126503
-0.00392947
-0.000481589
-0.000277918
-0.000527637
-0.000608401
-0.000935464
-0.00220666
-0.000191578
-0.000602336
-0.000225349
-0.0139289
-0.00252831
-0.00127778
-0.0017618
-0.00117267
-0.00112849
-0.00074415
0.00336715
0.000687006
0.000121795
-0.00726921
-0.000600893
-0.000836051
-0.000733956
-0.000428556
0.000178428
-0.011087
-0.00638921
-0.00163582
-0.00422565
-0.00153025
-0.00174097
-0.000372667
0.00251468
0.0106359
-0.0043742
-0.000680056
-6.83416e-05
-0.000703745
-0.000532374
0.00156124
-0.000968729
-0.000360362
-0.0150637
0.00258322
0.00163659
-5.99578e-05
-0.000362435
-0.000122966
-6.27306e-05
0.0265114
0.00057474
3.36942e-06
0.00448833
0.000911801
0.00060294
-9.10498e-05
0.00821144
0.000187137
-0.00563532
0.00857946
0.0121861
0.00036804
0.0290518
0.00105569
0.00265564
-0.00094898
-0.000371378
-0.000780179
-0.000136698
0.0029207
-0.000130416
-0.00139647
-0.000448738
-0.00237384
0.000236605
-0.000184479
0.00204311
9.5983e-06
-0.0024891
0.00072016
-0.00145333
0.000485885
-0.000169738
-0.000386385
-0.000336889
-0.000304348
0.00118156
-0.00232867
0.000275342
-0.000151295
-0.00363966
-0.00102723
0.00596691
-0.00906511
-0.000322209
0.00437944
-5.32583e-05
0.000307154
0.00160152
-0.000942442
0.000463114
-0.00641104
-0.000337074
-0.00116147
-0.000150391
-0.00373363
0.000292423
-0.000351751
-0.00165204
-0.000294561
-0.000838888
-0.000968701
-0.0015239
0.000142743
-0.000431184
0.000189014
-0.000304986
-0.000708733
-0.0026755
-0.00240979
-0.000201544
-0.00041683
-0.00593617
0.00144244
-0.000649706
0.0022381
0.00103658
0.000384064
-6.77596e-05
0.00390153
0.000192277
-0.000674669
0.000638825
0.000501514
0.000117107
4.88434e-05
0.00808622
-0.000317442
0.0017218
0.00155997
0.000385281
-0.000127468
0.0269389
0.00168651
0.000230491
-0.00922556
-0.00391678
-0.000214565
-0.0522073
0.00037937
-0.0117777
-0.00586156
-0.00316526
4.36424e-05
-0.0347423
-0.00389323
-0.000761598
-0.00181321
-0.00080853
-0.000257285
-0.000810377
-0.00395055
-0.00628743
-0.00161475
0.000452034
-0.0299702
-0.00219567
-0.00091401
-0.0026044
-0.00121704
-0.000711132
-0.00282535
-0.0386704
-0.00304467
-0.000132044
0.00136204
-0.00446572
-0.000763019
-0.00407313
-0.000929829
-0.000286157
-0.00320061
-0.00138362
-0.00618508
0.000652456
-0.0232293
0.00148186
0.000448111
0.00340454
6.31532e-05
0.000568432
-0.000273903
-0.0277931
-0.000643222
-0.0002427
0.000602709
-0.0104953
0.00527311
0.00178455
0.00675823
0.00133136
0.0023813
0.00142114
-0.0023793
-0.00452295
0.00207172
0.0010303
-0.0085163
0.00409483
0.00171432
0.00619035
0.00138519
0.00199131
0.00160327
-0.00213557
-0.00444633
0.00252873
0.001133
-0.019966
0.00570269
0.00208921
0.00713098
0.00131859
0.00252346
-0.00165422
-0.0110993
0.0059144
0.000255882
0.000403766
0.0288974
0.000623343
-0.00983372
-0.0345995
0.00551078
0.00138624
-0.000286163
-0.0262585
0.00418285
0.00180254
0.00835278
0.00137665
0.00199438
-0.000124149
-0.00509278
0.00111271
0.00064899
0.000966895
-0.0224684
0.000688834
0.00109998
0.00621243
0.000801354
0.00128827
0.000206178
-0.00192216
-0.00356978
-0.000199902
0.000453206
-0.0130012
0.000530285
0.000965521
0.00533439
0.000720255
0.00109239
0.000745174
-0.00112586
-0.00192572
-6.67976e-05
0.00070655
-0.0121571
-0.00149267
0.000453163
0.0024962
0.000199877
0.000725448
-0.000264591
-0.000740964
0.00274811
0.000231492
4.25238e-05
-0.0068003
0.00601854
0.00223671
0.0107273
0.00156191
0.00206206
0.001273
-0.00123807
-0.0037514
-0.000197836
0.00116378
-0.0222557
-0.00201581
0.000882714
0.00202977
0.000987565
0.000605612
0.000973567
0.0017845
-0.00281885
0.000863061
-0.000224179
-0.00612979
0.00720498
0.00311873
0.00952815
0.0024783
0.00312362
0.00175992
-0.0156976
0.000983335
0.00130185
-0.000546728
0.0121112
0.00035946
-0.00236559
-0.00285483
0.000482299
0.000614015
-0.0100133
0.0014158
-0.00738017
0.00150247
0.00164843
-0.000376959
-0.00937926
0.00259655
0.00102683
0.00446847
0.000616551
0.00102807
0.00287599
-0.0104481
-0.00247634
0.00364242
0.00100126
0.0239072
0.00470266
0.00212487
0.00851994
0.00193803
0.00195133
0.000309418
-0.0377153
0.00539821
0.00181141
0.000253218
-0.0115955
0.00372284
-0.00126392
0.00233929
0.000572877
-0.000387022
-0.00565947
-6.99261e-05
0.00020481
0.00363028
0.000267993
0.000290743
-0.000259965
-0.000773856
-0.0168963
-0.00204242
0.000315219
-0.0649849
0.00174497
0.000323126
0.000310872
0.00115061
0.000875564
0.000140038
0.039361
0.00168224
-0.000134028
0.00452543
0.00208572
0.00065775
0.000748519
0.0223046
0.000504417
-0.00190478
-0.000483678
2.52058e-05
0.000754108
-0.00149248
0.0448818
0.000134742
-0.0192721
-0.00393456
0.00394982
0.000812197
-0.00590591
6.98572e-05
-0.00482461
0.000937986
0.000853675
0.000413696
-0.0142614
0.00111075
-0.000490567
0.00252445
0.00174451
-0.000470767
0.00615013
-0.00102835
-0.000764834
-0.000753657
-9.50958e-05
7.50875e-05
-0.0211043
0.00051344
-6.92848e-05
-0.00199917
-0.000254725
0.000270613
-0.000205158
-0.0286677
0.00289225
0.00185739
0.00706507
0.00151608
0.00194575
0.00122469
-0.00118817
-0.00128059
0.00194142
-0.00027339
0.0217691
0.000404163
-0.0145123
0.00247318
-0.000270699
0.000908917
0.0384846
0.000277772
-0.000389142
-0.000338326
4.29584e-05
0.000768202
0.000158656
-0.0163562
0.000429419
0.00125227
0.0101949
0.000427421
-0.000180794
0.0333991
0.00118226
0.00361415
0.00108005
0.000723698
-0.00176847
-0.00454798
-0.00217303
-0.000729196
-0.00107696
-0.000238884
-0.000787713
0.000949394
-0.000204578
-0.000605359
-0.00196782
-0.00065805
-0.0171463
0.00380348
-0.000587369
-0.000665055
0.00644628
0.00269942
-0.000953466
-0.000441722
-0.000701312
-0.00143344
-0.000668117
-0.00246212
0.0033694
-0.000720094
-0.000493307
0.000597427
0.00983159
0.00346348
0.00210207
-0.000476035
-0.000754372
-0.000548407
-0.000209475
-0.00383212
-0.00974555
-0.00169216
-0.00120327
-0.00134948
-0.0101588
0.00232458
-0.00184985
-0.000999181
-0.000960253
-0.00176295
-0.00110771
-0.0393251
-0.00922988
-0.000332415
-0.00362295
-0.000634156
-0.00058641
0.00573559
0.0011013
-0.000111382
-5.4207e-05
-0.00264214
-0.000461676
-0.0440915
-0.00200384
-0.000229154
0.000558375
-0.000550239
0.000180592
0.00460926
0.000217877
0.000614812
0.000225702
-0.00073205
-0.000511955
-0.00918326
-0.0225385
0.00011116
-6.97602e-05
0.000195012
0.00144002
0.00649827
0.000280522
-0.00015237
0.00014946
-0.000857025
0.000108136
0.0200839
-0.0103372
-9.43189e-05
7.93082e-05
-7.22426e-05
-0.00238156
-0.00147902
-0.000767229
0.00031979
-0.000116392
-0.000894534
3.57203e-05
-0.0265295
-0.00824672
-0.000555431
-0.000295351
-0.000216231
0.0017848
0.0100021
-0.000947578
-0.000443222
-0.000752509
-0.00202037
-0.000668454
0.0109941
-0.069809
-0.011388
-0.00192878
-0.00214048
-0.00154486
-0.00607518
-0.00352742
-0.00177488
-0.00119874
-0.00153079
-0.0013952
-0.00137314
-0.0383454
0.0119809
-0.00712609
0.000581421
-6.50326e-05
0.000555086
0.00192929
-0.0010729
0.000513764
0.000603222
0.000246605
-0.00187643
0.000362421
0.00163874
-0.00113061
-0.000755315
-0.000601338
-0.00116777
-0.00061578
0.00260443
-0.00120985
0.000253183
-0.000376755
-0.0010085
-0.000617042
0.0105591
-0.000255742
-0.000261817
-0.000924286
0.00014619
0.00704442
0.00574537
-0.00438504
-0.000139414
-0.000955461
-0.00229568
-0.000652713
0.00503173
-0.00159696
-0.00117556
-1.08982e-05
-0.00123804
0.00026979
-0.000706069
-0.00102296
-8.29837e-05
-0.000345014
-0.00154035
-0.000727734
-0.0246696
0.00607354
-0.00192868
-0.000650237
-0.000566685
-0.000429564
0.000366573
0.00727423
0.00141557
0.000164527
-0.000562922
-0.00187917
-0.000307939
0.000828775
-0.025659
-0.000580695
-0.00084233
-0.00154898
0.000255953
-0.00155924
0.000184817
-5.77121e-05
-0.00138777
-0.0222183
-0.00271696
0
0.000270604
0.00555517
0.0038036
-0.000498345
-0.00286809
0.00397275
-0.00194883
0.00155685
0.00247278
-0.0035741
0.00138852
0.00197036
-0.000966086
0.00421983
-0.00289252
-0.00274177
0.00360865
0.00139206
-0.000742899
0.00187974
0.00266957
0.00627018
0.00260401
0.00344583
0.00439904
0.00524981
-0.00406787
0.000686911
0.000968194
-0.00024917
0.00493109
0.00568765
0.00668211
0.00145343
-0.00160352
0.00365698
0.00735292
-0.00133896
0.00205078
-0.00103218
-0.00341395
-0.000273139
0.00222531
-1.83495e-05
0.000121637
0.00316677
-0.00209382
-0.00113116
-0.000569205
-0.00312073
0.00755114
0.00168137
-0.00342289
-0.000850696
0.00354633
-0.00152646
0.0016305
0.00229862
0.00355472
0.00024316
0.00303944
-0.00343441
0.00625107
0.00321982
0.00204586
-0.00174066
-0.00965125
-0.00687825
-0.00678817
0.000939307
-0.00131891
0.00396896
0.00194651
0.00342569
0.000628385
0.0021235
0.00591162
0.00911066
0.00251165
0.00400509
-0.00834361
0.00223898
-0.000376586
0.00263203
-1.56744e-05
0.00341844
0.00371212
0.000207883
-0.00262579
0.00181799
0.00276385
-0.0024665
0.000993097
0.000484958
0.00307659
-0.00098442
0.00192982
-0.000415069
0.00833197
0.00223478
0.00505454
0.00691413
0.00580236
0.000364884
0.00320532
0.00629948
-0.00853221
0.00348493
0.00214271
0.00372694
0.00584009
0.0049005
0.00321295
-0.00169675
-0.0081915
0.00451674
0.00631766
0.00395593
0.00653743
-0.00872169
0.00013786
-0.00303807
-0.00111344
-0.0016907
0.000864887
0.00555475
0.00726307
0.00883187
-0.00718166
-0.0173536
0.0159184
-0.0116191
-0.000554036
0.00270208
0.000743092
-0.0313851
0.000641154
0.025135
0.00843611
0.0222944
0.00169852
0.004764
-0.017491
0.00512877
0.00640161
0.00463197
-0.00673198
0.00534924
-0.0031405
0.000103208
-0.00167116
-0.00419365
-0.025937
0.00485144
0.0268734
0.000260626
-0.000681811
-9.34319e-05
0.000562944
-0.00181658
0.00972875
0.00563124
0.00789973
0.0081948
0.0114643
0.0109022
0.00512759
0.00393821
0.019481
0.000976611
0.0178519
-0.0143153
-0.000755276
0.0146635
0.00989164
-0.00105623
0.00555351
-0.000707886
0.0261345
-0.000909134
0.0110635
0.0243199
0.00896288
0.00291543
-0.000867292
0.0114874
-0.000260115
9.70768e-05
-0.00905912
0.00587997
-4.99314e-05
0.00328707
-0.0101063
-0.0130839
-0.0160014
0.00265238
0.00544489
0.00262998
0.0319243
0.00331894
0.0124196
0.021526
0.0639054
0.00274931
0.00217718
0.0152149
-0.012689
0.0300461
-0.0344567
-0.000104161
0.0248817
-0.00235981
-0.00131488
0.00255591
-0.00364233
-0.000760384
0.00205733
0.0153334
0.012267
0.00584112
0.0120877
0.000899301
0.00407563
-0.00237071
0.0154305
-0.000827663
0.00277507
-0.0130321
0.00156623
0.00173634
-0.000262711
-0.00487242
0.0263527
0.00169986
-0.0014725
0.0110334
0.00436962
-0.00190957
0.00245964
0.010772
0.00129261
-0.00674959
-0.00499861
-0.0101802
0.000864706
0.0120158
0.0284128
0.0195248
0.000244786
0.0014981
-0.00843015
0.0263643
4.13927e-05
0.000577355
-0.00306063
0.000729689
0.00169831
-0.00303015
0.000970723
0.00191204
0.00925096
0.00378386
0.0227853
0.00513601
0.0253656
0.00453376
-0.00573186
0.00755236
0.00752349
0.000271086
0.0162014
-0.00135332
-0.000577925
-0.00524271
0.0338128
0.00774936
-0.0043533
0.00526055
0.00176839
-0.00983124
-0.00956291
-0.00256969
0.0018315
0.00452366
0.0624766
8.84031e-05
-0.0200743
0.00651161
0.000882378
0.00664662
-0.00290103
-0.00500187
0.00758056
0.000542025
-0.00259951
0.00216514
-0.0165818
0.0258585
-0.0106686
0.0103572
0.00139477
-0.00512635
0.022339
0.0377821
0.041368
-0.00126804
0.000287334
0.01291
-0.00307661
-0.00308903
-0.00326573
-0.0031379
0.00774363
0.0210001
-0.000158297
0.0168776
-0.000137829
1.18484e-06
0.0233096
-0.00710536
-0.00294843
0.00433966
-0.0074821
0.00323898
0.00170219
0.020847
0.0157519
-0.00319881
-0.000254678
0.00910919
-0.0228357
0.001741
0.00124089
-0.0005975
0.0053348
-0.00298273
-0.00972223
-0.00557059
0.00259348
-0.0245873
-0.00799204
-0.00396166
0.00139385
-0.00508242
-0.00700444
-0.00310104
0.0439761
0.0141035
-0.00391611
0.00626314
-0.00943137
0.0206151
4.00844e-05
-0.00292602
-0.000925649
0.0182863
-0.00644615
-0.00518774
0.00443521
-0.009239
0.00406406
0.00288721
0.0220438
-0.000898149
0.000849015
-0.000353732
-0.00219917
-0.00142604
-0.0219011
-0.00117837
-0.00441394
-0.00391119
-0.00207815
0.0377127
0.000207963
-0.00688492
-0.00227512
0.00340416
-0.00723103
0.00325536
0.00503334
-0.0020419
0.00657152
0.0141577
0.000505125
-0.00734628
0.00510138
0.0199791
-0.00225431
0.00517245
-0.00201353
0.00201522
0.00921061
0.0125668
0.00619475
0.00639234
0.0396121
0.0263099
0.0772684
-0.00383649
-0.000740925
-0.0244507
-0.00835682
-0.00782119
-0.0520582
-0.00365245
-0.0080259
-0.0059562
-0.00116565
-0.00275749
0.0232275
0.00606074
0.00236434
0.00288433
0.00383292
0.0129797
-0.00672698
-0.0173466
-0.00411738
0.0949922
0.00687916
0.000610655
-8.15228e-05
-0.000513337
0.0116411
0.00333635
-0.00208881
-0.00202723
-0.000746529
0.0270736
0.000560293
0.00163725
0.0013638
-0.000650049
0.00735089
0.0104321
0.00754273
-0.000656995
-0.00166579
-0.0419117
0.00598653
-0.00217953
0.00265117
-0.00126284
-0.00401589
-0.00445518
0.0323235
-0.00103929
-0.000392981
0.0246722
-0.00373731
0.00213354
-0.00470539
0.00145771
-0.00348705
0.000663715
-0.00138232
0.00156743
-0.00739497
0.000382157
-0.00154152
0.000922733
0.00262892
0.001565
-0.0218989
0.00131637
-0.00426578
0.00771149
0.0274249
0.00421109
0.00374753
0.0380557
-0.014277
0.00284677
-0.0016902
0.0240366
0.0450817
-0.00510229
-0.0037237
-7.02466e-05
0.0362888
0.00132799
-0.000970208
-0.0238902
0.00344898
-0.0223165
0.00649975
-8.25885e-05
-0.00216102
0.00192783
0.00887659
