booster[0]:
bias:
-0.0454956
weight:
0
-0.00525301
-0.00326437
-0.00353773
-0.00212719
-0.00479412
-0.0045134
-0.003717
-0.00208307
-0.00250638
-0.00137541
-0.00156091
-0.000685746
-0.00259741
-0.00246058
0.000347905
-0.00273954
0.00205057
-0.000919705
0.000340031
-0.0012778
-0.000805588
-0.00109872
-0.00198085
-0.00103652
-0.000388729
-1.954e-05
-0.00303745
-0.00261858
-0.00062984
-0.00287083
-0.000825981
0.000328008
-0.0013619
-0.000762757
0.00221002
0.000384878
-0.000239393
-0.00094867
0.00256517
0.000232514
-0.00213002
-0.000593149
-0.00213509
-0.000281472
-0.00145955
-0.000761481
-0.00634936
-0.00207192
0.000438661
0.000606131
-0.000314554
-0.00138547
0.000573617
-0.000582097
-0.000724287
-0.00154359
-0.00066388
-0.000982753
-0.00139136
-0.0018024
0.000169463
-0.00192374
-0.00144435
-0.000937487
0.000586527
-0.00137677
-0.00419057
-0.00219738
-0.00269905
-0.00312728
-0.00210697
-0.0015803
-0.00207359
-0.0022838
-0.00138687
-0.000531525
3.65503e-05
0.000116125
-0.000105985
-0.000857609
0.000730252
-6.13187e-05
-0.0026877
-0.00111645
-0.000968574
-0.00149586
-0.000808942
-0.000387947
0.00159416
0.000904648
0.0011453
0.00151674
0.00141806
0.00149075
0.000836065
0.000723843
-0.00157988
0.00104946
4.93171e-05
-0.00166027
-0.000199121
-0.00142322
-0.000425701
0.000654948
-0.00323558
-0.00102371
-0.00414049
0.000891917
-0.000432385
-0.00146918
-0.00213189
-0.00244988
-0.00185249
-0.00118655
-0.000823151
0.00081168
-0.00157061
0.000557239
-0.0017944
-0.00910011
-0.00620446
-0.000353212
-0.00546191
-0.00155214
-0.000721122
-0.00188984
0.0493814
0.000225215
0.00321592
-0.00817237
-0.00300081
0.00054784
0.010354
0.00307379
-0.00207005
-0.0374548
-0.00153798
0.00154026
0.00586696
0.00180988
-0.000579652
-0.00145227
0.00271683
0.000100156
0.00649233
-0.000519818
0.00112269
0.00717118
-0.00399124
-0.000574773
-0.0157702
0.00104282
-0.00500582
-0.0134592
0.00031019
0.00137918
0.00110149
-0.000268859
0.00130592
0.00277049
0.00222258
0.00226116
0.000252252
0.00363013
0.00158134
0.00114773
0.000489466
0.00231469
0.00478776
-0.00101204
0.0179565
0.00137586
0.00223636
0.00431683
0.00404506
0.00207424
0.00726497
0.0133924
-0.0211645
0.00308501
0.0293233
-0.00920095
0.014735
0.00433781
0.00267531
0.0124829
0.000353276
0.000748167
0.00704803
0.00929815
-0.000674074
0.00634427
0.00517227
0.00746615
0.00902164
0.00442236
0.0100639
-0.00471727
-0.0192054
-0.026433
-0.0325234
0.000934587
0.0235619
0.00114938
-0.0053023
-0.00250212
-0.0298849
-0.0244428
-0.0150603
2.87735e-06
0.00761549
-0.00525954
0.00559114
0.00205084
-0.000234138
-0.0020545
0.00234767
-0.00681505
-0.0179263
-0.0132377
0.00363791
-0.00785193
-0.00658349
-0.00188235
0.0194897
-0.00942385
-0.00587453
0.00566827
0.0011741
0.000107727
0.000371266
-0.0027523
-0.00584132
0.00365945
-0.00403772
-0.00089012
0.00301267
0.00207412
-0.000596519
0.00458981
0.00452048
0.00294422
0.00279669
0.0121106
-0.000104058
0.0131005
0.00540014
-0.0158167
-0.00112608
-0.000128137
-0.00468579
-0.00766133
0.00260827
-0.000405203
-0.00235964
-0.000879819
0.000266794
0.000801648
-0.0014012
0.00120078
-0.008596
-0.0186232
0.000234549
0.00480637
0.03523
-0.00760145
-0.0212324
0.0238219
-0.0439083
-0.0260024
0.00139671
-0.0024162
-0.000709958
-0.0550245
-0.00239022
0.00337845
4.54254e-05
-0.000757272
0.00200748
0.000840529
6.66886e-05
-0.0394997
0.00282411
-0.00031078
0.00586133
-0.00278469
-0.00782695
-0.00128841
0.00156296
0.00460655
0.00204729
-0.00016774
-0.0218831
0.000565866
0.00254917
-0.00699583
0.0141396
-0.0254711
-0.00251516
-0.00115213
-0.000906431
0.00234983
-0.00666014
-0.00793271
-0.00601797
-0.000254708
0.00345279
-0.00427342
0.00188748
0.00678533
0.00430968
0.000532099
0.00297303
-0.00857789
0.00079892
-0.000286474
-0.00159546
-0.000733018
-0.000625702
0.00504344
0.000176413
-0.000259296
0.0218179
-0.0104547
0.00201361
0.0285855
0.00289399
0.0056174
-0.00126221
0.00659127
0.0138453
-0.000219797
0.000349949
-0.0018829
0.000196807
-0.000779335
-0.00628201
-0.0204547
-0.000976824
-0.00953178
7.90883e-05
-0.00372825
-0.00244077
2.86684e-05
0.00130386
-0.00189092
-0.00779335
0.0127619
-0.000318974
-0.000603225
-0.00305838
-0.00415454
-0.000141032
-0.00243766
-0.000581905
-0.00831834
0.0030444
0.00212474
0.00232313
0.00021461
0.00140616
-0.00333022
-0.00506858
0.00174191
-0.00872218
-0.00341352
0.000129538
-0.00313894
-0.00034776
4.62147e-05
-0.00560476
-0.0118302
0.00244839
-0.0160105
-0.00263703
-0.00170666
-0.00253313
-0.0134029
-0.00775362
-4.34764e-05
-0.0102509
-0.0108562
-0.00831934
0.00243553
-0.00179927
0.00812161
-0.0173903
-0.00171591
0.00410265
-0.000934195
0.00149858
0.00385589
0.00105893
-0.0513889
-0.0331079
-0.0340906
-0.00685275
-0.0090932
-0.00219534
-0.00334093
-0.00027165
0.0179578
-0.0154636
0.00291198
-0.0214501
-0.001127
0.0118675
0.00647247
0.000421639
0.00681211
0.0362669
0.00598325
0.00515149
0.00372437
0.0199995
0.000341782
-0.000932802
-0.00645968
-0.000350853
-0.00121185
-0.0114479
0.00383521
0.00219624
0.0021051
0.0177345
0.00340337
0.00175942
-0.00644805
-0.000253983
0.0169785
-0.00795952
0.00117854
-0.000688406
0.00121541
0.0108817
0.00123776
0.006691
0.00170882
0.000598562
-0.0148075
-0.00274521
0.00234246
0.00251284
0.0543626
0.0101934
0.00162239
-0.0104339
-0.00201541
0.0182727
-0.0521415
-0.000315336
0.000540873
0.009563
0.00190605
0.00275756
0.00158407
0.0131327
0.00173427
0.0189159
0.00183043
0.0027657
0.00128366
0.0295268
0.00183619
0.030861
0.00100752
0.000754445
-0.0123811
0.00263801
-0.00678483
0.0031965
0.0466729
-0.0136204
0.00197771
-0.00230431
0.0157514
-0.0439211
-0.00305248
-0.000346676
0.00061636
-0.000124413
-0.0241933
-0.000148685
0.00455746
0.00217773
-0.00307061
0.000166092
9.05363e-05
0.000680624
-0.00887034
-0.00211502
-0.000140068
-0.0295765
-0.00220173
0.00260838
0.00103086
0.0131549
0.019953
-0.00979948
0.00424891
-0.00237296
-0.0143606
0.0267918
-0.00132466
0.025461
0.00180627
0.0135135
0.0012644
0.00218642
-0.00388083
-0.00262016
0.00435328
-0.00414933
-0.00269188
0.00263397
0.000619875
0.00203822
0.00108474
0.00928877
-0.0279063
0.00115834
0.000223889
0.000763855
-0.000100176
-0.00391418
0.00330473
0.0168997
-0.00185646
0.000173397
0.0777343
0.00547608
0.00435568
-0.0696008
0.00477024
-0.0538123
-0.0014563
0.0347091
0.00296847
0.00201239
0.011736
-0.0278562
0.0169345
0.0110076
-0.00572276
-0.00453219
0.0223683
-0.00186276
0.0071214
0.00225442
-0.00336169
-0.00806855
-0.0151528
0.00228199
0.0346326
0.000892666
0.0177952
0.0121311
0.00897642
0.00129034
0.0039496
0.0103458
-0.0102475
-0.0062465
-0.0108679
0.00163699
-0.00194884
-0.000592611
0.00954039
0.00899772
-0.00415141
-0.00172174
-0.000586921
-0.00331008
0.00252973
0.00159206
0.00407994
0.00098581
0.000285663
0.000729768
0.00464854
0.00749736
0.0150276
-0.000706183
0.0186561
0.000647006
0.00889717
0.00371167
-0.000821348
0.000907146
-0.0113472
0.0028806
0.00725624
0.0038724
0.000491684
0.000233778
-0.00501562
-0.0106735
-0.000594253
0.00767673
-0.054693
0.0142193
-0.000735584
-0.0157326
-0.00403194
-0.0046559
-0.00292018
-0.000710072
-0.0146936
-0.024712
-0.00110749
0.00413764
0.00136835
-0.0010882
0.000550554
-0.0011598
-0.000195881
0.000934568
-0.00419409
0.00118967
0.00148667
0.000850536
-0.00998632
0.0110998
0.00286331
-0.00648072
-0.00175311
-0.00137449
0.0184561
0.0439081
0.00381154
-8.98272e-08
-0.00176004
-0.000564664
0.00987209
-0.018499
-0.0241563
-0.00102525
-8.1043e-05
0.00124524
0.0129454
0.00862557
-0.00582015
-0.0126661
-0.000846559
-0.00414921
-0.00108249
-0.00134706
-0.0011981
-0.000677241
0.00235459
-0.00896745
-0.0221432
0.0006056
-0.037299
0.000674607
-0.00385689
-0.0498062
-0.00241384
0.0153196
-0.00787434
-0.00111365
0.00417339
0.0210379
-0.0208539
-0.0018794
0.000997045
0.0153602
-0.00874055
0.0003198
0.000608106
-0.00417418
7.50605e-06
0.0209459
0.00148678
-0.000127222
0.00192455
-0.00224286
-0.00383378
0.0210013
-0.0192493
0.0381766
0.0105463
-4.18446e-06
0.00290289
0.00334964
0.00486542
0.0126282
0.000358524
0.00128085
0.000508959
0.0189329
0.0145623
0.0574012
0.0195457
0.0118697
-0.0188444
-0.0362353
-0.000134463
-0.00632506
-0.00859122
-0.000496604
-0.000100355
-1.94698e-05
-0.000308948
0.00175262
0.0098584
-0.00376854
-0.0188161
-0.00244494
-0.000249863
-0.000452796
-0.00793797
-0.0166073
-4.21508e-05
-0.00141464
-0.00372192
0.00438986
0.0162161
-0.00754162
-0.000717423
0.00259137
0.000718267
0.00305951
0.00153736
0.00314621
0.00733634
0.00209488
0.000836414
0.00115454
0.00082824
0.000788424
0.00591171
0.000435762
-0.0306803
0.00100698
-0.00069098
0.000639489
-0.0035184
0.00046618
0.00145146
0.00458278
-0.00341202
0.0171377
0.00069125
0.00439393
0.0102476
0.000231699
-0.00143539
-0.00997697
-0.000563886
-0.037305
0.00181128
-0.00220981
0.0003829
-0.000505182
0.000712031
-0.00258401
-0.000401524
-0.00312639
-0.00188393
0.00521987
0.00442163
0.000675766
0.00296187
0.00209608
-0.000503499
0.00203548
-0.000108205
0.00213262
0.00140549
0.000441022
1.70704e-05
0.00349476
0.00108056
-0.00349289
-0.000932058
0.000208722
-0.000812273
-0.00123606
0.00138628
0.00164077
0.00216158
0.00176858
0.00208499
-0.000298069
0.00135389
-0.00014924
-0.00130309
-0.00128053
0.00359555
0.00213186
0.00177079
0.00206154
0.00159036
0.000497962
-0.00595879
0.000675504
0.000626497
-0.000384434
0.00259832
0.00377202
0.00102211
-0.0010609
0.000555312
0.0025134
-0.00119647
0.00312989
-0.000866682
0.00189839
0.00313741
-0.000210889
0.003285
0.00190193
0.00377263
0.00113997
4.52303e-06
-0.000147737
-0.000557719
-0.000125437
-5.76067e-05
-0.00175977
0.000544227
-0.00461349
-5.90038e-05
-0.000206758
0.000321527
-0.00795134
0.000813424
0.000145428
-0.000228327
-9.2021e-05
0.000324506
-0.00184976
0.00161806
-0.00322019
-0.000551578
-0.00490128
-0.0129056
0.00112025
0.0226326
-0.00042287
0.00130523
-3.12775e-05
-0.000351233
-8.15649e-05
0.000476914
0.0185035
-3.75568e-05
-1.81307e-05
-4.60179e-05
0.00348197
0.0048039
0.000192288
0.000189773
-0.00064725
0.000389842
0.000394937
-0.000616047
0.00440395
0.00194087
0.000187305
0.00010423
-1.68349e-05
0.000426245
-0.00364297
-0.00203552
-0.00536678
0.00365319
0.000333418
-0.00479667
8.37653e-05
0.000132119
0.00682383
-0.000952887
0.00211441
-0.000501692
-0.000103927
0.0025546
5.32104e-05
-0.00021612
0.00274689
-0.00176027
0.00226964
0.000778064
0.000664663
0.000232442
0.00129929
0.000268492
-0.000520453
-0.000247174
-0.000468755
3.86874e-05
0.000252139
0.000323216
-0.036583
0.000859614
0.000199338
-8.68885e-05
-1.35577e-05
0.000242863
0.000117125
0.00016426
0.000349644
4.86323e-05
-0.00263654
0.000102534
0.000423868
0.000287215
-0.00024859
0.00284657
0.000296328
0.00107144
5.73432e-05
0.00037882
-0.000216155
-0.000829613
0.000193442
-0.000448452
-0.000683922
-0.00106909
0.000153585
-0.00193877
0.000216609
0.000601381
-0.000379479
-6.41597e-05
-0.000238609
-0.000168224
0.000109091
0.000266287
-0.00110469
-0.00165977
0.000227123
-5.10994e-05
-0.000314108
6.46832e-05
-0.000543379
-7.91623e-05
-1.56131e-05
-0.004024
-0.00586091
-0.00246442
-0.00472385
-0.00188986
-0.00143041
-0.00067981
-0.000438053
-0.00131711
0.000923313
7.91837e-06
-0.00416533
9.93345e-05
-0.000153534
0.000138379
0.000431952
-0.000621001
0.00237877
-0.00218723
-0.00239278
0.000347768
3.57536e-05
-0.000497046
-0.000162783
9.69984e-05
0.00108937
0.00765991
-0.00133701
0.0087211
-0.0021371
-0.00963184
-0.00537112
0.000413037
0.00120275
0.00899671
-9.35775e-05
-0.00374611
9.14529e-05
0.000118082
-0.000277729
-0.000230073
-8.94226e-05
-2.94807e-05
-0.00263833
0.000292196
0.000140576
-0.000256749
0.00148411
-0.00234467
-0.00315533
-0.000749691
0.00234659
0.000350729
-0.000293802
-0.000474168
9.8239e-05
-0.000370934
-0.000274779
0.000609157
-0.000483748
-0.00033979
0.000320776
-0.000611887
-0.00025685
0.000965177
-0.00145125
-0.000271423
8.67285e-06
-0.00021145
-0.000118362
-0.000156124
-0.000908313
-0.000898649
0.000207522
5.72844e-05
-0.000302157
-0.000250655
-0.00187356
-0.00221707
-0.000597368
-0.000265028
0.000374119
-0.000103965
-0.00148064
-0.000138485
8.40156e-05
0.000537581
-0.000592429
-0.000117154
0.0001445
-0.000238413
3.66867e-05
0.000123635
0.000267214
-0.000154853
-1.13744e-05
-5.46699e-05
-0.0014476
-0.000139885
0.000144125
0.000394371
-0.000716852
-2.05764e-05
7.72634e-06
-0.000339253
0.00148642
0.000514283
0.000370314
0.000128252
0.000802475
0.000405552
-0.000259253
-0.000616867
0.000284259
-2.17955e-05
0.00110111
0.000588941
0.000479912
0.000724002
0.000378176
0.000405536
0.000152192
-0.000949524
-0.000164069
7.63169e-05
0.00014771
0.000305349
0.0002272
0.000834975
0.000294295
-0.000150311
0.000139962
0.000525526
-0.00056897
0.00107397
0.000293893
0.000558736
6.60561e-05
-0.000122013
0.000726078
-0.000489224
4.45278e-05
-0.000157021
0.00106203
0.000110552
7.28651e-05
0.000669179
-0.000684894
-0.000158471
-4.6337e-05
0.00157096
9.1387e-05
4.68375e-05
0.000407174
-0.000408461
-0.000120287
-0.000128157
0.00134049
0.00120077
0.000152015
-0.000106085
-7.85872e-05
0.000234921
-0.00569121
-0.000153653
0.000384315
0.000208063
0.000179688
-0.00701563
0.000985411
0.000266233
-9.31131e-06
-4.36218e-05
0.000435906
5.49278e-05
-1.74159e-05
-0.000697273
-0.000129402
0.000103681
-0.00113577
-0.00104589
0.000182917
0.000400962
0.000410956
0.000214459
-0.0005778
0.000211353
9.49325e-05
-0.000289017
-3.60775e-05
-0.000274119
-0.000713183
6.05235e-05
6.67862e-05
0.000391845
0.000295719
-0.000680193
0.000497767
-0.000804265
0.000263196
0.000550817
0.000374274
0.000413927
0.00012313
-0.0009547
-6.8293e-05
0.000261927
0.000300701
-0.000215977
-0.000950372
0.00372854
0.000555195
0.0015316
0.000235154
0.000711007
-0.000777778
0.000393366
0.000312226
7.37281e-05
-0.00135691
0.00240634
0.000816222
0.00194476
1.18606e-05
0.00106328
-0.000127263
0.000346108
3.21816e-05
-3.11324e-05
0.000324383
-0.000512085
-0.000220474
-0.000260404
-0.000253216
7.43386e-05
0.000616194
-0.00673187
0.00278627
-0.000246807
0.000291188
0.00546478
0.00102385
9.72124e-05
0.000288173
-0.000233962
7.56581e-05
-0.00019307
2.61238e-05
6.65842e-05
-0.000379588
0.000395769
0.000865305
0.00173064
0.000337033
0.00093493
-0.000179294
0.000420256
0.00142859
0.00110284
0.000322669
2.08708e-05
0.0113258
0.00130897
0.000203338
0.000771746
-0.000138917
0.000152409
-0.000158649
-0.000646215
8.09793e-05
-0.000239963
0.000296478
-0.00119175
0.00131953
0.00127372
0.000129529
9.77021e-05
0.00290446
0.000168193
1.77709e-06
-0.000129539
-0.000163843
0.000917197
-0.000221698
0.000969378
0.00142596
-5.54285e-05
0.000146015
-0.00116318
0.00021058
0.00084197
0.000412364
-3.1897e-05
0.00016734
-0.0002359
0.00169815
-0.000229311
0.000561324
7.3116e-05
-9.56725e-05
0.000143229
0.00417814
-5.33167e-05
0.000439339
0.00171472
-7.1715e-05
0.000134873
-0.00117624
-0.00020153
1.48766e-05
9.72092e-05
-8.17538e-05
-0.00075925
-0.0110123
-0.000667115
-0.00291127
-0.000768336
-0.000997818
-0.00021132
-0.0122389
-0.000505444
-0.00209025
-0.000589234
-0.00053778
0.000263959
-0.00704686
-0.000329919
-0.00163883
-0.000452085
-0.000354689
0.00031993
-0.00668891
5.19524e-05
-0.00133164
-3.34512e-05
-0.000323069
0.000559881
-0.0116597
0.00321326
0.000786246
0.00226335
-3.91612e-05
0.000922135
0.000304695
-0.000697971
0.00011883
-0.000254321
0.00105026
0.000875305
-0.00161458
0.000624638
-0.000125659
0.000796495
0.000103794
-0.00517005
5.01903e-05
0.000213322
0.000237166
-0.000246019
0.000646807
-0.0121625
-1.33697e-05
-0.00246281
-0.000249903
-6.39484e-05
0.000536347
0.000329085
-0.00442351
0.002325
0.000209283
0.000773484
-0.000204453
0.000421247
-0.000191199
-0.000391624
-0.000310962
-0.00022146
0.000386587
-0.00219705
0.00235235
0.000415189
0.0011035
-0.00016489
0.000631358
-0.000279731
-0.000318839
-0.000238065
0.000285484
-0.00256036
-0.0019369
6.15964e-05
-0.000230764
0.000199296
0.00014366
0.00013762
-0.00707109
-0.000279301
0.000380046
-0.000712908
-4.15425e-05
-0.0031258
0.000830353
0.00032559
-0.00088454
-3.29934e-05
-0.00207903
0.00098673
-0.000223654
-0.00181838
-0.000404518
-0.000172477
-0.000293931
-0.00140854
-0.000370765
-0.000229599
3.61173e-05
-0.00386493
0.000715617
-0.000164133
-0.00151143
-0.000318346
-9.77333e-05
-0.000324696
-0.00140831
-0.000297132
-0.000281781
-0.000101759
-0.00568924
0.00269779
0.000124896
-8.09804e-05
-0.000104299
0.000318379
-0.000120367
5.98485e-06
0.000211514
0.000380002
-0.00226998
-0.000104534
-0.000751895
-0.000351985
-0.000157707
0.000402028
-0.00330504
0.000384401
-0.000448494
-0.00156675
-0.000561134
-0.000372629
-0.000529739
0.000774338
0.000485641
-0.000618704
-0.000119858
0.00603902
-0.000367707
-0.000649348
-0.000259212
-0.000370027
-6.31356e-06
-0.00254523
0.00108126
0.000303791
-0.000427094
0.000109017
0.00033086
-0.000114558
0.00163177
7.17646e-05
-0.00033283
0.000145702
0.000164475
0.000201898
-0.000127309
-0.00146609
-0.000127571
-0.0181615
0.00072023
0.000513573
0.000270513
0.00175061
6.03192e-05
0.000199695
-0.000188205
-9.95604e-05
0.000202555
8.77666e-05
-0.00155021
-0.000220663
0.000255209
1.6514e-05
2.49771e-05
9.56126e-05
-0.000229765
-0.0029825
-0.000131823
0.0014414
8.63156e-05
7.76543e-05
0.000202836
-0.00022446
-0.00209369
-0.000225393
0.000833531
7.11485e-05
-5.29458e-05
7.33651e-05
-0.000210053
-0.00137411
0.000329057
0.000571264
-0.00177803
-0.000220198
-0.00149625
-7.73822e-05
0.000325175
0.000100881
0.000128596
0.000199299
-0.00148192
-0.00019768
0.000629243
6.1189e-06
6.04135e-05
0.000154047
-0.000189628
-0.00152731
-0.000139139
0.000392717
9.5103e-05
0.000245597
0.000109815
-0.000185103
-0.000495707
-0.000226036
0.000821422
0.000332001
-5.39866e-06
0.000136036
-0.000165294
-0.00206501
0.000422054
-0.000181796
0.000107743
0.000204543
0.000342692
0.000141432
0.00231736
-6.26831e-06
0.000418575
0.000187671
0.000327413
0.000106738
-0.000173805
0.00184484
9.09352e-05
8.73637e-05
0.000171663
0.00024735
0.000155827
1.70984e-07
0.000545873
0.000156361
0.000198454
0.000565394
0.000210996
-0.000645157
0.000525123
0.000153787
7.68991e-05
0.000147963
0.000333413
0.00165705
-0.00134058
-0.000537441
-0.00200431
-0.000551441
-0.000527367
-0.000286935
-0.000330222
-0.000327066
-2.43701e-05
9.17176e-05
-0.00175439
-0.00600004
-0.00157588
-0.00528076
-0.0014663
-0.00185879
0.000352848
0.00127151
-0.000555275
-0.00046765
0.00518192
-0.00589974
-0.00145063
-0.00483751
-0.0012514
-0.00159756
0.000247628
0.000429585
-0.00110959
-0.000157805
0.000576423
-0.000513649
-0.000159835
-0.000840813
-0.000224895
-0.000240939
0.00105217
0.00199641
7.84631e-05
-0.000173977
-0.000144262
-0.00542539
0.00156203
0.000237905
0.000428472
-4.40104e-05
0.000607625
-8.95971e-05
0.00017069
-6.83061e-05
-9.61737e-05
0.000250978
-8.98401e-05
0.00127445
0.000220616
0.000454369
-6.5141e-05
0.000812511
-1.84798e-05
4.50318e-05
-0.000652823
-1.67827e-05
0.000303887
-0.00165702
0.000979512
5.15439e-05
-0.000122975
-0.000201291
0.000239321
0.00143325
0.00229461
0.000793327
-7.45081e-05
-0.000179316
0.00760855
-0.000300053
0.000739996
0.0004151
0.000174592
0.00011171
-0.000154519
0.00524856
0.000670455
-1.36541e-05
-0.000419016
-0.000123866
9.35177e-05
0.000600941
0.000254695
6.17156e-05
7.34029e-05
6.40119e-05
-0.00186701
-6.85217e-05
-3.42448e-05
-0.000272264
-0.000127936
1.92783e-05
-0.000221762
-5.16145e-05
-0.000124959
-8.65957e-06
3.32457e-05
0.00121976
-8.1013e-05
-0.000104106
-0.000767377
-0.000202005
-4.76064e-05
-3.50045e-05
-8.15736e-05
-9.82917e-05
0.000129543
-0.000109488
-0.000536547
0.000910525
6.85367e-05
-0.000591625
-0.000223571
0.000115804
-0.000362005
0.000521695
0.000253552
-0.000127652
0.000318211
0.00666957
0.00325307
0.000279046
0.000964565
-9.06906e-06
0.000525672
0.000381659
-0.000227665
-0.000486128
0.000157497
0.000191632
-0.00219828
0.00104453
0.000273212
0.00103244
1.54053e-05
0.000214484
-2.80845e-05
0.000624145
-0.000123198
9.92764e-05
2.99071e-05
-0.0016418
0.00272716
0.000911774
0.00195051
0.000363751
0.00146899
0.000594304
-0.0163478
0.000174075
9.39903e-05
3.76258e-05
0.00900781
0.000111205
-1.28648e-06
4.81939e-05
0.000209722
0.000192614
0.000231497
0.000296439
-0.00221562
-1.78146e-05
-3.8541e-06
-0.000161
-0.000558762
0.00202367
0.000501221
0.0015857
6.6593e-05
0.000469355
0.000606589
-0.00283944
0.000214049
0.000487166
0.000220972
0.0143311
0.00278439
0.000936128
0.00270289
0.000479616
0.000974002
-6.4316e-05
-0.0565013
0.000450925
7.37137e-05
0.000183597
0.00209485
0.00160789
0.000388352
0.000105453
0.000313727
-9.10743e-05
0.00405712
0.000630364
0.000203221
0.000511002
-4.83109e-05
-6.80254e-05
-0.000589866
0.000323523
0.000361296
-0.000165623
-0.000170569
-0.0092196
6.42824e-05
0.000125249
0.000171587
0.000184106
0.000164495
-0.000111683
0.00656966
0.000147799
-7.94922e-05
0.000584677
0.000178168
0.000162563
0.000134808
0.000517223
0.000153754
-7.40378e-05
0.000449487
0.000409224
0.000131845
-0.00059981
0.0125359
-3.70788e-05
-0.0378986
-0.00528993
0.000579532
2.43577e-06
0.00139165
-0.000296473
-0.00153328
-1.97171e-05
8.1601e-05
-0.000117814
-0.00210105
0.000158669
0.000100916
0.000180468
0.00120996
-0.00023308
-0.000733515
-0.000226626
0.000220391
9.54157e-05
-0.000159829
-0.000312068
0.00425552
9.57619e-05
6.99201e-05
0.000127209
0.000111852
-1.88919e-05
-0.000274511
-0.000120525
0.000301317
0.000259869
0.000268258
2.3025e-05
0.000344431
0.000300628
0.000161393
0.000395174
0.00100578
-0.000102183
0.00261671
0.000123532
-0.000699215
0.000152977
0.000243454
0.000231761
0.0101962
1.25594e-05
0.000378362
0.000376681
0.000346732
0.000128354
-0.000198896
-0.00305094
0.000496586
0.00044061
0.000544742
0.000369285
2.16672e-05
0.038679
0.000132183
0.00082981
-8.61363e-05
-9.5406e-07
-0.000489165
0.000426078
-9.05384e-05
0.000734354
-0.000328376
0.000136344
0.000307495
4.34119e-05
0.000246648
0.000252062
6.48159e-05
-3.06163e-05
-8.96082e-05
0.000813636
9.68773e-05
-0.000481323
-4.40238e-05
0.000451373
-0.000335334
-0.000102914
-0.000151544
6.87861e-05
-0.000276769
0.00253939
0.00100811
-0.000429948
0.000381146
-0.000171512
0.00242075
0.000727061
-0.000384315
-8.19556e-05
9.07583e-05
1.98474e-05
-2.64792e-05
0.00583073
-0.00324894
-0.00067151
0.00071027
-0.000301267
-0.000429226
0.000391533
-0.000211995
3.82061e-05
-4.31954e-05
-0.000116465
-0.000187823
-0.00583935
-0.00108651
-0.000214379
0.00212416
-0.000432025
-3.20866e-05
0.000461349
-0.00051289
-0.000141385
-6.38693e-06
-0.000568402
-0.00016196
-0.00902438
4.16966e-05
0.000470408
0.000762819
0.000473916
-0.00074539
0.00060076
0.000710521
0.000393407
5.54193e-05
4.08728e-05
0.00027403
0.00136591
0.00308969
0.000109487
0.000518771
0.000406691
-0.000684203
0.000997049
0.000604434
-6.74516e-05
-0.000213008
-8.41976e-05
-0.000137398
0.0356574
0.000937434
-0.000184134
0.000177417
0.000176969
-0.00118824
8.58952e-05
0.000529273
0.000115343
-6.16313e-05
2.21941e-05
0.000278549
0.000480712
0.00143868
0.000392304
0.000328388
-3.64766e-05
0.000272601
0.00103198
0.00013081
-6.77162e-06
-0.000148537
6.36797e-05
-0.000146092
0.0108486
-0.00678692
0.00571897
-0.000629965
-0.000735394
-0.000561689
-0.00191112
0.000272195
-0.000501314
-0.000167567
-0.000210312
-6.30654e-05
-0.000401707
-0.00633726
0.00123022
-0.000774171
0.000390476
-0.000170207
-3.61877e-05
0.000142753
-8.08929e-06
-0.000144507
0.000169336
0.00020408
-0.000214396
0.000152321
0.00131438
-6.16201e-06
0.000319449
0.000389383
0.000132998
-0.000146455
0.000580156
0.00032792
0.000193091
-7.06804e-05
9.24971e-05
0.00013616
0.00385607
0.000586718
0.000159723
0.000668485
0.000559781
0.00145722
0.00151301
0.0010993
0.000164164
-0.000145116
-0.000182276
-7.78841e-05
0.0226539
0.000252833
-1.47801e-05
0.0010342
0.000294243
-0.00033435
7.1345e-05
0.000403538
0.000396354
0.000295426
0.000145891
0.000332407
-0.00253441
0.0055985
0.000946191
0.000331003
0.00096929
0.000137932
-0.00021118
0.000592779
0.00125806
7.1486e-05
-0.000287073
-6.38782e-05
-0.000122834
0.0178964
-0.00567206
7.19412e-05
8.33561e-05
-0.000662142
8.01627e-05
0.000186517
0.000252721
0.000153641
2.36662e-05
-0.00575202
0.000573538
0
-0.00110661
0.00321286
0.000932206
0.00104343
-0.0020098
-0.00029699
-0.00164314
0.000419938
-3.16984e-06
-0.000115872
0.000193665
0.000930709
-0.000607073
-0.000305983
-0.000179556
-0.00138391
0.00285268
-0.000556901
0.000477235
-0.000497304
-0.000429954
-1.6745e-05
-0.00106581
-0.000396698
-7.69545e-05
0.000972427
-0.00219811
-0.000992281
-0.000104922
-0.00219987
0.000103677
0.00151511
-0.000461459
-0.000524111
0.00160213
0.000161447
0.000396502
-0.000649539
0.00180589
-0.000274504
-0.00243186
-0.000952582
-0.00120854
-0.000421592
-0.00110349
-0.000264251
-0.0052692
-0.0017944
0.000248786
-0.000433959
-4.92233e-07
-0.00148832
-0.000326546
-0.0006199
-0.00043574
-0.00218866
-0.000781661
-0.000522527
-0.00094173
-0.00131611
-6.50284e-05
-0.00159832
-0.000653446
-6.29297e-06
0.000902
-0.00101374
-0.00456278
-0.0021715
-0.00243513
-0.00207694
-0.00120393
-0.000489486
-0.00089275
-0.000807458
-0.000138954
0.00109234
0.0009201
0.00135094
0.000590889
0.000472836
0.000394776
0.00137515
-0.00156998
0.00016155
6.36336e-05
-0.000147108
-0.000370576
0.000354473
0.000934473
0.00106663
0.00158289
0.00116909
0.00160855
0.00146743
0.00161212
0.00094117
-0.000395165
0.00116425
0.00151503
-0.00022088
0.000758004
-0.000292101
0.000864316
0.00126012
-0.00210151
0.000716111
-0.00319731
0.00126668
0.00038285
-0.000143395
-0.000745821
-0.0011125
-0.000510542
-0.000303272
-0.000938391
0.002229
-0.000522469
0.00218351
-0.00028471
-0.00739891
-0.0048332
-0.000224347
-0.00452415
-0.000713936
0.000104258
0.000359291
0.0527348
0.00228588
0.00393166
-0.00913772
-0.00115197
-0.000235946
0.00947094
0.00234617
-0.000837214
-0.0187747
-0.00416417
0.0043951
0.00980124
0.00470785
-0.00178189
-0.000299398
0.00199289
0.00157453
0.00634213
-0.000584804
0.000759551
0.00711605
-0.00375927
0.000336933
0.00227379
0.000368143
-0.00385942
-0.00340389
0.0242469
0.00114723
0.00097547
0.000483796
0.00149233
0.00267659
0.00358682
0.00228678
0.00175158
0.00435687
0.00321137
0.000590428
0.00234216
0.0029767
0.00589895
-0.000234833
0.0195765
6.63603e-06
0.00161282
0.00697282
0.00674718
0.00130499
0.0083679
0.0125537
0.00267471
0.00228965
0.0293789
-0.00488396
0.0293186
0.00654607
0.00351423
0.0131875
8.96632e-05
0.000540564
0.00549823
0.00963748
-0.00105757
0.00613173
0.00458375
0.00685976
0.00752812
0.00460715
0.0106851
-0.00390961
0.00528855
-0.0255761
-0.0286519
0.0147689
0.0500239
0.00153989
-0.00307372
0.000480281
-0.0295498
-0.0138948
-0.0145182
-0.000571982
0.012705
-0.00378443
0.00479167
0.00154129
0.000709139
-0.00150607
0.00228571
-0.00482372
-0.0128939
-0.0031317
0.0060107
-0.00459848
-0.00547493
0.00382294
0.0210151
-0.00955973
-0.00390746
0.0060445
0.00132444
0.000426563
0.000387514
-0.00201015
-0.00290471
0.00333464
-0.00362339
0.00539014
0.00401072
0.00149265
0.00041435
0.008289
0.00478304
0.00425219
0.00358342
0.0119256
0.000218262
0.0165313
0.0075584
0.00238014
-0.00043258
0.000636057
-0.00355491
-0.0046162
0.00276589
0.000208422
-0.00104461
-0.000107773
0.000918892
0.00124033
-2.78279e-05
0.00239862
-0.00317225
-0.00335274
0.00127135
0.00626341
0.0404382
-0.00728702
-0.0217858
0.0279855
-0.0164598
-0.0226892
0.00626917
-0.00170059
-0.000108161
-0.0259637
-0.000562652
0.00899489
-0.000225184
0.00294509
0.00284477
0.000146242
-0.0010847
-0.0276852
0.003285
0.00168539
0.0179305
-0.00066113
-0.0051914
-3.89295e-05
0.00211014
0.00523377
0.00178628
-0.00129976
-0.0129186
0.000789783
0.00216229
-0.00433486
0.00913506
-0.0176156
-0.00223657
-0.000720251
-0.00133976
0.00256234
-0.00493514
-0.00683442
-0.00399749
-0.00036373
0.00388787
-0.00486521
0.00195861
0.00685419
0.00587488
0.000261808
0.00431979
-0.0020991
0.00178195
0.00168029
-0.00150826
-0.000694959
0.000699137
0.00683703
-0.000205646
-0.000765537
0.022007
-0.00925291
0.00190172
0.0258222
0.00448901
0.00689647
-0.00149247
0.0108122
0.0115925
-0.000270228
0.000674899
0.000757591
0.00924214
0.00497502
-0.00590714
-0.0186397
-0.000875123
-0.0139205
-4.76594e-05
-0.00311013
-0.00223189
0.000635185
0.00455836
-0.00150856
1.83262e-05
0.025116
-0.000344598
0.00988337
-0.00162485
-0.00189862
0.000654183
-0.00217914
-0.000498452
-0.00592677
0.00180747
0.00256397
0.00438166
-0.00140308
-5.96647e-05
0.00137692
0.00315464
0.00219864
-0.00216623
-0.00171461
0.00150139
-0.000186266
0.00120831
0.00126014
-0.004147
7.39197e-06
0.00333435
-0.0144548
-0.00199213
-0.00112589
-0.00295319
-0.0102401
-0.00606121
0.00187256
-0.00683633
-0.00924978
-0.00583211
0.00827336
-0.000943038
0.00650046
-0.017228
0.00013159
0.00553126
5.78281e-05
0.00135947
0.00392569
0.00127814
-0.0392207
-0.0334261
-0.0348161
-0.00606186
-0.00950254
0.00372366
-0.0041042
-0.000268304
0.0106339
-0.0146888
0.00136325
-0.0296361
-0.00165799
0.00421361
0.00724421
0.000763843
0.00769625
0.0374921
0.00654343
0.00660607
0.00400568
0.0216563
0.00155699
-0.00203082
-0.00550976
-0.000868172
0.00191403
-0.00375035
0.00344733
0.00177992
0.00190543
0.0169208
0.00556065
0.00151644
-0.00550673
0.000361267
0.0211373
-0.00676298
0.00160567
-8.97452e-05
0.00146699
0.0144734
0.00268411
0.00755401
0.00185834
0.00210728
-0.020526
-0.00245348
0.00251351
0.00311241
0.0633984
0.00954692
0.00233792
-0.00225916
-0.00153661
0.0138963
-0.0315697
0.000645387
0.000925249
0.0119195
0.00226243
0.00260653
0.00173552
0.0142445
0.00211243
0.0194754
0.00199128
0.00267385
0.00138841
0.0331267
0.00209868
0.0322251
0.00126892
-0.00029877
-0.00954076
0.0138968
-0.00408023
0.00392712
0.0455147
-0.0156333
0.00158974
-0.00102751
0.0185894
-0.0398682
-0.00401617
-0.000540756
0.00132123
0.000389683
-0.0138779
-0.000670147
0.00460169
0.00209601
-0.00520788
-0.000111006
-5.37245e-06
0.00034133
-0.00272749
-0.00200669
-0.000127506
-0.0296863
-0.00269268
0.0022903
0.000808981
0.0100251
0.0122761
0.00222258
0.00255887
-0.00701723
-0.0320791
0.00731203
-0.0128744
0.00803761
0.00344387
-0.0193332
0.00600668
0.00380159
0.00638844
0.00958486
0.0125086
0.00535013
0.00403536
0.00708721
0.00945357
0.00654638
0.00991172
0.00144851
-0.053739
0.00396127
0.0048747
0.00674935
0.00678379
0.00222661
0.0215724
-0.0120702
0.00169849
0.0024615
0.0564042
-0.00323729
0.00909108
-0.0723992
0.00403897
-0.109699
-0.00237252
0.0170911
0.00731603
0.00467369
0.0182259
-0.0119111
0.0360039
0.0165061
0.00646625
0.00303827
0.0242099
0.000980159
0.00629741
0.00596747
0.0171687
-0.00583712
-0.0266385
0.0130652
0.0236342
0.0107267
0.017727
0.0333627
0.00309196
0.0152369
0.00649558
0.00239433
-0.0223276
-0.0135351
-0.0237253
0.00492841
0.000991678
0.000794047
0.0207631
0.0133289
0.00784874
0.000374262
0.00113502
-0.00167691
-0.0023134
0.00627816
0.000602696
0.00560983
0.00246501
-0.0258214
0.012085
0.00571313
0.0157232
-0.0107429
0.00613986
-0.0122045
0.0117906
0.00675435
-0.00544695
0.000404337
-0.0234253
0.00516595
0.0069653
0.0041795
0.00177223
0.0101073
-0.00557312
0.00229119
-0.00102039
0.00859553
-0.0572337
0.0089732
0.000517031
-0.0201199
-0.00141964
-0.00262078
0.00309389
0.000613013
-0.0175447
-0.029522
0.0074403
0.00653677
0.00265101
-0.000779174
0.00114097
-0.000642578
0.00280257
0.0031954
-0.00576096
-1.60402e-05
0.00473264
0.00189244
-0.00430158
0.0224732
0.00533352
-0.00290048
0.00280033
0.000245577
0.0152664
0.0300593
0.00656296
0.0016499
-0.000675616
0.000360973
0.0103665
-0.0335264
-0.0421526
-0.000511425
0.0011513
0.00377354
0.020612
0.0147777
-0.00351556
-0.012338
0.00168748
-0.00612336
-0.000249773
-0.000803475
-0.000565441
-1.87085e-05
0.00235379
-0.0110181
-0.0350774
0.00143363
-0.0191897
-0.00159189
0.00146967
-0.0424711
-0.0103729
0.0159762
-0.00740131
-0.0014792
-0.00257352
0.015713
-0.0230806
-0.000114603
-0.00133515
0.00680814
-0.0148923
0.00454464
0.003532
-0.00368449
0.0160738
0.028596
0.0051812
0.00131778
0.000349631
0.00119488
-0.00391675
0.0327762
-0.0274163
0.0277246
0.00685774
-0.00628382
-0.00299604
-0.00238929
0.00487459
0.0129066
0.00139294
0.00237561
0.00176952
0.0202494
0.0137465
0.0600171
0.019344
0.0101795
-0.0354655
-0.0657437
0.000237679
-0.0149303
-0.0189906
0.000177614
0.000234928
0.000756501
0.000966344
0.00498996
0.00274693
-0.00476222
-0.014746
-0.00334853
0.000102857
-0.000200975
-0.0122097
-0.0270102
-0.00196013
-0.00307738
-0.0070203
0.00413502
0.0210706
-0.0134541
-0.00129253
0.00306483
0.00186222
0.00341383
0.00187603
0.00490354
0.00916333
0.00123415
0.00159532
0.00197381
0.00178477
0.00190667
0.00779896
0.00158294
-0.0290622
0.00118865
0.000815047
0.00251689
-0.00491181
0.00135972
0.00328563
-0.000130781
-0.00356854
0.0197921
-0.00184035
0.0063203
0.0119802
-0.00131272
-0.000810334
-0.00894739
-0.000204353
-0.0377029
0.00215864
-0.00359321
0.000367884
-0.00104008
0.000290722
-0.0041653
0.000604471
-0.00240195
-0.00160648
0.00626372
0.00371471
0.00146336
0.0035103
0.000601027
-0.0011911
0.00260817
-0.000262432
0.00165462
0.000477594
0.000249181
-9.68121e-05
0.0040778
0.00173922
-0.00651987
-0.00128612
0.000244127
-0.000814045
-0.00141134
0.00161148
0.00213573
0.00283381
0.00184837
0.00190667
-0.000208598
0.0011608
5.81001e-05
-0.00126426
-0.000836023
0.00474746
0.00325261
0.00412484
0.00356653
0.00233305
0.00106575
-0.00586768
0.00147436
0.000763615
0.000213033
0.00288345
0.00483596
0.000949861
-0.00116368
0.00128246
0.00416974
-0.0012175
0.00524976
-0.000706637
0.00299794
0.00329536
0.000303243
0.00436535
0.00206953
0.0047191
0.00167957
0.000171944
-0.000809688
-0.000713324
-0.000243954
-0.000105076
-0.00299331
0.00075079
-0.0107111
0.00129488
-0.000561729
0.000440954
-0.0139151
0.000949525
0.000196336
-0.000389764
-9.92893e-05
0.000370903
-0.00275933
0.00429154
-0.00665077
-0.00102489
-0.00438573
-0.0192681
0.00052993
0.0271021
-0.000605457
-0.000636889
-0.000381711
-0.000718405
-2.741e-05
0.000335238
0.0246392
0.000377525
-9.00989e-05
-0.000162936
0.00396179
0.0068191
-0.000227619
3.89336e-05
-0.000889762
0.000751858
-2.08746e-05
-0.000794721
0.00574239
0.00141028
0.000137009
-0.000160785
-9.69399e-05
0.000359286
-0.00924101
-0.00257669
-0.00670127
0.00138591
0.000350151
-0.00795204
-0.000314558
7.8768e-05
-0.00973775
-0.00111301
0.0015318
-0.00101891
-0.000481454
0.00196355
-0.000459505
-0.000486928
0.00689074
-0.00219189
0.00158052
0.000706993
0.000318282
0.000166032
0.00119988
0.000286704
-0.00045391
-0.000270754
-0.000499482
7.17261e-05
0.000392688
0.000520694
-0.0364453
0.000981514
0.000376151
-0.000148414
1.72419e-05
0.000473892
1.26287e-05
2.1253e-05
0.000496913
9.053e-05
-0.00350503
-0.000108581
0.000435883
0.000312126
-0.000341284
0.00189644
4.34933e-05
0.000484593
-0.000193608
9.46141e-05
-0.000808391
-0.00115882
0.000134919
-0.000638951
-0.00199739
-0.001654
2.67368e-05
-0.00295812
-0.000491335
0.0009903
-0.000743708
-0.000328542
-0.000383002
-0.000567987
-0.00025879
-0.000223712
-0.00182004
-0.00267488
0.000103714
-0.00017406
-0.000990532
-6.12345e-05
-0.00100942
-0.000158755
-0.000182607
-0.00437662
-0.00767845
-0.0026617
-0.00527745
-0.00277396
-0.0019895
-0.000871169
-0.000756975
-0.00259467
0.00130372
-0.000636055
-0.00386033
0.000573994
-0.000414876
-0.000238901
0.000313388
-0.000941627
0.00380079
-0.00320751
-0.00296664
-0.000305184
-6.91248e-05
-0.000997726
-0.000266411
-4.69041e-05
-7.47224e-05
0.0119773
-0.00228278
0.0103446
-0.0027622
-0.0133851
-0.00972614
0.000498708
0.00113316
0.0128889
-0.000568292
-0.0059267
0.000180147
-0.000214591
-1.93016e-05
-0.000270729
-0.00037369
-0.000284464
-0.00482886
0.000168326
-0.000530335
-0.000721751
0.00283484
-0.00374
-0.00349511
-0.0017729
0.00243546
0.00151455
-0.000462013
-0.000442235
-8.30378e-05
-0.000270269
-0.000561163
0.000825035
-0.000765903
-0.000228464
0.000213867
-0.000817711
-0.000558724
0.00034866
-0.00191147
-0.000334642
-0.000314939
-0.000266426
-0.000435636
-0.000563942
-0.00115257
-0.00139515
0.000307045
-0.000334935
-0.000248024
-0.000503499
-0.00204383
-0.00321596
-0.000653955
-0.000586504
0.000505402
-0.000311224
-0.00200808
-0.000337021
0.000209962
0.00055845
-0.00072251
-0.000307559
-0.000182861
0.000546012
-0.000270261
0.000215679
0.000138725
-6.33649e-05
-0.000178082
-0.000223622
-0.00177799
-0.000569176
0.000197001
0.0002676
-0.000973536
-0.000221789
-0.000240216
5.40473e-05
-0.000316578
0.000162726
-0.000810513
-0.000152625
0.000433102
4.68485e-06
-0.000529129
-0.000655569
-5.29808e-05
-0.000569048
0.000617511
2.48276e-05
0.000186743
0.000500062
0.000168817
0.000233819
7.0856e-05
-0.00112652
-0.00035257
-2.45828e-05
0.000137221
0.000155344
8.59994e-05
0.00055339
0.000223405
-0.000345567
5.74472e-05
1.11693e-05
-0.000449564
0.00137869
0.000236607
0.000485836
-4.53899e-05
-0.000158765
0.000795005
-0.000547748
-0.000103721
-0.000342857
0.00396566
-0.000357975
0.00012141
0.000728535
-0.000787066
-0.000367705
-0.000273511
0.00415691
-0.000200083
8.92822e-05
0.00036871
-0.000418952
-0.000306121
-0.000304582
0.0034013
0.000934489
0.000106851
-0.000261501
-0.000122386
0.000165447
-0.0102204
-0.000161189
-0.000301744
0.00088207
-0.000127113
-0.00561456
0.000368478
0.000112155
-0.000484509
-0.000181379
0.000268672
-0.000438665
3.05681e-05
-0.00123524
-1.65973e-05
-0.000165838
-0.0021935
-0.00145935
-8.29848e-05
0.000216134
0.000152381
-1.18696e-06
-0.00039398
0.000238408
-0.000193053
-0.000384418
-0.000411628
0.000481553
-0.000965907
-0.000261297
-0.000213265
0.000154008
8.88753e-05
-0.000194962
0.000250966
-0.000999399
0.000105592
0.000389363
0.000165192
0.000228729
0.000897061
-0.00128352
-0.000326727
0.000317892
0.000217344
-0.000337157
-0.0011008
0.00254944
0.000381931
0.000916266
8.70658e-05
0.000546292
-0.000752378
0.000218428
0.00026441
-0.000148377
-0.000910775
0.00112321
0.000562228
0.00105898
-9.92588e-05
0.000735648
-0.000278452
0.00059879
-0.000130037
-8.33594e-05
0.000117244
-0.000393036
-0.000160213
-0.000549442
-0.000381822
-3.15357e-05
0.00153643
-0.0095624
0.00262968
-0.000313485
8.164e-05
0.0134696
0.00024246
4.81646e-05
-7.65114e-05
-0.000293505
7.80622e-06
-0.00029462
0.000260712
-4.98564e-05
-0.000489666
0.000187639
0.00254512
0.000840438
0.000208221
0.0002474
-0.000258497
0.000247632
0.00217032
0.00124176
0.000488029
-0.000141086
0.0227175
0.000585054
0.000185905
0.000490067
-0.0001462
0.000144102
-0.000141583
-0.000678404
6.00373e-05
-0.00021439
0.000285897
0.000303861
0.00206486
0.00169052
0.000376815
0.000107867
0.00697942
0.000603922
2.35518e-06
-2.64368e-05
-0.000249711
0.00203304
-0.000291918
0.00201293
0.00167062
-8.08959e-05
1.17982e-05
0.00160073
7.02139e-05
0.00161397
0.000300798
-6.58777e-05
2.07077e-05
-0.000499723
0.00602418
-0.000350478
0.000958386
-4.83039e-05
-0.000148939
9.02798e-05
0.00790654
-0.0001219
0.000946982
0.0021332
-9.18725e-05
2.22367e-05
0.000867085
-0.000289499
0.000231712
6.83556e-05
-9.80426e-05
9.40907e-05
0.00363356
1.7244e-05
0.000505087
-9.63517e-05
-4.77517e-05
3.17067e-05
0.0105693
-0.00027222
0.000316098
6.75596e-05
-0.000131279
4.76644e-05
0.00288492
-0.000341715
2.24966e-05
-0.000146224
-9.34183e-05
1.51736e-05
0.00207183
-0.000219573
0.000658639
0.000503372
4.4589e-05
0.000116638
0.00313676
0.000848395
0.000332733
0.00089591
-7.52149e-05
0.000301274
8.42241e-05
0.000766191
0.000589178
-0.000187222
0.000105364
9.83949e-05
8.99965e-06
0.00122199
-4.90069e-05
-1.93111e-05
-0.000956872
0.00485394
-0.000371393
0.00224389
0.000596712
-8.82875e-05
5.58147e-05
0.000827117
0.000113591
-0.00127999
-8.63911e-05
0.000300342
0.00026636
-1.47085e-05
0.00113065
0.000932008
0.000145516
0.000787155
-0.000165194
0.00014031
-0.00033869
0.000518634
-0.000212222
-8.90565e-05
0.000116739
0.0019101
0.00187892
0.000345059
0.00140603
-7.49966e-05
0.000381924
0.000597477
-2.80872e-05
1.62368e-05
0.000273821
-0.000585703
-0.00114851
0.000583945
0.000150127
0.000197901
6.87753e-06
0.000132707
0.00304628
0.00052893
0.0010455
-0.000379905
-0.000278033
-0.000393308
0.00150424
0.000824463
-0.000446788
-0.000176038
0.00206015
0.000986392
-4.42564e-05
-0.000897792
-0.000213389
4.67987e-05
-0.000240518
-0.00136325
-0.000266495
8.91443e-06
-8.25721e-06
-0.00173568
0.000850275
5.24313e-05
-0.000587203
-0.000116322
0.000105801
-0.000320704
-0.00124827
-0.000187274
-0.00011854
-0.00015408
-0.00245082
0.00285065
0.000371602
0.000804757
8.11403e-05
0.000533083
0.000113222
0.000255303
0.000820848
0.00032416
0.00181047
0.000110665
-0.000429442
-0.000301699
8.6969e-05
0.000345068
-0.000883145
0.000160456
-0.000360213
-0.00107079
-0.000521053
-0.000370314
-0.000484398
0.0013672
0.000889525
-0.000402579
-0.000306787
0.0124371
-0.000336301
-0.000250416
-0.000136907
-0.00020836
-0.000173513
-0.000393166
0.00159822
0.000577312
-0.000500668
0.000261124
0.000254148
-1.50149e-05
0.00593195
0.000269823
-0.000150472
0.000455394
0.000373999
0.000169808
-6.54947e-05
0.00163079
0.000205295
-0.0159855
0.00111784
0.00481587
0.000339496
0.0100518
0.000274016
0.000525275
2.46336e-05
3.17832e-05
0.000175549
0.000247743
0.000926797
6.07777e-05
0.000414981
0.00018203
0.000540255
3.61574e-05
-0.000138561
0.00351895
5.97547e-05
0.00129599
0.000211397
0.000444437
0.000135125
-0.000192791
0.000811086
-6.654e-05
0.000883438
0.000145712
0.000262059
-1.79694e-05
-0.00017059
0.00296267
0.000166489
0.000852611
-0.00152981
-0.000390482
0.000204607
2.22472e-05
0.000413827
0.00019685
0.000336565
9.02439e-05
0.000602835
-0.000113683
0.000548195
-3.60862e-05
0.000304514
-5.02143e-06
-0.000237131
0.000315333
-9.44728e-05
0.000345098
-2.19335e-05
0.000479498
-9.55972e-05
-0.000307677
0.00257771
-0.000196966
0.000621039
-0.00013178
0.000224238
-6.19648e-05
-0.000183308
0.000423495
0.000557474
-0.000287612
4.29942e-05
0.000329161
0.000225789
5.86285e-05
0.00393306
4.32536e-05
0.000262857
0.000172189
0.000619927
4.9517e-06
-0.000158319
0.00488348
2.59287e-05
0.000171757
0.000327367
0.000207141
0.000188155
0.00308036
0.000757049
0.000174722
0.000342672
0.000869447
0.000146309
0.00111648
0.000845453
-3.92468e-05
0.000201086
0.000516506
0.0003365
0.00282452
-0.00135423
-0.000386998
-0.00151649
-0.000428795
-0.000384147
-0.000212656
-0.000203814
-0.000426746
0.000114585
2.24996e-05
-0.00162755
-0.0046828
-0.00119144
-0.00402363
-0.00118538
-0.00138545
0.000418481
0.000389131
-0.000361307
-0.000574097
0.00385114
-0.00526363
-0.00115212
-0.00383887
-0.00103098
-0.00125087
0.000292474
0.000691825
-0.000932259
-0.000222548
0.00336458
-0.000617855
-4.08733e-05
-0.000236676
-0.00010289
-0.00010916
0.00148751
0.00301156
0.000397749
-0.000255808
-8.63211e-05
-0.00596313
0.0012548
0.000305231
0.000734929
2.86533e-05
0.000595232
-6.76175e-05
0.000280099
-0.000117667
1.32144e-05
0.000190588
0.000236284
0.0008572
0.000255762
0.000678475
-2.70975e-05
0.00069547
3.35301e-05
7.48897e-05
-0.000993178
9.74428e-05
0.000216898
-0.00192356
0.00119778
0.000202628
0.000379408
-9.52393e-05
0.000455071
0.00136578
0.00195079
0.00256266
-0.000189712
-0.000272393
0.0202206
-0.000277552
0.000521636
-0.00109422
0.00117707
0.000162217
-0.000217068
0.0109423
0.000876182
0.000183516
0.000292185
5.26259e-06
0.000283163
0.00074986
0.00020106
0.000307497
-2.84016e-05
0.000111739
-0.000520363
-0.000200919
9.24102e-05
0.000285625
-2.11485e-05
0.00018408
-0.000116657
6.32584e-05
-0.000299622
8.9413e-05
-3.22284e-05
0.0042631
1.64215e-05
5.79988e-05
-7.62314e-05
-7.14501e-05
0.000178345
0.000174463
-3.90637e-07
-0.000134689
0.000339919
-8.68372e-05
0.000907485
0.00147775
0.000262664
7.979e-05
-0.000127889
0.000338459
-0.000312887
0.000844378
0.000290965
-8.6446e-05
0.000221524
0.00873685
0.00349912
0.000362853
0.00158306
3.74334e-05
0.000593174
0.000517364
-0.000259725
-0.000823871
0.000302532
8.92668e-05
-0.0033492
0.000408134
0.000353255
0.00120294
0.000143819
0.00027338
7.76727e-05
0.000738243
-0.000208113
0.00028562
-2.81183e-05
-0.00224345
0.0026695
0.00106454
0.00224576
0.000499258
0.00131664
0.000714585
-0.0164996
0.000141945
7.50404e-05
-0.000176528
0.0119164
0.000153204
-0.000170645
-0.000198898
0.000399709
0.000167644
0.000709522
0.000445527
-0.00241356
-0.000183932
5.46098e-05
-0.00023179
-0.00101862
0.0021759
0.000641287
0.00204119
0.000143693
0.00062228
0.00103654
-0.00345859
-1.05684e-05
0.000906102
0.000268693
0.0173608
0.00261597
0.0010878
0.0031469
0.000617967
0.00101849
-0.000203277
-0.0597171
0.000433277
1.33263e-05
3.00823e-05
0.00252483
0.00235656
0.000182742
-0.000119762
0.000474541
-0.000234621
0.0105911
0.000114369
0.000191897
0.000550127
-5.64732e-05
-0.000121878
-0.000645888
0.000242346
-0.000138255
-5.22011e-05
-0.000218024
-0.0114114
0.000126253
-1.76015e-05
0.000102492
0.000262126
0.00014103
-0.00012377
0.0114393
0.00020844
-0.000242007
0.000658136
0.000195236
7.35706e-05
0.000122614
0.00318111
0.000211264
-0.000317344
0.000108763
0.000548776
5.2987e-05
-0.000850091
0.0173446
-1.01003e-06
-0.0453632
-0.00620334
0.000923506
-7.94871e-05
0.00172356
-0.000374182
-0.0019127
-0.000268579
-0.00261336
-0.00125453
-0.0585591
-0.000857354
-0.00563714
-0.00193079
-0.00307532
-0.000570125
-0.0230282
-0.00327002
-0.00177718
-0.0012257
-0.00059663
-0.000802642
-0.023811
-0.000424303
-0.00279996
-0.0014707
-0.00073141
-0.000261627
-0.000483845
-0.0283152
-0.000902912
-6.46323e-05
-0.00163993
-0.000364698
0.000302479
0.000237755
-0.00293394
-0.0024493
-0.000640373
0.000669468
-0.0211795
-0.00158501
-0.00365508
-0.000567243
0.000760863
0.000643691
-0.0142673
-1.85411e-06
-0.00196518
-0.000692317
-9.45092e-05
0.000212251
0.00038283
-0.0318636
0.00109367
-0.000466784
-0.000151299
0.000153117
0.000649735
0.023022
0.000445978
-0.00193601
-0.000776745
-0.000501098
-0.000536871
-0.00461147
7.58823e-05
0.000647165
-0.000368797
-0.00371472
-0.000488659
-0.000951997
0.000255196
0.000488902
-0.000351535
0.000180987
-0.0101897
0.000852399
0.000762489
-0.000240747
-0.00473795
9.98623e-05
-0.000539261
0.000183548
0.00036573
-0.000142547
0.000145907
-0.00365347
0.000743395
-0.000499485
0.0007939
-0.000101357
0.000155714
-0.000429768
-0.00159446
-0.00013618
0.000313801
-0.000132176
0.000329161
-0.0039701
-0.00510619
-0.000967471
0.00122685
-5.81249e-05
-0.00537243
-0.000618595
-0.00082607
0.000240217
0.000353255
-0.000461546
0.000257769
-0.0264879
-0.00248568
0.000155346
0.00342116
-0.000241186
-0.000978695
-0.000161212
-0.00132475
-8.65963e-06
0.000359974
-0.00105612
0.000273442
-0.0294704
-0.000702038
0.000686992
0.000884376
0.000795612
-0.00241128
-0.000294137
0.000563719
0.000640469
0.000634308
-0.00024602
0.000810933
-0.00603091
-0.000257499
-0.000304828
0.000771254
0.000567481
-0.00323969
-0.000684353
-0.000207807
2.92872e-05
0.000241276
-0.000562503
0.000429951
0.0331854
-0.00115899
-0.000258101
0.000111516
9.06994e-05
-0.00319285
-0.000876197
-0.000203806
0.000150506
0.000230433
-0.000535741
0.00046742
-0.00864214
-0.000148265
0.000127069
0.000248071
-0.000121959
-0.000660676
0.000136862
-0.00039213
-0.000139518
5.45418e-06
-0.000513459
-7.76661e-06
-0.0144272
-0.0248783
0.00183914
-0.00101603
-0.00110246
-0.0006091
-0.00628935
-0.000581989
-0.00110892
-0.000212995
-0.000181576
-0.000310786
-0.000387639
-0.0100474
-0.0125329
-0.00146905
0.000669062
-0.000253571
-0.000140742
-0.000144881
-0.000549051
-0.00029467
0.000300721
0.000302773
-0.000690844
0.000364055
0.000381197
-0.000520138
2.41396e-05
0.000401352
-2.16004e-05
-0.000853956
-0.000239803
3.00729e-05
0.000138242
2.09421e-05
-0.0002508
0.000213053
-0.000584711
0.000326162
-7.55644e-05
0.000832247
0.000701946
0.00124917
-0.00130994
-0.000229561
0.000117652
1.25593e-05
-0.000807833
0.000215481
0.0177286
-0.000278683
-0.000134504
0.000982718
0.000300027
-0.00086704
-0.000400674
0.00014382
0.000428288
0.000463797
-0.000213686
0.000605508
-0.00461395
0.00203391
0.000879417
0.000120205
0.00120918
0.000332454
-0.000462177
0.000781055
0.00127603
0.000138842
-5.12415e-06
-0.00043346
0.000440288
0.0176107
-0.0141195
3.61437e-05
-6.60038e-05
-0.00132724
-0.000342944
-0.000217108
0.000208954
0.000284506
-0.000288953
-0.0181466
0.000301915
0
-0.000106686
0.00341107
0.00401633
0.00174711
-0.00298539
-0.00038509
-0.00116929
0.00179514
0.00154452
-1.44421e-05
0.000866785
0.00253547
-0.000626626
0.00040786
-0.00057427
-0.000585787
0.00454611
-0.000235388
0.00100494
2.65181e-05
-5.4264e-05
0.00111692
-0.00168363
2.37876e-05
0.000384998
0.00272804
-0.00195269
-0.0011997
7.65393e-05
-0.00250505
0.00018101
0.00375267
0.00070159
-0.000217885
0.00218978
0.000939258
0.00165839
-0.000326017
0.00222772
-0.00032566
-0.00480821
-0.00255839
-0.00279704
-0.00192116
-0.00283926
-0.00159762
-0.00752452
-0.00360385
0.0016673
-0.000781682
1.48561e-05
-0.00193918
-0.000759483
-0.000949579
-0.000155534
-0.00346047
-0.00129544
-0.000348172
-0.00178038
-0.00299659
-0.000565876
-0.00238565
-0.00116581
0.000308359
0.00182187
-0.00144138
-0.00691801
-0.00513006
-0.00514231
-0.00329155
-0.0036244
-0.00221631
-0.00220107
-0.00327155
-0.00222736
-0.00167766
-0.0005614
0.000711452
-0.000607694
-0.00127307
-0.000981137
0.00107883
-0.00394639
-0.000779591
-0.00237305
-0.0018732
-0.00149596
-0.0020412
-0.00138437
-0.00110522
0.000181744
-0.00145974
-0.000365595
-0.000613683
-0.000801621
-0.00165608
-0.00327647
-0.00108872
7.01276e-05
-0.00251404
-0.000907234
-0.0025123
-0.000303809
-0.00189806
-0.00466108
-0.00173796
-0.00772894
-0.00056385
-0.00117761
-0.00210283
-0.00265559
-0.00311268
-0.00281201
-0.000761539
-0.00403419
0.00120712
-0.00289703
0.00138468
-0.00273674
-0.0115238
-0.00502824
-0.00145908
-0.00665116
-0.00200933
-0.00164343
-0.00145874
0.0564715
0.00068247
0.0199536
-0.00970085
-0.00548307
0.000526064
0.0112204
0.00118297
-0.00357597
-0.039989
-0.00615547
0.00426506
0.0203792
0.00337087
0.000822497
-0.00357764
0.0145369
-0.000471331
0.0174464
-0.00439602
0.00418038
0.00601966
-0.0055409
-0.00202799
0.0111898
-0.00169704
-0.00347466
0.00779448
0.0122984
0.000521985
0.000625112
0.000597014
0.000713698
0.00153496
0.000432962
0.00752379
-0.00091509
0.0122378
0.00252435
0.00398011
0.00415924
0.000566069
0.0150278
-0.00263131
0.0154084
-0.00681457
0.00068991
0.00390855
0.00264913
-0.000282378
0.00831257
-0.00271206
-0.0209092
0.000592891
0.0217349
-0.0182584
0.00967473
0.00398767
0.00185231
0.00123291
5.05618e-05
0.000650481
0.00174878
0.00998579
-0.00168686
0.0022381
0.000638754
0.00194615
0.00131459
0.00482021
0.00938368
-0.00855535
0.015847
-0.0436149
-0.0380013
0.00702456
0.0634947
0.00250241
-0.00536166
-0.00063359
-0.0583725
-0.024098
-0.0243852
-0.00202442
0.00682265
-0.00774474
0.00312548
0.000892095
0.00284128
-0.00312032
0.0037425
-0.0100888
-0.0120882
0.00279207
0.00586771
-0.00770368
-0.0086421
0.00788556
0.0111821
-0.0103865
-0.00331052
0.0032398
0.000694392
0.000583459
0.000197373
-0.00334764
-0.00834989
-0.00544239
-0.00558365
0.0123595
0.0056878
-0.00033459
0.000349599
0.00807827
0.00414744
0.00152398
-0.000677761
0.00553608
-0.000923124
0.0151738
0.0131155
0.0188369
-0.00044332
0.000685407
-0.00512444
-0.00916726
0.00166702
-0.000513627
-0.0021584
4.12264e-05
0.0010142
9.54213e-05
-0.000344941
0.000176068
-0.00150655
-0.000351553
-0.00392561
0.00678023
0.038598
-0.00609933
-0.0319212
0.0300715
-0.00466721
-0.0365015
0.00474776
-0.00160724
-0.000158257
-0.0148963
-0.00278163
0.00982799
-0.00378687
0.00399045
0.00183918
-0.00255747
-0.00553207
-0.0197535
0.00282542
0.00231407
0.026661
-0.0132145
-0.0125065
-0.00118041
0.00247641
0.00500443
-0.000998189
-0.00293248
-0.017548
0.000647892
0.000723245
-0.00719781
-0.00628266
-0.0114819
-0.00559362
-0.00592104
-0.00292875
-0.000902981
-0.0129406
-0.0175775
-0.012133
-0.00103713
-0.00277786
-0.0223864
-0.0114121
0.00474941
-0.000900279
-0.00203278
0.00133324
0.00370438
0.00181824
-0.00649954
-0.00191178
-0.00097346
-0.00285155
-0.000474299
-0.0010407
-0.0034411
0.0213024
-0.00570086
0.00178892
0.0169714
-0.00151303
0.00376197
-0.00209575
0.0134796
-0.00138251
-0.000419969
0.0009955
0.00252178
0.0131915
0.0110446
-0.00733467
-0.0173398
-0.00484216
-0.0223814
-0.00123057
-0.00240396
-0.00226872
0.000646046
0.0118553
-0.000885014
0.00692625
0.0389554
-0.00107557
0.0162183
-0.00234515
-0.000195926
0.00104772
-0.00207557
-0.000369558
-0.0067957
-0.00585561
0.00228714
0.00686282
-0.00491975
-0.00194042
0.00697251
0.0082399
0.00197306
0.00260066
-0.00317702
0.000664204
0.000469093
-0.00291194
0.00106036
-0.0033669
0.00997421
0.00109457
-0.0154719
-0.00292251
-0.00436152
-0.0058544
-0.0154352
-0.0127368
0.00145344
-0.0055704
-0.00903572
-0.00350135
0.0117088
-0.000678272
-0.00307952
-0.0255693
-0.00123578
0.00440914
0.000563428
0.000751915
0.0042434
-0.00193299
-0.0311737
-0.0527186
-0.0536581
-0.00789092
-0.0158353
0.0133366
-0.00457212
-1.66716e-05
-0.00210904
-0.0161282
-0.00193694
-0.0534538
-0.00919611
-0.00742069
0.00471632
0.000167597
0.0032961
0.036699
0.00602238
0.0035696
0.00301473
0.0221476
0.000724917
-0.00529431
-0.00806148
-0.000996324
-0.00305217
-0.000623938
0.00210831
0.000360804
0.000975685
0.0138312
0.00595567
0.00262705
-0.00356371
-0.00045259
0.00877376
-0.012263
0.00198826
0.000774806
0.00152874
0.0149023
-0.000678086
0.00863446
0.00151982
0.000290905
-0.0348256
-0.00810999
0.0012326
0.00364855
0.0683284
0.00436338
0.00153707
0.011024
-0.00163365
0.00530518
-0.00613579
0.00109821
0.00141039
0.0131788
0.00257228
0.00182003
0.00182055
0.0132373
0.00257267
0.0182907
0.00217019
0.00177259
0.00135737
0.0338921
0.00218918
0.0276166
0.00145179
-0.00332521
-0.00421152
0.0295013
-0.000647527
0.0053623
0.0425946
-0.0178967
0.00361826
0.00101217
0.0238379
-0.0276335
-0.00664898
-0.00148272
-0.00111348
-0.000906625
-0.00170571
-0.00153638
0.0118272
0.00254474
-0.00976809
-0.00104491
0.000297528
0.000459785
0.00621228
-0.00338648
0.000353565
-0.0385407
-0.0033113
0.00208032
0.000927375
0.00441125
0.00228145
0.0116094
0.00197838
0.00681586
-0.000817818
0.0054742
0.00105372
0.00713342
0.0012025
-0.0122566
-0.00105974
-0.00122634
-0.00369037
-0.00370657
0.00284292
-0.00370673
-0.0045395
0.000714878
0.00158549
-0.00199265
-0.00245693
0.00130403
-0.0296804
-0.00118258
-0.00220549
-0.00214
0.000479486
-0.0018981
0.00445867
0.00762353
-0.00112571
0.000212227
0.0465539
0.00030595
0.00508741
-0.0534792
0.000518293
-0.0279256
-0.00641861
0.0150156
0.00203734
-0.000379659
-0.00526616
0.00413425
0.0207169
0.00205568
-0.0024291
-0.00744221
0.0276368
0.0105854
0.00868817
-0.00482218
-0.00623995
-0.00247842
-0.0123315
0.000144668
0.0305849
-0.00345599
0.00706364
0.0152402
-0.00579278
0.0013828
-0.0154045
0.0108951
-0.0260075
-0.0174326
-0.0287055
-0.00296852
-0.00619926
-0.00341935
0.00787199
0.00639287
0.013416
-0.00115115
-0.000830323
-0.00179021
-0.00379358
0.00250221
0.00318848
-0.00593235
-0.00100945
0.0149878
0.0023042
-0.00955035
0.0228508
-0.0139026
0.00730155
-0.0105585
0.00311263
0.0032776
0.00580146
-0.00156448
-0.0265753
0.00373608
0.00510751
0.00637057
-0.000621619
-0.000608001
0.00415636
0.0156382
-0.00452912
0.0128259
-0.0128182
0.0231699
-0.00158523
-0.0135362
-0.00511766
-0.00604295
-0.0025987
0.00686065
-0.0119374
-0.0197277
0.00781548
0.0021651
-0.00192389
-0.00315366
-0.00158381
-0.00345108
-0.0045491
0.00936898
-0.00684321
-0.00048178
0.000355559
-0.00185838
-0.00983604
0.0461701
0.0343143
-0.00955126
-0.00139872
-0.00238601
0.0226941
0.016716
0.00315907
-0.0013287
-0.00456095
-0.000500242
0.0420992
-0.0410494
-0.0439174
-0.00345868
-0.000604549
-0.00267749
0.0157203
0.017588
-0.00440616
-0.0103706
-0.00424938
-0.00337512
-0.00171674
-0.00218133
-0.00195308
-0.00132204
-0.000276911
-0.013743
-0.0447655
-6.49433e-05
0.0186324
-0.00715372
0.0046528
-0.00794427
0.00310246
0.0128803
0.00715056
-0.00502375
-0.00968764
0.00463416
-0.0187554
-0.00457795
-0.0100611
-0.000214538
-0.0114065
0.00453549
0.00603575
-0.00495812
0.0392363
0.0257901
0.0021851
-0.000485571
-0.0106004
-0.000121787
-0.00601668
0.0557766
-0.028199
0.00611888
0.0182239
-0.0049553
0.00264413
-0.00292445
0.000800771
0.00918
-0.00245993
0.00171379
0.000961843
0.0375501
0.0231928
0.0613441
0.0323128
0.0147527
-0.0509304
-0.0642667
-0.00150245
-0.00922853
-0.0049688
-0.00289716
-0.00253296
-0.00092646
-0.00167327
0.00358162
-0.00766842
-0.00701345
0.00542928
-0.00198481
-0.000663311
-0.00148017
-0.0131568
-0.0238891
-0.00336946
-0.00032265
-0.016185
0.0209185
0.0213784
-0.0239444
-0.0031716
-1.65412e-05
-0.000649842
-0.00211435
-0.00114735
0.00294566
0.0048744
-0.00596349
0.000173341
-0.00350809
-0.00219552
-0.00114136
0.00220605
-0.00251406
-0.0123247
-0.00522502
-0.000200622
-0.010931
-0.0124884
-0.000235715
-0.00572288
-0.019005
-0.00442157
0.0142033
-0.0110732
0.00512849
0.00765429
-0.007013
-0.00161066
-0.00378009
-0.00266163
-0.0214955
0.000288168
-0.00395276
-0.000457887
-0.00213419
-0.00136623
-0.00545142
0.000869548
-0.00190577
-0.00210051
0.00845993
-0.000809916
0.00138492
0.00392178
-0.00422457
-0.00377201
0.00151418
-0.0023069
-0.00168204
-0.00343666
0.000558995
-0.00186502
0.00418847
0.00205388
-0.00877681
-0.0036664
-0.00235206
-0.00225344
-0.00282082
-0.00138095
-0.00055456
0.000794431
0.000488008
-0.000961545
-0.000687687
-0.00239363
-0.00120527
-0.00215021
-0.000764063
0.00482563
0.00179498
0.00389058
0.00185952
-0.000903468
-0.00068173
-0.0111925
0.0012817
-0.00162985
-0.000283306
-0.000877347
0.00336685
-0.00237529
-0.00570254
0.000121067
0.0032742
2.42004e-05
0.00335338
-0.00255118
0.00253644
-0.0016586
0.000291248
0.00284501
-0.00156657
0.00303376
-0.00133912
0.00047039
-0.00331304
0.000217142
-0.000702124
-0.000443083
-0.00145353
0.000972793
-0.025914
0.00992129
-0.001562
-6.5694e-05
-0.0230678
0.000335421
0.000112558
-0.00053847
-0.000118884
0.000325878
-0.00375029
0.0236321
-0.00784076
0.00157095
0.0117141
-0.0200955
-0.00035635
0.0378521
-0.00103534
0.00556488
-0.00166019
-0.00149623
-2.44157e-05
0.000325847
0.0358688
0.00139352
-0.000389119
-0.000541265
0.00507047
0.013061
-4.35226e-05
-0.000310618
0.00392733
0.00304296
-0.000685673
-0.000982021
0.00913655
0.000719201
0.000205231
0.000430312
-7.54694e-05
0.00033327
-0.00753269
-0.0024134
-0.00117158
-0.000622495
0.000671397
-0.00910733
-0.00059644
-0.00011483
-0.0197682
-0.000738935
0.00519337
-0.0018697
-0.000860669
0.00259317
-0.0013915
-0.000881125
0.0341129
-0.00183263
0.00128789
0.00074601
0.000439866
0.000174925
0.000981529
-4.09776e-06
-0.000257846
-0.000246153
-0.000346335
0.000120772
0.000464242
0.000693101
-0.0132899
0.00103052
0.000383804
-0.000482992
-1.76959e-05
0.00114856
-0.000386185
-0.000474954
0.000696358
0.000142409
-0.00477602
0.000250118
0.000103488
0.000331777
-0.000339263
0.00031896
-0.00036926
7.38381e-05
-0.000565116
-0.000331443
-0.00181402
-0.000113229
0.000335544
-0.000893257
-0.00393135
-0.00267403
-0.000223513
-0.00503652
-0.00156271
0.00263874
-0.00147259
-0.000587239
-0.000351414
-0.000891105
-0.000511452
-0.000981305
-0.0023309
-0.00384434
4.71103e-05
-5.69181e-05
-0.00139274
-3.494e-05
-0.000792458
-5.08326e-05
-0.000201313
-0.00225629
-0.00867366
-0.000534163
-0.0034633
-0.00446049
-0.00249934
-0.00094968
-0.000725085
-0.00413429
0.00232853
-0.00282503
0.0034772
0.0030101
-0.000709401
-0.000668542
-3.56705e-05
-0.00154488
0.0100674
-0.00487093
-0.00210849
-0.00137186
-0.000185973
-0.00139571
-0.000307273
-0.000176933
-0.00146877
0.0281449
-0.00227103
0.015648
-0.00032208
-0.0179753
-0.010426
0.00108998
0.00132286
0.0323738
-0.00150776
-0.00801111
-0.00019316
-0.000776403
0.00201978
0.00100785
-0.000760267
-0.000562015
-0.00438711
0.000253656
-0.00140793
-0.00109551
0.00835856
-0.00486695
-0.00146689
-0.000833499
0.00623058
0.0075626
-0.000510363
-7.10069e-06
-0.000382547
0.000955508
-0.000780791
0.0013836
-0.000732097
0.000556691
0.000489395
-0.00536113
-0.00143147
-0.0479422
-0.00484867
-0.00543811
-0.00507475
-0.00504942
-0.00116019
-2.74961e-05
-0.015774
-0.00179609
-0.0020159
-0.00516407
-0.00220755
-0.000359644
-0.0351059
-0.00714236
-0.00463061
-0.003391
-0.00160512
0.000220862
-0.0169904
0.000372787
-0.0018208
-0.000905505
-0.00392006
-0.000126928
0.00148815
-0.012209
0.00162125
-0.00155634
-0.00162825
-0.00161444
0.000105652
0.000606304
-0.0142431
0.000906812
-0.000944632
-0.00116275
-0.00344859
0.000141465
0.000914858
-0.00833402
-0.000385783
0.000253249
-0.00152994
-0.000250561
0.00102715
0.000306648
-0.00158059
0.00297276
-0.00157564
-0.00394017
-0.00334284
-0.00607352
0.000914735
0.00101227
-0.000327367
0.000727039
0.000546286
-0.0035622
-0.00211162
-0.000118996
-0.000645394
0.000241146
0.00071755
0.00108441
-0.00136754
-0.00132972
0.000515199
-0.0122117
-0.0109999
0.000532622
0.000469905
0.000654152
-0.000419665
-0.00114082
0.000723434
-0.00196352
-2.94294e-05
0.00014768
-0.00248345
0.000518324
-0.000112141
-7.71849e-05
-0.00216187
-0.000265421
0.000258882
0.00323349
0.000258289
2.3946e-05
-0.000663528
-0.00154679
-0.000266367
-8.5807e-05
0.0046119
0.00141657
0.000163873
-0.000446084
-0.000165175
0.000445872
-0.0197757
-0.000616965
-0.00412528
0.000967164
0.000269464
-0.0321451
0.000902601
0.000306498
-0.000373996
-9.3763e-05
0.000874564
-5.4156e-05
0.000219206
-0.0025132
0.000832749
0.000150426
-0.00786625
-0.00414674
-0.00188628
-0.000705202
0.000191468
0.000214876
-0.0069514
0.000211027
-0.00124064
-0.000384123
-0.000216854
-0.00345501
-0.00234553
-0.00222186
-0.00168421
0.000190139
0.000195875
-0.0078994
0.00013125
-0.00219046
-0.000736019
-0.000311361
0.000370976
0.000555071
-0.00755135
-0.00288931
-0.0019698
0.000419854
0.000641366
3.55458e-05
-0.00788305
0.00224874
0.00028897
0.000706939
-9.18085e-05
0.000573548
-0.000669668
-0.00312783
-0.000189153
7.02325e-05
-0.0110629
-0.000752
0.000156055
-0.000620972
-0.00038302
0.000285996
-0.000462417
0.00123118
-0.00139244
-0.000325019
0.000105522
-0.00466538
-0.000195712
-0.00251604
-0.000901971
-0.000194326
-0.00080825
-0.0156442
-0.00896772
-0.000649753
-0.000158837
0.0118283
-0.00127691
-8.86323e-05
-0.00075259
-0.000399449
-3.06992e-05
-0.00030361
0.000933746
-0.00100446
-0.000628533
0.000289953
0.00395539
-7.04328e-05
0.000159975
-0.000573228
-0.000323153
0.00011566
0.00416252
0.000125861
0.000374142
-0.000225098
0.0206411
-0.000689141
0.000127578
-1.08641e-05
-0.000187416
6.0803e-05
-0.000191871
-0.000673705
-0.000615877
-0.000120338
0.000286303
0.000233773
0.00336766
-0.000504083
0.000450804
0.000134908
0.0132938
0.00147194
-0.000389777
3.64071e-05
-0.000337855
0.000931896
-0.000396355
0.00526949
0.00238166
-0.000158688
-3.38104e-05
-0.00352994
7.51849e-05
0.00425493
-2.83677e-05
2.3586e-05
5.03355e-05
-0.000570829
0.00412798
-0.000345801
0.00227867
-0.000271025
-7.59427e-05
0.000309392
0.0129616
-0.000146646
0.00253116
0.00245399
-0.000102766
-0.00010795
-0.00146813
-0.000506808
0.000752287
-0.000349763
-0.00018246
-6.3966e-06
0.00631101
-0.000113428
0.00136293
-0.000635659
-8.70808e-05
-5.30185e-05
0.0180207
-0.000439302
0.000796322
-0.000565654
-0.00029597
-4.60864e-05
0.00139392
-0.000661288
0.000345549
-0.00104787
-0.000290598
-6.18447e-05
0.00131237
-0.000348523
0.00193536
0.000789955
0.000150113
3.77098e-05
0.000898979
-0.00148875
-1.02578e-05
-0.000928697
-0.000254675
-8.55073e-05
2.63919e-05
0.00175362
0.000962196
-0.000123123
-9.75203e-05
-0.000103114
0.000462569
0.00132276
-0.000121245
-0.000112352
-0.00108692
0.00815527
-0.000450361
0.00533451
0.000186644
-8.41914e-05
-7.9789e-05
-0.0029315
-4.01103e-05
-0.00234016
-0.000578461
8.35457e-05
0.000305948
0.000118938
0.000357474
-0.000242901
0.000133703
0.000570348
-0.000166608
-2.93204e-06
-0.000440756
0.00116772
-0.000901111
-0.000101756
7.15206e-05
0.00341679
0.000292886
4.31081e-05
0.000361405
-0.000218134
-4.42726e-05
0.0012601
-0.000538537
-4.32281e-05
0.000243316
-0.00168625
-0.00187113
0.000883478
-0.000440231
-4.36e-05
-0.000213139
-0.000104485
0.00145615
0.00137455
0.00218663
-0.000804498
-0.000596568
-0.00200974
0.00323661
0.00142719
-0.00064985
-0.000430522
0.00444738
-0.000985679
-0.000397341
-0.00192179
-0.000539215
-0.000276467
-0.00055754
-0.00235566
-0.000832809
-0.000226968
-0.000157645
-0.00628231
-0.00170391
-0.00034573
-0.00196304
-0.000511997
-0.000318363
-0.000613156
-0.00172635
-0.000433716
-0.000269057
-0.000315007
-0.00958129
0.000501487
-6.14734e-05
-0.000152148
-0.000348797
0.000140135
-0.000163246
0.000481704
0.0016432
0.000198604
-5.60029e-05
-2.53565e-05
-0.000863945
-0.00133347
1.41156e-05
0.000247081
-0.00406552
-0.0028398
-0.00105774
-0.00289271
-0.00115129
-0.00101695
-0.000261077
0.00317661
0.00432074
-0.0001929
-0.000583991
0.0201269
-0.000540297
-0.000236365
-0.000618433
-0.000539066
-0.000387186
-0.00348353
0.00173129
0.00105924
-0.00136298
5.87143e-05
6.59265e-05
-0.000238318
0.0116596
0.000208364
-5.25623e-05
0.000759326
0.000380053
-4.14445e-05
-0.000206696
0.00425996
1.23461e-05
-0.0328823
-0.00133506
0.00377865
6.51583e-05
0.00933334
0.000112199
0.000120012
-0.000799849
-0.000490085
-0.000444438
-0.00022376
0.000925325
-0.000215835
0.000704835
-0.000838365
0.000370817
-0.000494885
-0.000492338
0.0116028
-0.000117813
0.00188429
-0.000227994
0.000398645
-0.000265172
-0.000533678
0.00447454
-0.000335341
0.00157904
-0.000354532
5.64445e-05
-0.000473328
-0.000472468
0.00980319
6.42372e-05
0.00210549
-0.00224545
-0.000939703
0.00100667
-8.70847e-05
0.00111855
-3.14627e-05
0.000319343
-0.000247186
0.00336457
-0.000384032
0.00104107
-0.00065719
0.000268189
-0.000453883
-0.000552237
0.00255165
-0.000308704
0.000965137
-0.000466078
0.000667275
-0.000585094
-0.000746181
0.00750114
-0.000439152
0.00168755
-0.00186625
2.11101e-05
-0.000640063
-0.000543831
0.00509414
0.000504676
0.000318831
-0.000165218
0.000748718
-7.48612e-05
-0.000298357
0.0063568
-0.00015585
0.000890517
-0.000285975
0.000521478
-0.000310621
-0.00039647
0.00752252
0.000377551
2.53492e-05
0.000359326
-8.88662e-05
-9.52767e-05
0.0114278
0.000632388
0.000739547
0.000277795
0.00102657
-0.000187484
0.00362115
0.0010943
0.000521075
0.000701675
0.00159181
-0.000123882
0.00386981
-0.00411301
-0.000815941
-0.00273027
-0.000825811
-0.00104245
-0.00083697
0.000385196
-0.00143704
9.21056e-05
-0.000461192
-0.00240377
-0.00693594
-0.00154848
-0.00508708
-0.00151985
-0.00168807
0.00135845
-0.00793699
-0.000605839
-0.00207356
-0.00543481
-0.00807434
-0.00157148
-0.0052373
-0.00142384
-0.0017301
0.000753345
0.00145929
-0.00194117
-0.000659575
0.0114182
-0.00308437
-0.000354381
-0.00124073
-0.000377223
-0.000457754
0.00287781
-0.000706199
0.000450328
-0.0010999
-0.000285293
-0.0157162
-0.00088816
-1.31285e-05
7.80031e-05
-0.000256436
3.21919e-05
-0.00041288
0.000508034
-0.000682417
0.000178177
-4.30544e-05
0.000717404
-0.00108897
3.84101e-05
0.000227829
-0.000194353
5.95533e-05
-3.454e-05
0.0003465
-0.00231394
0.000473799
1.53501e-05
-0.00469641
0.00123966
0.000369548
0.00108161
-1.07223e-05
0.000621776
0.00218072
-0.000688333
0.00495935
-0.000663421
-0.000779382
0.055073
-0.00132565
0.000320235
-0.00732171
0.000834876
-0.000101682
-0.00106547
0.0269818
-0.000604395
0.00021064
0.000773908
-9.98879e-06
0.000319719
0.00139548
-0.000217714
0.000543158
-0.00043326
-2.81961e-05
0.0051405
-0.00217358
-3.52727e-05
-0.000108716
-0.000144466
-1.49778e-05
-0.000631097
0.000816525
-0.001278
0.000419216
-0.000525253
0.013719
-0.00248671
-0.000160349
-0.000750287
-0.000278167
-9.38419e-05
-9.01818e-05
0.000283886
-0.000746526
0.000622932
-0.000519077
0.00460573
-0.000283838
0.000177273
-0.000138759
-0.000292813
0.000197114
-0.000683051
0.00228985
0.000191487
2.88729e-05
-0.000381602
0.0122057
0.00269855
0.000340754
0.00236893
-2.25314e-05
0.000519346
0.000655316
-5.07134e-05
-0.00216467
0.00052348
-0.000231914
-0.00801063
-0.00334044
-5.95229e-05
-0.000752406
-5.87285e-06
-0.000341389
-0.000546602
0.0013468
-0.000892076
0.000490928
-0.000545093
-0.00447206
0.000935088
0.000879896
0.00177652
0.00049879
0.000516178
0.000669796
-0.0136513
0.000899746
7.73385e-05
-0.000816223
0.0215323
6.47611e-05
-8.26304e-05
-0.000982536
0.0011077
2.4914e-05
-0.00189039
0.000684813
-0.00186761
-0.000213558
0.000488557
-0.000592033
-0.0030504
0.00183455
0.000735629
0.00257337
0.000236696
0.000764435
0.00197427
-0.00439145
-0.000254989
0.00194829
0.000209367
0.0253832
0.00102897
0.00103803
0.00321071
0.000711429
0.000734983
-0.000950833
-0.0596005
0.00198063
-3.78587e-05
-0.000358208
0.00367771
0.00364979
0.000402387
-0.000213013
0.00116496
-0.000559152
0.0275725
-0.00173883
-2.49461e-05
0.000216305
-0.000119375
-0.000345599
-0.000776577
0.00171947
-0.00258703
-2.6554e-05
-0.000195635
-0.0208601
0.000325913
0.000625848
0.000207095
0.00064333
0.000130438
-0.000201318
0.0340594
0.000315785
0.000378044
0.00172222
0.000336857
-1.15225e-05
0.000158607
0.0173904
0.000244146
0.000489266
-0.000315793
0.000638818
-5.37537e-05
-0.00150912
0.0382244
6.63928e-06
-0.0505218
-0.005957
0.00235698
-9.69634e-05
0.00414457
-0.000480953
-0.00128307
-0.000229322
0.000574173
-0.000377212
0.00290196
0.000230336
-2.00155e-05
0.00035773
0.00307406
-0.000541189
0.00270766
3.6755e-05
-0.000207818
0.000108042
-0.000500145
-0.000466602
0.00522469
8.3036e-05
0.000434011
-0.000644292
8.15592e-06
-0.000357548
-0.000578546
0.000946149
-0.00300431
4.02291e-05
-0.000742809
-0.000144431
-2.13016e-05
0.000445827
-0.000109951
-0.00229113
0.00191005
-0.000551049
0.00697478
0.000536355
-0.00616976
0.000347694
-0.000422848
0.000394486
0.0292284
4.55738e-05
0.000789693
-0.000130409
0.00057504
-1.97434e-05
-0.000252115
-0.0120605
6.98882e-05
0.00140685
0.00178257
0.000744941
-0.000350654
0.0588125
9.87873e-05
0.00494001
-0.000403978
0.000204356
-0.00163294
-0.000934108
-0.0017085
-0.000280383
-0.00115489
0.000239127
1.14697e-05
-0.000398544
-0.000313103
-0.00033006
-0.00050083
-0.00046147
0.00126076
0.00404998
-0.000639182
-0.00095963
0.00232442
0.00129051
-0.00077617
-0.000479775
-0.000605955
-0.000346616
-0.000651923
0.00987154
0.00408423
-0.000769099
1.49516e-05
-0.000151693
0.00686318
0.000935598
-0.000210994
-0.000320189
-0.000216387
-4.90417e-05
-0.000189221
0.0148561
0.00237131
-0.00154098
4.53848e-05
-0.000607456
-0.00116611
8.04813e-05
-0.000770221
-0.000245303
-0.000235955
-0.000575014
-0.000360556
-0.00898547
-0.00135911
-0.000408691
0.000116612
-0.000715449
0.00133297
0.00130976
-0.000987807
-0.000250999
9.54467e-06
-0.00143615
-0.000178914
-0.0133458
0.00351152
0.000861566
0.000866072
0.000783708
-0.000911717
0.00106418
0.00182
0.000672892
0.000301883
9.08629e-05
0.000623771
0.00658914
0.00299724
-3.7819e-05
0.000261038
0.000490749
0.000381684
0.00132632
0.00138271
-0.000332205
-0.000187427
-0.000408546
-1.3906e-05
0.0644222
0.00251403
-0.000188869
-2.929e-05
0.000244866
-0.00177725
-0.000611787
0.00104761
-1.66958e-05
-0.000195022
-0.00019669
0.000429995
-0.00237475
0.00170274
-0.000554092
-0.00029074
-0.000441764
0.00103833
0.00223688
-0.000634877
-0.000554873
-0.000435391
-0.000408105
-0.000440912
0.00691818
-0.0194207
0.00387921
-0.000956872
-0.00113759
-0.000736472
-0.00348839
-0.000538993
-0.000845003
-0.000442594
-0.000513614
-0.000406593
-0.000598519
0.000700708
0.0150074
0.00256839
0.000181721
-0.000441533
-5.57392e-05
0.000905037
-0.000230888
-0.000224173
0.000209062
0.000189289
-0.00069993
0.000297441
0.00243548
0.000127621
0.000159005
-6.18146e-05
-0.000143296
0.000272356
0.00118054
0.000193256
-1.01188e-05
-0.000328639
5.95905e-05
2.54655e-05
0.0118809
0.00179987
0.000237961
0.00032721
0.000783117
0.00413549
-0.0028747
0.000354633
-0.000194555
-0.000446282
-0.00116017
-7.8176e-05
0.0329161
0.0020603
0.000266763
0.000958656
0.000337594
-0.000249001
-5.71703e-05
0.000871008
0.000492042
0.000314142
-0.000206623
0.000571653
0.000604765
0.0183479
0.00371079
-9.25876e-05
0.000475512
8.14533e-05
0.000546911
0.00299388
0.00261536
-0.00020031
-0.00041614
-0.000645246
0.000128943
0.033606
-0.0203105
-0.000247626
-0.000138687
-0.000692599
-6.16515e-05
-0.000323385
-6.22741e-06
-2.16433e-05
-0.000118013
-0.014365
0.00130433
0
-0.000482952
0.00391017
0.00557166
-0.000428449
-0.00270199
0.000771924
-0.00180893
0.000745897
0.00105162
-0.00186778
-0.000316994
0.00161408
-0.00156402
5.81262e-05
-0.00290356
-0.00154935
0.00524192
-0.00147627
0.00025891
-0.000474755
-0.000855219
0.0013919
-0.00154768
0.000371171
0.000145003
0.00383472
-0.00199383
1.87609e-07
-0.00014616
-0.0012421
0.000899122
0.00494815
0.00297177
-3.5415e-05
0.00263473
0.00146231
0.00345328
-0.000277213
0.00183783
-0.00045765
-0.00383737
-0.00184329
-0.000198366
-0.000861292
-0.00144182
9.84627e-05
-0.00632414
-0.0016071
0.00143409
-0.00230737
-1.919e-05
-0.00236257
-0.00101989
-0.00038156
0.000374417
-0.00300811
-0.000756871
0.00184846
-0.000761166
-0.0025321
-0.000115216
-0.00208526
6.95752e-05
0.00264594
0.00400079
-0.00101873
-0.0076764
-0.00572855
-0.00537133
-0.00213904
-0.00251401
-1.57726e-05
-0.000341947
-0.0013596
-0.000990139
0.000224164
0.000646481
0.00271216
0.000303523
0.000434569
-0.00192052
0.00427441
-0.00265558
0.00135547
-0.00162557
0.000340956
-0.0020234
-0.00116973
-0.00231334
-0.000908262
0.000895172
-0.00239176
-0.000205162
-0.000834715
0.000209563
-0.00218019
-0.00187589
-0.00139346
0.00199545
-0.000652058
0.000127162
-0.000108792
0.00195103
-0.00198734
-0.00316078
0.000786438
-0.0104027
-0.00213886
-0.00251984
-0.000697179
-8.76767e-05
-0.00116051
-0.00143944
-0.000870663
-0.00606368
0.00318052
-0.00166945
0.00369615
-0.00178962
-0.0112226
-0.00509726
-0.00314312
-0.00639053
-0.00130596
-0.00114578
-0.00254705
0.0365051
-0.000440185
0.010409
-0.0132353
-0.00663556
-0.00379491
0.0126327
0.000323488
-0.00427983
-0.00460924
-0.00421315
0.00539488
0.0211015
0.00393984
-0.00563824
-0.00376972
0.0049949
-0.000540539
0.0120694
-0.00700267
0.00332142
0.00737529
-0.00400414
-0.00347871
0.0152662
-0.00174893
-0.00185134
0.0158287
0.0131115
0.000414462
0.000782398
0.00168214
0.000948025
0.0018037
-0.00108723
0.0068876
-0.00198565
0.0132107
0.00390778
0.000564346
0.00959489
-0.00179064
0.0170905
-0.00375791
0.0137544
-0.0108035
-1.49654e-05
0.00284193
-0.00183695
-0.000542469
0.00841233
-0.0126694
-0.0108373
3.98119e-05
0.0163568
-0.00825658
0.00586119
0.000520778
0.00201006
-0.00759338
-0.000379462
0.000254548
-0.00112423
0.00957469
-0.00197332
0.000100118
-0.00242687
-0.00284971
-0.0038508
0.00493307
0.00846836
-0.0129808
0.027561
-0.0268438
-0.0204718
0.00991468
0.0769448
0.00268999
-0.00384616
-0.00400527
-0.0496571
-0.0145109
-0.023997
-0.00299292
0.00663667
-0.00995201
-0.000490909
-0.000206968
0.00165305
-0.00310933
0.00342372
-0.0083354
-0.00324376
0.0102776
0.00898563
-0.00177276
-0.00603691
0.0143611
0.00587743
-0.00727145
-0.000182699
0.00279729
0.00085985
0.00120111
-1.13951e-05
-0.00322411
-0.00745912
-0.0106213
-0.00433046
0.0150855
0.00563608
-0.00146698
0.000238538
0.0116007
0.00377527
-0.000240158
-0.00370723
0.000842429
-0.00162843
0.0151618
0.019965
0.0290282
0.000439443
0.00159171
-0.00724855
-0.0252896
0.0043136
0.00306278
0.00121285
0.00351193
0.0044231
0.00764247
0.00816023
0.0086876
0.0128105
-0.00172051
-0.0172314
0.0161682
0.0459121
0.00775065
-0.021129
0.0473237
0.00352091
-0.0510435
0.0218501
0.00730618
0.00532788
-0.0103798
-0.0090053
0.0140846
0.00837688
0.0216837
0.00962963
0.00950906
0.00126041
0.0100878
0.00841104
0.0164008
0.0502861
-0.00876813
-0.00890913
0.00993159
0.00854439
0.0198122
0.0218419
0.0102965
-0.000983969
0.00534716
0.00832497
0.0104346
0.000671099
0.00394975
0.00680175
-0.00924675
0.00500651
0.010964
-0.00949537
-0.0196056
-0.0102407
0.00628885
0.00304159
-0.0234944
-0.0113683
0.0151379
0.0102763
0.00192421
0.00823475
0.0215995
0.0101837
-0.00412699
0.00185223
0.00189369
-0.00723644
-0.000801187
0.00220807
-0.000451248
0.0324788
0.00913559
0.00492853
0.0133453
0.000412233
0.00536503
0.00108822
0.0261736
-0.00802276
0.00220465
0.00344877
0.00762611
0.0151955
0.0208563
-0.00623237
-0.0137117
-0.00878571
-0.0224943
0.000467097
0.000819573
0.000750984
0.0042365
0.016187
0.00186613
0.00229043
0.0420435
-0.00104699
0.0161294
-0.00364563
0.00691551
0.00279232
-0.000358387
0.000725955
-0.00656903
-0.0127895
0.00529268
0.0118093
-0.00375365
0.00168324
0.0156042
0.0104609
0.00387974
0.0110765
-0.00457465
0.00531694
0.0022669
-0.00488555
0.00384384
0.000194857
0.0224431
0.000996969
-0.00413312
-0.000634793
-0.0023205
-0.00455427
-0.0129556
-0.00996848
0.00379747
-0.00248189
-0.00707854
-4.87605e-05
0.0196426
0.000911709
-0.0101164
-0.0287691
-0.00185503
0.00409327
0.00217133
0.00184826
0.00563368
-0.00512166
-0.0196963
-0.0469263
-0.0472137
-0.00282289
-0.0167333
0.0297858
-0.00309867
0.00107931
-0.00753003
-0.0184079
-0.00250575
-0.0595205
-0.0158081
-0.0135544
0.00447934
0.00102746
0.000896841
0.0385674
0.00779986
0.00443648
0.00313363
0.0245591
0.00157594
-0.00546569
-0.00976594
7.08579e-05
-3.39391e-05
0.00239552
0.00181077
-9.65186e-05
0.000935386
0.0115857
0.00644978
0.00376147
-0.00114139
-0.00060902
-0.0013494
-0.0188726
0.00257183
0.00147015
0.00211864
0.0139864
-0.0055368
0.00987189
0.00201235
-0.00345001
-0.0403307
-0.00880519
0.00070523
0.00466553
0.0611803
-0.00166561
2.60918e-05
0.01711
-0.00218481
-0.000568251
0.00459569
0.00100502
0.00188716
0.0126655
0.00286208
0.00125417
0.00211174
0.0107993
0.0029549
0.0138399
0.00262057
0.000847196
0.00164811
0.030546
0.00249344
0.019023
0.00178789
-0.00481613
-0.00145039
0.0344173
0.00421916
0.00696519
0.0333413
-0.0181543
0.00630414
0.00384768
0.025224
0.01388
-0.00719202
-0.000576533
-0.000810553
0.000498037
0.00467139
-0.0013555
0.0179571
0.00397071
-0.0137881
-0.00137644
0.000968548
0.00128867
0.0105497
-0.00322536
0.00125519
-0.0339281
-0.00293999
0.00155728
0.000872536
-0.000688065
-0.00491363
0.0122417
0.000765711
0.00771048
0.00114641
0.00149037
0.00320415
0.00175218
0.000801512
-0.0258314
-0.00319001
-0.00297394
-0.00631536
-0.00658819
0.000769183
-0.00460718
-0.00584665
-0.000906726
-3.24957e-05
-0.00510821
-0.00446934
-0.0053594
-0.0218187
-0.00257018
-0.00373895
-0.00399847
0.000110553
-0.00133017
0.00265362
0.00527223
-0.000965286
6.61641e-05
0.0402396
-0.00336875
0.00444051
-0.017379
-0.00446847
0.0174605
-0.0087021
0.0102409
0.00207154
-0.00218495
-0.0140973
0.0268407
0.0233224
-0.00241544
0.000884915
-0.00574952
0.011717
0.0123192
0.0116983
-0.00717495
-0.00498179
0.000219352
-0.00833082
0.000884232
0.0079439
-0.00248206
0.00480512
0.0187983
-0.00876166
0.000766024
-0.0179885
0.000315226
-0.0411307
-0.0321126
-0.0480323
-0.00339322
-0.00697763
-0.0035982
0.0103023
0.00298608
0.016521
0.000591386
0.000110989
0.00362477
-0.00821801
0.00413445
-0.00067088
-0.00642893
0.000269878
0.0142095
0.00589331
-0.0144968
0.00888414
-0.0140312
0.00994847
-0.0114622
0.00416222
0.0052376
0.0125863
-0.000636643
-0.032377
0.00529518
0.00561987
0.0114106
0.00204537
7.2234e-05
0.00391826
0.0174313
-0.00583425
0.0133447
-0.000962261
0.023336
-0.00151234
-0.00551809
-0.00209252
-0.00431634
0.000882121
0.0090715
-0.00686066
-0.0117806
0.0119265
0.00331904
-0.00170562
-0.00351136
-0.00155035
-0.00349266
-0.00305036
0.0101416
-0.00731388
-0.000296871
0.0012608
-0.00209055
-0.00686368
0.0418259
0.0386212
-0.00674258
0.000467225
-0.00283577
0.022956
0.0163669
0.00574709
-0.000123713
-0.0048721
0.000751054
0.0392602
-0.0455363
-0.0377654
-0.00411126
-0.000659296
-0.00329143
0.0178532
0.0155501
-0.00159748
-0.00618189
-0.00354888
-0.00188788
-0.000821846
-0.00139168
-0.00104144
-0.000315627
-0.0032557
-0.012729
-0.0343669
0.000946051
0.0270962
-0.0160312
0.0103035
0.0266081
0.00374131
0.0143907
0.0132036
-0.00867706
-0.00515329
0.00806279
-0.0108784
0.00170442
-0.00805056
0.00475416
-0.0121363
0.00778725
0.00999507
-0.00340794
0.0559388
0.0308347
0.0047224
0.00129489
-0.0137946
0.00366625
-0.00628793
0.0624219
-0.0222225
-0.00421243
0.0397526
0.0105247
0.0248558
0.00587482
0.00114539
0.01198
-0.00236346
0.00297009
0.00234516
0.0697961
0.0473912
0.0749719
0.0598342
0.0298573
-0.0670349
-0.0436252
-0.0018415
-0.00480575
0.0184831
-0.00474107
-0.00469781
-0.000897591
-0.00539299
0.00478906
-0.0148821
-0.00791467
0.00238101
-0.0023117
-0.000778857
-0.00171789
-0.0194949
-0.0155505
-0.00403144
0.00137597
-0.0189335
0.0242689
0.02024
-0.0283343
-0.00464671
-0.00249042
-0.000680481
-0.00577568
-0.00354945
0.00328569
0.00374776
-0.0115479
0.000205626
-0.00810853
-0.0057792
-0.00365662
-0.00275561
-0.00561969
0.000133092
-0.00975415
0.000386143
-0.0123397
-0.0157696
-0.00011373
-0.00625195
-0.0326912
-0.0036706
0.0179842
-0.0132135
0.00646092
0.00881186
-0.0108981
-0.00104198
0.00552843
-0.00181244
0.00218242
0.000811596
-0.00182119
0.000458069
-0.0014029
-0.00227467
-0.00452319
0.00219608
-0.000587287
-0.00166985
0.0116369
-0.00503795
0.00192547
0.00295751
-0.00738551
-0.00582701
0.000190076
-0.00372387
-0.00445145
-0.00632564
-0.000252704
-0.00308884
0.00313761
0.000188671
-0.00779999
-0.00767554
-0.00636723
-0.0054079
-0.00493122
-0.00533115
-0.00485539
-0.00321881
-0.000112733
-0.00317124
-0.000685758
-0.00490747
-0.00160518
-0.00195521
-0.00153482
0.00663905
-0.00109648
0.0018918
-0.00213258
-0.00325387
-0.00208053
-0.0153267
0.00304303
-0.00253909
0.000536533
-0.00280824
0.00394186
-0.00390923
-0.00778285
0.000151113
0.000922729
0.0025282
-0.000902543
-0.0028722
0.00351823
-0.00499515
0.00192696
0.00351444
-0.00399085
-0.00153914
-0.00447605
0.000755332
-0.00768888
0.00243041
-0.000831682
-0.000486019
-0.00388995
0.000463031
-0.0482153
0.019857
-0.00209002
-0.000546485
-0.0413107
0.000421797
0.000102428
-6.43666e-05
-0.000142986
0.000386876
-0.00474026
0.0397975
-0.0190276
0.00184881
0.0246292
-0.0280553
-0.00245134
0.0410885
-0.00225062
0.00419256
-0.00324357
-0.00240122
-1.68808e-05
0.00347082
0.0354983
0.00210194
-0.000597657
-0.000702325
0.00432233
0.0215661
-0.0017812
-0.000675722
0.0132014
0.00693776
-0.00206041
-0.00142293
0.00737884
-0.000155623
8.60233e-05
0.000800141
-0.000230308
0.000122515
-0.0173034
-0.00339786
0.00296914
-0.00828706
0.000419184
-0.014467
-0.00166119
-0.000957327
-0.0172944
-0.000806712
0.00499488
-0.00285415
-0.00122247
-0.00154777
-0.00395464
-0.00142997
0.0395634
-0.00269058
0.000212435
0.000535564
0.000162864
-1.29843e-05
0.000471475
-0.000547158
-0.000631798
-0.000472893
-0.000299689
-5.73163e-05
0.000207266
0.000558577
-0.00458504
0.000845432
-2.40853e-05
0.000748225
-0.00023414
0.00227717
-0.000639898
-0.000772627
0.000607858
-3.7164e-05
-0.00649229
0.00081204
-0.000433617
0.000260573
-0.000293887
-0.000141746
-0.000551804
0.000823321
-0.000753837
-0.00051562
-0.00269938
0.000911227
0.000634558
-0.00160025
-0.00674294
-0.00369403
-0.000706039
-0.00749659
-0.00258351
0.00458662
-0.00121414
-0.00140623
-0.000277472
-0.0012078
-0.000702813
-0.00463584
-0.00299955
-0.00930505
-0.000387074
-0.00036334
-0.00185278
-4.29366e-05
-0.000575616
-8.86539e-06
-0.000285998
0.000206277
-0.0107331
0.00302722
-0.00137142
-0.00681708
-0.00346303
-0.00149789
-0.00044398
-0.0060605
0.00375285
-0.00254676
0.00990181
0.00602842
-0.000916915
-0.000932882
-0.00132251
-0.00220152
0.0200942
-0.00751345
-0.000867272
-0.00229929
-0.000306952
-0.00158596
-0.000379946
-0.000314029
-0.00229747
0.0267917
-0.00323445
0.0148289
0.00146173
-0.0210132
-0.0108219
0.00144733
0.00126749
0.0443638
-0.00218835
-0.00958337
-0.00110072
0.00195709
0.0041092
0.000841702
-0.000922549
-0.000590245
-0.003089
0.000552108
-0.00360401
-0.00131193
0.0194663
-0.00750932
0.00579373
-0.000918869
0.00778039
0.0104817
-0.000529752
0.000932984
-0.00055746
0.00273348
-0.00103579
-0.00311427
-0.000921663
0.0020387
0.0022571
-0.000343174
-0.000830652
-0.0192602
-0.00279569
-0.000216488
-0.00197244
0.00258506
-0.00115281
-0.000862552
5.16504e-05
-0.0024237
0.00110836
-0.00161462
0.00148811
-0.000981715
0.00510669
-0.0052417
-0.00114904
-0.00439744
0.00294831
-0.000611648
-0.00907593
-0.000873496
0.000222594
0.004163
-0.000326873
-0.000825697
-0.000821291
0.0171931
-0.000690634
0.000658835
0.000865478
0.00177587
-0.000622505
-0.000808155
-3.37195e-05
-0.00163101
0.00054976
0.00185284
0.00044811
-0.000668677
-0.000781406
0.0110663
-0.00449888
-0.000589686
-0.00218779
-0.000753242
-0.000129758
-0.00143306
-0.000911038
0.00168178
-0.000180249
-0.00234817
-0.000511409
-0.00205349
-0.000315164
-0.000112216
-0.000427775
-0.00056989
-0.000137986
-0.00152965
-0.00156908
-0.000631894
5.96362e-05
-0.000401849
-6.81854e-05
-0.000528504
-0.000677374
-0.00124117
-1.67016e-05
-0.0137823
-0.00454988
0.00582036
0.000302498
0.0003826
0.000134236
-0.000812064
0.00830294
-0.00017962
-0.0005756
-0.000334567
0.0378848
-0.000562852
0.00060352
0.0062356
-4.12454e-05
-0.000642707
-0.000286584
0.0359258
-0.000428277
0.00053276
0.00269996
0.000669145
-0.000568862
-0.000357253
0.0301406
0.00131518
0.00017938
0.000858914
4.52432e-06
0.000517276
-0.0233025
-0.00178408
0.00673365
0.00567412
-0.000106729
0.0137833
0.00102714
0.00026647
0.000930859
-1.10792e-06
0.000961097
-0.000811601
-0.00112255
-0.00332041
0.0017607
-0.000168581
-0.00864796
-0.00418448
0.00114069
0.000298134
0.000219526
0.000386547
0.00180873
-0.000334364
0.00218452
0.000306192
-0.000355784
0.0231127
-0.00176721
-0.000989787
-0.00168647
0.000255086
0.000458448
0.00490222
0.000671434
-0.00104818
0.00325571
0.000860906
0.000424767
0.000757483
0.00516431
-0.00409645
-0.00119394
0.00200821
0.000907187
0.00062098
-0.00641353
0.00304815
0.000746525
0.00360079
0.000393199
0.00106917
-0.000180143
-0.00279373
0.00103181
0.000187976
0.00228169
-0.00332043
-0.000529607
-0.00245794
-0.000602003
-0.000319182
-0.00072555
0.00216021
0.000346929
-0.000532351
-0.000196763
-0.00674661
8.93884e-05
-0.00362031
-0.00134592
-0.000606612
0.00032132
-0.0154218
-0.00695766
-0.00091641
-0.000366671
0.0137005
-0.0034197
-0.0004436
-0.00206391
-0.000599938
-0.000435159
-0.000242518
0.0015095
0.000893995
-0.000795953
2.85202e-05
0.0127336
-0.00203348
-0.000193101
-0.00190605
-0.000394473
-0.000199469
0.00399912
0.00793291
0.00237308
-0.000214882
0.0172823
-0.00194633
-3.17171e-05
-0.000844556
-0.000194806
-0.000137382
0.000121681
-0.000581587
0.00157024
-0.000181189
0.000197921
0.0193223
0.00307864
0.0054816
2.58886e-06
0.000102444
0.0268345
0.00194647
0.00101453
-0.000258275
-0.000595065
-0.00374447
-0.000525264
0.00669236
0.0145249
-0.000157609
-0.00034305
0.00257921
-0.00018464
0.00565536
0.0048307
-3.4951e-05
-0.0002551
-0.000946561
0.00249761
-0.000469675
0.00260488
-0.000252918
-0.000155781
0.000148249
0.0139808
-0.00033233
0.0032811
0.0155285
1.99706e-05
-0.000244608
0.0111724
-0.000549469
0.00104452
0.00166356
-7.20106e-05
-1.59582e-05
0.0186113
-0.000147807
0.00205056
-0.000618695
4.85336e-05
-7.1614e-05
0.0285029
-0.000369326
0.00115009
0.00178638
-0.000208467
-1.0535e-05
0.0016316
-0.000562902
0.000879351
-0.00116787
-0.000248454
-3.86247e-05
0.00296103
-0.000340517
0.00282655
0.0063915
0.000346662
3.21275e-05
0.0044899
-0.00353436
-0.000413484
-0.00266581
-0.000445337
-0.000507227
7.73634e-05
0.00272822
0.0073553
-0.000247568
-0.00017552
-0.000207675
0.000733325
0.010878
-0.000207019
-0.000286326
-0.00100116
0.0175382
-0.000626801
0.00746157
0.00521667
-2.79357e-05
-0.000273978
-0.00105437
0.000288219
-0.00245056
0.00127017
0.000538688
0.000467894
0.000353922
0.00661653
-0.00169982
-3.83304e-05
0.000285702
-0.000265843
-0.000322686
-0.000413097
0.00208741
-0.000367527
-9.25592e-05
9.57464e-05
0.00681919
-0.000911074
-0.000174901
-0.000208405
-0.000262388
-0.000324809
0.00233738
0.000703627
-8.21546e-05
0.000330298
-0.00125272
-0.00196449
0.00492524
-0.000697814
-4.586e-05
-0.000163488
-1.8451e-05
0.00340991
0.00287393
0.00964451
-0.000786231
-0.0005039
-0.00346253
0.00532456
0.00733097
-0.000452514
-0.000360698
0.00816242
-0.00110982
-0.000284024
-0.000544955
-0.000486645
-0.000107676
-0.000673113
-0.003361
-0.00116093
-0.000502592
-0.000171853
-0.0115171
-0.00249269
-0.000311325
-0.00102618
-0.000465585
-0.000147906
-0.000705172
-0.0019934
-8.8724e-05
-0.000472222
-0.000307163
-0.0170193
0.000739742
0.000180565
0.00157534
-0.000127163
0.00051631
-0.000895741
0.00348619
0.00373173
0.000532118
-0.00482076
0.000561294
-0.00130114
-0.00217747
0.000676319
0.000642449
-0.00828183
-0.00315745
-0.00114567
-0.00226306
-0.00131193
-0.00112965
0.000326983
0.0047833
0.0179027
-0.000590775
-0.000520828
0.0166372
-0.000353862
0.00010858
0.000350453
-0.000414589
-0.000261562
-0.0125082
0.00212168
0.0014782
-0.0019894
7.5519e-05
0.00030866
-6.73957e-05
0.0123367
0.000718931
0.000167454
0.00417859
0.000773142
0.000230392
0.00016857
0.00825708
0.000389125
-0.0391548
0.0063176
0.00691538
0.000777673
-0.00445743
0.00051512
-0.00104521
-0.000802621
-0.000672368
-0.000438489
0.00012806
-0.00231407
-0.000221403
0.00114545
-0.000533213
0.000500488
-0.000432185
-0.000357843
0.0203186
4.6382e-05
0.0020752
0.000686619
0.000652702
-0.000158648
-0.000358956
0.0136322
-0.000296179
0.00244318
0.000681085
-2.11122e-05
-0.000402754
-0.000396562
0.0177717
0.000188913
0.00815477
-0.00371527
-0.000996533
0.000101355
8.4291e-06
0.0022426
0.000886406
0.000508921
-0.00015692
0.00724408
-0.000508765
0.00151368
-0.000891621
9.7245e-05
-0.000413854
-0.000532734
0.00588603
-0.000308253
0.00162149
0.000264471
0.000950581
-0.000541155
-0.000722344
0.00909348
-0.000312597
0.00253429
-0.0020162
4.64528e-05
-0.000638641
-0.00032555
0.0106245
0.00117346
0.000573242
0.00207612
0.00146031
0.0002311
-6.70391e-05
-4.39111e-05
0.000141842
0.00098685
0.000908228
0.000872974
-0.000198384
-2.89481e-05
-0.00558895
-0.000105223
0.00108753
0.000742842
0.000101436
0.000183266
0.0229748
0.00125814
0.000985285
-0.0147735
-0.00509173
-0.00129478
-0.0586924
0.000902581
-0.0127262
-0.0110971
-0.00493766
-0.000132845
-0.0415085
-0.00584916
-0.00165945
-0.00575496
-0.00176351
-0.00101093
-0.00135879
-0.00377936
-0.0108642
-0.00222019
0.000179436
-0.0289477
-0.00633407
-0.00185772
-0.00649253
-0.00209773
-0.00158266
-0.0029417
-0.0486643
-0.00311496
-0.000261515
-0.00350487
-0.00746199
-0.00151936
-0.00591857
-0.0016039
-0.00115398
-0.00283708
-0.00361718
-0.00586593
-6.66574e-05
-0.0250276
-0.000375401
-0.00023268
-0.00113485
-0.000761294
-0.000157698
-0.00289731
-0.0501491
-0.00193595
-0.000274472
0.000334187
-0.0242797
0.00450555
0.00112554
0.00385495
0.00042163
0.0018276
0.000947227
-0.00246434
-0.00744816
-0.000446937
0.00145492
-0.00868153
0.00419093
0.00126428
0.0041762
0.000597818
0.00221438
0.00130028
-0.00231506
-0.00752344
0.00059631
0.00149845
-0.0376108
0.00586198
0.00167455
0.00458823
0.000712742
0.00245412
-0.000945842
-0.0192867
0.00520331
0.000919553
0.00104743
0.0400598
0.000926115
-0.0114871
-0.0376591
-0.00335588
0.00168406
0.000757632
-0.020858
0.00398249
0.00102441
0.00342229
0.000454072
0.00144155
-0.000706255
-0.00651893
-0.000119899
0.00095173
0.00148248
-0.0305779
0.00222446
0.000728242
0.00285147
0.000243139
0.00110487
0.000612792
0.000141873
-0.00697017
0.000612828
0.000857429
-0.0254338
0.00202432
0.000485581
0.00185667
-1.13599e-05
0.000907088
0.000846868
-0.000761798
-0.00475426
0.000683286
0.000811638
-0.0238201
0.00360727
0.00115554
0.00314182
0.000307431
0.00148457
0.000483294
0.00171068
-0.00174533
0.000594782
0.000946889
-0.00789855
0.00774191
0.00121118
0.00657946
0.000385916
0.0018414
0.00168967
-0.000893995
-0.00663007
0.000313299
0.000964485
-0.0268756
-0.00142672
0.000624888
0.000922323
0.000359981
0.000286638
-0.000245442
0.00165799
-0.00575794
0.000562455
0.000247427
-0.0103267
0.0040538
0.00203796
0.00490258
0.00138146
0.00216994
0.0021365
-0.0323501
0.0011525
-0.0018011
6.53906e-05
-0.00207907
0.000967982
-0.00340597
-0.00613409
0.000778121
0.00132718
-0.0576857
0.0018292
-0.00725915
-0.00225211
0.00058834
0.000508872
-0.0178161
0.00502569
0.00157699
0.00569154
0.00075884
0.00183521
0.00380788
-0.0117533
-0.00644439
-0.00118475
0.00122772
-0.0103082
0.00384478
0.00198388
0.00651685
0.00158616
0.00196241
7.02454e-05
-0.065352
0.00550289
-0.000707801
0.00044158
-0.0154712
0.00584151
-0.00122642
-0.00168647
0.00188687
0.000272601
-0.00671219
0.000131337
0.000442974
0.00204279
0.000170093
0.00020996
-0.000138334
0.000827123
-0.0243902
-0.00364959
0.000549101
-0.0799119
0.000941263
-0.00060026
-0.00284118
0.00138875
0.000743048
0.000584485
0.0216574
0.00125286
-0.00032044
0.00228456
0.00116077
0.000847064
0.00110705
-0.00486165
0.00105056
0.000541384
-0.00162791
0.000814662
0.000747803
-0.000525441
0.0291077
0.000942262
-0.0594062
6.26579e-05
0.00256109
0.000915274
-0.0221235
0.000140438
-0.00362514
0.0004203
0.000926102
0.000389773
-0.0327192
0.000892333
-0.00167087
0.000577568
0.00521675
0.000429801
-0.0179592
2.18643e-05
-0.000133516
0.000188284
6.4731e-05
2.69964e-05
-0.0348561
0.000626598
0.000614044
-0.00310488
-5.56191e-05
0.000154722
-7.98367e-05
-0.0373158
-0.000909992
0.000825744
0.0021084
0.000530255
0.000871138
0.00108228
-0.00135773
-0.00669687
0.00317722
0.000288534
-0.0172511
0.000965786
-0.0129002
0.00100772
3.45206e-05
0.00119842
0.0176722
0.000434813
0.00105147
-0.00241592
0.000890509
0.000459413
0.000419948
-0.0550094
0.000295074
0.00333981
0.00904079
0.000883481
0.000250384
0.0533331
0.00057063
0.0100546
0.000174185
0.000548475
-0.00160738
-0.00418844
-0.00154856
-0.000157145
-0.00108268
-0.00315855
-0.0013713
-0.000737883
-0.000185101
-0.000165054
-0.00170097
-0.000231842
-0.0192441
0.0110389
-0.000718711
-0.00128499
0.00193459
0.00224198
-0.00123918
-0.00058633
-0.000707238
-0.00137107
-0.000836061
0.00429887
0.00716173
-0.00115928
-0.000161888
-0.000309707
0.0133939
-0.00246571
-0.00244458
-0.000689261
-0.000502971
-0.000699988
-0.000479672
0.00301937
0.00540069
-0.00213841
-0.000490302
-0.000851967
-0.012435
-0.00270958
-0.00196135
-0.000453019
-0.000330419
-0.00192324
-0.000484489
-0.0273866
-0.00638533
-0.000459603
-0.00104707
-0.00106025
0.00149797
0.00258084
-0.00210979
-0.00022968
0.000143085
-0.00380745
-0.000236952
-0.0536033
0.0056671
0.00139351
0.00101386
0.00102335
-0.00196211
-2.96335e-05
0.00293905
0.00106864
0.000655983
-0.000891221
0.000797756
-0.00686916
-0.0138505
-0.000450052
9.87918e-05
6.05269e-05
0.000420745
-0.00372887
-5.86194e-05
-0.000536365
-1.54437e-05
-0.00219805
-8.44599e-05
0.0431928
-0.00813817
-0.000295465
-0.000206986
-0.000133501
-0.004232
-0.00499139
-0.000233374
-5.14755e-05
-0.000125665
-0.00150688
0.000359514
-0.030793
-0.00637617
-0.000991939
-0.000531323
-0.000632037
0.00146818
0.00547706
-0.00129156
-0.000702137
-0.00032693
-0.00211983
-0.000445752
-0.0101366
-0.0696506
-0.0178211
-0.00153036
-0.00157044
-0.00117393
-0.00581006
-0.00381334
-0.00262024
-0.000816887
-0.000837265
-0.001131
-0.000887215
0.00960905
0.00977313
0.00489384
-0.000276305
-0.00069916
-0.000535411
0.00191679
-0.00251694
-0.0005938
0.000102876
-1.62208e-05
-0.00223607
4.34028e-05
0.00218802
-0.000998384
-8.59473e-05
-0.000397046
-0.000581421
0.000241917
0.000665946
-0.000459632
-0.000125901
-0.000332258
-0.000515658
-2.94808e-05
0.0105939
0.00197066
0.000371533
0.000205436
0.000879838
0.00779191
-0.00563909
-0.00414982
-0.00016455
-0.000274937
-0.00284796
0.000207865
0.0111314
0.00361353
0.00107162
0.00114844
0.000502028
-0.000512883
-0.00112513
0.00166202
0.000780879
0.000581887
-0.00144117
0.000869681
-0.00505562
0.0199819
0.00480013
-0.000320376
0.000197425
3.08747e-05
0.00124629
0.0133688
0.00238017
-0.000218925
-0.000296371
-0.00212203
0.0003109
0.0260349
-0.0354188
-0.000469946
-0.0004355
-0.00122749
-0.00113763
-0.00144576
-0.000190401
-4.60381e-05
-0.000988905
-0.048929
-0.000262131
0
0.0013939
0.0072785
0.00990966
2.68202e-05
-0.00182755
0.00428587
0.000776787
0.00193386
0.00223943
-0.00140246
0.000495523
0.00360522
-0.00107078
0.00198673
-0.00214792
-0.000798529
0.0098923
0.000588233
0.00271908
0.000816703
0.000465731
0.00269755
0.000689318
0.00297812
0.00238645
0.00835287
-0.00114065
0.00254144
0.00345391
0.00136869
0.00407153
0.00864918
0.00804485
0.00264887
0.00614781
0.00450176
0.00726319
0.00043929
0.00362641
0.000954491
-0.00134294
0.000604829
0.0044159
0.00208301
0.00163693
0.00400154
-0.0065134
0.00167428
0.00122784
-0.00269312
0.00120028
-0.00351967
0.000243791
0.000552904
0.00173409
-0.00170185
-0.000246341
0.0055731
0.000990396
-0.000864627
0.00245078
-0.00248904
0.0018015
0.00645448
0.00854699
-0.000332635
-0.00786667
-0.00627122
-0.00519976
-3.59723e-05
0.00136906
0.00440305
0.00430901
0.00319683
0.00325708
0.00601779
0.00525186
0.00788795
0.00445195
0.00460478
-5.97248e-06
0.0110697
0.000998914
0.0063299
0.00171532
0.00495876
-0.000652001
0.00298849
-0.000670207
0.00268623
0.00437298
-0.000731279
0.00278682
0.00156011
0.00409479
-0.000495729
0.0017221
0.000750251
0.00705922
0.00396265
0.00447103
0.00566575
0.00762683
0.00149337
0.000629895
0.00616031
-0.0121251
-0.000748937
-0.00176987
0.00411498
0.00613292
0.00382485
0.00337886
0.00131232
-0.00462148
0.00947062
0.00372344
0.0105497
0.00234419
-0.0103714
-0.00462726
-0.00194729
-0.00562197
0.00174052
0.00245821
0.00139479
0.0266756
0.00552742
0.00940688
-0.0182558
-0.00155338
-0.00816425
0.0144838
0.00119409
0.0020867
-0.0127299
-0.00377664
0.0157589
0.0215881
0.0171527
-0.0129058
0.00427243
0.00245001
0.00697856
0.0157551
-0.00157291
0.00630416
0.0069174
-0.00596079
-0.00129719
0.0103346
-0.00301722
-0.00662041
0.0183215
0.00174368
0.000102392
0.000676359
0.000730563
0.000768945
0.00139899
0.00812618
0.0109922
0.00659836
0.0200046
0.0156011
-0.00224232
0.0145026
0.00379203
0.0227961
0.00169291
0.0156341
-0.0145059
0.00061793
0.0156844
0.00728746
0.000956481
0.00999758
-0.0138455
-0.00896293
0.000898918
0.0121692
-0.00346672
0.00159824
-0.00131395
0.00385205
-0.0126828
0.000394729
0.00107049
-8.17636e-05
0.0125393
-0.0012317
0.000773381
-0.0015991
-0.00377063
-0.00532411
0.00732714
0.0105442
-0.000674424
0.0291882
-0.00771095
-0.00326016
0.0148812
0.0791069
0.00413085
-0.00258582
-0.00579007
-0.0320945
-0.00849419
-0.025803
0.000433861
0.00896944
-0.0113501
-0.000431987
0.00106325
0.00446523
-0.00139524
0.00549466
-0.0013711
0.0045878
0.0139782
0.0125043
-0.000374447
-0.00525284
0.0167859
0.00225586
-0.00262387
0.00212262
0.00520822
0.00133079
0.00175297
0.000237426
-0.00126871
-0.00815152
-0.000469789
-0.00282635
0.016684
0.00802425
-0.00103189
0.00304151
0.0137218
0.00527584
0.000841842
-0.00498514
-0.00158068
-2.51406e-05
0.0162957
0.0334971
0.0343235
0.00157438
0.00298681
-0.00423127
-0.0044588
0.00202062
0.00142329
-0.00168003
0.00278058
0.00290557
0.000814596
0.00321317
0.000668806
-0.00283354
0.00362156
0.0045559
0.00811394
0.0329951
0.00148001
-0.030989
0.0265272
0.0136507
-0.0125105
0.00632726
0.00315598
0.00184065
-0.00241763
0.013689
0.0124145
-0.00138655
0.00910457
0.00422914
-0.00133093
-0.00870128
-0.00332754
0.00439026
0.00620258
0.0593508
-0.01305
-0.0166181
0.00331714
0.00494466
0.0086424
-0.0015282
-0.000743938
0.0128955
0.00218582
0.00203149
-0.0113188
-0.0166212
-0.00165919
-0.011262
-0.00013551
-0.00124062
-0.00095704
0.000677402
-0.00203881
0.00862218
-0.000115302
-0.0120439
-0.0201479
-0.0182772
0.00103863
-0.000270615
-0.00338366
0.00221942
0.0217365
0.00398011
-0.00949969
-0.0012234
-0.00070198
0.00725236
-0.00633189
-0.00178662
-0.00521145
0.0275404
-0.000436094
0.00123343
0.00979621
-0.00133736
-0.00446107
-0.00329826
0.0143126
-0.0370765
0.000927518
0.00179325
-0.000828219
0.00811774
0.0119146
-0.00913474
-0.0159776
-0.00531208
-0.028984
-0.00500919
-0.00309374
-0.00253548
-0.00196488
0.00667177
-0.00197771
-0.00149474
0.0273594
-0.00370366
0.00850971
-0.0117612
0.0110955
-3.39428e-05
-0.00314561
-0.000775135
-0.00825805
-0.00575153
0.00124847
0.00692242
-0.0109864
-0.00526703
0.00543209
0.00432859
0.000852546
0.00459145
-0.00727878
-0.00413042
-0.00132899
-0.0121907
0.000428993
-0.00149352
0.0146699
-0.0060915
0.00884839
-0.00440836
-0.00796819
-0.00758233
-0.00900382
-0.0149793
0.000257
-0.00371994
-0.00793069
-0.000665894
0.02129
8.66669e-05
-0.00776992
-0.00850338
0.00992962
-0.000757066
0.00039036
-0.000758375
0.00352103
0.00605471
-0.00235979
-0.00606277
-0.00646371
0.0237848
0.0186326
0.0577241
-0.00390828
0.000838731
-0.0189393
-0.0149365
-0.00680118
-0.0388299
-0.00583645
-0.01151
-0.000447456
-0.00117418
-0.00542853
0.0309059
0.004516
0.000314431
0.00118844
0.0175783
0.00879054
-0.0130218
0.00368783
-0.00329489
0.0324817
0.00806698
-0.001538
-0.00269563
-0.00121844
0.00577529
0.0055664
0.00162273
-0.000615202
-0.00520306
0.00562893
-0.0250359
0.00176798
-5.7042e-05
-0.000141758
0.0114837
0.00668716
0.00690796
-0.000563662
0.00342204
-0.0536823
-0.008823
-0.0037995
0.00337166
0.0429163
-0.0108953
-0.00212305
0.0155589
-0.000470163
-0.00183197
0.00734807
0.000538875
0.00162634
0.00807403
0.00212444
-0.000416778
0.00120394
0.00861226
0.00244552
0.0066583
0.0016702
-0.00108148
0.000888007
0.0267848
0.00190311
0.0107982
0.00104936
-0.0118335
-0.00481476
0.0322723
-0.00176144
0.00585604
0.0162928
-0.0256497
-0.00158511
-0.000764871
0.0175872
0.0506336
-0.0115649
-0.00416495
-0.00728902
0.0147034
0.00600501
-0.00243731
0.00201398
0.00347059
-0.0217703
0.000153767
-0.00069834
-0.00185538
0.00435973
-0.00173018
-0.00068123
-0.0195218
-0.00348642
-0.00310728
-0.00200297
-0.0096819
-0.0133498
0.0107096
-0.00206997
0.00734686
0.00221643
-0.00500914
0.00847526
-0.00169189
-0.000691533
-0.0297604
-0.00627452
-0.00506493
