booster[0]:
bias:
-0.0428511
weight:
0
-0.00390887
-0.00291553
-0.00303997
-0.00180122
-0.00397362
-0.00377471
-0.00218525
-0.00201486
-0.00264763
-0.00195952
-0.0017938
-0.000689113
-0.00296424
-0.0020542
-0.000456974
-0.00311392
0.000158911
0.000827591
0.00142054
-0.00142831
-0.00104027
-0.00087606
-0.00348645
-0.00223658
-0.000584971
-0.000955168
-0.00275159
-0.00224055
0.000137758
-0.00246458
-1.83533e-05
-0.000849828
-0.00164923
-0.000144032
0.000642288
0.00100514
-0.00150155
-0.00123466
0.00297262
0.000755004
-0.00201314
-0.000146327
-0.00258874
-0.00111545
-0.00196064
-0.00138476
-0.00520637
-0.00247747
-0.000619392
0.000777213
0.000172835
0.00129835
0.000419812
-0.00066402
-0.000588063
-0.0017389
-0.000821462
-0.00141699
-0.00096861
-0.00175325
0.00154798
-0.00171399
-0.00176858
-0.0020467
0.000581102
-0.00104336
-0.00296262
-0.00190235
-0.00219625
-0.00147882
-0.00125051
-0.00052242
-0.000734367
-0.0020006
-0.00104387
-0.0020455
0.00152192
0.00150523
0.000325614
-0.000267751
0.000657012
-0.000899663
-0.00200227
-0.000624752
-0.00217885
-0.0013958
2.68757e-05
-0.000743694
0.00160128
0.000961402
0.000681456
0.000248859
0.00177959
0.00132729
0.000885497
0.000235022
-0.000644425
0.00181309
0.000913884
-0.0019353
-0.000183624
-0.00185006
-0.000699214
0.000353356
-0.00203358
-0.00158752
-0.00291972
0.000987817
0.00104183
-0.000625505
-0.00252493
-0.00169563
-0.00109339
0.000147627
-0.000420893
-0.00036229
-0.00246775
-0.000756278
-0.0015329
-0.00755949
-0.00310172
-0.000233626
-0.00394452
-0.001714
-0.00013883
-0.00197546
-0.0299281
0.00117755
0.0137808
-0.00121755
-0.00483738
-0.000661892
0.0161182
0.00261267
-0.00384805
-0.0593138
0.00625579
0.00233367
0.000532278
0.00576855
0.0041075
-0.000728778
0.00610533
-0.000687876
0.0151624
0.00252348
0.000367728
0.00771074
0.00234432
-0.000747308
-0.0311877
0.00322677
0.00453605
0.00284828
-0.0219257
0.00200278
0.00288893
-2.44032e-05
0.00244494
0.00491875
0.00471509
0.0010034
0.000456779
0.00370373
-0.000417611
0.0021755
-0.000507186
0.00434967
0.00714257
-0.00244713
0.0117969
-0.00306332
0.00146662
0.00713339
0.00837566
0.00165934
0.00695464
0.0168442
-0.030232
0.00233871
0.0446154
-0.0132333
0.00979854
-0.000643431
0.00403368
0.0109097
0.000745833
0.00102147
0.00263361
0.00637281
0.00118494
0.0041115
0.0018174
0.000177618
0.00228637
0.00488174
0.0100084
2.45695e-05
-0.0440801
-0.0311357
-0.0363296
0.000250495
-0.0136893
0.00166764
-0.00663305
0.0128545
-0.0290428
-0.0204802
-0.0132661
-0.000176067
0.0040525
-0.0064747
0.0034303
0.00183304
0.00673441
-0.00380035
-0.000360647
-0.0098519
-0.0256281
-0.0295668
-0.00043732
-0.00911496
-0.00753841
-0.000847143
0.0306504
-0.0101343
-0.00685597
-0.00282146
0.00143664
4.70438e-05
0.000546107
-0.00349726
-0.00578439
0.00283605
-0.00485553
-0.00953297
0.00375657
0.00165033
-0.00232051
0.00232805
0.00437922
-0.00139092
-0.000405471
0.00267548
-0.000440851
0.0108176
0.015967
-0.0332753
-0.00124548
-0.000368166
-0.00461903
-0.00906922
0.00204985
-0.00229286
-0.00707455
-0.00112638
0.000415777
0.000595716
-0.00123172
-6.91424e-05
-0.00720314
-0.0235072
-0.002676
0.0133937
0.0244927
-0.00697361
-0.00746746
0.0187232
-0.0568429
-0.025787
-0.00789347
-0.00205435
-0.000399
-0.0676762
-0.00604137
0.0123842
0.00147819
0.00444344
0.00367646
-0.00132102
0.00281838
-0.026284
0.00275637
0.00651489
-0.0173576
0.00112767
-0.0252007
-0.000908384
0.00151111
0.00391155
0.0106911
-0.00204081
-0.0247754
0.000480061
0.00226095
0.00283982
-0.00520453
-0.0251915
9.20031e-05
-0.00195807
-0.000868388
-0.00208415
-0.0105092
-0.0108595
-0.0104204
-0.00100414
-0.000879871
-0.008482
-0.00369612
0.00165269
-0.00460957
-0.000288726
-0.00142187
0.0032524
0.00335313
-0.00701996
-0.000404995
-1.83214e-05
-0.00243828
-0.00383725
0.00058505
-0.00115817
0.0298128
-0.0154239
0.00232928
-0.00595394
0.00499656
-0.00343777
-0.000714613
0.0151918
0.0216428
0.00202681
0.00134083
-0.00201441
0.00464337
0.0056724
-0.00476417
-0.0140425
-0.000679937
-0.00263444
5.62898e-05
-0.00222567
0.00163068
0.00321393
0.0216054
-0.0014207
-0.0100063
0.0217248
-0.000234772
-0.00404147
-0.00399142
0.00335525
0.00104158
-0.00146147
-0.000161602
0.00167268
0.00396893
0.00429834
0.00500556
0.00356711
-0.00467025
0.00127233
-0.00208477
0.00371579
0.00565302
-0.00384381
0.00531686
0.00117539
-0.00683107
0.00117007
-0.00194609
-0.00993501
0.00759406
-0.00156608
0.0012
0.000977901
0.000325445
-0.00641881
-0.00386642
0.0036406
-0.0042199
-0.0065582
-0.000775049
0.0130232
0.00105073
0.0160735
-0.0126039
0.000475468
9.96458e-05
0.000984191
0.00223771
0.00546333
0.00171169
-0.0651912
-0.0389389
-0.0397261
-0.00655908
-0.00962511
-0.00677608
-0.00398416
0.0010442
0.00714275
-0.0199549
0.00192362
-0.0248667
0.00384634
-0.00765352
0.00538138
0.00175956
-0.00192983
0.0422827
0.00238871
0.000779645
0.00207309
0.0200046
0.000141062
0.00606019
-0.0107214
-0.00156417
-0.00527392
-0.0103736
0.00195873
0.00160306
0.000882681
0.00619318
0.000288839
0.00353717
-0.00405015
0.00118629
-0.00208616
-0.0123157
0.00150001
0.000166606
0.00168165
0.0189588
0.000559357
0.00255053
0.0014677
-0.00027373
-0.000122098
-0.00595172
-0.000463642
0.00284012
0.0255427
0.000652107
-0.000518556
0.00749721
0.000450118
0.00649928
-0.038956
-0.00255077
0.00101851
0.00679841
0.00236076
0.000552418
0.0023822
0.00970712
0.00148206
0.0149657
0.00266469
0.00302526
0.00163127
0.0219352
0.00233938
0.014098
0.00101754
0.00283478
0.00290095
-0.0139814
0.0268807
0.000301133
0.048337
-0.0107514
0.00210412
-0.00179199
0.00925519
-0.0379564
-0.013459
-0.00285265
0.00432956
-0.00264763
-0.0482576
0.000202373
0.00172407
0.00200219
-0.0125915
0.00183849
0.00158393
-0.000432776
-0.00564792
0.000119135
0.00140492
-0.0202299
-0.00255404
0.00180609
0.000363332
0.00828973
0.0123735
0.0137149
0.00490332
0.00150691
-0.0151417
0.0270126
-0.00431157
0.025088
0.00211389
0.0202198
0.000245522
0.000773416
-0.00850344
0.0068724
0.00282511
-0.00181278
-0.0014721
0.00292927
-0.000433753
-0.000228136
0.00597341
0.013349
-0.0271455
0.000741864
-0.000958213
0.00126446
-0.00101481
-0.00371237
0.00838034
0.00659578
-0.00119269
2.63181e-05
0.00272024
0.00582902
0.0019162
-0.0448487
0.00487036
-0.0361192
-0.00349196
0.0215527
0.0028221
3.3902e-05
0.00998372
-0.0065046
0.0187572
-0.00180683
-0.00353413
-0.00208709
0.0190744
0.000828012
0.00216695
-0.00453189
0.00750541
-0.00257946
-0.0173712
0.00134347
-0.0219593
0.00212547
0.0116927
0.0282574
0.00628479
0.0157708
-0.00721525
-0.0232222
-0.0117836
-0.00703618
-0.0127191
-0.000276159
-0.00213145
-0.000552556
0.013913
-0.000255858
-0.00459488
-0.000116405
0.000239574
-0.00208685
0.00444336
-0.00468194
0.0025842
-0.00425621
0.00110868
-0.0216237
0.00863917
-0.00396607
0.0123098
0.00315635
0.016971
0.00577481
-0.000623386
0.00298027
-0.00703425
0.00293732
-0.0119301
0.000453289
0.00804717
0.00767643
-0.000320177
0.000617387
0.0068475
0.0109346
-0.00215707
0.0104489
-0.0655716
0.0128594
0.000880159
-0.014322
-0.00442132
-0.00492383
0.0110445
0.0181317
0.0106381
0.00509873
-0.00236319
0.00274162
0.00063204
1.76234e-05
0.0013031
-0.000101264
-0.00349001
0.00587721
-0.0022311
0.0023122
0.000260234
-0.000403529
-0.00622584
0.0137804
0.00531127
0.00295002
0.00375975
0.000888658
0.0224791
-0.0167602
0.00159967
0.00139673
0.00184444
0.000904653
0.00373403
-0.0192308
-0.024245
0.000471126
0.00221096
0.0025502
0.0196472
0.0157088
-0.00614149
-0.00616137
-0.000257827
-0.00176007
0.00111036
0.000935205
0.00103389
0.00155363
0.00169169
-0.00709805
-0.0177333
0.00226851
-0.000230443
0.00315551
-0.00254754
-0.0350317
-0.00448687
0.00981776
0.0107507
0.00106946
0.0421177
0.0190282
-0.0130357
-0.00674264
0.0244749
0.0254811
-0.0128373
0.00673821
0.00760006
-0.00262852
0.00164791
0.0149788
-0.00318863
0.00083437
-0.00593187
-0.000962507
-0.000963846
0.0173267
-0.0146446
0.0212265
0.006917
-0.00208902
-0.000260638
0.0024226
0.00221452
0.00753654
0.00124779
0.000467437
0.000202639
0.000889154
-0.00193016
0.0137232
-0.00064551
-0.00030916
-0.0154018
-0.0305918
-0.00129703
-0.00724188
-0.00842028
0.000904795
0.00142453
0.00244365
-0.00291626
0.00450001
-0.00741465
-0.000795849
0.0113155
-0.00331866
0.00025855
0.000557275
-0.00610628
-0.0121675
0.00375
-0.00190484
0.0256765
0.00320364
0.00524074
0.00905855
0.00138055
-0.000701549
0.0016661
0.00124276
0.000575097
0.00386737
0.00364024
0.00300273
0.00159656
-0.00034921
-0.00212916
-0.00236841
0.00343985
-0.0021689
-0.0412463
-0.00096105
0.000816667
-0.00162991
0.00345147
0.00123763
0.00286805
0.00892106
-0.00319748
-0.0049742
0.0101444
0.0056137
0.00626508
0.000796014
0.000552657
-0.0145037
-0.0032225
-0.0402084
-0.000289885
-0.00285778
-0.0014625
-0.00297864
-0.00209987
-0.0037166
-0.000703902
-0.00273694
-8.53216e-05
0.00142765
0.00325831
0.00123929
0.00254937
0.0045442
0.000383027
0.0039431
-0.000399668
0.00261034
0.00317004
2.95407e-05
0.000357126
0.00243214
0.00177638
-0.019213
-8.79152e-05
0.00129983
0.000114858
-0.00114236
0.002796
0.00212242
0.00319042
0.0011225
0.00339717
-0.00133777
0.00453706
-0.000489691
-0.00170059
-0.000218671
0.00385307
0.00151892
0.00383986
0.00289202
0.00471511
0.00092036
-0.00279109
0.000476582
0.00170789
-0.000686212
0.00452273
0.00495581
0.0015333
0.00178952
0.000736755
0.00378636
-0.00282939
0.00501776
-0.00144274
0.00138734
0.00379383
-0.00239573
0.00246214
0.00136605
-0.000149049
0.00202315
-0.000287246
-0.000368489
-0.000176309
-8.82059e-05
-2.23208e-05
-0.0032921
0.000156446
-0.00611708
0.000721788
-0.000578748
0.00283038
-0.0104755
0.000380316
4.47866e-05
-0.000477778
-0.000126818
0.000338604
-0.00251906
-0.00284643
-0.00274404
-0.00110561
-0.00513769
-0.0119575
0.00147699
0.025665
-0.000148566
-0.00322902
-0.00123802
0.000124982
-0.000348542
0.000294596
0.0181349
-0.000150877
-2.26533e-05
-3.24886e-06
0.00148683
0.00319893
-0.00100531
-0.000135766
-0.00145822
-0.000413109
0.000698536
-0.00102791
0.00354557
0.00258847
0.000257111
0.000268503
2.27379e-05
0.000619068
-0.00700659
-0.00164687
-0.00747245
0.00608905
0.000955886
-0.00635027
0.0007817
-0.000360702
0.00434793
-0.000394995
0.00281519
-0.000689165
-0.000107163
-0.000275045
-0.000403952
-1.80452e-05
-0.00325328
-0.00180256
0.0038128
0.00123005
0.00191526
0.000520761
0.00204599
0.000141283
-0.000168582
-9.48671e-05
-0.00037029
0.000218237
0.000263785
0.000367883
-0.0592606
0.0015909
0.000257458
-0.000222576
-0.000206893
0.000488522
0.000161396
0.000113952
0.000466282
-6.14297e-05
-0.00234267
-0.000116748
0.000331932
0.000262368
-0.00015465
0.00292454
0.000666666
0.00198698
0.000376472
0.000695813
-0.0005625
-0.000261002
0.000842378
-2.49062e-06
-0.00114239
-0.000162565
0.000630184
-0.0019879
0.000719767
0.00138616
-0.000540929
0.000219888
6.08749e-05
-0.00015984
3.35801e-05
-0.000373926
-0.0013072
-0.000161387
0.000459604
0.000284151
0.00189477
0.000363193
0.00134598
0.000196912
0.000457698
-0.000665823
-0.0045274
-0.00160374
-0.00282744
-0.00185288
-0.0010055
-0.000431317
-5.57792e-05
-0.000427952
-0.00012521
-0.000192233
-0.00102375
0.000803665
3.73612e-07
0.000208491
0.00061444
-0.000470775
0.00291502
-0.00255703
-0.00203037
0.000764999
7.94849e-05
-0.000260734
-0.000100688
0.000232719
0.00070577
0.00718111
-0.00091457
0.00803458
-0.00098865
-0.00860193
-0.0016158
0.000303607
0.000831137
0.00274712
-0.000368283
-0.00311526
-0.000173891
3.21873e-05
0.000181503
0.000564409
2.37321e-05
9.29005e-05
-0.00326481
7.20906e-05
-0.000710994
-0.000344078
-0.000257531
-0.00275954
-0.00306126
-0.00226616
-0.00209032
0.000649881
7.81145e-05
-0.000809335
-3.90913e-05
0.000330712
6.64459e-05
0.00103061
-0.000206083
-0.000732676
0.000172839
-0.000322327
4.67944e-05
0.00219835
-0.000886122
-0.000632211
-0.00015808
0.000305993
-0.000139689
0.000151386
-0.00130297
-0.000251283
-0.000157937
-3.57921e-05
-4.31098e-06
-0.000106625
-0.00314283
-0.00125246
-0.00112249
-0.000433978
0.00116352
7.46977e-05
-0.00152748
0.000382413
-0.00024364
0.000303596
-0.000616498
-2.90696e-05
0.000164026
-0.00130712
0.00114883
-0.000173935
8.36941e-05
5.89092e-05
3.26478e-05
0.00011618
-0.00175687
0.000689504
-0.000297662
0.000167665
-0.000368351
3.46317e-05
0.000250398
-0.00100231
0.00127658
0.000329429
0.000807132
1.08944e-05
0.000404162
9.96059e-06
7.65667e-05
0.000785327
2.67743e-05
-0.000263989
0.000346969
0.000435538
6.50401e-05
0.000331832
4.84271e-05
-0.000191359
0.000203372
-0.000913596
-0.000301422
0.00014124
0.000463984
0.000402217
0.000186587
0.000313886
-0.000239863
-0.000369082
0.000281348
-0.000881076
-8.89613e-05
0.000614392
0.00021654
0.000502401
4.5978e-05
-0.000392302
0.000666058
-0.000421186
7.83753e-05
5.50385e-05
-0.00115441
0.00111064
-0.000263212
0.000495565
-0.000645182
-4.09682e-05
7.59229e-05
5.2516e-05
0.000631699
-0.000206704
0.000221573
-0.000247302
-2.20137e-05
8.13931e-05
0.000484891
0.00129837
8.46335e-05
-7.46003e-05
-9.40109e-05
0.00028883
-0.00342605
-0.000576488
0.000415821
0.000721174
0.00032749
-0.0124809
0.000864849
0.000201857
-0.000210993
-7.46526e-05
0.000477487
0.000437234
-0.000378813
-0.000640351
-6.35561e-05
0.000176734
-0.000832631
-0.000801601
-4.55658e-05
0.000314559
0.000236436
0.000182591
-0.000207682
-0.000383178
-4.14976e-05
-0.000235192
5.92986e-05
-0.00137815
-0.000551251
-0.000181667
8.46616e-05
0.000256822
0.000210449
-0.000233158
0.000349377
-0.000920695
5.00161e-05
0.00075137
0.000268825
0.000232311
0.00172951
-0.000421581
-0.000201167
3.17117e-05
-4.07732e-05
-0.000264587
-3.46156e-05
0.000909149
-1.5525e-05
0.000354266
-0.000142896
1.98996e-05
-0.000529148
0.000141075
8.66989e-05
-0.000204046
-0.000237307
0.00105574
0.000488515
0.00116456
-6.61559e-05
0.000685289
-2.20829e-05
0.000568248
-8.02375e-05
-5.33739e-05
8.40282e-05
3.09958e-06
-7.50763e-05
-0.000367175
-0.000441721
-0.000104853
0.00122354
0.00472032
0.00241285
-0.00022083
-8.60453e-05
0.00486034
0.000718883
-1.13111e-05
0.0003833
-0.000271344
9.02866e-05
-0.000232393
0.000336018
-4.77715e-05
-0.000418524
5.85979e-05
0.00106501
0.00108213
0.000110418
0.000718724
-0.000260046
0.000276989
0.00222341
0.00111523
0.000185998
-0.000259556
0.00722662
0.000995413
7.32061e-05
0.000704593
-0.000212981
9.00502e-05
-0.000170771
-0.000551081
-5.93744e-05
-0.000314562
2.44334e-06
-0.000398311
0.00279866
0.00134651
0.000276995
9.79799e-07
0.00491463
0.00034767
-6.96742e-05
4.37661e-05
-0.000188456
0.00167047
-0.000221511
0.00259746
0.00129936
-0.000235031
-7.80547e-05
-0.0016264
6.64399e-05
0.00214825
0.000297598
-0.000142205
-2.58477e-05
-0.000542747
0.00219974
-0.000246537
0.00105037
9.88633e-05
-0.000171406
6.36194e-05
0.00568545
-6.46194e-06
0.000836141
0.00184834
-9.74674e-05
0.000101247
-0.000263457
-0.00024077
0.000220254
7.11377e-05
-0.00015483
-0.000768936
-0.0101289
-0.000603198
-0.00209496
-0.000785001
-0.00102339
-0.00033954
-0.0121284
-0.000661467
-0.00176756
-0.000797168
-0.000686701
2.00953e-05
-0.00637239
-0.000455084
-0.00149649
-0.000657645
-0.000496699
0.000158933
-0.00625573
-5.69092e-05
-0.000528793
-0.000270532
-0.000286655
0.00036101
-0.0118482
0.00205395
0.000494715
0.00137564
-0.000174948
0.000618829
6.42728e-05
-0.000274066
-0.000237499
-0.000365432
0.000607423
0.000529301
-0.00123735
9.43633e-05
-0.000372175
0.000421015
-0.000368332
-0.00566241
3.32594e-05
0.00242693
-0.000215988
-0.000506155
0.000346064
-0.015354
-0.000251129
-0.00283853
-0.000540871
-0.000231781
0.000413472
0.000212433
-0.00470954
0.00240885
0.000134001
0.000924876
-0.000217392
0.000402742
-0.000167261
-0.000310315
-0.000402641
-0.000117445
0.000574731
-0.00205786
0.00313591
0.000498194
0.00186604
-7.12349e-05
0.000898786
-0.000115172
-0.000421097
-0.000180678
0.00043434
-0.00260709
-0.00215042
-0.000224611
-0.00019432
0.000234236
0.000210867
0.000228687
-0.00734784
-0.000615534
0.000147581
-0.00075477
0.00021309
-0.00344882
0.000295553
-7.11898e-06
-0.000898272
0.000192869
-0.00242727
0.00134798
-0.000193524
-0.00162524
-0.000361386
-0.000122258
-0.000239972
-0.00124317
-0.000503702
-0.0001775
0.000115113
-0.00474222
0.00136368
-2.92115e-05
-0.00095895
-0.000268667
-9.5578e-05
-0.000253014
-0.00121816
-0.000425647
-0.000192966
-3.44791e-05
-0.00748715
0.00160201
-0.000278981
-0.000784973
-0.000392937
-0.000194989
0.000382473
-0.000197235
-0.000241607
9.48623e-05
-0.00229758
-0.000454151
-0.000497127
-0.000494551
-0.000351093
0.000128508
-0.00372582
0.000171146
-0.000373855
-0.00118308
-0.000481403
-0.000294457
-0.000346537
0.000477286
0.000455186
-0.00022896
1.3561e-05
0.00484415
-0.000338214
-0.000799034
-0.000438874
-0.000475353
0.000111367
-0.00279376
0.000608325
0.000389004
-0.000577695
-2.21761e-05
0.00023187
-0.000292437
0.00132002
-0.000135248
-7.6281e-05
-0.000139058
3.989e-05
0.000136623
-0.000230923
-0.00183226
-0.000791886
-0.0212755
2.99447e-05
-0.00200464
6.57403e-05
0.00377053
-0.00026009
0.00136623
-0.000428521
-0.000391969
-0.000174209
-0.000341307
-0.00150446
-0.000179884
0.000324861
-0.000125739
-8.52323e-05
0.000157772
-0.000177578
-0.00402337
-0.000238299
0.00149487
-0.000204275
-0.000156742
9.52391e-05
-0.000324435
-0.00267348
-0.000305153
0.000838116
-0.000108856
-0.000196544
8.47583e-05
-9.50247e-05
-0.00220246
0.000392867
0.000514648
-0.00166054
6.30133e-05
-0.00083133
-1.04889e-05
0.000445955
-2.25669e-05
4.86259e-05
0.00021943
-0.00196868
-0.000183756
0.000478158
-0.000186627
-3.28261e-05
0.000177805
-0.000104
-0.00140754
-5.64085e-05
0.000454464
-7.70399e-05
0.000231524
0.000156313
-0.000106962
-7.64036e-05
-0.000212529
0.00107832
0.000212621
-0.000203867
2.63539e-05
-0.000210658
-0.00302114
6.83991e-05
0.000221648
-9.52982e-05
6.95471e-05
0.000129693
-0.000112213
0.00132866
-0.000152607
0.0007556
-0.000148315
9.99961e-05
-9.45002e-05
-0.000454382
0.00277594
0.000244053
-0.000200482
-0.00021652
-9.06948e-05
-0.000326517
-0.000348057
0.00010517
0.000436813
-4.87766e-05
0.000368886
9.00021e-05
-0.000521463
-2.99429e-05
0.00105562
-0.000174379
-0.00031722
-5.33042e-05
0.000961217
-0.00105355
-0.000324591
-0.00149039
-0.000373395
-0.000350307
-0.000203311
-0.000368445
-0.000463422
0.000130404
0.000139285
-0.00237653
-0.00332063
-0.00118326
-0.00260794
-0.00111393
-0.00135285
8.05726e-05
0.000307631
-0.000511035
-0.00103803
0.00763022
-0.00427368
-0.0011916
-0.00330397
-0.00105218
-0.00132494
-2.39539e-06
0.000212285
-0.00122643
-5.62405e-05
0.000518879
-0.000667559
-9.00129e-05
-0.000490833
-0.000197428
-0.000137141
0.00118772
0.00121486
-6.63144e-05
-0.000316488
-0.000108218
-0.00394078
-0.00108843
-0.000278057
-0.00104237
-0.000383619
-0.000255133
-0.000330655
0.000252231
-0.000325715
-0.000318961
1.22018e-05
-0.000666935
-0.000862058
-0.000173547
-0.00108084
-0.000308805
9.57757e-05
-0.00021708
0.000249768
-0.00074762
-0.00018897
0.000102109
-0.00112592
0.00209955
0.000195448
0.000592671
-0.000113567
0.000486467
0.00115419
0.00178074
0.00125654
-5.09465e-05
-8.02944e-05
-0.00880255
-0.00143155
0.00147273
0.000467573
-0.00036683
-7.3521e-05
-0.000780752
0.00556843
0.000708103
5.28902e-05
-0.00011403
-6.7583e-05
4.95784e-05
0.000309141
-1.52836e-05
0.00010733
-5.78331e-05
-0.00015051
-0.00185034
-0.000252911
0.000121864
0.000455925
2.01284e-05
0.000145046
-0.000263001
-0.000141149
-0.000237091
-2.3669e-05
7.5378e-05
0.000927602
-0.000278369
0.000159672
0.000242053
3.18336e-05
0.000204057
0.000209761
7.69886e-05
-0.000189729
0.000268956
0.000136736
0.000507334
8.00609e-05
3.57318e-05
-0.000549954
-0.000165882
0.000109392
-0.000331999
0.000657973
0.000116647
-8.79698e-06
0.000111119
0.00462546
0.00227981
0.000300123
0.00100206
5.90349e-05
0.000365251
0.000373238
-0.000219199
-0.00057737
0.00040418
0.000225949
-0.00173659
0.00101828
0.000196706
0.00100247
-1.57071e-07
0.000142999
-0.000290433
0.000802028
-0.000263775
-5.96133e-05
-0.00016209
-0.0015925
0.000415193
1.09024e-05
0.00025639
-0.000174387
0.000356687
-0.000290456
-0.0149215
-8.1133e-05
-0.000139801
-0.000294969
0.0085375
-7.6713e-06
0.00057397
-0.00012775
0.000219687
0.000135844
0.00234465
0.000172501
-0.00078492
-0.000116664
-1.60247e-06
-0.000369909
-0.000904209
0.00169415
0.000455684
0.00180996
9.28586e-05
0.000420586
0.00025242
-0.00233863
6.13321e-05
0.000956734
0.000270713
0.0157398
-0.000526161
0.000100219
0.000486501
8.18078e-06
3.17726e-05
-0.00122624
-0.062341
0.000221775
-0.000250248
-9.69349e-05
0.00165214
0.000577216
0.00065588
-9.40359e-05
0.000263064
-0.000181955
-0.000728794
-0.00170872
-7.42396e-06
-0.000294759
-9.71991e-05
-0.000100192
-0.000736735
0.00120063
0.000148217
-0.000342343
-9.53821e-05
-0.00967595
-5.55666e-05
0.000587336
3.0847e-06
-3.70083e-05
-4.34445e-05
-0.000348739
0.00811561
-9.89045e-05
0.00034967
0.000394464
-0.000124791
-8.459e-05
-0.000225329
0.00162764
5.10772e-05
0.000434148
0.000299996
0.000514666
-1.50127e-05
-0.000959845
0.0152316
-8.56935e-05
-0.0264606
-0.00436507
0.000742364
0.000136271
-2.13298e-05
-0.000267827
-0.00127708
-0.000118395
8.47084e-05
-8.00881e-05
-0.00273275
5.3417e-06
0.000273559
2.21623e-05
0.000580409
-0.000344125
0.00070492
2.05477e-05
6.19839e-05
-6.41505e-05
-0.000356399
-0.00029859
0.00739083
-1.73771e-05
0.000170415
-8.5718e-05
-7.71488e-05
-0.000273654
-0.000436958
0.000874538
-0.00142418
-0.000274362
-0.000992084
-0.000355549
-0.000243717
7.30176e-05
0.000370224
0.000242819
0.000233438
-0.00019258
0.00510008
0.000304828
-0.000939904
-0.000133299
-0.000296807
-0.000197417
0.00956653
-0.000130085
0.00070978
5.08248e-05
0.000246885
1.55398e-05
-0.000483118
-0.00152691
-0.000221581
0.000625504
0.000495798
-4.57547e-05
-0.000115129
0.0382021
0.000152648
0.00139225
-0.000248133
-2.33608e-05
-0.0007199
0.000325299
0.00011544
0.000431868
-0.000124231
-0.00071894
0.000124041
3.30713e-05
0.000275107
0.000218047
-0.000150193
3.48727e-05
-0.000352995
0.000957154
-9.49311e-05
-0.000357098
-0.000963709
0.000329605
-0.000459629
-0.000177032
-9.19046e-05
-0.000156019
-0.00019514
0.00129733
0.00105935
-0.000388036
-0.000269321
-0.000249535
0.00361611
0.000450107
-0.000731072
-0.000336652
-0.00022359
-0.000296814
-0.000194921
0.00740443
-0.00232255
-0.000674042
-7.76871e-05
-0.000368753
-0.000890983
1.66764e-05
-0.000406894
-0.000116959
-0.000235231
-0.000365861
-0.000343077
-0.00673702
-0.00115061
-5.51774e-05
0.000319532
-0.000280435
-0.000130626
0.000211429
-0.000653428
-0.00022884
-6.5296e-05
-0.000518281
-0.000125453
-0.0101282
0.000674502
-0.000331259
4.79444e-05
-4.93913e-05
-0.000335521
0.000320087
0.000417958
0.00010988
-0.000186578
-0.000130755
-0.000240083
0.00192736
0.00614845
-2.99876e-05
0.000351186
0.000310515
-0.000983768
0.000812115
0.00137431
0.000128124
-0.000114431
-0.000182616
-0.000256808
0.0443287
0.00117115
0.000211302
0.000112081
0.000317812
-0.00155026
-0.000225884
0.000906569
0.000288415
-6.43301e-05
-0.000222626
0.000292594
0.0019096
0.000419636
0.000374951
0.000387071
0.000290901
-4.46199e-05
0.000769295
0.000331704
0.000185884
-5.73443e-05
-0.000155347
0.000157837
0.000970043
-0.00778046
0.00348672
-0.000533446
-0.000685008
-0.000340866
-0.00349305
0.000142445
-0.000523361
-0.000157369
-0.000171059
-0.00019978
-0.000268612
-0.000798197
-0.00194914
0.000681819
0.000323773
-0.000349816
-0.000177136
0.000278751
-0.00015869
-0.000174927
0.000121782
9.71376e-05
-0.000353825
0.00012074
0.0013773
-0.000111347
0.000425361
0.000365915
0.000339851
-0.000212923
0.000244464
0.000599655
0.000373263
2.80814e-05
-8.93156e-05
0.000284822
0.00525198
0.000426259
-0.000155697
0.00029333
0.000255584
0.00180903
0.00133602
0.00168895
0.000194139
-0.000269926
-0.000301588
-0.000400013
0.0163502
0.00106815
7.55751e-05
6.69993e-05
-5.15384e-05
1.19796e-05
-9.66269e-05
8.91426e-05
3.19231e-05
-0.000172038
-7.96453e-05
-0.000150135
-0.00200696
0.00772394
0.00112937
0.0003839
0.000479523
0.000157642
-1.20047e-05
0.000650592
0.00206508
0.000148494
-0.000326409
-0.000259429
-0.000334525
0.011238
-0.00448861
-0.000113334
8.99519e-05
-0.000787154
-0.000135818
0.000332589
0.00030096
0.000137577
-0.000151392
-0.00410137
0.000568688
0
-0.000252827
0.00263766
0.000675146
0.000860421
-0.00130055
0.000159422
0.000155593
0.000129564
-0.000368639
-0.000858603
-9.77938e-05
0.000912526
-0.000932689
0.00039953
-0.000167405
-0.00207341
0.000975693
0.0017276
0.00211811
-0.00062591
-0.00059145
0.000374994
-0.00262723
-0.00174861
-0.00044369
-0.000346139
-0.00186907
-0.000492197
0.000922381
-0.00153926
0.00134703
-0.000173467
-0.000470419
0.000770915
0.000495044
0.00141022
-0.000847962
-0.00062604
0.00308842
0.00130809
-0.00153209
7.81763e-05
-0.00133622
-0.000865473
-0.00131444
-0.000462746
-0.00329869
-0.00137583
-0.000934678
5.85177e-05
0.000971918
0.00276239
2.93926e-05
-0.000423732
-3.16119e-05
-0.00183942
-0.000524217
-0.000813549
-0.000209877
-0.000985229
0.00186838
-0.000984426
-0.000847497
-0.00136618
0.00101784
-0.000810006
-0.00449474
-0.00279918
-0.00275694
-0.000249914
-0.00091045
0.000856636
0.000301741
-0.00111525
-0.000111508
-0.00141033
0.00227685
0.00278061
0.000472836
0.000897516
-0.000374359
0.000356462
-0.000935096
0.000460481
-0.00218862
-0.000142472
0.000624899
-0.000150231
0.000659582
0.00143232
0.00119224
-0.00078125
0.00177693
0.000849494
0.00140256
-0.000374159
0.000380531
0.00129106
0.00210224
-0.00148582
4.65674e-05
-0.000890061
0.000219933
-4.43333e-06
-0.00100564
-0.000934522
-0.00231263
0.000649265
0.00116206
0.000138721
-0.00195032
-0.000948703
-1.31532e-05
0.000722418
-0.001313
0.000848381
-0.00196348
0.000593558
-0.000298348
-0.00638357
-0.00196441
-0.000678785
-0.00285871
-0.00114643
0.000230378
-0.000742899
-0.0357957
0.00269553
0.00838543
-0.00606458
-0.00334681
-0.00230236
0.0124494
0.00109851
-0.00389826
-0.0414519
0.000590654
0.00477041
0.000865731
0.00751508
0.00207098
-0.0012261
-0.000341766
-0.000873602
0.0129943
0.00260579
-0.000939173
0.00491314
0.0018587
-0.00017399
-0.0161613
0.00232281
0.00547135
0.0090979
0.00660517
0.00144915
0.00249497
0.000124672
0.0023425
0.00444132
0.00525172
-0.000578432
0.000983794
0.00259173
-3.08596e-05
0.000670881
0.00133322
0.00540887
0.0072152
-0.00219408
0.0118983
-0.00599306
0.000376159
0.00905752
0.0100305
-0.000787432
0.00561838
0.0178576
0.000895821
0.000316071
0.0406667
-0.0056061
0.0382292
0.000842319
0.00446341
0.0134011
0.000377574
0.000686572
-0.000151005
0.00608232
0.00100969
0.00399867
0.00365976
0.00291686
0.00362646
0.00397987
0.00933581
-0.000746217
-0.020443
-0.0295703
-0.0302767
0.017143
0.00446507
0.00135659
-0.00536858
0.0141396
-0.0270339
-0.00801872
-0.0125692
-0.00246425
0.0069464
-0.00531645
0.00116907
0.00139531
0.00276181
-0.00315919
-0.0020445
-0.0070839
-0.0211045
-0.0214497
0.000284297
-0.00706433
-0.0067793
0.00507411
0.0301022
-0.0105198
-0.005882
-0.00548336
0.00107174
2.46845e-05
0.000393
-0.00390532
-0.00277353
0.00249073
-0.00439674
-0.00735731
0.0034053
0.000585263
-0.00355961
0.00319665
0.0034207
-0.00259479
-0.00150979
0.0049168
-0.00128075
0.00821373
0.0153227
-0.0179085
-0.000852067
2.95726e-05
-0.00439038
-0.00586613
0.00120729
-0.00312366
-0.00668035
-0.000562817
0.000771526
-0.000475275
-0.00162913
-0.00265324
0.0019288
-0.0152557
-0.00201037
0.0131716
0.0262975
-0.00865752
-0.0106236
0.0163355
-0.0388861
-0.0195737
-0.00810253
-0.00194775
-0.000413528
-0.0535804
-0.00593662
0.0132664
-0.000350353
0.00714154
0.00327313
-0.00360764
0.000768849
-0.0146749
0.00228585
0.00599301
-0.0214085
0.00253181
-0.0225726
-0.00158994
0.00152106
0.00268185
0.00898001
-0.00446718
-0.0129808
0.000454667
0.00147463
0.0110993
-0.00150518
-0.00673806
0.00103098
-0.00134434
-0.000856986
0.000202368
-0.00691653
-0.00794825
-0.00698431
-0.00137568
0.00152154
-0.000243649
0.002334
0.00160984
-0.00291331
4.67113e-05
0.000239793
0.0146732
0.00412621
-0.00258798
-2.55425e-05
0.000148273
-0.00118755
0.000904442
0.000261698
-0.000397474
0.0283976
-0.012631
0.00240384
0.00115952
0.0094733
0.000780256
-0.000969601
0.0157274
0.0211259
0.00246907
0.00157193
-0.00148456
0.00644179
0.00446981
-0.00441407
-0.00849309
-0.000538906
-0.006758
-8.13069e-05
-0.00132274
0.00243938
0.00306424
0.0262559
-0.0020753
-0.00258033
0.0302577
-5.86124e-05
0.00230416
-0.00195559
0.0101887
0.00229578
-0.00088333
-6.63678e-06
0.00928173
0.00456407
0.00417786
0.00694769
0.00151121
-0.00700669
0.00265823
0.00616683
0.00330391
0.00723982
-0.00196736
0.00396054
0.00363501
-0.00299082
0.000129452
-0.00194535
-0.00986214
0.00837955
0.00480643
0.0010351
0.00021901
-0.000812198
-0.00228064
-0.00745311
0.00216338
-0.00202743
-0.0054527
-1.61305e-05
0.0165385
0.00127063
0.015672
-0.0113725
0.00154508
0.0015538
0.0004995
0.000827584
0.00428884
0.000294308
-0.0444747
-0.0339302
-0.034963
-0.00361059
-0.00864382
0.00143028
-0.0045865
0.000991733
0.00353478
-0.0149419
0.000561159
-0.0348182
0.00200962
-0.0190893
0.00267682
0.000918739
-0.0026708
0.0368487
0.000656883
-0.00204923
0.00140018
0.0159228
0.000541234
0.00432961
-0.0113508
-0.00355276
-0.000275497
-0.00186346
0.00201125
0.00132797
0.000792588
0.0111422
0.00168766
0.0035696
-0.00255023
0.00152804
0.00809701
-0.0110807
0.00180012
0.000215387
0.000796137
0.0175559
-0.000610411
0.00239874
0.000928117
-0.00150033
-0.00844454
-0.00824489
-0.00211873
0.00227398
0.0231748
0.0012583
-0.000921693
0.0110155
-0.000341693
0.00222218
-0.0223411
-0.00294674
0.00119311
0.00509372
0.00255163
-0.00063197
0.00221192
0.00696396
0.00157024
0.00762572
0.00225644
0.0019845
0.00144894
0.0213714
0.00222391
0.00826365
0.000940103
-0.00141414
0.00332232
0.000471631
0.0189309
-0.000434511
0.0421895
-0.00883655
0.000673659
-0.00254955
0.00829543
-0.0342884
-0.0152917
-0.00251674
0.00325268
-0.00355622
-0.0375396
-0.000475527
-0.00215305
0.00133906
-0.00855089
0.00189784
0.00148136
-0.000746852
-0.00486881
0.00207385
0.00123842
-0.0173779
-0.0026711
0.00234948
0.000648709
0.00632382
0.0077366
0.0161217
0.00426153
-0.00455457
-0.0295816
0.00573493
-0.0143688
0.0116551
0.00382699
-0.00689988
0.00452377
0.00178599
0.000822722
0.0181401
0.0101847
0.00507787
0.00280318
0.00643967
0.00724781
0.00305189
0.0162697
0.00796099
-0.051724
0.00377982
0.00342057
0.0074614
0.00643541
0.00367108
0.0284452
-0.016604
0.0023603
0.00222828
-0.0132302
-0.00181543
0.00654398
-0.0472493
0.00335345
-0.0890769
-0.00395128
0.0113567
0.00630115
0.000917511
0.0137789
0.00625094
0.033731
0.00504679
0.00836574
0.00686613
0.0223609
0.00106097
0.000633522
0.000800016
0.0283389
0.00576053
-0.0292346
0.0127346
-0.0269208
0.0145824
0.0165006
0.0484457
0.00776933
0.0316475
0.00064033
-0.0320351
-0.0249123
-0.0146875
-0.0259751
0.00770504
0.00379347
0.00308889
0.0346961
0.011462
0.0150441
0.00327963
0.0029862
0.00152126
0.000352118
0.00291381
-0.00213678
0.00468648
0.00455555
-0.0526991
0.0180292
0.0038687
0.0142507
-0.00364935
0.00499369
-0.000777434
0.00603241
0.00619714
-0.014844
0.00161801
-0.0255564
0.00203407
0.00590898
0.0079214
0.000829563
0.0159833
-0.00409527
0.0123405
-0.00109935
0.00924672
-0.064546
0.00530407
0.00348302
-0.0165273
0.0012517
-0.00100643
0.0159338
0.0150639
0.00648778
-0.00335346
-0.000424911
0.00596329
0.00268221
0.00108077
0.00274689
0.00118288
0.00196031
0.00841081
-0.00261017
0.000996017
0.00496576
0.00155024
-0.00333394
0.0129644
0.00340597
0.00673778
0.00851308
0.00338747
0.0165068
-0.0335023
0.00284358
0.00298707
0.00388813
0.00178506
-0.000972233
-0.036023
-0.0442459
0.00183293
0.00390193
0.00560277
0.0213619
0.0105349
-0.00326392
-0.00446741
0.00309796
-0.00454865
0.00231886
0.00201084
0.00221728
0.0027673
0.000914486
-0.00900725
-0.030092
0.00331507
-0.00132375
-0.00370877
-0.00194936
-0.0368003
-0.0210963
0.0100637
0.00230433
-0.00119781
0.0357715
0.0125336
-0.0148549
-0.00781338
0.021066
0.0151569
-0.02223
0.00896044
0.00812844
-0.00150279
0.0145857
0.022782
0.000407623
0.00292566
0.000550684
0.00102578
-0.000645842
0.0257161
-0.0280002
0.00739703
-0.00164425
-0.0102136
-0.00932984
-0.00553832
0.00135089
0.0059702
0.00213104
0.00101773
0.00100074
-0.00687579
-0.00991298
0.00801092
-0.00852017
-0.00541059
-0.031946
-0.0601013
-0.000428256
-0.0164286
-0.0192522
0.00280979
0.00300738
0.00426054
-0.00290238
0.00695161
-0.0216195
-0.00162019
0.00709039
-0.00466903
0.000809981
0.00131554
-0.0106969
-0.022921
0.00293442
-0.00446982
0.0236426
0.00123491
0.00616408
0.00442977
0.000463701
-0.00170654
0.00318499
0.00081239
-0.000362757
0.00557728
0.00648444
0.000922062
0.00238549
-0.00107317
-0.00314387
-0.00348891
0.00343257
-0.00314439
-0.0506426
-0.0035428
0.001664
0.000583314
0.000629441
0.00192764
0.00547924
0.00286222
-0.00339479
-0.00736469
0.00754905
0.00721743
0.00590709
-0.00223803
0.00112209
-0.0146489
-0.00384349
-0.0466922
-0.000641316
-0.00609833
-0.00307686
-0.00572608
-0.00457642
-0.00721931
-0.000319536
-0.00242148
0.000325589
7.25395e-05
0.00200262
0.00226778
0.00160399
0.00414397
-0.00100155
0.00396427
-0.00163552
0.0011236
0.00236258
-0.00148138
-0.000380689
0.0019071
0.00155387
-0.0203298
-0.00064385
0.00147043
3.41244e-05
-0.00178218
0.00312068
0.00243019
0.00342306
0.000577242
0.00274434
-0.00259072
0.00376009
-0.00111536
-0.00327517
-0.00158009
0.00312119
0.000291113
0.00381926
0.00273656
0.00431262
9.35383e-05
-0.00658443
-0.00035339
0.000515085
-0.00173817
0.00435468
0.00496847
0.000769525
0.00201052
0.000503804
0.0046753
-0.0052377
0.00581091
-0.00218821
0.00153239
0.00373893
-0.00342446
0.00290735
0.00178953
-0.000580272
0.00267067
-0.000140425
-0.000746066
-9.67193e-05
4.4417e-05
0.000155136
-0.0051423
0.000227902
-0.0118497
0.00117987
-0.000541763
0.00391983
-0.0182672
0.000828392
0.000159914
-0.000391072
-8.79698e-05
0.000539316
-0.00286803
-0.00584112
-0.00955907
-0.0023353
-0.00510512
-0.0241226
0.00067315
0.031752
-0.000115495
-0.00407824
-0.00138631
-0.00014581
-0.000332507
0.00034655
0.0194404
9.18892e-05
9.7199e-05
0.000175462
0.00202705
0.00541709
-0.000825478
-3.00183e-06
-0.0020426
-4.40528e-05
0.00104634
-0.00108679
0.00448551
0.00349198
0.000524049
0.00099843
0.000207768
0.00103456
-0.00985173
-0.00121361
-0.00611633
0.00577513
0.00195006
-0.00678806
0.00105493
-0.000311095
0.0038778
0.000225062
0.00424438
-0.000498466
0.000184501
-4.76018e-05
-0.000536693
0.000219714
-0.000717888
-0.00101564
0.00453542
0.00153607
0.00247806
0.000713857
0.00233843
0.000371178
-4.52071e-05
-2.84205e-05
-0.000406265
0.000351746
0.000450976
0.000616345
-0.0515635
0.00192623
0.000510712
-0.000322318
-0.000179023
0.000813017
0.000368826
0.000226893
0.000682244
6.89064e-05
-0.00265414
-0.00057677
0.000492865
0.000408176
-0.000211782
0.00253203
0.000655742
0.00200409
0.000342273
0.000675082
-0.000554902
-0.00078514
0.00123906
9.06269e-05
-0.00281259
-2.90426e-05
0.000882704
-0.00252723
0.000392157
0.00196085
-0.00083054
0.000340986
0.000186308
-5.33117e-05
0.000150096
-0.000731244
-0.00148882
-0.000898283
0.000719722
0.000458362
0.00283665
0.000562035
0.00217689
0.000346494
0.000686683
-0.000104091
-0.00569648
-0.00205599
-0.00284485
-0.0027581
-0.00154255
-0.000463759
-0.000128703
-0.00139351
-0.000614326
-0.000688946
-0.00051977
0.00125567
7.21727e-05
0.00013208
0.000669508
-0.000694782
0.00401795
-0.00387698
-0.00302199
0.000550874
5.70681e-05
-0.000443997
-0.000139597
0.000218883
0.00065452
-7.63338e-05
-0.00170408
0.00780922
-0.00121921
-0.0122017
-0.00566887
0.000290688
0.000702039
0.00240671
-0.000607344
-0.0054167
-0.000571145
-9.42663e-05
0.000393538
0.000137405
-1.04829e-05
8.74633e-05
-0.00585424
7.12841e-05
-0.000977194
-0.000603859
-0.000262264
-0.00496582
-0.00493722
-0.00379042
-0.00410278
0.000343689
0.000229293
-0.00127477
-0.000155264
0.000591285
0.000131295
0.00102484
-8.92691e-05
-0.00119845
0.00017794
-0.000468627
0.000113096
0.0016647
-0.00134545
-0.000984628
-0.000362161
0.000427599
-0.000229472
0.000105728
-0.00192233
-0.000462653
-0.000271441
-9.57849e-05
7.73226e-05
-3.44732e-05
-0.00457917
-0.00165732
-0.00172935
-0.000694723
0.00176981
0.000208024
-0.00214969
0.000371609
-0.000294446
0.000490389
-0.000847204
1.10174e-05
0.000131279
-0.00120398
0.00108672
-0.000271301
7.60404e-05
0.000171442
3.61129e-05
0.000117642
-0.00233237
0.000346858
-0.000393085
0.00017062
-0.000519199
4.7408e-05
0.000266684
-0.00107075
-1.24321e-05
0.000137022
0.000356691
-0.000108773
0.00023938
5.59199e-05
0.000153706
0.0015607
-0.000118466
-0.000572522
0.000136854
0.000188867
-0.000215341
0.000309089
-0.000166397
-0.000319585
0.000142991
-0.00142277
-0.00053262
2.66711e-05
0.000539312
0.000380698
0.000221367
-3.0832e-05
-0.000342265
-0.00049477
0.000342798
-0.00183216
-0.000438495
0.000843949
0.000202126
0.000557708
-0.000122773
-0.000564461
0.000945289
-0.000512508
4.55348e-05
-1.43394e-05
0.00058121
0.000389243
-0.000326896
0.000750504
-0.000834899
-5.97825e-05
1.57067e-05
0.00138803
0.000465924
-0.000213019
0.000314154
-0.000303018
-5.26463e-05
2.96591e-05
0.00157652
0.00125002
5.89225e-05
-9.06363e-05
-0.000103972
0.000321833
-0.0111505
-0.000853741
0.000380237
0.0014814
0.000291758
-0.0129711
0.000660221
0.000150551
-0.00040138
-0.000134527
0.000469032
4.46448e-05
-0.000638208
-0.00103234
8.112e-05
0.000166859
-0.00109453
-0.00132098
-0.000148396
0.000181389
0.000148406
0.000144706
-0.000182626
-0.000636507
-5.73885e-05
-0.000219997
2.19935e-05
-0.000286817
-0.000891793
-0.000336584
-7.43034e-05
0.000213417
0.000172448
2.07106e-05
9.06565e-05
-0.00139727
5.31849e-06
0.000734976
0.000197788
0.000117235
0.00280286
-0.000874341
-0.000398729
-3.89319e-07
-8.92816e-05
-0.000321419
-8.97953e-06
-0.000339983
-0.000242226
-0.000299974
-0.000322626
-0.000225195
-0.000657819
0.000162156
7.25485e-05
-0.000381241
0.000126725
5.49621e-05
0.000339795
0.000466044
-0.000129459
0.000499409
-0.000106349
0.000814356
-0.000145134
-4.20326e-05
1.51408e-05
0.00030108
-5.41761e-05
-0.000600033
-0.000565694
-0.000148229
0.00201756
0.00190548
0.00401064
-0.000206493
-0.000177061
0.0124557
0.000244174
-3.09488e-05
0.000181694
-0.000312116
9.91096e-05
-0.000271284
0.000520595
-5.40552e-05
-0.000486446
-2.64899e-05
0.00252425
0.000661347
0.000108234
0.000525352
-0.00025697
0.000340353
0.00263628
0.0019802
0.000782146
-0.000265457
0.0137315
0.000868458
0.000171118
0.000842047
-0.000158342
0.000199544
-6.50714e-05
-0.000713125
-2.50592e-05
-0.000304197
-1.55045e-05
0.000657883
0.0032276
0.00227272
0.000533047
-1.0892e-05
0.00957984
0.00043934
-5.58453e-05
0.000194976
-0.000233604
0.00250376
-0.000260182
0.00342111
0.0020785
-0.000229366
-0.000115838
-0.000136471
7.939e-05
0.00287853
0.000545294
-6.39371e-05
-4.73834e-05
-0.000642301
0.00580089
-0.00024639
0.00136756
0.000144581
-0.000160985
6.12871e-05
0.00968534
-2.29033e-05
0.00114258
0.002774
-0.000110717
-3.1434e-05
0.00065657
-0.000347984
0.000279971
2.44014e-05
-0.000225508
-0.000149006
0.00344125
3.76425e-05
0.000732544
-8.26779e-05
-0.000138736
-0.000152977
0.0100835
-0.000273537
0.000276559
3.88689e-05
-0.000225491
-8.6178e-05
0.00384764
-0.000272012
-5.15876e-05
-0.000196143
-0.000138463
-4.16884e-05
0.00252455
-0.000146405
0.00106299
0.000545982
0.000266119
-2.94635e-05
0.00216783
-3.25528e-05
0.000104184
8.24722e-05
-0.000163188
0.000145545
-1.75602e-05
0.000848798
0.000538886
-0.000177475
-0.0001842
-1.17164e-05
6.96177e-05
0.00160553
-0.000115063
-0.000181653
-0.00109605
0.00555356
-0.000155314
0.00450723
0.000975486
-5.97097e-05
-1.44077e-05
-0.000631192
-4.22431e-06
-0.00179377
-0.000127198
0.000312806
0.000277613
1.79885e-05
0.00212957
0.00145752
0.000172639
0.00148894
-3.97483e-05
0.000250605
-0.000249963
0.000559057
-0.000197073
1.31437e-05
0.000100029
0.00286919
0.00166438
0.000123165
0.001433
-0.000126929
0.000366362
0.000674884
-0.000105165
3.44759e-05
0.000251067
-0.000335856
-0.00152017
0.000307752
0.000247834
0.000119562
-0.000136746
6.92123e-05
0.00470945
-0.000190004
0.000927289
-0.000519361
-0.000115894
0.000254516
0.000322008
0.000694615
-0.00059302
-2.59998e-05
0.002798
0.000868323
-4.87311e-05
-0.000694633
-0.00017163
-2.26937e-05
-0.000214081
-0.00106418
-0.00033251
0.000149532
-1.53245e-05
-0.00216871
0.000511377
6.33428e-05
-0.0002732
-0.000119282
-1.70044e-05
-0.000270109
-0.000917041
-0.000224626
5.65926e-05
-0.000157468
-0.00348355
0.000941741
-0.000214217
-0.000497704
-0.000332892
-0.000189238
0.000655426
0.000146311
0.000422608
-0.000217729
0.0038505
-0.000392846
-0.000115665
-0.000392844
-3.12034e-05
-0.000127781
-0.000305235
-0.000768872
-0.000355849
-0.000793667
-0.00046147
-0.000363231
-0.000711738
0.000625625
0.00114477
0.000293587
-0.000248194
0.0140143
-0.000315922
-0.000507253
-0.00020302
-0.000301305
-0.000135335
0.000502946
0.000897793
0.000736412
-0.000516973
7.99774e-05
1.55846e-05
-0.000213125
0.00680628
1.79699e-05
0.000136772
0.000359063
0.000264919
6.86809e-05
-0.000227576
0.00225727
-0.0008506
-0.0177881
0.00270352
0.00249121
-0.000101966
0.018973
-0.000127688
0.00185155
-0.000145793
-0.000350795
-0.000442918
-0.000445875
0.00164528
-4.87296e-05
0.000215518
0.000272428
0.000307008
6.1854e-05
-0.00010951
0.00405928
-3.02913e-05
0.000929457
0.00013621
0.000235052
0.000101384
-0.000243048
0.000941999
-0.000138944
0.000725133
0.000204228
6.2042e-05
-1.28175e-05
-0.000113209
0.00309692
6.5884e-05
0.000885858
-0.00200016
-0.000205638
0.00257992
2.50108e-05
0.000440835
0.00016116
0.00018317
8.11616e-05
0.000714107
-0.00013725
0.000183184
-9.79723e-05
0.0001021
1.91932e-05
-0.000200155
0.00147376
-5.87225e-05
0.000242326
-8.25386e-05
0.00040981
-4.60921e-05
-0.00027637
0.00480234
-0.000204399
0.000670293
0.000192519
-6.42975e-05
-0.000209464
-0.000305152
-2.74579e-05
0.000140088
0.000192052
-2.81159e-05
0.00017051
-7.71902e-05
-0.000279825
0.0036077
-0.000165171
0.000512271
4.0813e-05
0.000422191
-0.00020369
-0.000512008
0.00823802
0.000293929
3.24041e-05
7.9402e-06
-0.000152007
-0.000327563
0.00389572
0.000310372
0.000467271
0.000297384
0.000707287
5.09085e-05
0.00209203
0.000201448
0.000784164
4.89031e-05
-5.92706e-05
-0.000206857
0.00234066
-0.00137268
-0.000169492
-0.000953536
-0.000225591
-0.00030267
-9.56644e-05
-0.000353404
-0.000520492
0.000361191
-3.87168e-05
-0.00281419
-0.003165
-0.00108023
-0.00180931
-0.00104711
-0.00124338
-0.000266936
0.00139316
-0.000425781
-0.00151465
0.00688726
-0.00476244
-0.00117801
-0.00292866
-0.00100858
-0.00127012
-0.000251547
0.000654123
-0.00116817
-7.82698e-05
0.00439266
-0.000974722
7.48704e-05
0.000345449
-2.18722e-05
2.45652e-05
0.00124713
0.0041639
0.000283617
-0.000484208
-7.35477e-05
-0.00331538
-0.00128439
-0.000192757
-0.000619008
-0.000252461
-0.000194457
-0.000194491
0.00033385
-0.000281285
-8.20778e-05
-0.000140318
-0.000158166
-0.0013548
-0.0001588
-0.000997334
-0.000244632
6.50374e-05
-7.19022e-05
0.00028622
-0.00102994
9.42703e-05
-4.25516e-06
-0.000245131
0.00223255
0.000348795
0.00128273
3.17707e-05
0.000700013
0.000390598
0.00342029
0.00378427
-0.000132256
-0.0001448
-0.00486809
-0.00182482
0.000952312
0.000782328
0.00118173
-0.000179376
-0.00115465
0.0127532
0.000616425
0.000233811
0.000807921
0.000102682
0.000223595
0.000319485
0.000262881
0.000474052
-0.000172331
-0.000175771
0.000849298
-0.00133515
0.000219527
0.000899436
0.000135467
0.000175402
-0.000473358
-0.000226441
-0.000296732
-1.69828e-05
-0.00011311
0.00544125
-0.00162678
0.000240505
0.000550082
0.000132619
0.000198822
0.000229003
7.43441e-05
-0.000234622
0.000403371
-5.18049e-05
0.00315233
-0.00055323
2.84279e-05
-0.00049273
-0.00017407
7.01858e-05
-0.000458495
0.000619726
0.000112075
-3.51031e-05
-0.000342379
0.00524737
0.00086462
0.000229199
0.000934091
5.83354e-05
0.000192074
0.000414051
-0.000368451
-0.000882007
0.000559372
3.43324e-05
-0.00266157
-0.000114738
0.000139575
0.000668758
4.02418e-05
6.21751e-05
-0.000326138
0.000767679
-0.000307022
5.30196e-05
-0.000381243
-0.00228133
-0.00017081
-3.97875e-05
0.000160711
-0.000139029
4.80845e-05
-0.000426947
-0.0156416
-6.34256e-05
-6.60496e-05
-0.00063709
0.0120221
-1.21127e-05
8.50084e-05
-0.000185182
0.000470602
-3.97296e-05
0.0051581
0.000216008
-0.00190609
-0.000241887
9.97895e-06
-0.000709679
-0.00159654
0.000665781
0.00038078
0.00155782
8.52352e-05
0.000314577
7.33828e-05
-0.00379994
5.53415e-05
0.00155462
0.000184718
0.0193336
-0.00161445
1.06259e-05
0.000273246
3.03848e-05
-0.000152646
-0.00166541
-0.0617778
0.000453378
-0.000307905
-0.000349604
0.00290657
0.00117793
0.000135993
-0.000120256
0.000531132
-0.000361745
0.0063103
-0.00283672
-3.24643e-05
-0.000417686
-6.30912e-05
-0.000134077
-0.000841113
0.000873826
0.000712767
5.34598e-05
-0.000140935
-0.0123338
7.73729e-05
0.000554552
7.27209e-05
0.000136071
-0.000106623
-0.000406221
0.0142528
-3.79488e-05
0.000270777
0.000680702
3.03551e-05
-0.000172019
-0.000230907
0.00507173
7.88282e-05
0.000353275
0.000379838
0.000789318
-1.90556e-05
-0.00117452
0.0218468
-3.03362e-05
-0.0297275
-0.00461993
0.00162281
0.000145484
0.00597226
-0.000270129
-0.00158371
-9.41015e-05
-0.00212632
-0.000774622
-0.0539726
-0.000739451
-0.0040558
-0.00159319
-0.00223395
-0.000175485
-0.0181779
-0.00230395
-0.00145993
-0.00109003
-0.000483471
-0.000538494
-0.0156989
-0.000305219
-0.00188197
-0.00120505
-0.000622908
-0.000156131
-0.000308626
-0.0224779
-0.00122647
-0.000249685
-0.00177364
-0.000466136
4.96445e-05
0.000174586
-0.00152634
-0.00167905
-0.000786921
0.000719681
-0.0136475
-0.000675193
-0.00344304
-0.000607244
0.000231321
0.000179214
-0.0101062
-0.000152156
-0.000854029
-0.000905955
-4.30071e-05
0.000224412
3.23066e-05
-0.0257094
0.000270611
0.000339801
8.82965e-05
-3.76929e-05
0.000531671
0.02543
0.000576741
0.000285493
-0.000817203
-0.000223799
-0.000588944
-0.00373958
0.000497091
0.000643979
2.58027e-05
-0.00358531
-0.000293168
-0.000324989
0.000572538
0.000626613
-0.00035857
0.000407787
-0.00855852
0.00137665
0.000740636
-4.08098e-05
-0.00431508
0.000170417
-0.000524773
8.99991e-05
0.000329359
-0.000382127
0.000127211
-0.0038343
0.000896701
-0.0005262
1.05849e-05
-0.000339072
0.00434089
-0.000453698
-0.0019432
-0.00045704
-0.000119052
-0.000463279
3.59323e-05
0.000608953
-0.00570602
-0.000965383
0.000281937
-0.000283532
-0.00490035
-0.000898871
-0.000944809
-1.10192e-05
-3.44396e-06
-0.000650228
-6.48964e-05
-0.0242759
-0.00240864
0.000333973
0.0015723
-0.000138556
-0.000879304
-0.000387176
-0.00134441
-0.000127061
0.000210772
-0.000808613
0.000192101
-0.0276563
-6.13749e-05
-0.000333364
0.000135897
2.84686e-05
-0.00108711
-0.000561194
0.000317891
0.000232945
0.000115167
-0.000446328
-6.23365e-05
-0.00435166
0.004673
-0.000705184
0.000720842
4.74793e-05
-0.00273962
-0.000254577
0.00106062
0.00029127
0.000339965
-0.000448495
-0.000130724
0.0472247
-0.000973393
3.33076e-05
5.85158e-05
-0.000126434
-0.00324723
-0.00110273
0.000328241
0.000350537
0.000163728
-0.000592969
0.000273157
-0.0046808
-0.000945168
0.000166534
0.000547821
0.00022206
-0.000559693
0.000203071
0.000178958
0.000193124
7.55845e-05
-0.000606199
0.000275227
-0.0179089
-0.0229468
0.000637429
-0.000821196
-0.000916376
-0.000419097
-0.0075546
-0.000386402
-0.000925934
-0.000187901
-0.000187628
-0.000362173
-0.000306864
-0.000800733
-0.0163053
0.000556981
0.000566615
-0.000406458
-0.000343921
0.000363117
-0.000636971
-0.000272789
0.000226312
0.000144915
-0.000748136
0.000276795
0.000891859
-0.000462582
0.000135367
0.000557734
0.000143773
-0.000605891
-0.000222936
0.000695217
0.00053425
0.000274175
-0.000203232
0.000534726
0.00371271
0.000466422
-0.000437674
0.000673011
0.000131871
0.00234264
0.000243513
0.00103481
0.000248127
-0.000117521
-0.000572375
-0.000253461
0.0147678
0.00150776
0.000126663
0.000153124
-6.49503e-05
-4.3049e-06
-0.000368124
4.81261e-05
0.000111289
-7.61913e-05
-0.000273576
-5.23818e-05
-0.00324639
0.00690933
0.00129525
0.000158642
0.000789334
0.000185533
-0.000127343
0.000866287
0.0023436
0.000228485
-0.000151935
-0.000529888
-0.000121796
0.00564063
-0.0130092
-0.000296996
-0.000229818
-0.00151187
-0.000612345
2.68322e-06
0.00020399
0.00012541
-0.000447795
-0.0126306
0.000383506
0
7.3956e-06
0.00178594
0.00146171
0.000284937
-0.00219812
-0.000128591
0.000271517
0.000414546
-0.000177186
-0.00189767
-0.000252599
0.00168015
-0.00161975
0.00169442
-0.00172568
-0.00267713
0.000289482
0.00233467
0.0028455
-0.000758707
-0.000498551
0.00176881
-0.00484788
-0.00297463
-0.00173158
-0.000858217
-0.0016211
-0.00025193
0.00127087
-0.00160577
0.00185073
-0.000249575
-0.000290585
0.00139485
-0.000963727
0.00214643
-0.00147567
-0.000420615
0.00363098
0.00163455
-0.00433885
-0.00157544
-0.00318241
-0.00271201
-0.00372456
-0.00231687
-0.0046264
-0.00342201
-0.00114744
0.000115567
0.00212564
0.00567572
-0.000612185
-0.000611691
0.000799327
-0.00336664
-0.00063665
-0.00133211
-0.000416598
-0.00211264
0.00270898
-0.000871647
-0.0019413
-0.00240547
0.00127823
-0.000784597
-0.00625967
-0.00547066
-0.00513259
0.000843362
-0.00339007
0.000472925
-0.000360451
-0.00341781
-0.00170713
-0.00554914
0.00189363
0.00346076
-0.000602893
-0.000249706
-0.00252036
-0.00117831
-0.00253361
-3.52291e-05
-0.00509254
-0.00118615
0.00198514
-0.00152904
-0.000517585
0.00121872
0.00122554
-0.00253252
0.00148413
0.000150277
0.000829868
-0.00175648
-0.000684685
0.0007493
0.0027683
-0.00325063
-0.000529998
-0.00243829
-0.000433427
-0.00175738
-0.00162992
-0.00332481
-0.00347202
0.00119795
0.00230725
-0.000119894
-0.00343778
-0.00165869
-0.000549613
0.00231002
-0.00301558
-0.000286134
-0.00362574
-0.00045226
-0.000866884
-0.0082965
-0.00070955
-0.000375885
-0.00245956
-0.00171236
-0.000858617
-0.00160898
-0.0256729
0.00229471
0.0153132
-0.00950038
-0.00695794
-0.00411154
0.0185596
0.001189
-0.0085847
-0.051033
-0.000339313
0.00572298
0.00441612
0.00684251
0.00403484
-0.00450969
0.00185138
-0.00383891
0.0170038
0.000350944
-0.000618886
0.00388674
0.000355339
-0.0026482
-0.0127521
0.00159455
0.00742638
0.0142735
0.00934601
0.00117811
0.00261353
-1.2618e-05
0.00209474
0.0041098
0.000655344
-0.000762058
-0.0030718
0.00435635
-0.00454964
0.00168541
0.00229342
0.00418179
0.0118403
-0.00563377
0.00657149
-0.014937
0.00024626
0.0050665
0.0065077
-0.00139317
0.00662107
0.00273886
-0.00989843
-0.00090181
0.0313401
-0.00998619
0.0329358
-0.00210797
0.00345213
0.00307761
0.000384724
0.000695124
-0.00509041
0.00735847
0.00101542
-0.000435842
0.00343154
0.00293296
0.00201593
0.00228772
0.00703207
-0.0111135
-0.023235
-0.0591499
-0.0454696
0.00543864
-0.0155317
0.00155612
-0.00757068
0.015129
-0.0534448
-0.012322
-0.0236408
-0.00547862
0.00287891
-0.00949546
-0.000979088
0.00139401
0.000723003
-0.0042151
-0.00207906
-0.010713
-0.0203718
-0.0158126
-0.00104286
-0.0112657
-0.0089373
0.00940447
0.0237559
-0.010263
-0.00445092
-0.0087216
0.00104976
0.00026448
0.000289147
-0.00460504
-0.00369264
-0.00724442
-0.00536179
-0.00455521
0.00646788
-0.00024314
-0.00419031
0.00222942
0.0035455
-0.00544638
-0.00474132
0.00663579
-0.00264649
0.00652993
0.0082293
-0.0010304
-0.000535436
0.00039551
-0.00533309
-0.00692707
0.000285765
-0.00456228
-0.00744949
-9.54087e-05
0.00112421
-0.00158367
-0.0031073
-0.00697031
0.012135
-0.0122464
-0.00604365
0.0155435
0.0219865
-0.00957269
-0.01789
0.0111761
-0.0247127
-0.0215076
-0.0096826
-0.00186433
-0.000467513
-0.0420295
-0.00960883
0.0107283
-0.00208202
0.0138237
0.00344242
-0.00402438
-0.00294463
0.000841522
0.00226853
0.00572718
-0.0343223
-0.00485151
-0.0230874
-0.0024781
0.00172196
0.00153551
0.00800486
-0.00577705
-0.00870028
0.000396311
0.00052201
0.0174642
-0.00599987
0.0241375
0.000984948
-0.00575602
-0.000696745
-0.00332067
-0.00897466
-0.0121998
-0.0101092
-0.00158268
0.000475887
0.00353614
0.00442812
-0.00202462
-0.00691863
-0.000755513
-0.00116685
0.0207693
0.00361996
-0.00440691
0.000351345
0.000152619
-0.00380329
0.000727569
-0.000127314
-0.000828261
0.0199493
-0.00744407
0.0021759
0.00324361
0.00962261
0.00347788
-0.00149617
0.0167199
0.0171722
0.0033536
0.00217755
-0.0029862
0.00403679
0.000115554
-0.00626363
0.00236602
-0.00454351
-0.021271
-0.00183171
-0.000454927
0.0023007
0.000928873
0.0181278
-0.00409803
0.00133175
0.0298137
-0.00122311
-0.00253284
-0.00689818
0.0130911
0.00153738
-0.00199836
-0.000458467
0.0153565
-0.00412802
0.00140067
0.00885982
-0.00318539
-0.0104338
0.00183145
0.00640024
0.00179553
0.0029058
-0.00388409
-0.000338514
0.00192074
-0.00177657
-0.00252015
-0.00263127
-0.0107473
0.00909339
0.00957163
0.00142302
-0.00106529
-0.00260445
0.000578773
-0.0107283
0.000743866
0.00065492
-0.00429014
0.00110495
0.0176827
0.00154651
0.00889485
-0.0155716
0.000835156
0.00172588
-8.84188e-05
-0.000801476
0.00355573
-0.00601757
-0.0349731
-0.0535927
-0.0547407
-0.00349769
-0.0135339
0.0054132
-0.00654137
0.000997059
-0.00487417
-0.00593441
-0.00183689
-0.0599463
-0.00539535
-0.0197542
-0.000431379
0.000392344
-0.00436894
0.0352431
0.00344318
-0.00709761
0.00125158
0.014813
-0.000198921
0.00351275
-0.0191587
-0.00484368
0.00400375
0.000802251
0.00151401
0.000408297
0.000245678
0.0134034
0.000598334
0.0065078
0.0002369
0.000868871
0.00837608
-0.0133257
0.00233662
0.000492812
-0.000151171
0.0145082
-0.00747243
0.00487652
0.000833385
-0.00675464
-0.0223312
-0.00977957
-0.00361693
0.00288377
0.0285296
0.00128131
-0.00129838
0.0210645
-0.0011121
-0.000406283
0.00408842
-0.0032983
0.002251
0.00293878
0.00342303
-0.0014675
0.00252824
0.00344508
0.00242479
0.00173485
0.00242073
0.00235164
0.00163886
0.0219385
0.0025428
-0.00251218
0.0011365
-0.0114894
0.00687774
0.0281403
0.00672798
-7.91682e-05
0.0326882
-0.00826427
0.0023651
-0.00376944
0.00312383
-0.0297662
-0.0188442
-0.00307895
-0.00145198
-0.00884527
-0.0220225
-0.00207552
-0.00743
0.000739752
-0.00710773
0.000812304
0.00127615
-0.0019872
-0.0058768
0.0051383
0.000797199
-0.0212267
-0.00362887
-0.000511568
-0.00152575
-0.00467465
-0.00473119
0.0171434
0.00329869
0.00510061
0.00123769
-0.00778804
0.000468218
0.00651705
0.000290805
0.00177468
-0.00148999
-0.00344684
-0.00752191
0.00692169
0.00211435
-0.00428135
-0.00596633
0.000989228
-0.000240433
-0.00662462
0.00511531
0.0112382
-0.0269383
-0.000918614
-0.00413617
-0.000749579
-0.000433167
-0.000589617
0.0104605
0.016436
-0.00137334
-0.000453857
-0.0124406
-0.000514138
0.00316012
-0.0348046
-0.00049818
-0.00910595
-0.00575775
0.032348
0.000911982
-0.00338767
-0.00297551
0.0171415
0.0188922
-0.00508787
0.00107478
-0.00164989
0.0404475
0.00990501
0.00821079
-0.00621556
0.00608652
0.0264503
-0.00618153
-0.000285075
0.0063165
0.00200133
0.0107383
0.0270691
0.018971
0.0190875
-0.0202919
-0.0167332
-0.0298371
-0.0196251
-0.0334318
0.000634008
-0.00487228
-0.00152209
0.0187546
0.00930178
0.0204256
0.0013515
0.000656234
-0.00143116
-0.00106502
-0.00128593
0.000138255
-0.00634492
0.000974697
-0.00575818
0.00758851
0.000975101
0.0373155
0.000442542
0.00610288
0.0228424
-0.0023184
0.000862365
-0.00493461
-0.000555152
-0.02937
-0.000791118
0.00295748
0.00974543
-0.00165579
0.011311
-0.00997173
0.0144211
-0.00324953
0.0107447
-0.0149825
0.00629781
0.000508001
-0.0050394
-0.00475103
-0.00678004
-0.00072092
0.00651525
0.00281551
-0.00650211
-0.00949119
0.00140191
-0.00172534
-0.000655749
0.000523465
-0.00136768
-0.00502246
0.013729
-0.000429364
0.00240766
-0.00060361
-0.00208471
-0.0130599
0.0248686
0.03137
-0.00119378
0.00255392
0.000258544
0.0199842
-0.0422792
-0.00343519
-0.00149212
-0.000154987
0.000692446
0.033851
-0.0417685
-0.0441904
-0.000363224
0.00248044
-0.000164872
0.0109768
0.00831379
-0.00322401
-0.00106782
-0.00287348
0.000885688
0.000622656
0.000490978
0.000650681
0.00148219
-0.00404201
-0.0117199
-0.0353523
0.00155787
0.0178873
-0.0135326
-0.00155789
-0.0184794
0.00464647
0.0142539
0.0122522
-0.00470181
0.0357863
0.0104116
-0.00348389
-0.00775045
0.0194103
0.0169372
-0.0188089
0.00518065
0.00969216
-0.00210056
0.0323535
0.0225477
-0.00431147
0.00046082
-0.000140671
-0.00491649
-0.000862329
0.0503979
-0.0328247
-0.00474222
0.00750968
-0.00587881
-0.00478632
-0.0012969
0.000834917
0.00811322
0.000491498
0.00106263
0.00113904
0.000228648
-0.00709086
0.0138447
-0.0033755
-0.00100498
-0.0313556
-0.0400777
-0.00172929
-0.00546207
0.0010283
0.00241211
0.00328642
0.00344647
-0.0114753
0.00268863
-0.019481
-0.00263326
0.0101305
-0.00224714
0.000206844
0.00041481
-0.00940767
-0.0174259
0.00423687
-0.001224
0.00675674
0.0161997
0.000773129
-0.00692242
-0.000894103
-0.00465774
0.00096957
-0.0037548
-0.00229917
0.0041188
0.00636616
-0.00449706
0.00168514
-0.00508261
-0.00573985
-0.00621648
0.0013748
-0.00653781
-0.0214006
-0.00499775
0.00100109
-9.55379e-05
-0.00179225
0.00138614
0.00580173
-0.0133643
-0.00266953
-0.0121569
0.0021356
0.00698422
0.000993965
-0.00481997
0.00125458
-0.0043631
-0.00651077
-0.0313947
-0.00248981
-0.00329765
-0.00348445
-0.00707082
-0.00559359
-0.00875057
-0.000712048
-0.0020755
9.94494e-05
-0.000440098
-0.000435756
0.00261587
0.00128839
0.00152566
-0.00357194
0.00356502
-0.00434767
-0.00246977
-0.000486664
-0.00251113
-0.00313989
0.00103689
0.000309501
-0.0187507
-0.00270627
-0.000538228
-0.000785115
-0.00377976
0.000901109
0.000677981
0.0020011
-0.00172228
-0.000900716
-0.00443394
0.000201822
-0.0026117
-0.00519429
-0.00155037
0.00240074
-0.000495029
0.00415105
0.00460263
0.00163836
-0.001663
-0.0160633
-0.0017915
-0.00157365
-0.00322302
0.00194888
0.00279666
-0.00174182
-0.000733366
-0.000259029
0.00563947
-0.00637692
0.00458915
-0.00423314
-3.27222e-05
-0.000347703
-0.00518661
0.000446904
-0.000832984
-0.00206038
0.00024463
-0.000377029
-0.00135131
0.00244213
-0.000294927
-0.000111434
-0.00149976
-0.00050182
-0.0210164
0.00783775
-0.00143937
0.00368071
-0.0278043
5.72198e-05
0.000106951
5.20904e-05
-1.42995e-05
0.000507009
-0.00264976
0.0050509
-0.0115577
0.000615136
0.0190171
-0.0264139
-0.000342781
0.0465994
0.000229253
0.0155907
-0.00343233
-0.000584656
-0.000702616
0.00191435
0.0252366
0.000679458
2.4583e-05
-0.00010288
0.00367806
0.0158148
0.00242092
-0.000563932
0.00595861
0.000940358
0.000220714
-0.00161999
0.00484669
0.00238481
0.000655039
0.00207981
0.000377944
0.0010424
-0.00455987
-0.000183554
0.00119542
0.00227396
0.00285365
-0.00704037
0.00080548
-0.00156028
0.0027604
0.00112299
0.0121994
-0.00158134
-0.000480209
0.00211011
-0.000849169
-0.000264485
0.025653
-0.000284731
0.00358686
0.00161519
0.00266794
0.000915074
0.00198708
0.000152879
0.00045769
0.000200288
8.74196e-06
0.000523356
0.000469999
0.000813247
-0.0123608
0.00221201
-0.000253175
-0.000355935
-0.000116056
0.00181044
2.89958e-05
-0.000294542
0.00113807
0.00025886
-0.00391004
0.000444051
0.000308486
0.000667105
2.92515e-05
0.0011246
0.000666061
0.00245707
0.000390059
0.000589758
-0.000792765
0.000167458
0.00242419
0.00105969
-0.00642987
-0.000311417
0.00120959
-0.00458901
-0.000777428
0.00306713
-0.00160705
0.00023808
0.000264011
-0.000411177
-0.000386996
-0.0010171
-0.00228049
-0.00125466
0.00102352
0.00105
0.00287041
0.000622736
0.00337477
0.000545021
0.000716568
0.00558716
-0.00489863
9.27371e-05
0.000590331
-0.00447587
-0.00169435
-0.000461325
-0.000522989
-0.00362846
-0.00393536
-0.00276645
0.0101917
0.00384584
-5.49425e-05
-0.000347483
0.00212509
-0.00107715
0.0141358
-0.00440817
-0.000763825
-0.000958864
-0.000110744
-0.000660393
-0.000153868
-4.22547e-05
0.000355639
-0.000384797
-0.00226238
0.00656784
0.00148607
-0.0149974
-0.00864608
0.000287084
0.000216279
0.0213667
-0.00186092
-0.00839172
-0.00249159
0.000176254
0.00218179
0.00381581
-0.000294737
-0.000131521
-0.00409585
0.00133544
0.000166364
-0.00110961
0.00768066
-0.00653683
0.0013985
-0.00220358
-2.77347e-05
0.00504953
0.000806751
-0.00178297
2.2003e-05
0.00291417
0.00012495
0.00228155
0.00045446
-0.00160659
0.00100071
-0.00381581
-0.000227531
-0.0427771
-0.0040303
-0.00557356
-0.00462047
-0.00297017
-0.000846427
0.000299019
-0.0167829
-0.000935475
-0.00264725
-0.00425846
-0.00140047
0.000205121
-0.0404708
-0.00444201
-0.0064354
-0.003492
0.00174886
0.000908501
-0.0165431
0.000939455
-0.00209939
-0.000629915
-0.00370253
0.000362227
0.00132006
-0.0145855
0.00250176
-0.0019429
-0.00148507
-0.000891619
0.000384937
0.000849835
-0.0143001
0.00133939
-0.00163618
-0.00133634
-0.00264188
0.000506262
0.00132868
-0.0119399
-0.00108708
5.78854e-05
-0.000687371
-0.000365712
0.000394329
0.000581533
-0.000998483
0.00500264
-0.00234448
-0.00465844
-0.00508452
-0.00654291
-0.000181639
0.000607093
-0.000924759
0.000108311
0.000653934
-0.00464361
-0.0022922
0.000271249
0.000333782
0.00110214
0.00155313
0.00117405
-0.00110698
-0.000506053
0.00139042
-0.0129033
-0.0127795
0.000146733
0.000841042
0.00142403
-0.000225308
-0.00173501
0.00112715
-0.00156207
0.000409802
0.000596641
-0.00890603
0.00110632
-0.000837297
0.000495531
-0.0021104
0.00036475
0.000686323
-0.00570603
0.00103675
-0.000636493
-0.000585148
-0.00135328
0.000252732
0.00055232
-0.00219127
0.00236964
0.00029953
0.000609074
7.72159e-05
0.000988325
-0.0253888
-0.00222472
-0.00305458
0.00135725
0.00105678
-0.0392095
0.00202276
0.000542526
0.000447901
7.07437e-05
0.00119298
0.000280606
-0.00178687
-0.0026221
0.000497018
0.000638322
-0.00549584
-0.00491312
-0.00198271
-0.000921347
0.000340637
0.000518094
-0.0101108
-0.00211033
-0.000833031
-0.00029408
0.000423966
-0.00434293
-0.00319596
-0.00242164
-0.00160251
0.000394105
0.000440371
-0.0119766
-0.000334645
-0.00379476
-0.00103446
0.000250927
0.000655856
0.000592657
-0.00828535
-0.00304367
-0.00213156
-0.000549004
0.000374436
0.000211185
-0.00820423
-0.00166687
-0.000730521
-0.00185168
-0.000809213
-0.000709751
-0.00072117
-0.00281022
-0.000826088
-0.000228896
-0.0135381
-0.000807086
0.000313863
-0.000365794
-0.000172447
0.000457617
8.58526e-05
0.00153883
-0.00163745
0.000112551
0.00018408
-0.00508264
0.000112634
-0.00256578
-0.000715915
5.07482e-05
-0.00276819
-0.0036506
-0.00205612
0.000154529
-3.62023e-05
0.00442197
-0.000156821
-2.94976e-05
-1.46452e-05
-0.000378217
0.000168524
-0.000254089
0.00115954
-0.00124935
-0.000589236
-5.05692e-05
-0.000358893
-0.000377046
2.48561e-05
-0.000253869
-0.000327462
0.000373726
0.00372271
0.00226753
0.00200554
-0.000173566
-0.0110548
0.000667024
0.000393859
0.00122298
3.33169e-05
0.000582028
0.00037585
-0.000943357
-0.000556928
4.73929e-05
0.000201106
-0.00315165
0.00471816
0.00225023
0.00165463
0.000329388
0.0174137
0.00101565
-0.000191086
0.0011046
1.39368e-05
-0.00124249
-9.67075e-05
0.00753674
0.00379724
-5.0389e-05
2.30401e-05
-0.0116175
0.000268303
0.00592872
0.000517234
0.000234436
-1.09477e-05
-0.000713914
-0.00243393
-6.44743e-05
0.00282854
4.71188e-05
7.74171e-05
0.000254278
0.0129872
7.5301e-05
0.00286096
0.00405324
3.41031e-05
-0.000108346
-0.00631867
-0.000450629
0.000948702
-0.00047663
-0.000164996
-0.000225963
0.00284864
0.000158307
0.00195979
-0.000417152
8.63048e-05
-0.000143445
0.0125923
-0.000121909
0.000954226
-0.000414346
-0.00016018
-6.63346e-05
0.00233735
-0.000290212
0.000494246
-0.000945213
3.401e-05
2.67113e-05
0.00108488
3.00802e-05
0.00285264
0.00113378
0.00115333
3.33388e-05
-0.00314172
-0.00110742
0.000117056
-0.000645683
-5.66619e-05
0.000205126
0.000237126
0.00205919
0.00116841
0.000190764
-0.000252957
-1.71093e-05
0.000733441
0.00265658
2.38243e-05
-0.000262368
-0.00146929
0.00752726
-0.000280622
0.00862524
0.000862653
0.000151966
-0.000158428
-0.00866739
-0.000483141
-0.00398661
-0.000668411
-1.06315e-05
0.000380949
9.87377e-05
-0.00100153
0.000457932
0.000160081
0.00150896
2.40615e-05
0.000173556
-0.000295778
0.000989184
-0.000935759
0.000268398
0.000177922
0.00388993
0.000952488
0.000136683
0.00155833
3.13845e-05
0.00042581
0.001391
-0.00049196
0.00039938
0.000537958
-0.00206481
-0.00310252
0.00076847
4.34675e-05
0.000165374
-1.59091e-05
0.000209017
0.00301493
-0.000645093
0.00236291
-0.000759605
0.000163747
-0.000370422
-0.00038376
0.00179149
-0.000590589
0.000279646
0.00552856
6.94817e-05
-0.000167342
-0.00119868
-0.0003226
-0.000161654
-0.000333887
-0.00221643
-0.000702527
0.00015262
5.95735e-05
-0.00822351
-0.0011166
-8.85509e-05
-0.000844689
-0.000283213
-0.000202712
-0.000331214
-0.00158975
-0.000240889
0.000173046
-2.01981e-05
-0.0118665
-0.000965778
-0.000712788
-0.00159292
-0.000745238
-0.000614733
0.00113153
0.00107895
0.000948567
-8.72867e-05
0.00392296
-0.000409691
-0.000119871
-0.000887158
6.76351e-05
-6.38423e-05
-0.00399258
-0.00132286
-0.000511879
-0.000723479
-0.000664424
-0.000473896
-0.000540996
0.000882001
0.00383571
0.00102375
-0.000114279
0.0171107
-0.00016015
-0.00088275
-0.000371451
-0.00044517
-2.96449e-06
-0.00265517
0.00148785
0.00160127
-0.00116054
0.000326188
0.000115359
-9.95386e-05
0.0127991
0.000116382
0.000148959
0.000943128
0.000397756
0.000184834
-0.000138213
0.0040127
-0.001711
-0.037227
0.00762316
0.000397937
0.000333944
0.0319432
-7.51292e-05
0.0029562
-0.000765638
-0.000766182
-0.000838477
-0.000689893
-0.000253694
1.00322e-05
-0.000101336
0.000295283
7.72019e-05
0.000166136
3.80947e-05
0.00743961
0.000201919
0.000341537
0.000211584
0.000132676
0.00025371
-0.000117641
0.00170192
-0.000111881
0.000742189
0.000266518
-0.000401124
3.81739e-05
-2.01911e-05
0.00650596
-0.000351196
0.00230972
-0.00345058
-0.000175014
0.00754389
0.000279885
0.000817871
0.000467159
0.000172489
0.0002572
0.0014383
-0.000130721
-0.000122357
-0.000236628
-0.000335808
8.44696e-05
-0.000143415
0.00361623
8.82883e-05
0.00026496
-0.000186495
0.000522265
5.64321e-05
-0.000187872
0.0100955
1.23826e-05
0.000749212
-0.000132716
-0.000473143
-0.000166122
-0.000100902
0.00210661
0.000475001
0.00115628
0.000469238
0.000807406
2.82314e-05
-0.000171244
0.00175441
-1.97736e-05
0.000544559
0.000268091
0.000183381
-0.00015517
-0.000428389
0.0119069
0.000780368
0.000262908
7.23002e-05
-0.000259369
-0.000426889
0.0112879
0.000434965
0.000785328
0.000540971
0.000764796
3.46002e-05
0.00414352
0.000312176
0.00163371
0.000645518
-0.000429278
-0.000460742
-0.000421616
-0.00309807
-0.000291597
-0.00123477
-0.000305852
-0.000523452
-0.000318223
-0.000371733
-0.0011723
0.000713064
-0.000131134
-0.0100523
-0.00439621
-0.00129111
-0.0019402
-0.00128739
-0.00136479
-0.000723771
0.00205508
-0.000645672
-0.00207261
0.00114126
-0.0070287
-0.0014388
-0.00413356
-0.00126066
-0.00147911
-0.000992126
0.00184814
-0.00246218
-5.10545e-05
0.0125805
-0.00249128
9.09602e-06
0.000284516
-9.75392e-05
-5.34416e-05
0.00171086
0.00679985
0.000261299
-0.00103733
-7.32614e-05
-0.00929779
-0.00294908
-0.000491339
-0.00122118
-0.000455856
-0.00053638
-0.000242453
0.000623446
-0.000527615
5.80606e-05
-0.00025122
-0.000442488
-0.00328215
-0.000387248
-0.00201944
-0.000429189
-0.000409107
-4.99756e-05
0.000644732
-0.00237314
0.000397339
-0.000140538
-0.001104
0.00248541
0.000544538
0.00211876
0.000122798
0.000910707
-0.000873814
0.00605778
0.00709906
-0.000302529
-0.000310898
0.0112628
-0.00339307
-0.000393203
-0.00048469
0.00143146
-0.000356963
-0.00228051
0.0197174
-0.000665227
0.000221927
0.00111669
6.78014e-05
0.000206367
0.000257547
0.00034007
0.000531153
-0.000346779
-0.000297544
0.00536017
-0.00354063
0.000217336
0.000927039
0.000164508
0.000124842
-0.00125586
-0.000401008
-0.000605409
-5.94619e-05
-0.000243947
0.0154745
-0.00382325
0.000235227
0.000492295
0.000180527
0.000188636
0.000193984
7.39921e-05
-0.000259257
0.000590392
-1.45674e-05
0.0104689
-0.00322538
-0.000185776
-0.00119483
-0.000290545
-0.000102805
-0.000604939
0.0012333
0.000852408
0.000146193
-0.000599238
0.00192554
0.000138435
0.000385183
0.00155724
0.00020312
0.000261873
0.00071953
-0.000567256
-0.00182237
0.000904961
0.000145144
-0.00753359
-0.00205937
0.000100524
5.5547e-05
0.000131486
-9.62838e-05
-0.000558484
0.00148331
-0.000505323
0.000373769
-0.000663519
-0.00492337
-0.00278721
-0.000574313
-0.00141462
-0.000413862
-0.000898259
-0.000692295
-0.0108825
0.000873846
-0.000439332
-0.00117949
0.0180158
9.65689e-05
-0.000260332
0.000214168
0.00099449
0.000159302
0.0110813
0.000552867
-0.00202787
0.000289376
0.000337322
-0.000856395
-0.00486949
0.000236217
0.000508839
0.00207789
0.000260135
0.000451689
2.1047e-05
-0.00711203
0.000719929
0.00229518
0.000480451
0.0247132
-0.0041916
-0.000388802
-0.000902441
-0.000120533
-0.000737292
-0.00290564
-0.0553897
0.00257489
-0.000938987
-0.00079788
0.00395278
0.00132452
-0.000163897
0.000349054
0.000960982
-0.000594567
0.0223714
-0.00533324
-0.000263112
-0.00117466
-8.93915e-05
-0.000365399
-0.00111739
0.00115116
0.00183511
-0.000156883
-5.83919e-05
-0.0293907
0.000283995
0.00118869
0.000463484
0.000233839
-0.000206298
-0.000571944
0.0400816
-1.5912e-05
0.000783974
0.00218227
6.46909e-06
-0.0003781
-0.000336697
0.0170825
1.27486e-05
0.000404446
0.000947898
0.000267349
-2.99117e-05
-0.00193004
0.037902
-0.000128213
-0.0394095
-0.00523202
0.00329917
0.000364294
0.02365
-0.000421848
-0.00319227
0.000514447
0.000661566
-0.000142639
0.00404997
0.000289549
0.00024928
0.00121359
0.00273928
-0.000581986
0.00722207
-7.36985e-05
0.000206074
-0.000448211
-0.000729071
-0.000435693
0.0142132
-1.19662e-05
7.25827e-05
-0.000157189
-0.000307855
-0.00059251
-0.000720083
0.00545638
-0.00477698
-0.000530043
-0.0021853
-0.000540461
-0.000604627
0.000286817
0.000252146
0.000105687
0.00174736
-0.000498122
0.0171061
0.000908593
-0.00598182
-1.25786e-06
-0.00114858
-0.000276496
0.0294539
-0.00022749
0.000224155
0.000321631
0.000326544
-7.21142e-06
-0.000606346
-0.00346748
-0.000500949
0.00126856
0.00293909
0.00125383
-0.000331351
0.0466043
0.000743081
0.00400042
-0.000248127
0.000521216
-0.00170604
-0.00308848
-0.00100955
-4.53953e-05
-0.000578508
-0.000310742
0.000590375
0.000406083
-5.52695e-05
-0.000295849
-0.000375518
-0.00019225
-0.000106287
0.00471753
-5.57535e-05
-0.000378931
0.00224083
0.00195983
-0.000170391
-0.000197024
-0.000265867
-0.000340842
-0.000290674
0.00791621
0.0045002
-0.000476241
-0.000368827
-0.000199458
0.00727157
0.00204874
-0.000640285
-0.000647678
-0.000665925
-0.000303749
-0.000289485
0.0178987
-0.00619398
-0.00157838
-0.000741655
-0.000940401
-0.000156929
-0.000150771
-0.00110668
-0.000653015
-0.000818797
-0.000772732
-0.000936647
-0.00881712
-0.00207351
-0.000305398
-0.000571918
-0.00054993
-0.00021016
0.00108776
-0.000973984
-0.000429035
-0.000205887
-0.000637755
-0.000263508
-0.0178258
0.00197537
-0.00100861
-0.000316276
-0.000493338
-6.61956e-05
0.000842662
0.000992049
-6.6418e-05
-0.000582085
-0.00021395
-0.000712563
0.00313884
0.00719537
-0.00141078
0.000133648
-0.00100652
-0.00397804
0.00268469
0.00225882
-0.000228755
-0.000215789
0.000181046
-0.00095886
0.0722174
0.000630645
-0.000228329
-0.000231318
-0.000932122
-0.00370797
-0.000565982
0.000906359
0.000160065
-0.000257973
0.000227949
-5.03634e-05
9.09405e-05
0.00040606
-0.000358503
0.000367288
6.96136e-05
9.20515e-05
0.00337636
0.000689934
2.71073e-05
-0.000317216
-0.000176601
7.80694e-05
0.00992266
-0.0184277
0.00343365
-0.000594443
-0.000782786
-0.000552985
-0.00863815
0.000449271
-0.000321687
-0.000375893
-0.000566456
-0.000300221
-0.000545991
0.0129111
0.000486039
0.00350423
0.000514848
-0.000494257
-9.53759e-05
0.00122548
-0.000413386
-5.98844e-06
0.000192808
4.15138e-05
-0.000666593
0.000316352
0.000969138
0.000222464
-0.000118948
0.000173339
-0.00036564
-0.000865567
0.000993345
0.000958807
0.00040177
-0.000185225
2.79808e-05
0.000320937
0.01181
0.00159693
-0.000824222
0.000345154
-0.000638222
0.00293061
0.00231105
0.0016197
-5.87138e-05
-0.000553097
-0.000342607
-0.000796334
0.0241645
0.00445207
-7.02955e-05
-0.000213759
-0.000440612
0.000730733
-6.25674e-05
0.000270582
-0.000154973
-0.000634058
-0.000195228
-0.000441558
0.000922418
0.0207705
0.00371096
-0.000209023
0.000502113
-0.000199739
0.000102011
0.00249379
0.00376251
-4.74211e-06
-0.000465404
-0.000357175
-0.000416813
0.0140479
-0.0227081
-0.00034659
-0.000397065
-0.00169515
-0.000269439
0.000128416
9.23246e-05
-8.73946e-05
-0.000143486
-0.00587782
0.00154597
0
-0.000680698
0.00211869
0.00100919
-0.00203886
-0.00182279
0.000845263
-0.000243497
-0.000913704
-0.00109456
-0.00377967
-0.00130814
0.000655173
-0.00278769
0.00218826
-0.00494951
-0.00554221
-0.00154333
0.00163025
0.00241991
-0.00230687
-0.0018027
0.00240046
-0.00724688
-0.00497777
-0.00443705
-0.0024929
-0.00175435
0.000950197
0.000748918
-0.000656502
0.00262834
-0.00170984
-0.00042221
0.00168954
-0.00334266
0.00252468
-0.00267078
-0.000921354
0.00281088
0.00109832
-0.00454483
-0.00152347
-0.00180137
-0.00243154
-0.0034667
-0.00171571
-0.00326154
-0.00257796
-0.00335515
-0.00147818
0.00297204
0.00780397
-0.00193281
-0.00052103
0.00177675
-0.00465369
-0.000951113
-0.00156037
0.000698332
-0.00187761
0.0033726
-0.000255753
-0.00315413
-0.00319761
0.000885647
-0.000630397
-0.00722516
-0.00688694
-0.00619682
0.00388684
-0.00383548
0.00211722
0.000597259
-0.00303395
-0.00140098
-0.00711036
0.00295172
0.00549415
-0.000438341
0.000712355
-0.00500339
-0.00203932
-0.0017112
0.00155565
-0.00586096
-0.000107557
0.00218853
-0.00127787
-0.00183873
0.00129191
0.00148391
-0.00423001
0.00146907
-0.000364982
0.00154713
-0.0028588
0.000514304
0.00032661
0.00482682
-0.00248966
0.000194262
-0.00255135
9.05348e-05
-0.00280504
-0.000330603
-0.00302197
-0.00476038
0.000603057
0.00238331
0.00126801
-0.00202953
0.000114424
0.000949748
0.00377534
-0.0055432
-0.00171747
-0.00458384
-0.00195375
7.675e-05
-0.00863964
-0.000837997
-0.00191188
-0.00144385
-0.00191593
-0.00151556
-0.00217553
-0.0334085
0.00175797
0.00556032
-0.0169679
-0.0074728
-0.0085286
0.0163397
-0.000729136
-0.0124501
-0.000278895
-0.00206742
0.00700908
0.00133471
0.00673308
0.000466104
-0.00560264
-0.0100941
-0.00500139
0.00733634
-0.00183015
-0.00211796
0.00259854
-0.00342558
-0.0044881
-0.00304433
2.85907e-06
0.00121441
0.0135611
0.0141812
0.000505038
0.0019183
-0.00058637
0.00126726
0.00250817
-0.00185428
-0.004382
-0.00386971
0.0014675
-0.00627221
-0.00152866
0.00441981
0.00344364
0.0115225
-0.0072105
0.00309032
-0.0217063
-0.00112323
0.00236204
0.00273018
-0.00269378
0.00611008
-0.00836485
-0.0100869
-0.00214697
0.0246275
0.00560212
0.0286193
-0.00618095
0.00176666
-0.00375148
-0.000234524
4.42646e-05
-0.00907584
0.00738515
0.000513584
-0.00298311
0.00272911
0.00093234
-0.000588222
-0.000232474
0.00482247
-0.0181928
-0.018818
-0.0695152
-0.0405548
0.00225222
-0.0212043
0.000935817
-0.00484799
0.013582
-0.0371585
0.0131899
-0.0171417
-0.00729111
0.00702154
-0.00776901
-0.00417599
0.000554842
-0.00256592
-0.00389412
-0.00331594
-0.00602011
-0.00941841
-0.00574861
0.000493898
-0.00527752
-0.00527002
0.00808633
0.0232158
-0.0076856
-0.000567149
-0.0109353
0.000799792
0.000301464
-0.000291442
-0.00484173
0.00529809
-0.0142376
-0.00325434
-0.00437207
0.00649075
-0.00111524
-0.00518202
0.00581639
0.00311825
-0.00694372
-0.00671458
0.00601504
-0.00393844
0.0037825
0.00234553
0.00906062
-0.000307498
0.000659686
-0.00500862
-0.0138814
0.00301687
-0.0018965
-0.00368401
0.00292131
0.00406978
0.00448332
0.0018211
-0.000362759
0.0258494
-0.00957103
-0.0189934
0.0248823
0.0233331
-0.000803747
-0.00884473
0.0234073
-0.00894073
-0.0349912
0.00709701
0.00429487
0.00357415
-0.0285229
-0.0158555
0.0115086
0.00897699
0.0317399
0.011296
0.00748763
0.00239123
0.0264751
0.0066848
0.015268
-0.0313129
-2.80459e-07
-0.0183719
0.00610036
0.00614407
0.0124742
0.0281391
0.0056166
-0.00207459
0.00429956
0.00738369
0.035802
0.00127416
0.0401873
0.0131768
-0.01099
0.00711228
0.00314359
-0.014702
-0.0250472
-0.0224187
0.00506205
0.00635563
-0.000272354
0.0041039
0.00658569
0.00237671
0.0039639
0.00656456
0.0328048
0.0138066
0.000428738
0.00595014
0.00431593
-0.00472933
0.00462013
0.00535949
0.00500605
0.0273936
0.0160569
0.00717863
0.00309895
0.0145987
0.0110589
0.00309431
0.032848
0.024505
0.00741519
0.00569106
0.0048635
0.00571768
0.00981542
-0.00467597
0.0145438
-0.00673135
-0.0240988
0.00130149
0.0051303
0.00673784
0.00569053
0.0198841
-0.000702011
-0.000220599
0.0339462
-0.000271124
0.00554105
-0.00431651
0.0242647
0.00540568
0.00165677
0.00158601
0.027775
-0.00910181
0.00693069
0.019552
0.00276213
-0.00271554
0.0158152
0.0125913
0.00547211
0.0116712
-0.00383562
0.00876346
0.00406608
0.0038383
0.000929452
0.00118373
-0.00231566
0.013596
0.00963977
0.00536367
0.00340968
0.000448854
0.00592773
-7.67713e-05
0.00490951
0.00684551
-0.000654353
0.00589792
0.0249729
0.00463761
0.00510884
-0.0199658
0.00508647
0.00612022
0.00328958
0.00265778
0.00754716
-0.00865223
-0.0384901
-0.0837307
-0.0836954
-0.00514614
-0.0236997
0.00567955
-0.00324553
0.00367506
-5.82769e-05
-0.00534002
0.000176224
-0.0747594
-0.00911382
-0.0193358
0.00105364
0.00148038
-0.0040869
0.036527
0.0075509
-0.00798252
0.0023573
0.0160855
-0.000918191
0.00596903
-0.0307516
-0.0029259
0.0169956
0.00308307
0.00297466
0.00185502
0.00161299
0.016572
0.00415225
0.011498
0.00421573
0.00342586
0.0101299
-0.0111997
0.0037962
0.00118663
0.000299686
0.0122249
-0.0146035
0.00754048
0.00154244
-0.0112878
-0.0254855
-0.00792721
-0.0026851
0.00477104
0.0330007
0.00195583
-0.00132457
0.0248448
0.00150961
-0.00345714
0.0145974
-0.00171712
0.00397773
0.00473149
0.00505765
-0.000588979
0.0037133
0.00363946
0.00384938
0.00107239
0.00361737
0.00440438
0.00267359
0.0264206
0.00407708
-0.00308989
0.00242722
-0.0142818
0.0133988
0.0400352
0.00574216
0.00333896
0.030337
-0.00451985
0.0135492
0.000341314
0.00462544
-0.0123857
-0.018026
-0.000383737
-0.000524226
-0.00927162
-0.00934709
-0.00173073
-0.00436679
0.00254323
-0.00584773
0.00237856
0.00182377
-0.00158834
-0.00580823
0.0069199
0.00122555
-0.027705
-0.00392431
-0.00321124
-0.00336948
-0.0123534
-0.00798113
0.0173219
0.00438865
0.00513023
0.00101823
-0.0128409
0.00116416
0.00239919
0.00099783
-0.0194703
-0.000569431
-0.00327054
-0.00509975
0.00938985
0.00335548
-0.0025462
-0.00507188
0.0026391
0.00140965
-0.0082936
0.00759763
0.00454872
-0.0229674
-0.00091499
-0.0043617
-0.000544648
0.000913047
0.00214341
0.0120702
0.00627286
-0.000305429
-3.93639e-06
-0.0141944
-0.00457488
0.0058711
-0.00673476
-0.00115151
0.00455251
-0.00492927
0.0314118
0.0024281
-0.00368677
-0.00744356
0.0327464
0.0243559
-0.00679662
0.00418495
0.00141939
0.0243098
0.0110985
0.0104875
-0.00726305
0.00870932
0.0339113
-0.0088094
9.3112e-05
-0.00446783
0.00115528
0.00541069
0.0273637
0.0170513
0.018825
-0.0232167
-0.0270581
-0.0668391
-0.0488841
-0.0764277
-7.97934e-05
-0.00611106
-0.00208515
0.018084
0.0070074
0.0203866
0.00284495
0.00119126
-0.000605454
-0.00330267
0.00103438
-0.000215778
-0.0063918
0.00191795
-0.0111428
0.0097882
0.000451029
0.0241036
-0.00181877
0.00115559
0.0376089
-0.00132255
0.0024405
-0.00618799
0.00149416
-0.0565805
0.000318962
0.00463973
0.0145704
0.000653172
0.0142574
-0.0170288
0.0163745
-0.00433496
0.0103151
-0.00628312
0.00296146
-3.6064e-05
0.000802783
-0.00320251
-0.00682445
-0.000508576
0.00625933
0.0065428
-0.00391804
-0.00654937
0.00129345
-0.00234786
-0.000877621
0.000342446
-0.00183525
-0.00441415
0.0149231
0.00185212
0.00437339
-0.000195459
-0.00267638
-0.011148
0.0239974
0.0414185
0.00279902
0.00555817
0.000200892
0.0209269
-0.041374
-0.000248927
0.000349239
0.00073979
0.00302258
0.0359693
-0.0580719
-0.0492405
-0.000317409
0.00363317
0.000312511
0.00829582
0.00836881
-0.000522514
0.00251016
-0.00329696
0.00513534
0.00110789
0.000956718
0.00126236
0.00202454
-0.00895467
-0.0145559
-0.0426267
0.00154175
0.018078
-0.0226267
-0.000308548
0.00484636
-0.000599933
0.00900932
0.0135314
-0.00745716
0.0365233
0.0118454
0.00125605
-0.0051331
0.0197199
0.0193651
-0.0245477
0.00216074
0.0123609
-0.00110129
0.0429274
0.0251667
-0.00422314
0.000976648
-0.000974163
-0.00744357
0.000542707
0.0611394
-0.0372824
-0.00895034
0.000458161
-0.0146348
-0.0198627
-0.00870875
-0.00108052
0.00678247
8.30707e-05
0.00120179
0.00141758
-0.00679468
-0.0148919
0.00869751
-0.00895187
-0.0035521
-0.0688344
-0.0445611
-0.00256478
-0.0179321
-0.0093302
0.00210988
0.00282444
0.00349216
-0.0155524
0.000734407
-0.0201455
-0.00394895
0.00377889
-0.00240256
-0.000198119
9.88186e-05
-0.0154114
-0.0224422
0.00524132
7.94854e-05
-0.00176854
0.0176896
-0.0025118
-0.010763
-0.00135586
-0.00411226
0.00144408
-0.00371461
-0.00136473
0.00535498
0.0066518
-0.00874797
0.00196251
-0.00727174
-0.00664645
-0.00655892
0.00173313
-0.00759194
-0.0107048
-0.0032933
0.00133542
0.00125268
-0.00712751
0.00155805
0.00649281
-0.031121
-0.0016794
-0.0105614
-0.000650251
0.00855742
-0.00146694
-0.00941085
0.00141732
-0.000583833
-0.0086158
-0.0195273
-0.0041814
-0.000496984
-0.00369505
-0.0079461
-0.00682489
-0.0105729
-0.000706391
-0.00173448
-0.000129807
-6.24237e-05
-0.00128519
0.00339753
0.00237241
0.000829956
-0.00331111
0.00580156
-0.00359247
-0.00243616
0.000207864
-0.000845217
-0.00235476
0.00248075
0.000397514
-0.0126629
-0.00316666
-0.000772529
-0.000106429
-0.00387905
0.000825554
0.000658837
0.00166652
-0.000772797
-0.00160761
-0.0035059
-0.00097227
-0.00188609
-0.00480885
-0.00278816
0.00243376
-0.00127156
0.0023375
0.00366648
-0.000128537
-0.00259429
-0.0216202
-0.00252326
-0.00178481
-0.00242095
0.00188296
0.00322611
-0.00236236
-0.0010392
0.00152789
0.00650016
-0.00665221
0.0038953
-0.00305885
0.000388437
-0.00132446
-0.00369281
0.000646389
-0.000867994
-0.00289484
-0.00035109
-0.000130114
-0.00528565
0.0068549
-0.000299593
-7.24547e-05
-0.000307916
-0.00102662
-0.0547286
0.0128508
-0.00197244
0.00127194
-0.0550648
0.000997302
0.000430398
0.00172609
0.000232504
0.000822687
-0.00338905
0.0103341
-0.0230645
0.00104555
0.0363147
-0.0346131
-0.00383496
0.0492666
-0.000735386
0.0172631
-0.00567767
-0.0015246
-0.000551021
0.00541533
0.0201518
0.0014355
7.15118e-05
-0.000246912
0.00172391
0.0237484
0.00207993
-0.00137911
0.0196424
0.00101083
-0.00107582
-0.00272545
0.00115281
0.00230129
0.00096031
0.00372359
0.000641778
0.00126428
-0.0157199
0.000532122
0.00992648
-0.00540752
0.00385889
-0.0121003
0.000316432
-0.00234163
-0.006501
0.00166588
0.0199241
-0.00240776
-0.000844568
-0.00130029
-0.00291316
-0.000659384
0.0421464
-0.000185857
0.00257526
0.00157845
0.00261363
0.00098499
0.00170816
-0.000183319
-0.000726858
-2.15875e-05
-0.000153202
0.000262908
-0.000163972
0.00034387
0.00065374
0.00209843
0.00025443
0.00135174
-0.000688499
0.00301196
3.31322e-05
-0.000580873
0.000858574
-0.000547931
-0.00694232
0.000466705
-0.00052543
0.00061275
-9.44356e-05
0.00118716
0.000933687
0.00408096
0.000671985
0.000892048
-0.00100144
-0.00221228
0.00423915
0.00202198
-0.0103216
-0.00169505
0.00153498
-0.00730021
-0.00137058
0.00647905
-0.0021411
-0.000205
0.000413343
-0.000282062
-0.000536401
-0.00425399
-0.00298182
-0.00559515
0.00120382
0.00118757
0.00591701
0.0013212
0.00728034
0.00123647
0.00146603
0.00812801
-0.00669502
0.000821265
0.00244806
-0.00727883
-0.00425272
-0.000625911
-0.0015511
-0.0045005
-0.00642889
-0.00360187
0.015857
0.00853631
0.000289116
-0.00039101
0.00115284
-0.001813
0.0277857
-0.00763467
0.000350907
-0.000782652
9.50871e-05
0.000472356
4.47595e-05
0.000113279
0.000684105
-0.00247195
-0.00411225
-0.00108023
-0.00299683
-0.0177468
-0.0131685
-0.0008384
-0.00131645
0.0316583
-0.00311267
-0.0110412
-0.0040685
0.00241484
0.0017441
0.00659829
-0.000448499
-0.000216019
-0.00496629
0.0016347
-0.00138917
-0.00197133
0.0192892
-0.00978763
0.00924744
-0.00297611
0.00189006
0.00229293
0.00147902
-0.00261273
-0.000305065
0.00653669
9.37614e-05
-0.00341576
0.00083014
-0.00239898
0.00219744
0.00112582
0.000150324
-0.0233879
-0.00195873
-0.00144076
-0.00166204
0.00594126
-0.00101218
-0.000709975
-0.000239971
-0.000780769
-0.000427075
0.00144303
0.00350696
-0.000346608
-0.00123043
4.49303e-05
-0.00524122
-0.0041775
0.0104588
0.000149115
-0.00643995
0.00010279
-0.000593113
0.00432607
0.000192176
-0.000378574
-0.00128779
0.0182129
0.000425168
-0.000320474
0.00127348
0.00380208
-0.000237618
-0.000358456
0.0062173
-0.000880531
-0.000684313
0.0021374
0.00348958
-0.000202157
-0.00030198
0.00935187
-0.00435654
-0.000388832
-1.5481e-05
-0.000417046
-0.000282919
-0.000782365
0.00122314
0.0029453
0.000731349
-0.000397017
0.000972346
0.00256706
-0.00130736
0.000129424
-0.000320441
-0.000754584
0.000330585
-0.00293193
-0.000273493
0.00026471
0.0018624
0.000473327
0.000425773
-0.00115471
0.000272936
0.000419214
0.000755282
-0.00479392
-0.00356597
0.00453372
0.000426538
0.000981408
0.000100126
-0.0015295
0.00726831
0.00160636
-0.000339789
-0.000781089
0.0422871
-0.00153391
-0.000459566
0.00661869
0.000481747
-0.000344168
-0.000476482
0.0276369
-0.000208786
-0.000244155
0.00284386
0.00182301
-0.000327323
-0.000231207
0.0212109
0.00152333
0.000199604
0.00217967
0.000205592
0.000682558
-0.0352078
-0.0037973
0.00446332
0.00811105
-8.55369e-05
0.0255937
0.00149932
0.000388865
0.00218394
0.000262549
0.00107441
-0.00153732
-0.00369611
-0.00429951
0.0013697
-0.000242534
-0.0018055
-0.00448187
0.000747898
-0.000718269
-0.000143179
0.000271492
5.62365e-05
-0.0033078
0.00351661
0.000665694
-0.000450077
0.0372784
-0.00301201
-0.00195862
-0.00174259
-3.03099e-05
0.0002164
0.00439448
-0.000602384
-0.00354773
0.00207727
0.00132939
0.00022584
0.000190589
0.0117514
-0.00275894
-0.000460085
-0.000515718
-9.50961e-05
-0.00010561
-0.00334889
-0.00454251
-0.00142418
-0.0029319
-0.00131563
-0.00138492
0.00069045
-0.00083719
-0.00114089
-0.000854345
0.0043892
-0.00334262
-0.000199666
-0.0021044
-0.000307595
-0.000254958
7.43304e-05
0.00286725
0.000488582
0.000724247
-0.000443621
-0.00319281
0.00102111
-0.00310046
-0.00114192
-0.000678497
-0.00198758
-0.0136215
0.00476905
0.000329014
-0.000726354
0.0117286
-0.0031108
-0.000604085
-0.00175953
-0.000661995
-0.000329068
4.84561e-06
0.00236237
0.00100141
-0.00038579
-0.00067121
0.00742801
-0.00244383
-0.000389201
-0.00189252
-0.000526952
-0.000192373
0.00324124
0.0119181
0.00553904
-0.000826917
-0.00806897
-0.00237548
-0.000190448
-0.00116224
-0.000315775
-8.55312e-05
0.000468184
-0.000688319
0.0010737
4.56534e-06
-0.000484323
0.0141308
0.00497654
0.0105914
0.00193494
-0.000185438
0.0407597
0.00128322
0.00121499
0.00170525
-0.0006834
-0.0117217
-0.000446371
0.0102727
0.0133312
-6.27144e-05
-0.00073104
0.000252191
-0.000272669
0.00838305
0.00530933
0.000498512
-0.000663216
-0.00148692
0.00108551
-0.00026492
0.00444689
-3.78695e-05
0.000242091
-0.000257743
0.0175866
-0.000113929
0.00474815
0.0172728
0.000441348
-0.000380946
0.0125201
-0.000348302
0.00214583
0.00146773
0.000206188
-0.000545872
0.0177839
0.000206645
0.00422077
-0.000552588
0.000617985
-0.000428253
0.0218366
9.53238e-05
0.00213558
0.00194417
7.9984e-05
-0.000397372
0.00673473
-0.000161781
0.00139148
-0.00132277
0.000214946
-0.000297059
0.00457979
8.90746e-05
0.00432714
0.00580915
0.00199504
-0.000299233
-0.000517397
-0.00301987
-0.000221992
-0.0023407
-0.000210944
-0.000122751
0.000464
0.00293136
0.00658092
0.000471131
-0.000626123
-9.39227e-05
0.00163135
0.0117318
0.000333214
-0.000603142
-0.00164986
0.0224279
-0.000317547
0.0122808
0.00562481
0.00102189
-0.000432613
0.0008759
-0.000408594
-0.00510592
0.000854583
0.000294934
0.00034175
9.03739e-05
0.00767835
-0.000510152
0.000166892
0.00195309
0.000151363
6.23448e-06
-0.000137188
0.00193663
-0.000364063
0.000760616
-7.35494e-05
0.0110406
-0.000146383
-7.43592e-05
0.00122398
2.93886e-05
0.000141822
0.00252211
0.000757024
0.000914076
0.000512692
0.000787052
-0.00423054
0.00398319
0.00022129
9.73222e-05
-0.000145261
0.000256694
0.0180768
-0.00112994
0.00882709
-0.000643004
0.00017215
0.00732782
-0.00234583
0.00690868
-0.000467357
0.000298682
0.0180332
3.83448e-05
-4.22865e-05
0.000473344
-0.00017493
-2.2863e-05
-0.000476194
-0.00286784
-0.000376664
0.000278244
-0.00011852
-0.00828824
-0.00156394
2.32964e-05
0.000563073
-0.000145983
-0.00010911
-0.000613485
-0.00159919
0.000239706
4.78321e-05
-0.000316909
-0.0121233
-0.00304903
-0.00142193
-0.00300879
-0.00137357
-0.00136577
0.00127127
0.00474332
0.000524927
-0.000587462
0.0056243
-0.000889494
-2.52769e-06
-0.0013243
-0.000283939
-0.00060549
-0.00640438
-0.00331248
-0.000889973
-0.00100762
-0.00104252
-0.000928916
-0.00177151
0.000175093
0.0101904
-0.00119374
-0.000810743
0.00210217
-0.00040014
-0.00143506
-2.26256e-05
-0.000503019
-0.000495175
-0.00978962
0.00123741
0.00220809
-0.00138955
-0.000153098
-0.000330663
-0.000316636
0.0115418
0.000249086
0.000220708
0.00405769
0.000439161
-1.31185e-05
-0.000288547
0.00915902
-0.00254359
-0.0464441
0.0270776
0.00430998
0.000577468
0.0387124
-2.96081e-05
0.00503404
-0.000782899
-0.00172915
-0.00159435
-0.00112753
-0.00795446
-0.000189213
-0.000788831
-3.44966e-05
-0.00112459
-0.000232214
-0.000364705
0.0143277
0.000163671
-0.00175254
8.08211e-05
-0.000622312
-6.66275e-05
-0.000444579
0.00853975
-0.000342606
0.000309684
0.000426602
-0.00156076
-0.000247481
-0.000291791
0.0148224
-0.00122541
0.0062119
-0.00653653
-0.00048735
0.0164392
0.000405604
0.00152677
0.00142579
5.77992e-05
0.000205472
0.00614784
-0.000147765
-0.000697236
-0.00020351
-0.00184723
-6.54114e-05
-0.000340219
0.00996692
0.000132016
0.000350945
-0.000489289
5.70408e-05
-0.000112486
-0.000422633
0.0121005
0.000205792
0.00107025
-0.00152073
-0.00135423
-0.000390044
-0.000217565
0.00872312
0.000740705
0.0023539
0.00217245
0.000786639
-0.000199765
-0.000460087
-0.0132736
8.57835e-05
0.000343913
0.00150572
-0.000228753
-0.000290211
-0.000428916
0.00238214
0.00199563
0.00223344
-8.93767e-05
-0.000530172
-0.000746084
0.024267
0.000797463
0.0015758
-0.01424
-0.00454445
-0.000712907
-0.0506513
-5.08512e-05
-0.00485967
-0.00931072
-0.00874647
-0.000321124
-0.0431049
-0.00297281
-0.000455572
-0.00192724
-0.000617849
0.000102109
-0.000256607
-0.00338326
-0.00904686
-0.000126701
0.000903678
-0.0451021
-0.00016018
-0.000396138
0.000995963
-0.000735006
-2.31258e-05
-0.00402555
-0.0281958
-0.00172038
0.00020733
0.00279032
-0.00426236
-0.000593616
-0.00240306
-0.000699108
-9.33076e-05
-0.00421165
-0.0038466
-0.00582547
0.000800801
-0.0182276
0.000906063
0.000501104
0.00237003
-3.38972e-05
0.000700674
-0.00086222
-0.032236
-0.00164974
-0.000319092
0.000604286
-0.0134341
0.00052363
0.000175008
0.00114249
-8.93925e-05
0.000658893
0.000772488
-0.000423397
-0.00665371
-0.000894037
0.000988159
-0.00869887
0.000731611
0.00058409
0.00050669
0.000182471
0.0013044
0.00110561
0.00055431
-0.00699401
0.00044495
0.0010284
-0.0247299
0.00753002
0.00195156
0.00617195
0.000993336
0.0026582
-0.00345512
-0.0106649
0.0102538
0.000788697
0.00098503
0.0137308
-0.00282846
-0.00469008
-0.02535
-0.00168495
0.00085427
-0.00187929
-0.0278154
0.00288093
0.000928594
0.00353924
0.000513973
0.00118652
-0.000586386
-0.00674508
-3.56771e-05
0.000655179
0.000710861
-0.0196495
0.000504308
0.0011335
0.00493622
0.000850313
0.0013864
-0.000521752
-0.000850195
-0.0053456
-0.000112154
0.000810988
-0.0125061
-5.42514e-05
0.00105018
0.00406555
0.000799297
0.00133407
0.00108861
5.46096e-05
-0.00369834
0.000729581
0.00102458
-0.00515407
-0.00348383
-8.34667e-05
-0.000705974
-0.000239281
0.000179732
-0.000164893
0.00243611
-0.0010513
0.000375241
7.38794e-05
-0.0231368
0.00317088
0.00105526
0.00424055
0.000562545
0.00103228
0.00136641
-0.000848083
-0.00546565
0.00116431
0.000940826
-0.0250331
-0.000834036
0.000635399
0.00177063
0.000513856
0.000425588
-0.000259266
0.00308864
-0.00463878
0.00082692
-0.000343267
-0.0114034
-0.00357664
-0.000654996
-0.00215142
-0.000552113
-0.000940903
-0.000379399
-0.00281793
0.00115126
-0.00359026
-0.00109343
-0.0121576
0.000577844
-0.000381894
-0.00449064
-0.000180614
0.00101982
-0.0253245
0.00115097
0.000162609
-0.00130032
0.000277748
-0.000468246
-0.0174382
0.00216805
0.00109041
0.00438963
0.000678613
0.00118166
0.000752515
-0.0120836
-0.00553221
-0.000475787
0.00133741
-0.0185581
-0.00477342
-0.000410195
-0.00060275
5.1839e-05
-0.000538384
-0.00325272
-0.0402396
0.0080381
-0.00232418
-0.000453505
-0.00975486
0.00151871
0.000710067
-0.00103611
0.00124236
-0.000223638
-0.0049006
-0.00497836
-0.000113909
-9.67918e-05
9.44054e-05
-0.00017664
-0.000967874
0.00362169
-0.0173584
-0.00288594
0.00068135
-0.0876698
0.000911161
0.00319703
-0.00132052
0.000158215
9.3669e-05
-0.000285908
0.038111
0.000493464
0.00276547
0.0033432
-0.000126764
-1.73877e-05
4.46163e-06
0.00245416
0.000553447
0.00153312
-0.00090092
-0.00106419
0.000358412
-0.0022096
0.0142344
0.000151299
-0.0441404
-0.00422582
0.00343214
0.00108279
0.00829767
-0.000516707
-0.00439817
3.57507e-05
0.000210204
0.000255415
-0.0257172
0.000519441
0.00116174
0.00197568
0.00143834
-0.0003496
-0.0152722
0.000323156
-0.00141519
-0.00147847
-0.000587431
-0.000292485
-0.0286177
0.000248078
0.000612362
-0.00261054
-0.000874199
-0.00039145
-0.000549697
-0.0255215
-0.00569215
-0.000565097
-0.00212288
-0.000563795
-0.000638278
0.000674916
0.00109219
-0.00349196
0.00273495
-6.43418e-05
-0.00533086
0.00241707
-0.0180567
-0.000368065
-0.00138422
-0.000140611
0.0166268
-4.25082e-05
0.000185838
-0.00124858
0.00017509
0.000364271
-0.000246878
-0.0323623
-0.000322981
0.00349893
0.00859393
0.00228739
-1.60991e-05
0.0208087
0.00149551
0.0111484
-0.000181702
0.000992191
-0.00201669
-0.00864657
-0.00106765
0.000155637
-0.000715829
0.000285923
-0.000698384
0.000313926
-8.88279e-05
-0.000425696
-0.00161486
-0.000203577
-0.0199469
0.00957889
-1.82473e-05
-0.000646781
0.00632877
0.00294207
6.70975e-05
-0.000272146
-0.000474164
-0.00170813
-0.000461892
0.00539597
0.00647772
-0.000600487
-0.000328543
-6.75885e-05
0.0160733
0.00029923
-0.000445153
-0.000799826
-0.000881582
-0.000795056
-0.000250677
2.17396e-05
-0.0117584
-0.00224078
-0.000988612
-0.00132545
-0.000637574
-0.00238974
-0.00268882
-0.000959199
-0.001065
-0.00180991
-0.00122012
-0.0164708
-0.00686372
-0.000346753
-0.000211295
-0.000737723
0.000442801
0.0030873
-0.00187431
-0.000405551
-8.21381e-05
-0.00191813
-0.000268197
-0.0461467
0.00124308
-0.00124577
-0.000190102
-0.000659244
0.00149971
-0.000588672
0.000751764
6.62476e-05
-0.000428439
-0.000932756
-0.000735031
-0.0133267
-0.00683419
-0.00126399
0.000738432
-0.00119702
-0.00643385
0.00121744
0.00305247
0.00024447
0.000284761
0.000357865
-0.000604015
0.0304351
-0.00959319
0.000326809
0.000233753
-0.00119297
-0.00662442
-0.00345037
0.000315068
0.000538792
3.70582e-05
0.000139128
6.82098e-05
-0.0276771
-0.00613291
-0.000262688
0.000764237
0.000110177
0.00061394
0.00629814
0.00121429
0.000191875
-0.000211431
-0.00132163
0.000204748
0.000234122
-0.0509333
-0.0178761
-0.000745158
-0.000880036
-0.0010144
-0.0119599
-0.0037588
-0.000760254
-0.000715149
-0.000968035
-0.00118166
-0.000896565
0.0164858
0.00160697
0.00242052
0.00050672
-0.000534921
-0.000146198
0.00284134
-0.0026092
0.000218122
0.00027221
-6.66474e-06
-0.0016626
0.000338336
-0.000658451
-0.000299031
3.6019e-05
0.000308908
-0.000699155
-0.00181857
-0.000281773
0.000982023
0.000559141
-0.000102829
-0.000558774
0.000457123
0.00253558
0.00060555
-0.000886375
0.00056583
-0.00117724
0.00417908
-0.00052924
-0.00132011
1.35634e-05
-0.000468841
-0.00109576
-0.000841904
0.00824033
0.00601451
-0.000742793
-0.000444315
-0.00104665
0.00204954
-0.00163396
-0.000573299
-0.000395152
-0.000914215
-0.00129147
-0.0007179
-0.0114034
0.0187943
0.00220806
-4.68559e-05
0.000865316
-0.000232008
3.13767e-05
0.00674493
0.00448077
0.000208347
-0.000280854
-0.00118968
-0.000189223
0.0190483
-0.0411116
-0.000173834
-0.000688459
-0.00283846
-0.00129333
-0.000383193
0.000101747
-2.36611e-06
-0.000618119
-0.019742
-0.000240223
0
0.00171993
0.00672925
0.00371603
-0.00142216
0.000462585
0.00551013
0.00354604
0.000646523
0.000337908
-0.00306328
1.38081e-05
0.00277487
-0.00204188
0.00622236
-0.00521697
-0.00702847
0.000170137
0.00611792
0.00669073
-0.00145762
-0.00025493
0.00535723
-0.00709633
-0.00431212
-0.00460652
-0.000622612
0.000379088
0.00477654
0.00531433
0.00265237
0.00787028
0.000222718
0.00195497
0.00629462
-0.00253394
0.00733803
-0.00136659
0.000460596
0.00575009
0.00395274
-0.000819404
0.00280777
0.00354576
0.00150867
0.000442252
0.00294073
0.000704097
0.00184045
-0.00387797
-0.00119165
0.00688503
0.0119224
-0.000730218
0.000844152
0.00554447
-0.00456895
-0.000223879
-0.000299675
0.00472979
0.00171226
0.00755371
0.00176279
-0.00362603
-0.00241201
0.00276233
0.000661094
-0.00648731
-0.00764439
-0.00596042
0.0108882
0.000438066
0.00787549
0.00638923
0.00177427
0.00372407
-0.00426909
0.00852085
0.0118293
0.00379234
0.00525995
-0.00515707
-0.000597928
0.00250092
0.00692578
-0.00368682
0.003991
0.00368766
0.00254051
-0.000462312
0.00496478
0.00456307
-0.00359027
0.00441406
0.00161948
0.00483477
-0.00201065
0.0044186
0.00223705
0.00987947
0.000791049
0.00396385
-0.00160404
0.00258931
-0.00174355
0.00278825
-0.00101504
-0.00629521
0.000930165
0.00342721
0.00624548
0.0026137
0.00508897
0.00613642
0.00838212
-0.00591711
-0.00121571
-0.00327728
-0.00114653
0.00462123
-0.00742113
0.00189556
1.80739e-05
0.00222271
0.0011868
0.00218081
0.00360333
-0.0265505
0.00843066
0.00512516
-0.0218181
0.00166945
-0.00901742
0.0175671
0.000300256
-0.00984733
0.0149497
0.00012518
0.0177032
0.00474427
0.0186706
0.00343377
0.00375679
-0.0142527
0.00249412
0.00253907
0.00412881
0.00199454
0.00438068
-0.00961557
-0.00186664
-0.00088498
-0.000966473
-0.00788159
0.0138099
0.0157872
0.00050292
0.0024154
-0.000487101
0.00188977
0.00222209
0.00709541
-0.00435909
0.00687999
0.0033686
0.00180238
-0.000913671
0.00991445
0.0113771
0.0151523
-0.00241062
0.00890413
-0.0252363
-0.000463316
0.0126322
0.0117446
-0.0010701
0.00851859
-0.00517721
-0.0101615
-0.00101604
0.0223656
0.0245203
0.0252009
-0.00763277
0.00322301
-0.00312122
0.000162796
0.000410365
-0.00892391
0.0106683
0.00124635
-0.00182107
0.00778205
0.0038899
0.00303228
0.000432805
0.00909409
-0.0108402
-0.0166154
-0.0708413
-0.0296138
0.00635799
-0.020851
0.0019035
0.00048147
0.0155572
-0.00281597
0.0352218
-0.0118381
-0.00282915
0.0181917
-0.00484047
-0.00340673
0.00218396
0.00112665
-0.000807974
-0.00161137
0.00616167
0.00571276
0.00767036
0.00663278
0.00413352
0.000862861
0.00839772
0.0264161
-0.00372373
0.0032715
-0.00875095
0.001484
0.00048457
-0.000576273
-0.00291526
0.015243
-0.00966849
-0.000269677
-0.00119788
0.00868577
-0.000628561
-0.00355046
0.0104188
0.00424484
-0.00731474
-0.0094562
0.00526646
-0.00364701
0.00411286
-0.00407411
0.0138247
-8.79889e-05
0.00126399
-0.00403345
0.0136043
-0.000625509
-0.00638971
-0.010393
0.000590966
0.00158277
-0.00326776
-0.00538371
-0.00687709
0.0158019
-2.63762e-05
0.00278411
0.0165982
0.00993735
-0.00835307
-0.0217775
0.00247166
0.0107572
0.00641816
-0.00691764
-0.00140605
-0.000864966
-0.0112994
0.00678254
0.00670284
-0.00356502
0.0173708
0.00425343
-0.00546832
-0.00938676
0.0139561
0.00173455
0.00314773
-0.0349787
0.00117537
-0.0209463
-0.00164831
0.0019442
0.000882305
0.00828179
-0.00497172
0.0103668
0.000838663
0.000775661
0.0199031
-0.0110762
0.0352846
-0.00469921
-0.00312037
0.000765215
-0.0039827
-0.00353484
-0.0101076
-0.00862954
-0.00187647
-0.00673059
0.00187936
-0.000560699
-0.00520314
-0.00680996
-0.00099187
0.000208357
0.0152804
0.00304503
-0.00481273
0.00142271
0.000313427
0.010277
-0.00238486
-9.73e-05
-0.000738977
0.0102252
0.0049211
0.00147288
0.00133521
0.0151981
0.00502292
-0.00279435
0.0178683
-0.00282229
0.00562557
0.00339973
-0.00297903
-0.00165633
-0.00323388
-0.00920521
0.0195676
-0.001292
-0.0346555
-0.00451705
0.00271329
0.00302146
-0.00169722
0.0204418
-0.00552208
0.0403078
0.0226331
-0.00353564
0.00843164
-0.00593977
0.0268651
0.00158981
-0.00200575
-0.000775176
0.0283613
-0.00637398
-0.000504317
0.0125057
-0.00555146
-0.0119401
0.00593819
0.0242732
0.00156713
0.00129867
3.56052e-05
-0.00285075
0.00223609
0.00185908
-0.00523114
-0.00242371
-0.0123549
0.00915894
0.0121765
0.00191496
-0.00234861
-0.00310913
0.0136743
-0.00211963
0.000769498
0.00622717
-0.00128699
0.0045255
0.0250113
0.00385462
0.00582639
0.0131364
0.0227546
0.00323729
0.00162472
0.000912557
0.00591934
0.00304815
-0.0202954
-0.0472586
-0.0477134
0.0176969
0.00575452
0.0246725
-0.00505273
0.00357441
-0.0059588
0.000810151
-0.00365599
-0.0577915
0.00183125
-0.0144456
0.000488043
-0.00026835
-0.00607492
0.0322253
0.00710814
-0.0107035
0.0018583
0.014364
0.00850275
0.0037284
-0.0121183
-0.00471118
0.065142
0.0100184
0.00088205
3.05103e-05
0.000499109
0.0162719
0.00966889
0.0122528
0.00574182
7.07221e-05
0.0271777
-0.000522739
0.00393013
0.000523556
-0.000632811
0.0112632
-0.00207024
0.00957286
0.00141237
-0.00234032
-0.028886
0.00538976
-0.00154326
0.00624236
0.0289483
0.00167903
-0.000907438
0.0237836
0.00337338
-0.00372742
0.0171691
-0.00169684
0.00371434
0.00156571
0.00465314
-0.00199679
0.00297204
0.00500423
0.00359274
0.00152713
0.00301689
0.00580681
0.00229766
0.0318719
0.00385117
-0.00165709
0.00191946
-0.0235661
0.0119602
0.0411719
-0.00424594
0.00237397
0.0226076
-0.00894541
0.0162329
-0.002379
0.00257784
0.0414903
-0.0199008
-0.00202189
-0.00546848
0.00849365
-0.00151161
-0.00295892
-0.00448948
0.0025017
-0.00546923
0.0067174
0.00115668
-0.00174165
-0.00739879
0.0156852
0.000870065
-0.00162551
-0.00126048
-0.00483008
-0.00427985
-0.015258
-0.00469299
0.0181803
0.00682302
0.00546437
0.00171251
-0.0127498
0.00698141
0.00748457
0.000765068
-0.017907
-0.000664639
-0.00354711
-0.00512194
