booster[0]:
bias:
-0.0424052
weight:
0
-0.00458064
-0.00529941
-0.00357452
-0.00225306
-0.00435551
-0.00471483
-0.00328431
-0.00113791
-0.00130476
-0.00081457
-0.000625334
-0.000619712
-0.00214099
-0.00312741
-0.00215937
-0.00364751
-0.000954248
-0.000921831
-0.00130188
-0.00165904
-0.00088088
-0.000332153
-0.00339047
-0.00238237
-7.67282e-05
-0.00167537
-0.00304232
-0.00293114
-0.00124152
-0.00217633
-0.00110622
-0.00127996
-0.00141184
-0.000777313
-0.00115225
0.000255514
-0.00137943
-2.67965e-05
0.000762265
-0.0013548
-0.00327435
-0.0014129
-0.00255388
-0.00182031
-0.00207565
-0.00216811
-0.00519824
-0.00383647
-0.000338419
0.00141243
0.00363344
0.00090472
-0.000912847
-0.000289407
-0.000247191
-0.00199241
-0.000377515
-0.00119334
-0.00114776
-0.00167706
0.00021296
-0.00148805
-0.000990873
-0.00172799
-0.000154422
7.77449e-05
-0.000127328
-0.000153189
-0.000754346
-0.00184163
-0.00228415
-0.000726943
-0.00211393
-0.00214815
-0.00134622
-0.00212264
0.000446925
0.000551145
-7.04804e-05
-0.00044198
-0.00117826
-0.00102839
-0.00233042
-0.00103404
-0.000495324
-0.00116328
0.00397374
-0.00040269
0.000197655
0.000489991
0.000206171
-0.000329855
0.000737899
0.000777986
0.000656464
-0.000104636
-0.00144695
0.00076343
0.000773736
-0.00186964
0.000655108
-0.00162849
-0.00096899
-0.00151068
-0.00281122
-0.000937025
0.000458873
0.00879631
0.00685733
-0.00125091
-0.00186421
-0.00240293
-0.00186408
-0.000676942
-0.00190032
0.000450029
-0.00156354
-0.0005887
-0.000551494
-0.00870895
-0.00380623
0.00367282
-0.00440533
-0.000697183
-0.000450057
0.000591512
0.0856211
0.00108326
0.00495679
-0.0102393
-0.00485559
0.00138784
0.0196852
0.00368123
-0.00174964
-0.0458149
0.00710074
0.00100562
-0.000698778
0.000119442
0.00242422
-0.00108514
-0.0053256
0.00169826
0.00100537
0.00147467
-0.000151916
0.00799554
-0.001929
-5.95001e-05
-0.00976146
0.00170362
0.00094644
-0.00613769
0.00981299
0.00128762
0.00142166
0.000707642
0.00218699
0.0016773
0.00105831
0.00196961
-0.000720854
0.00223445
0.00036041
0.00256933
-0.00145979
0.000468333
0.00258657
-0.00175761
0.0134222
0.001583
-0.000361508
0.000606104
-0.000549334
0.00147826
0.00472142
0.0132469
-0.01881
0.00174522
0.028771
-0.0106279
0.00049446
0.00710803
0.00136688
0.0121544
0.000682707
0.0011048
0.000677626
0.00331083
0.000727478
0.00455733
0.00119739
-0.00191811
0.00133923
0.00301192
0.00841943
-0.00575145
-0.035859
-0.0283359
-0.0356309
0.00198837
-0.0104901
0.000401173
1.15152e-05
0.024133
-0.0190477
0.0103122
-0.00300529
-0.00142884
0.0177995
0.00187489
0.00693119
0.00107503
-0.00662874
-0.0011339
-0.000355475
0.00253344
-0.0104664
-0.0124417
0.00478295
0.0023957
-0.00104154
4.56975e-05
0.00773631
-0.00789902
-0.00204619
0.00386117
0.00152091
-0.000546916
0.000529094
-0.00209779
0.00627682
-0.00168577
-0.0011936
-0.00366086
-0.000970459
0.0016268
-0.00282984
0.00675281
0.0041796
0.00131673
0.00127869
0.00366535
-0.00027125
-0.00141387
0.0127875
-0.0206581
-0.00165984
-0.000663963
-0.00424544
0.00327522
0.00325115
-0.00158178
-0.00124291
-0.00155173
0.000240342
0.0033998
-0.00137729
-0.00400553
-0.00334884
-0.0145365
-0.00231534
0.00985923
0.00652505
-0.0075608
-0.0090417
-0.00568756
-0.0379324
-0.0256242
-0.00414949
-0.00419193
-0.00225861
-0.0379917
-0.00243461
0.00645033
-0.00125366
-0.0123492
-0.000228446
0.00303242
-0.00485991
-0.0255098
0.000404594
-0.00298596
0.0029099
-0.0104615
-0.0219302
0.00171679
0.000107683
0.00591732
0.00735884
0.000112274
-0.0139666
0.000419685
0.0028828
0.0118077
0.0169904
-0.00624959
0.00679202
-0.00152277
0.000203464
-0.00203714
-0.00204494
-0.0045103
-0.00324109
-0.00160001
0.00324959
0.000667753
0.00271186
0.0028045
-0.00150276
-0.000774515
4.30819e-05
-9.01126e-05
0.000971175
-4.66023e-05
-0.00124609
0.000209219
0.000415411
0.00353683
-0.00125318
-0.000181713
0.0285872
-0.00940173
0.00192237
0.0209257
-0.0023211
-0.00302673
-0.0013279
0.00890487
-2.49568e-06
-0.000624153
-0.000976816
-0.00577349
-0.00976632
-0.00855672
-0.00609807
-0.00790335
0.000888003
-0.000448304
-0.00138779
-0.00344903
-0.0024718
-0.00285927
-0.0064666
-0.00308369
-0.00240684
0.00700189
-0.00106519
-0.0271298
-0.00373207
-0.0028181
-0.000132089
-0.00210575
-0.000563372
0.00321713
-0.00154022
-0.00121029
-0.00395061
-0.00201397
0.01046
0.0021451
0.00703789
0.00267205
-0.0143898
-0.00178158
0.00766987
0.00333404
-0.00949541
-0.00117206
-0.00389158
-0.0201952
-0.00123009
-0.00903955
0.00098151
0.00107005
-0.000229662
-0.0110311
0.000461028
0.00154592
-5.28557e-07
-0.00752605
-0.00166791
0.00702155
-0.00191597
0.000328182
-0.0174593
0.00130394
-0.00638485
0.00212754
0.00180327
0.00398455
0.00315693
-0.0690926
-0.0401154
-0.0415259
-0.00443595
-0.0089398
-0.00454245
-0.00367386
0.00129581
0.0188625
-0.0131326
0.00255122
-0.0238207
0.00249486
-0.00410644
0.00677685
0.00145612
0.00959855
0.0448944
0.00917741
0.00268425
0.00364372
0.0377253
0.000337035
4.11931e-05
-0.00427599
-0.00222586
0.046469
0.0113146
0.00193785
0.00123783
-0.0001687
0.040482
0.00576853
-0.0013205
-0.00831857
-0.000326612
0.0533038
0.00544997
0.000222563
-0.00176046
-0.000784582
-0.00492001
-0.000652295
0.000680965
-0.00209646
0.000709586
-0.0192294
0.00623447
0.00277635
0.0029957
0.0258298
0.00208728
-0.00492637
0.0118331
-0.00489149
0.00109221
-0.0588077
0.000689933
-0.000719077
0.00562278
0.00131826
-9.87623e-05
0.000642718
0.00336488
0.000639107
-0.0131453
0.00171738
0.00134988
0.000990031
0.00826627
0.00136321
-0.00668982
0.000591333
-0.00895937
-0.0125682
-0.0162496
-0.0117174
-0.00247078
0.026213
-0.00590184
0.00992379
-0.00623639
-0.00177668
-0.0478112
-0.00811714
-0.00246118
-0.00277203
-0.00122136
-0.0523155
-0.00130537
0.00788062
-0.000723164
-0.00442856
-0.000631598
-0.000533273
0.000795542
0.00588425
-0.00123417
-0.00152396
-0.0263005
-0.00275968
-0.000103201
-0.000391423
0.0071679
0.0154306
-0.0160653
0.00600517
-0.00678314
-0.0282482
0.0505458
-0.00390353
0.0158181
0.00157503
0.00584053
0.00437021
-0.000240396
-6.63674e-05
-0.000216077
0.00423547
-0.000571256
-0.00104783
0.00278944
0.00142149
0.00204824
-0.0023784
-0.000864578
-0.0308335
0.000179933
0.000276691
-0.000209793
0.00161095
-0.00470625
0.00440487
0.00382853
-0.00152942
-0.000126577
0.0349329
-0.00368997
0.00053064
-0.0617212
0.00155583
-0.0607223
-0.00480055
0.0168053
0.00304252
-0.000214951
0.011654
-0.0491984
0.0174892
-0.00279479
-0.00519974
-0.00425391
0.00673997
-0.00613684
-0.000644751
-0.000139358
0.0035192
0.0108543
-0.0111886
0.00349624
-0.0130928
0.000311591
0.00487815
0.0241521
0.00956128
0.00405284
-0.0114117
-0.0209334
-0.0113104
-0.00677521
-0.0120423
-3.55856e-05
-0.00279971
-0.00231274
0.00578627
0.0170925
0.0207548
-0.000823027
-0.000654168
-0.00246195
0.00172717
-0.00512213
0.00325179
-0.000689732
0.000298126
-0.0340651
0.00594582
0.00762863
0.00245628
0.00263593
0.00982701
-5.93487e-05
-0.00429408
0.000310223
-0.00392542
0.00102484
-0.0116602
-0.000278825
0.00547825
0.00171408
0.000360451
0.0130095
-0.0137325
-0.0163962
-0.00333271
-0.000985524
-0.0629246
0.0161464
-0.00186868
-0.0127816
0.000116459
-0.00702337
-0.00398298
3.78506e-06
-0.00666783
-0.00305517
-0.00271651
0.00439661
0.00157848
-0.00140932
0.000430889
-0.00133983
0.00242755
0.00451711
-0.0030936
0.000880411
-0.00106479
-0.000311172
-0.00633842
0.0194215
0.00880454
-0.00283526
0.00118641
-0.00152402
0.031459
0.0249522
0.00843057
0.00196309
-0.00366223
-0.000971899
0.00413235
-0.0164286
-0.0211933
-0.00119485
-0.000350187
-0.00400254
0.00435379
0.0108568
-0.00175717
-0.00849101
0.000314082
0.00145355
-0.00142748
-0.0012464
-0.000806967
-0.000423134
-0.000277267
-0.00599368
-0.0176399
0.00107451
-0.0586218
-0.00403516
-0.0169361
-0.0474502
0.00457056
0.00660463
0.0259814
-0.000114661
0.00563214
0.0172653
-0.029044
-0.0107093
0.0120401
0.0225721
-0.00661617
-0.000122068
0.012132
-0.00396267
-0.0285
0.0281712
0.00516174
0.00187469
0.00322058
-0.00434158
-0.0068458
0.00943541
-0.017101
0.0202064
0.00673343
-0.000165804
0.000411951
0.00251167
0.00363193
0.0104333
-0.00120311
0.000530999
-1.35982e-06
0.00618075
0.00466
0.0224041
0.0059395
0.00605531
-0.0207706
-0.0431271
-0.000639853
-0.0100543
-0.0142789
0.0108208
0.00750184
0.00229829
0.00204905
0.000674209
-0.00296429
-0.00230143
0.0163319
-0.000992576
-0.000262373
-0.000335985
-0.00865674
-0.018192
0.000951477
-0.0018127
0.00434189
0.00609179
0.00937631
0.000805671
-0.000553176
8.20599e-05
0.00104526
0.000427953
0.00124481
0.0020679
0.00493969
-0.000401052
0.000245964
-0.00112888
0.000205679
0.000585974
0.00340086
0.000715113
-0.044898
0.00110586
-0.0025088
0.010692
-0.00290031
0.000268367
0.0113841
-0.00443098
-0.00385845
0.0047667
-0.00122716
0.00270554
0.00554929
-0.0020821
-0.00176024
-0.0135637
-0.00174642
-0.0448519
0.00174731
-0.0018629
-0.000517802
-0.00165261
0.000262066
-0.00416717
-0.0009574
-0.0035309
-0.00149654
0.00227518
0.000347666
-0.00011051
0.00223303
-0.000367996
-0.000732575
0.00197377
-0.000281672
-0.000309202
-0.000682155
0.00019153
0.000475482
0.00293136
0.00225465
0.00490469
0.000490397
0.00139737
-0.000308824
0.000301166
0.00282915
0.00272719
0.00349736
0.000941411
0.00146694
4.84492e-06
0.000658733
0.000383009
-0.000101531
-0.00191959
0.000751768
0.000916546
0.00175436
0.00326011
0.00136258
0.00202132
-0.00373623
-0.000338487
-0.000872033
-0.000292563
0.00137584
0.00289284
-0.000876865
0.00105985
0.00123904
0.00257547
-0.00257528
0.0045883
-0.000802637
0.00130392
-0.000374434
-0.000686413
0.00314569
0.000943893
0.00190575
0.00114053
0.000124855
-0.000473872
-0.000773086
-0.000128209
-0.000172241
-0.00151088
0.000677058
-0.00490666
-0.000251726
-0.000707861
-0.000684374
-0.00753124
0.00105139
-2.29704e-05
4.61736e-05
-0.000192547
0.000122745
-0.00195512
-0.0016698
0.00329925
-0.00240254
-0.00957819
-0.00772166
0.00183406
0.0159256
-0.000298342
-0.00622922
-0.000106767
-0.000412338
0.000414121
-5.5715e-05
0.0205734
-9.30599e-05
-1.21496e-05
-6.16235e-05
-0.000183816
0.00492092
-0.00165285
-0.000519487
-0.000402332
0.000332861
-4.44599e-05
-0.000553569
0.0045602
0.00175907
7.65971e-05
0.000320505
-8.29268e-05
0.000290396
-0.00200465
-0.00149047
-0.00454874
0.00609902
0.000200855
-0.00652431
0.000130589
0.000827518
0.010245
-0.0010316
0.00116726
-0.000484248
-0.000226375
0.00192393
-0.000174937
-0.000476767
0.00184556
-0.00199634
0.00100447
0.00036053
7.90442e-05
8.23597e-05
0.000642685
6.12722e-05
-0.000399903
-0.000378278
-0.000558345
-4.96485e-05
5.11723e-05
0.000401631
-0.0498661
0.000493891
0.00099017
-0.000131659
-0.000261416
0.000321762
-0.000134235
9.53137e-05
0.00027779
-6.39038e-05
-0.00305633
0.000225577
0.000247854
1.2247e-05
-0.00034941
0.00225988
0.000455884
0.00125916
0.000227533
0.000408114
-0.000397909
-0.00117942
0.000538122
5.03779e-06
2.92023e-05
0.000181917
0.000524877
-0.00138861
0.00052869
0.000175636
-0.000441158
0.000210411
-3.18896e-05
-0.000296915
0.000175343
0.000236223
-0.00113109
7.71545e-05
0.00046268
0.000357295
-0.000166745
4.90737e-05
-0.000162671
-6.79378e-05
-6.92092e-05
-0.000737404
-0.00338062
-0.000639441
-0.00186948
-0.00125793
-7.32652e-05
-0.000148451
0.000252952
-0.00106531
0.00156859
-0.000493129
0.00112387
-9.87457e-05
-0.000182449
4.30596e-05
0.000483341
-0.000260958
0.000129234
-0.00163431
-0.00103693
0.000218203
-8.78094e-05
-0.000446063
-0.00021231
-4.17644e-05
0.000287638
-0.000856465
-0.00254194
0.00160142
-0.00208706
-0.00976758
-0.00160588
0.000290975
8.56559e-05
-0.00425985
-1.44543e-05
-0.00282375
0.000965765
-0.000158929
0.000760817
-0.000449188
4.51848e-05
-4.33323e-06
-0.00394228
0.000145497
-0.000788982
-0.000889155
-0.000508222
-0.00432544
-0.00447589
-0.00203087
-0.000913976
0.00161299
-0.000420045
-0.000281391
-5.43027e-05
-0.000348312
-0.000424456
0.00108309
-0.00110732
-8.35917e-05
0.000154905
-0.000767364
-0.000402085
0.00148715
-0.00052804
-8.76707e-05
-8.94015e-05
-0.000190537
-0.000153763
-0.000505278
-0.000605957
-0.000522674
0.000518605
-0.000350352
-0.000283946
-0.000210825
-0.00195555
-0.0020102
-0.000316261
-0.000331703
0.000420775
-0.000207728
-0.000722966
-0.000142848
0.000527779
0.000205119
-0.000467812
-6.4531e-05
-0.000614032
-7.80735e-05
0.000428792
0.000348142
3.5954e-05
-0.00013719
5.07332e-05
-4.6488e-05
-0.000950159
-8.17825e-06
0.000565373
4.24222e-05
-0.000426619
-4.32053e-05
-0.000328163
-0.000331468
0.000351861
0.000268257
0.000195816
0.000128644
0.000460465
7.4967e-05
-0.000434117
0.000805504
-0.000123294
-0.000607712
-0.000773817
-0.000810585
0.000292023
4.98982e-05
7.60695e-05
-0.000141891
0.000106975
-0.000843826
-0.000274067
-0.000272425
0.000196033
0.000228878
3.17165e-05
0.0001155
5.52832e-05
-0.000353558
-1.8168e-05
-2.14516e-05
2.09437e-05
0.000848019
-0.000135997
-6.46509e-05
-0.000201922
6.10639e-05
0.000102883
-0.000554296
8.53924e-05
-0.000244051
-0.000152815
2.01481e-05
0.000432082
0.000258193
-0.00068697
-6.44825e-05
-0.000370715
0.000898942
-3.95223e-05
0.000354714
9.37032e-05
-0.00034168
-4.74524e-05
-0.000397456
0.00109587
0.00129734
5.67077e-05
0.000279112
-0.000109903
0.000149406
0.00175953
0.000793187
-0.00038641
0.000974294
0.000232367
-0.00208801
0.00154941
0.000200062
0.000490893
-8.92841e-05
0.000347984
-6.93145e-05
0.000794197
-0.0004103
0.00018819
0.000251905
0.000138649
-0.000949127
-5.25426e-05
0.000219964
0.000175477
-2.24396e-07
8.40839e-05
0.000586304
-0.000147243
-0.000140364
8.49328e-05
-0.000567235
-0.000702963
-6.30154e-05
-8.71556e-06
0.000207536
6.42794e-05
0.000312499
0.000412714
-0.000672494
0.000144744
0.000505969
0.000173266
0.000115748
0.000839777
9.6684e-05
-5.50025e-05
-8.50768e-05
-6.4583e-05
-1.25501e-05
6.35093e-05
0.00142272
1.91062e-06
0.000128986
-8.89107e-05
-2.2745e-05
-0.000290255
0.00065815
-2.51827e-05
-0.000161225
-0.00171384
0.00807949
0.00288123
0.00798453
0.00137085
0.00337355
0.00200073
0.000119651
9.46611e-06
0.00148502
0.000403674
-6.8077e-05
-0.000353643
-0.000218179
0.000696145
0.000719696
0.000834846
0.00531173
0.00370318
0.000586815
0.000188015
0.00823863
-0.00029616
0.000331777
0.000610482
7.93242e-05
6.77021e-05
0.000283774
-8.25811e-05
9.82979e-05
0.000167573
9.25645e-05
0.000708449
0.00131444
0.000742434
0.00160301
0.000256353
0.00040132
0.000979513
0.00143355
0.00221531
-0.000107532
0.0129696
0.000713712
0.000317106
0.000938385
7.22148e-05
0.000142936
0.000287205
-0.000752075
1.57944e-06
-3.71388e-05
0.000129767
-0.00192098
0.00156885
0.00148821
0.00150818
2.63662e-05
0.00354126
-0.000691026
3.71686e-06
0.001241
-0.000170924
0.00137587
-7.21331e-06
0.000853747
0.000438774
7.61453e-05
1.29415e-05
-0.0015655
0.000291085
0.000336027
4.42104e-05
0.000234147
0.000219885
-0.000574639
0.00276674
-0.000115906
0.000157179
6.12318e-05
0.000142179
0.000195901
0.0028291
4.98988e-05
-0.000186954
0.00107163
0.000160046
0.00020494
-0.0021769
1.61968e-05
-0.000325047
3.46591e-05
0.00015509
-0.000625533
-0.0115071
-0.000326062
-0.00369441
-0.000727663
-0.000672243
-0.000187721
-0.0172734
-0.000182377
-0.0029899
-0.000694832
-0.000355018
1.55926e-05
-0.00774032
-0.00019664
-0.0021313
-0.000481128
-0.000142114
0.000299023
-0.00748788
0.000479477
-0.00233852
-0.000109422
0.000197972
0.000608375
-0.0133782
0.00496511
0.00155372
0.00494448
0.000765243
0.00151171
0.00129439
-0.00171781
-0.000130257
0.000357549
0.00099667
0.00111228
-0.00251875
-0.000136826
0.000145958
0.000596935
-5.97439e-06
-0.00718596
0.000230507
-0.00182366
-6.72439e-05
9.46606e-05
0.000662454
-0.0138618
-6.94936e-05
-0.00270551
-0.000385824
-0.000226497
0.000168299
3.4014e-05
-0.00483828
0.00587517
0.00165288
0.00442112
0.000889494
0.00209173
0.000256403
-0.00140084
-0.00022132
0.000463448
0.000565638
-0.00207992
0.00595889
0.00191227
0.00521797
0.000892835
0.00224413
-0.00132409
-0.000203725
0.000639318
0.000691418
-0.0021247
-0.00227755
-0.000114597
-0.000292154
9.07405e-05
0.000149594
7.87349e-05
-0.00730768
-0.000689552
0.000189448
-0.000793745
1.83717e-05
-0.00263168
0.000267028
4.67642e-05
-0.00083564
-1.1563e-05
-0.00191736
0.000798137
-8.25179e-05
-0.00105473
-0.000236133
1.86457e-05
-0.000171446
-0.00128609
-0.000299421
-0.000194972
5.22785e-05
-0.00382022
0.0012958
9.49887e-05
-0.000320384
-0.000107563
9.68909e-05
-0.000164246
-0.00140242
-0.000192621
-0.000190565
-2.61535e-05
-0.00595175
0.00202552
-0.000279771
-0.000669934
-0.000324294
-0.00026001
-0.000151974
3.93793e-05
-0.000209272
0.000159083
-0.00231377
-0.000282973
-0.000763804
-0.000295717
-0.000293568
0.000136129
-0.003221
-0.00111795
-0.000341701
-0.00145101
-0.000351083
-0.000261006
0.000693809
-5.27865e-05
0.000677261
0.00108384
0.000113925
0.00265252
-6.40929e-05
-0.00108269
-0.000169017
-0.000336596
2.40333e-05
-0.00218408
0.00271802
-0.000433363
-0.000308922
0.000792761
0.00045936
0.000479019
-0.000199031
-2.55026e-05
-0.000680966
5.81215e-05
0.000164021
0.000137069
-0.000174325
-0.00178239
-0.000390646
-0.0178936
4.44888e-05
-0.00290004
-2.64505e-06
-0.000560974
0.000108417
0.000383638
-0.000284897
-0.000267872
-0.000100464
-0.000196698
-0.00180199
-0.000114841
-0.000118196
-0.000104095
-0.000248384
9.58194e-06
-0.000209526
-0.00393487
-7.61504e-05
0.00121367
-0.000120164
-0.000202396
2.83876e-05
-0.000299178
-0.00256367
-0.000172432
0.00026572
-0.000121972
-0.000276465
5.54523e-06
-0.000120344
-0.00257222
0.000160319
0.000267911
-0.00100553
-7.56158e-05
-0.00118939
1.50124e-06
-0.000155612
-2.00373e-05
-5.19724e-05
6.63212e-05
-0.00171003
-0.000184825
0.000201601
-0.000146697
-7.67082e-05
7.62076e-05
-0.000110404
-0.0014313
-2.68371e-05
1.65567e-05
-0.00011956
0.000115949
4.17502e-05
-0.000140377
-0.00108475
-5.65702e-05
0.000587976
-0.000178163
-0.000262417
-6.85324e-06
-0.000262972
-0.00268592
0.000391738
-0.000308986
-0.000228756
0.000186658
6.38012e-05
-5.93295e-06
-0.000452693
-4.159e-05
0.000195783
-0.000233327
-0.000289092
9.08667e-06
-0.000188975
0.00179418
-8.54319e-05
-2.12341e-05
6.81881e-05
4.68253e-05
-0.000184483
-0.00172634
0.000250666
-7.95151e-05
5.5367e-05
0.000205381
4.16196e-05
-0.000322109
0.000154028
0.000609808
6.10675e-05
0.000364245
2.46945e-05
0.000352628
-0.000382592
-0.000331512
-0.00096353
-0.000366028
-0.000124921
-0.000131427
-0.000273572
-0.000292347
-2.23939e-05
-4.29504e-06
-0.000984674
-0.00434981
-0.00104429
-0.00397522
-0.000971637
-0.00108749
0.0005408
0.00319909
-0.000550642
-0.000633103
0.00235705
-0.00429895
-0.000878602
-0.00425797
-0.000793332
-0.000813325
0.000312844
0.000244781
-0.000834647
-4.61983e-05
0.000726299
-0.000552723
-0.000133613
-0.000844068
-0.000228642
-0.000160242
0.00173806
0.00346654
-0.000282383
-0.000299014
-0.000186896
-0.00227285
0.00056385
-0.00017176
-0.00013641
-0.000282663
-7.20824e-05
-0.000218721
0.000147395
-0.000187122
-0.000397738
-4.0885e-05
-3.21251e-05
-0.00133879
-0.000173876
-0.00101877
-0.000240228
-0.000119032
-0.000166834
0.000110682
-0.000610907
-0.000303501
1.68337e-05
-0.000358451
0.000334257
-7.98796e-05
-0.000295675
-0.000196527
0.000144683
0.00181624
0.00172259
-0.000965858
-0.000186399
-0.000246613
0.0190328
0.00028863
0.00162462
-0.000998093
-0.00104629
-5.37802e-05
-0.000397978
0.00745036
-0.000229516
-0.000119167
-0.000548061
-0.000153513
1.30791e-05
0.000495776
6.21886e-06
-0.000156014
8.50495e-05
-2.66792e-05
-0.000805241
-0.00128499
-5.52766e-05
0.000216688
-6.68716e-05
-2.95682e-05
-0.000406732
2.32707e-05
-0.000153263
-2.59209e-06
0.000113489
0.00143303
-0.0012985
-7.27087e-05
3.00826e-05
-0.000106638
-8.42912e-05
-5.83048e-05
-3.06033e-05
-6.16263e-05
3.5712e-05
5.00945e-05
0.000955219
-0.000140492
0.000110521
0.000163017
-3.68288e-05
0.000130103
-0.000195771
0.000434866
8.07981e-05
2.66547e-05
-3.16335e-05
0.00398232
0.000972626
0.00021674
0.000321723
4.11997e-05
0.000312629
0.000119109
-0.000214292
-0.000382885
-5.34614e-05
0.000211942
-0.000795486
0.00399632
0.00123019
0.00432156
0.000773388
0.00131684
0.00132728
0.000584425
-0.000110669
0.000642283
0.00011028
-0.00136938
0.00167416
0.000492429
0.0012594
0.000156576
0.000845127
0.00042987
-0.0125183
0.000132254
0.000707295
-0.000111913
0.00360498
-6.2489e-05
0.000605711
-0.000122957
1.85443e-05
-8.54713e-05
0.0005943
0.000383756
-0.00107961
-9.0173e-05
0.000226318
-0.000334075
-0.000861998
0.000918824
0.000182867
0.000808746
-9.14396e-05
0.000109049
-0.000199292
-0.00176367
-0.000112311
-4.47519e-05
-0.00013278
0.00999919
-7.38331e-05
0.000243556
0.000570828
9.01235e-05
0.00019267
-0.000346062
-0.0542452
0.00022413
-6.20659e-05
-0.000174242
-7.39632e-05
0.000458735
0.000964466
-0.000327564
-1.43361e-05
-0.000220937
0.00624015
0.000424608
0.000279523
0.00140472
5.49235e-05
8.00921e-05
-0.000581839
0.0010533
-0.000721426
-0.000261853
-0.000266708
-0.00607667
0.000350485
7.76713e-05
6.62766e-05
2.52014e-06
2.61596e-05
-0.000308923
0.00402525
0.000260733
2.12634e-05
0.000383617
-2.20399e-05
-1.59525e-05
-6.46e-05
-0.000125159
0.000125955
-0.0001533
0.000137063
3.62563e-05
3.4428e-06
-0.000641896
0.00797345
-0.000137537
-0.0142097
-0.00597692
0.0005927
-5.52239e-05
-0.000197213
-0.000117627
-0.000746367
-4.5688e-05
0.000171749
-9.25974e-05
0.000210894
0.000426841
-2.18484e-05
8.88898e-05
0.00151061
-0.000129761
-0.000807255
-0.000139526
-6.80354e-05
-0.000164434
-0.000266856
-0.000319907
0.00205312
-2.04931e-05
9.61428e-05
-8.28258e-05
-5.73856e-05
-0.000120944
-0.000352271
-0.000584372
0.000273454
0.000184324
0.000846745
4.50933e-05
0.000213852
0.000352539
0.00021521
-0.000277287
0.000432869
2.40587e-05
0.00369308
6.63175e-05
-0.00118569
-6.6121e-05
-9.87444e-05
-0.000128298
0.00610472
-8.27543e-05
0.000283148
0.000187582
1.96535e-05
1.34043e-05
-0.00025468
0.00201529
0.00130745
0.000265674
0.000447096
0.00100675
-0.000145856
0.0140969
0.000828964
0.000158928
-1.76416e-05
0.000375003
-0.000203161
-0.000205932
-0.000817459
-0.000276693
-0.000569984
0.000112086
2.53097e-05
-0.000563266
-0.000229764
-0.000180062
-0.000162401
-0.000394678
-0.000599695
0.000380646
0.000294781
6.54536e-05
-0.000810539
0.000316137
-5.63535e-05
-0.000232434
-0.000361728
-0.000136297
-0.00030813
0.000558262
0.000873578
-0.0001902
0.000985027
0.000249083
0.0016629
0.000586752
0.00106736
6.64651e-05
5.01608e-05
-0.00028206
9.08761e-05
0.00385086
-0.00512512
-0.000996663
-0.000313505
-0.000640793
-0.000519813
-7.53466e-05
-0.000835716
-0.000561573
-0.00056107
-0.000243466
-0.000667857
-0.00481615
-0.00115164
-3.30348e-05
4.46894e-05
-0.000360755
0.000507578
0.000351878
-0.000611087
-0.00032429
-0.000181462
-0.00038113
-0.000316362
-0.0110721
0.000315895
-0.000253355
0.000159575
1.9071e-05
-0.00028518
0.000389573
0.000404938
0.000123305
-2.57842e-05
3.17516e-05
-8.04532e-05
0.00202468
0.00681506
0.000376279
0.000263496
0.000479128
-0.000418661
0.00124799
0.00117319
0.000140707
-4.1017e-06
-6.87128e-06
0.000130205
0.0253553
0.00188037
0.000179105
2.95488e-05
0.000225186
-0.00120862
0.000177979
0.000517544
7.61878e-05
-5.4431e-05
-2.80696e-05
5.10222e-05
0.00096727
0.000932558
0.000254132
0.000236052
4.14426e-05
1.61568e-05
0.00054327
9.60128e-05
-7.34018e-05
-0.000249183
-4.71204e-05
-0.000166573
0.00576824
-0.00699217
0.00249729
-0.000511907
-0.000569036
-0.000596578
-0.000966946
3.91637e-05
-0.000469879
-0.000354244
-0.000543086
-0.000426265
-0.000650473
-0.00283267
0.00249626
-0.000518073
0.00274914
0.000843088
0.000876195
-0.00024091
-4.83358e-05
0.000889915
0.0012169
0.00123264
-0.000285911
0.0014612
0.000917649
-4.75087e-05
7.1847e-05
-8.32332e-05
-2.19122e-05
-0.000305886
0.000125232
0.000104247
5.71173e-05
-0.000125809
-9.89893e-05
-8.87685e-05
0.00353259
0.000325319
-3.37784e-05
6.2559e-05
0.000253262
0.00106784
-0.00036215
0.000625747
5.28045e-06
-0.000296041
-0.000383723
-0.000303552
0.0197328
0.000646464
-0.000679419
9.04579e-05
-0.000246994
-0.00028754
-0.000114382
-9.51232e-05
-9.67088e-05
-0.000145902
-2.40596e-05
-0.000238915
-0.000696614
0.00507474
0.000899183
0.000239159
0.000447715
0.000203669
-0.00048391
0.000211479
0.0011284
5.96448e-05
-0.000224352
-0.000207971
4.66476e-05
0.0179273
-0.00640383
-0.000104552
2.6035e-05
-0.000720122
-0.000162574
8.99592e-05
0.000132903
2.08466e-05
-0.000126858
-0.00543436
0.000363111
0
-0.00033661
0.00154161
0.000702675
0.000679855
-0.00147569
-2.71581e-05
-0.000200997
0.00169081
0.00147342
0.00075132
0.0015628
0.00106527
0.000130293
0.00019322
-0.00170509
-0.00203879
0.00031492
0.00024523
-0.000568837
-0.000625871
3.01933e-05
0.00102122
-0.00187885
-0.00135231
0.000424617
-0.00104984
-0.00224518
-0.00119956
-0.000157615
-0.00141453
0.000121674
-0.000345417
-8.67682e-05
0.000257199
-0.00115812
0.00059895
-0.000253151
0.000593332
0.000466612
-0.00110091
-0.00234036
-0.000768322
-0.000591254
-0.000758188
-0.000723325
-0.000704219
-0.00261666
-0.00293626
-0.00065329
0.000243932
0.00490135
0.00115848
-0.00129367
-0.000469927
0.000839993
-0.00196644
-4.87096e-05
-0.000688147
-0.000383037
-0.000635173
0.000316485
-0.00117946
0.000118143
-0.000953002
-0.000126977
0.000164816
-0.00179546
-0.00132237
-0.00162503
-0.000270533
-0.00144451
0.000657353
-0.000666287
-0.000657506
-0.000168444
-0.00122274
0.00147837
0.00203587
0.000898289
0.000914569
-0.00203519
9.3579e-05
-0.00134217
5.2832e-05
0.00047016
3.43951e-05
0.00439828
0.00047915
-0.0010447
0.000487538
0.000233562
-0.0015133
0.000513237
0.000253118
0.00105099
-0.000626955
-0.000309774
0.000335694
0.00224418
-0.000884279
0.00159864
-0.000536096
-5.88917e-05
-0.00196727
-0.00159037
0.000106269
0.000662398
0.00905985
0.00755711
-0.000199864
-0.00040154
-0.00109993
-0.000775643
0.00030196
-0.00276718
0.00163448
-0.000658486
0.000376097
0.000855425
-0.00742835
-0.00225576
0.00296682
-0.00362213
-0.000198612
-0.000188043
0.00142266
0.0921712
0.00190936
0.00495759
-0.0127428
-0.00361712
0.00142875
0.0123395
0.00312455
-0.00116377
-0.0262528
0.00416076
0.00225924
0.00136824
0.00134082
0.00247719
-0.00138562
-0.00973119
0.00234382
-0.00292322
0.00111103
-0.00105925
0.00511652
-0.00424482
-0.00047565
0.000664685
-0.00100014
-0.00463149
-0.00624082
0.0341632
7.67549e-06
-6.48834e-05
-0.000540241
0.000900693
-0.000749652
0.00139254
0.00164569
-0.000460471
0.00191708
0.00137819
0.00283009
0.000904205
0.000539906
0.0024935
-0.00120453
0.0185861
0.000413372
-0.00174078
0.0020939
-0.000257078
-0.00118203
0.0040882
0.0211939
0.0120241
-0.000774844
0.0299567
-0.00377144
0.0235057
0.0095763
0.00202718
0.0187104
0.000213642
0.000617997
-0.0018601
0.00246076
0.00040443
0.00504755
0.00275142
-0.00166216
0.00215229
0.00260575
0.00916898
-0.00519511
-0.013249
-0.0272269
-0.031419
0.0212286
0.01022
-3.24368e-05
-0.00163138
0.0232419
-0.0197862
0.00909193
-0.0041379
-0.0051924
0.00618
0.00233139
0.00422807
-0.000224774
-0.00890233
-0.00239531
-0.0035521
-0.0020216
-0.0131798
-0.0155785
0.00154043
0.00367947
-0.00180776
0.00553487
-0.0113859
-0.00954482
-0.00428282
0.00168354
0.000781258
-0.00075903
0.000329025
-0.00375376
0.00641061
-0.00218581
-0.000920846
-0.00281201
-0.000267727
0.000136757
-0.00512937
0.00597795
0.00295061
-0.00246651
-0.0019862
0.00140193
-0.000698088
-0.000659607
0.0134866
-0.0167712
-0.00166172
-0.000585001
-0.00643143
0.00450273
0.00176357
-0.00212028
-0.00223606
-0.00148088
0.000401552
0.00235163
-0.00168887
-0.00201283
0.00328463
0.00289987
-0.00177865
0.011251
0.0133868
-0.00910178
-0.00456781
-0.00522058
-0.00732942
-0.0191678
0.000307285
-0.00362505
-0.00204524
-0.0150899
-0.000628787
0.0107793
-0.00183612
-0.00782474
0.000541307
0.000655022
-0.00753262
-0.0176089
-0.000174119
-0.00204981
0.0135339
-0.00662386
-0.0186697
0.00355456
0.000162738
0.00627427
0.00709595
-0.00305397
-0.00271961
0.000667784
0.00246642
0.0144269
0.0141807
0.0018215
0.00759419
-0.00169928
-0.000398384
0.00170788
0.00302824
0.000157503
0.0019317
-0.00313882
0.00492425
0.00632777
0.00737159
0.00448231
0.00191424
-0.000818035
0.00230174
0.00693849
0.00177819
0.00504919
-0.0011046
0.000157197
0.00111704
0.00822981
-0.00187986
0.00107644
0.0300755
-0.00653065
0.00173908
0.0239862
0.00255594
-0.00272995
-0.00168227
0.0117518
-0.00178581
-0.00110342
-0.00115075
-0.00511598
-0.00829471
-0.00767288
-0.00757245
-0.00936481
0.000286216
-0.00202938
-0.00316378
-0.00384707
-0.00381712
-0.00369198
-0.00531829
-0.0053117
0.000890514
0.00268692
-0.00178832
-0.0239605
-0.00582301
-0.00115516
-0.000535189
-0.00210344
-0.000626051
0.00222569
-0.00284905
-0.0026895
-0.00328155
-0.00393336
0.00854174
0.000927007
0.00820286
0.00183803
-0.0113244
-0.00202633
0.00534759
0.00228439
-0.0126224
-0.0019815
-0.00449197
-0.0189753
-0.00345388
-0.00463684
0.0006339
-0.000269718
-0.00133863
-0.00835131
-0.000608257
0.00129021
0.00310259
-0.00589283
0.000198823
0.0128792
-0.0014169
-0.00212549
-0.0167777
0.00387837
-0.00479746
0.00264881
0.00108902
0.00322673
0.00368864
-0.0510414
-0.0371681
-0.0392895
-0.00106193
-0.00830345
0.00323486
-0.00460493
0.00120834
0.011139
-0.0149254
-0.000109936
-0.0340093
0.000569574
-0.0120932
-5.97912e-06
0.000471558
0.00471071
0.0391486
0.00748094
-0.000868154
0.00231925
0.0269677
0.000782369
-0.00155335
-0.00472762
-0.0053678
0.0452001
0.00926274
0.000743971
0.000819433
-0.00111125
0.0330338
0.00162797
-0.000566269
-0.00684005
0.000868816
0.015169
0.00306413
0.000474356
-0.00150021
-0.000663945
0.00413027
-0.000593792
0.000828173
-0.00292108
0.000588298
-0.0246277
-0.0068299
0.000143969
0.00223224
0.030898
-6.8647e-05
-0.00740763
0.0143884
-0.00474987
0.00424513
-0.0349912
-0.000302594
-0.000960196
0.00183711
0.00145051
-0.00133935
0.000830862
-0.00625164
0.000723672
-0.0259359
0.00197452
-0.0014049
0.00102811
-0.00755677
0.00124645
-0.0308365
0.000471616
-0.0103563
-0.00929141
-0.0113175
-0.00891025
-0.00282923
0.0330547
-0.00429233
0.01119
-0.00592938
0.00237929
-0.0430989
-0.00913798
-0.00351382
-0.0037937
-0.00111006
-0.0472229
-0.0017683
0.00812999
-0.00105591
-0.0034145
-0.000192
-0.000880273
0.000955391
0.00626282
0.000132657
-0.00187132
-0.0224064
-0.00285417
0.000270089
-0.000142878
0.00631021
0.0138693
0.0017468
0.00657524
-0.0108881
-0.0388571
0.0379279
-0.0160176
0.00511263
0.00272786
-0.0206366
0.00820766
0.000803369
0.00727035
0.00941221
0.00976531
0.00613869
0.00343216
0.00699511
0.00896092
0.00712506
0.00766743
-0.00362037
-0.0542164
0.00391162
0.00618554
0.00672582
0.0105546
0.00379152
0.0260403
-0.0213776
0.00278085
0.00250935
0.0243258
-0.0157899
0.00495588
-0.0550343
-0.000198732
-0.118225
-0.00529469
0.00266326
0.00745993
0.00146772
0.0164203
-0.0299214
0.0346971
0.00705266
0.0111416
0.00905661
0.00786592
-0.0040288
-0.000315112
0.0069621
0.0304856
0.0176582
-0.0243413
0.017594
-0.0214142
0.0139992
0.0128975
0.0453018
0.00980599
0.0273789
-0.00245029
-0.0313407
-0.0233998
-0.0138918
-0.0242961
0.00755179
0.00419992
0.00154539
0.028534
0.0307669
0.0374125
0.00281478
0.00278233
0.0063498
-0.00240628
0.00339235
-0.00118317
0.00952936
0.00491702
-0.0556497
0.0185145
0.0153813
0.00219506
-0.00539981
-0.00203787
-0.0128972
0.00239768
0.00504552
-0.0111949
-0.00014264
-0.0238593
0.00237584
0.00393486
0.000196788
0.0022938
0.0265768
-0.00809346
0.00346307
-0.00250876
0.00330193
-0.0602005
0.00494554
0.000425793
-0.0165947
0.00939875
-0.00105967
0.00957335
-0.00211975
-0.0107378
-0.0107275
0.00756264
0.00880009
0.00432968
-0.000527644
0.00188607
2.42715e-05
0.00967569
0.00160897
-0.00447705
-0.00143251
0.00456461
0.00136839
-0.00278777
0.00379488
0.000629048
0.00520549
0.00881006
0.000248004
0.0181245
0.0065646
0.0116487
0.00452828
-0.00175682
0.0002361
0.0016412
-0.0306399
-0.0382309
-0.000482154
0.00100097
-0.00134647
0.0207561
0.01293
0.00280407
-0.00660236
0.00575119
-0.00105883
2.66146e-05
4.91075e-05
0.000514801
0.000736359
-0.00191498
-0.00685681
-0.0269169
0.00201639
-0.0355302
-0.014626
-0.0127036
-0.0375442
-0.00810375
0.0040825
-0.000418809
-0.00314883
-0.0115454
-0.000319829
-0.0363668
-0.0156784
-0.00294923
-0.00622352
-0.0157406
-5.21962e-05
0.00819562
-0.0032449
-0.0113711
0.0291635
0.00937894
0.00373046
0.00476621
-0.000520579
-0.00785416
0.0151789
-0.0341198
0.0143055
0.000765184
-0.00763245
-0.00841182
-0.00519129
0.00347052
0.00927572
-0.000316558
0.00123918
0.000859577
-0.000586529
-0.00253099
0.0178428
-0.00170773
0.0015325
-0.0393181
-0.0759428
-3.56142e-05
-0.0196939
-0.0263721
0.0126161
0.00884262
0.00386357
0.00276986
0.00383245
-0.0085975
-0.00259188
-0.00212719
-0.00257221
0.000396343
0.000640795
-0.0136334
-0.0303081
-0.000275975
-0.00419266
0.00563987
0.000349162
0.010952
-0.00353493
-0.00203055
-0.000146188
0.00242814
0.000529558
0.000890275
0.00361172
0.00717647
-0.0020568
0.000948919
0.000195925
0.000964569
0.00130322
0.00441594
0.00202581
-0.0518709
0.000188229
-0.00206948
0.0103781
-0.00733775
0.000958065
0.0148595
-0.0127351
-0.00404435
0.00369108
-0.00442062
0.00444399
0.00729785
-0.00576536
-0.00126523
-0.0123212
-0.00127113
-0.0517891
0.00246974
-0.00425321
-0.000205253
-0.00221573
0.000270086
-0.00698567
1.33101e-07
-0.00282845
-0.000809041
0.00241163
-0.00126811
0.000771789
0.00147155
-0.00122408
-0.00162787
0.00181228
-0.000590315
-0.00123191
-0.00144679
-0.000487161
0.000667809
0.00309709
0.00305616
0.00826767
0.000777936
0.00226297
-0.000273126
0.000959705
0.00425084
0.00368243
0.00451989
0.000906703
0.00144585
-0.000356051
0.000251508
0.000268598
-0.000408372
-0.00335425
0.000397324
0.000645711
0.00227288
0.00298141
0.00144076
0.0016546
-0.00410331
-0.000744931
-0.00220836
-0.0011303
0.000728956
0.0030941
-0.00208626
0.00197742
0.00154416
0.00234361
-0.00404352
0.00545204
-0.00102272
0.00209104
-0.000918055
-0.00110435
0.00437019
0.0011046
0.00157304
0.00167295
0.000419145
-0.00100578
-0.00111333
-6.54082e-05
-9.67534e-05
-0.00247513
0.00113061
-0.00974308
0.000202186
-0.000755455
-0.000518023
-0.01361
0.00217878
0.00021272
0.000778495
-5.8151e-05
0.00049064
-0.0020725
0.000694102
0.00492668
-0.00264309
-0.0093483
-0.00917166
0.00268506
0.0237781
0.000152933
-0.00803687
0.00123456
-0.000416445
0.000836842
-0.000113668
0.0311759
0.00044071
0.000124125
7.06557e-05
0.00314268
0.00749745
-0.00233689
-0.000389069
-0.0006908
0.00145882
0.000631073
-0.000366618
0.00901199
0.00319363
0.000355119
0.00126887
7.15131e-05
0.000700088
-0.0028705
-0.000674628
-0.00251243
0.0081001
0.000975892
-0.00819383
0.000442542
0.00140724
0.0113339
-0.000552009
0.00100596
-0.000213185
5.93913e-05
0.00205531
-0.000521836
-0.000339782
0.00572085
-0.00140985
0.00189116
0.000610293
0.000588735
0.000247851
0.00104674
0.000365769
-0.000196792
-0.000263894
-0.000457884
0.000152801
0.000274608
0.000686559
-0.0493631
0.000690738
0.00162053
-0.00017257
-0.000381283
0.000554467
-6.15488e-05
0.000179806
0.000346123
-0.000177678
-0.00397836
0.000295149
0.000265877
-1.6198e-05
-0.000513393
0.00161394
0.000285083
0.000889969
6.00348e-05
0.000204139
-0.000540149
-0.00233547
0.000662697
-2.53075e-05
-0.000764962
8.18774e-05
0.000497386
-0.0020172
3.47048e-05
0.000381046
-0.000855245
5.49276e-05
-0.000141451
-0.000480757
0.000102377
-0.000282511
-0.0016393
-0.000205972
0.000438746
0.000311583
-0.000130803
6.47612e-05
-0.000155689
-7.2175e-05
-7.34228e-05
-0.000788033
-0.00445201
-0.000515811
-0.00172513
-0.00206027
-0.000462443
-5.66426e-05
2.63723e-05
-0.0015339
0.00216262
-0.00109725
0.00301441
0.000288924
-0.000226031
-4.63868e-05
0.00024422
-0.000337718
0.000897252
-0.00215906
-0.0010214
0.000557108
-3.5772e-05
-0.000307867
-0.000218262
5.83606e-05
0.000281819
0.00248251
-0.00303997
0.00361848
-0.00246625
-0.01335
-0.00294664
0.000420823
0.000168105
-0.00406457
7.50131e-05
-0.00399018
0.00141894
-0.000352462
0.00121865
-0.000465713
4.98801e-05
-1.45761e-05
-0.00514599
-0.000116665
-0.00178686
-0.00119561
-0.000239642
-0.00583322
-0.00649474
-0.00261765
-0.000924852
0.00244399
-0.000404775
-0.000273725
-0.000220447
-0.000274696
-0.000544125
0.00148354
-0.00118167
-2.58742e-05
7.1821e-05
-0.00101696
-0.000555199
0.00144412
-0.000732595
-7.67193e-06
-0.000352081
-0.000295208
-0.000247265
-0.000693768
-0.000711984
-0.00070534
0.000863255
-0.000708415
-0.000237137
-0.000246804
-0.00246131
-0.00290692
-0.000309052
-0.000639651
0.000490508
-0.00023254
-0.000806886
-0.000248769
0.000972495
0.000230674
-0.00059122
-9.39362e-05
-0.000865714
0.000822649
0.000280795
0.000602456
-8.90847e-05
-0.000131709
6.24846e-06
-0.00010811
-0.00111894
-0.000224421
0.000936444
-6.88735e-05
-0.00055527
-0.000102737
-0.000510729
-4.74155e-05
-0.00109593
-9.41568e-05
-0.000751089
-0.000119995
8.17561e-05
-3.13449e-05
-0.000895562
0.00136501
-0.000660484
-0.00149726
-0.00227319
-0.00230929
-3.86964e-05
-0.000529382
-0.000316956
-0.000637914
-0.000115163
-0.00125448
-0.000565419
-0.000687734
3.70117e-05
9.42331e-05
-3.82256e-05
-0.000202119
-0.000161622
-0.000671912
-8.77692e-05
-0.00117883
0.000378329
0.000943156
-0.000345918
-0.000298082
-0.000480663
0.000256134
9.67642e-05
-0.000641683
7.62811e-05
-0.000339389
0.00201698
-0.000205852
0.000719396
0.000364501
-0.00080221
-0.000111006
-0.000458853
0.0027648
-0.000113837
0.000608576
7.94609e-05
-0.000343404
-5.50225e-05
-0.000430285
0.00284045
0.00201139
0.000193384
0.000825489
-2.30116e-05
0.000358507
0.00228334
0.0011499
-0.000386852
0.0023172
0.00032838
0.000509195
0.00253785
0.000446239
0.00122669
4.14232e-05
0.000653282
3.71768e-05
0.00110257
-0.000653085
0.00046862
0.000390399
0.000506581
-0.00139027
-1.07329e-05
0.000289305
0.000259604
7.87546e-05
0.000621962
0.00101713
-0.000145187
3.09353e-05
0.00018339
0.000737511
-0.000993309
-8.64418e-05
-0.000125273
0.000247855
6.97667e-05
0.00111511
0.000361527
-0.000874687
0.000233026
0.000549726
0.000208701
9.69342e-05
0.00186134
3.34902e-05
-0.00017345
-0.000166405
-8.36737e-05
6.32017e-06
0.000437715
0.000701112
-0.000209936
-0.000548301
-0.000287097
-0.00027955
-0.000389761
0.000879228
-0.00026119
-0.000332815
-0.001818
0.00743944
0.00290385
0.00801864
0.00156911
0.0032019
0.00211676
0.000180173
-0.000125825
0.0018322
0.000330662
0.00082249
-0.000445454
-0.000478149
0.000763212
0.000676058
0.00221219
0.00495189
0.00513894
0.000558974
3.00818e-05
0.0168631
-0.00164313
0.000164418
-0.000253773
-3.86898e-05
-0.000193617
-0.000105595
-0.000248979
-6.42454e-06
3.84793e-05
-9.98215e-05
0.00219187
6.14162e-05
0.000615346
0.000841412
0.000239996
0.000227726
0.000989152
0.00233219
0.00266968
-9.02722e-05
0.0222813
0.000390201
0.000379857
0.000949127
0.000131035
0.000178241
0.000344297
-0.000970395
1.59612e-05
-8.39975e-05
0.000143325
-0.00080675
0.00185927
0.00251574
0.00182069
5.88323e-05
0.0080036
-0.00085991
7.75345e-05
0.00171229
-0.000128021
0.00341222
3.08035e-06
0.00103422
0.000988358
5.78548e-05
5.58844e-05
0.00035516
0.000337115
0.000375936
0.000190863
0.000245967
0.000265157
-0.000641634
0.00734842
-0.000135043
0.000196277
0.000102252
0.000131069
0.000219755
0.00636499
5.14105e-05
-0.00029994
0.00187522
0.000130028
0.000215612
-0.00171658
1.08784e-05
-0.000348146
6.20342e-05
0.000158688
0.000237644
0.00233572
0.000303441
-0.00014605
1.42367e-05
0.000256977
0.000147352
0.0050541
1.16463e-05
-0.000409814
8.68581e-05
0.000133929
-3.22896e-05
0.00270984
-0.000195541
-0.000197823
-0.000112587
0.000106001
3.33317e-05
0.00126289
9.83165e-05
-0.000389849
0.000423554
0.000431983
0.00018245
0.00102712
0.00232513
0.00109332
0.00345035
0.000813201
0.000831346
0.000933481
5.44048e-06
0.000425029
0.000497922
0.000258221
0.000251515
-0.000561285
0.000798226
0.000314077
-4.39731e-05
-0.000870291
0.00335967
-0.000218272
0.000299715
0.000664303
0.000255049
0.000134487
0.000942079
0.000197236
-0.00128448
-0.000176909
0.000350087
4.62878e-05
-0.000258083
0.00169452
0.00488133
0.00182718
0.00525469
0.00115287
0.00191973
-1.65707e-05
-0.000588993
-0.000138702
0.000675787
0.000188765
0.00269767
0.00503479
0.00177923
0.00547678
0.00101093
0.00185578
-0.000578815
9.29905e-05
0.00100667
0.000574978
0.000467968
-0.00143114
0.00028927
0.00010761
3.08455e-05
-8.13253e-05
-9.71996e-05
0.0043715
0.00026656
0.000697039
-0.000382915
-0.000235161
0.00137264
0.00120347
0.000548808
-0.000185851
-0.00012579
0.0035515
0.000895901
0.000128752
0.000110385
-1.14791e-05
0.000201745
-0.000228498
-0.00121286
-0.000300954
-1.72578e-05
-0.000109948
-0.000983034
0.000960577
0.000236784
0.000735666
8.59827e-05
0.000240172
-0.000293658
-0.00128246
-0.000161733
-7.85167e-05
-0.000184117
-0.00175035
0.0019779
-0.000175125
-7.27017e-05
-0.000194344
-0.000145812
0.000297595
0.000240567
0.000262172
-2.10029e-05
0.00374988
-0.000266645
-0.000297779
-0.000311494
-0.000123889
-9.673e-05
0.000204738
-0.00209608
-0.000291271
-0.00110844
-0.000284089
-0.000326344
0.000166065
0.000326413
0.000666105
0.00144699
-0.000351458
0.00879523
-0.000298478
-0.000792364
-0.000199303
-0.000294548
-0.000359906
0.00076745
0.00224169
-0.000190377
-0.000433679
0.000597693
0.000125002
0.000391532
0.00480237
3.91104e-05
-0.000523578
0.000382322
0.000358808
5.08639e-05
-0.000213611
0.00190754
-0.000218513
-0.0127464
0.00173492
0.000369947
-0.000165806
0.0116616
0.000137806
0.00133287
-0.000110092
-0.000267476
-0.000318049
-0.000384313
0.00126415
-3.31979e-05
-1.31333e-05
5.80781e-05
-2.91978e-05
-6.92606e-05
-0.000246751
0.00349433
6.80037e-05
0.00122989
5.66583e-05
5.211e-05
2.08444e-05
-0.000274094
0.00089716
-6.18402e-05
0.000340778
6.37291e-06
-7.45842e-05
-6.04768e-05
-0.000145448
0.00198538
0.000107322
0.000491763
-0.000312317
-0.000199152
0.00176054
4.49588e-05
-9.81213e-05
0.000135861
0.000120376
2.97448e-05
0.00108248
-0.000113435
0.000244421
-0.000149728
3.40463e-05
-2.58265e-05
-0.000183106
0.00143948
-4.11721e-06
-3.99377e-05
-0.000167346
0.00032033
-3.14669e-05
-0.000198837
0.00405323
1.02841e-05
0.000622332
-0.000124371
-3.70556e-05
-3.87964e-05
-0.000284931
0.000498367
0.000420491
-0.000433169
-0.000257369
0.000212586
-6.33195e-05
-8.51718e-05
0.00269033
6.27019e-05
0.000119964
-0.000137297
-9.67862e-05
-8.40586e-06
-0.000136753
0.00674395
-2.32094e-05
0.00018203
8.52285e-05
-2.58269e-05
-0.000251141
0.00161966
0.000390696
-8.53144e-05
0.000360814
0.000462396
4.19196e-05
0.00224404
0.000332842
0.000480418
0.000290048
0.000822121
5.94842e-06
0.00282999
3.24069e-05
-0.000121372
-8.30098e-05
-0.000197472
6.25869e-05
-4.25584e-05
-0.000271971
-0.000369304
7.4514e-05
-0.000122926
-0.000340958
-0.00241721
-0.000572232
-0.00199626
-0.000588962
-0.000524987
0.000655992
0.00578938
-0.000340044
-0.000931833
0.00232246
-0.00313479
-0.000558483
-0.00296447
-0.000518794
-0.000421673
0.000378513
0.000467342
-0.000459249
-0.000103593
0.0039265
-0.000849735
-3.57541e-05
-0.000371629
-0.00011638
-6.07534e-05
0.00253191
0.00822209
-0.000115429
-0.000299878
-0.000185462
-0.00134164
8.61963e-06
-0.000180496
-1.40867e-05
-0.000245651
-0.000149353
-0.000211536
0.000380238
-0.000194225
-0.000444116
-0.000151571
0.000504861
-0.00238526
-0.000221956
-0.00132013
-0.000236636
-0.000335809
-0.000149117
0.00026712
-0.000958998
-0.000320382
-6.98453e-05
0.000723151
0.000582157
2.93965e-05
0.000209371
-0.00011374
0.000244123
0.00182931
0.0034952
0.00021175
-0.000269216
-0.00033059
0.0376446
0.000333537
0.0016808
-0.0016227
-0.000160036
-7.77613e-05
-0.000555102
0.0140816
0.000145621
0.000117445
0.000485296
5.52857e-05
0.000273765
0.00079316
0.000195598
0.000186768
8.69696e-05
2.51031e-05
0.00173191
-0.00158948
9.62562e-05
0.000954722
7.44788e-05
9.12266e-05
-0.000449171
-1.37621e-05
-0.000249599
-4.6838e-06
-1.11404e-05
0.00509552
-0.00182476
3.17994e-05
0.000554173
-4.79731e-06
-1.3942e-05
-6.8169e-05
-4.83363e-05
-0.000144315
7.72161e-05
-0.000118354
0.00324285
-0.00058024
0.000127682
0.000272588
-5.83679e-05
8.83379e-05
-0.000325469
0.000186816
4.15227e-06
-8.64982e-05
-0.000402557
0.00608821
-0.000270429
0.000107498
-2.88789e-05
-2.87918e-05
8.67809e-05
-2.93901e-05
-0.000443867
-0.000783436
-5.85283e-05
-4.83359e-05
-0.00128339
0.00249869
0.00113824
0.00387486
0.000828944
0.0012075
0.00133371
0.000684788
-0.000172378
0.000739281
5.08536e-06
-0.00169513
0.00141122
0.000565786
0.00141806
0.000258884
0.000695705
0.000389647
-0.0111498
0.000177745
0.000953161
-0.000324269
0.00738553
-0.000186533
0.00052976
-0.000223007
2.50834e-05
-0.000232306
0.00381321
0.000398845
-0.00140476
-0.00013851
0.000374043
-0.000352383
-0.00036403
0.000975485
0.000282589
0.00114785
-4.16248e-05
0.00016581
-0.00013798
-0.00226145
-8.9191e-05
0.000344056
-0.000235766
0.0150086
-0.00069314
0.000279121
0.000465163
0.00016888
0.000163044
-0.000411643
-0.0508864
0.000374764
-8.16083e-05
-0.000294756
0.00135189
0.000894541
0.000895748
-0.000529242
7.0861e-05
-0.000294936
0.0163484
-0.000308512
0.000273735
0.00150855
5.23142e-05
-4.08367e-06
-0.000745319
0.000834768
-0.000814696
-0.000118943
-0.0003867
-0.00587606
0.000300266
-0.000121694
9.29149e-05
-0.000217283
-9.83547e-05
-0.000480971
0.00853665
0.000204036
-0.000184678
0.00062072
-0.000174625
-0.00014143
-0.000153986
0.003348
0.000157467
-0.000623736
0.00011208
0.000194309
-7.05662e-05
-0.000813399
0.0134813
-0.000156418
-0.00969564
-0.00711912
0.00106161
-9.9894e-05
0.00392426
-0.000164369
-0.00117111
-0.000101985
-0.00250487
-0.00132728
-0.0503708
-0.000517221
-0.00619118
-0.00144953
-0.00231977
-0.000186725
-0.0203873
-0.00320276
-0.0013833
-0.00142047
-0.000629532
-0.000713686
-0.0223314
-0.00038617
-0.00265008
-0.000918549
-0.000668671
-0.000109097
-0.000250499
-0.0238289
0.000572112
0.000162704
-1.57585e-05
-0.000136643
0.000398132
0.000398932
-0.00281082
-0.00171983
-0.00112597
0.000942707
-0.0153171
-0.00161677
-0.00279301
-0.000723409
0.000569478
0.000269061
-0.0141528
-4.51059e-05
-0.00213082
-0.00023532
-0.000420706
0.000103132
0.000352279
-0.0200067
0.00223432
-0.00118405
0.000597356
0.000953761
0.000454355
-0.00634045
0.00129931
-0.0044084
-0.000249753
0.000176255
0.000121101
-0.00455273
-0.000329914
-0.000142324
-0.000324915
-0.00272705
-0.000122277
-0.00121758
-6.46373e-05
0.000166911
-0.000370138
-0.000108288
-0.00818874
0.000516103
0.00104023
0.000402074
-0.00462221
0.000237247
-0.000143253
8.49428e-06
8.20655e-05
-0.000353353
9.44067e-05
-0.0041376
0.000927989
-0.000156011
0.00145577
0.000310901
-0.00282472
0.000308361
0.000595094
7.02521e-05
0.00029284
-0.000399991
0.000456641
-0.00275897
-0.00596363
-0.00108083
0.000196128
-0.000403719
-0.00426428
-0.000516203
-0.00141391
-0.000425717
-0.000275296
-0.000467823
-0.000347213
-0.0181149
-0.00223
0.000234787
0.000826431
-0.000207789
-0.000423965
0.000153439
-0.00133402
-0.000291493
1.85661e-05
-0.000786266
-2.26281e-05
-0.0275261
-0.000221663
-0.000267517
0.000207935
0.000128896
-0.00156615
2.0294e-05
0.00012567
0.000162512
0.000297967
-0.000270331
0.000171498
-0.00321253
0.00732571
-0.000117837
0.000383949
0.00042144
-0.0024366
0.000895534
0.000808383
0.000207648
0.000311669
-0.000357327
0.00036411
0.0232249
0.000959636
1.98697e-05
-3.45344e-05
-4.02536e-05
-0.00275394
-0.00030417
-0.000156113
-7.2929e-06
1.58712e-05
-0.000523964
-1.27504e-05
-0.00487577
-0.000294033
-9.13172e-05
0.000198624
-0.000155452
-0.000699268
0.000205577
-0.000392502
-0.000268601
-0.000239003
-0.000553132
-0.000199417
-0.0113154
-0.0196778
-0.000612856
-0.000859236
-0.000871541
-0.00072458
-0.00377104
-0.000295328
-0.000976348
-0.000470547
-0.000645528
-0.000748085
-0.000778269
-0.00426225
-0.00356116
-0.00107502
0.00325554
0.000956598
0.00102902
-0.000578401
-0.000406724
0.00106805
0.00145039
0.00147739
-0.000671475
0.0018471
0.000506591
-0.000367503
-0.000264656
-3.05574e-06
-0.000238975
-0.0006737
-0.000150778
-0.000121813
2.87009e-05
-1.99969e-05
-0.000353814
-6.29509e-05
0.00305588
0.000247152
-0.00016261
0.000216149
0.000165009
0.00128149
-0.00112594
-4.2084e-05
3.23692e-05
-0.000171649
-0.000766344
-0.000211691
0.0203187
0.000724077
-0.000798891
0.000130336
-0.000333102
-0.000521261
-0.000349895
-0.000361348
-0.000151852
-0.000111465
-0.000364116
-0.000260641
-0.00186616
0.00485459
0.000875027
-0.000220713
0.00036765
8.29983e-05
-0.000835744
0.000366367
0.000966132
7.09594e-06
-0.000141175
-0.000597921
0.000207189
0.0232218
-0.0130188
-0.000222643
-0.000233727
-0.00125279
-0.000473489
-0.000257535
3.94447e-05
1.67827e-05
-0.000458616
-0.0130137
0.000108294
0
-0.00078362
0.000980964
0.000405705
-0.000593726
-0.00325298
-0.000938683
-0.000704858
0.00162331
0.00162165
-0.000137184
0.00167018
0.000850346
-0.000607031
2.33095e-05
-0.00305394
-0.00301682
8.26156e-05
-0.000268667
-0.000874618
-0.00101089
0.000368257
0.00196034
-0.00292921
-0.0018781
-0.000217571
-0.00164284
-0.00313662
-0.0018881
-0.000588716
-0.00227015
-0.000617921
-0.00137245
-8.01236e-05
-4.47953e-05
-0.00255312
0.000570823
-0.000400833
0.000641334
-0.000372438
-0.00202944
-0.00456331
-0.00255965
-0.00151168
-0.00198856
-0.00224136
-0.00172707
-0.00287743
-0.00559456
-0.00158476
3.25547e-05
0.00717537
0.00242718
-0.00235309
-0.000555906
0.00154143
-0.00286895
-0.000487595
-0.00136618
-0.00129216
-0.00214916
-0.000402745
-0.00216799
-0.00064123
-0.00192857
-0.000618774
0.00027956
-0.00178196
-0.00270323
-0.00252063
0.000207267
-0.00317277
0.000888125
-0.00103095
-0.00180173
-0.00107594
-0.00369135
0.00157499
0.00280234
0.00066529
0.000765129
-0.00366066
-0.000657154
-0.00258103
-0.000256324
-0.000325313
-0.000338724
0.00694917
-0.000540693
-0.00288529
-0.000647494
-0.000579414
-0.00361985
-0.000589679
-0.00102337
0.000347935
-0.00225804
-0.00110575
-0.000454138
0.00329881
-0.00159409
0.00193527
-0.000922944
-0.000209065
-0.00384481
-0.00197513
-6.82853e-05
0.000940388
0.0118933
0.0109816
-0.000409388
0.000124754
-0.000983194
-0.00147409
0.000960259
-0.00416527
0.00193378
-0.000484104
-4.76162e-05
0.00117314
-0.0085057
-0.00061493
0.00410707
-0.00431577
-0.000443962
-0.000921481
0.0030451
0.105765
0.00245066
0.0105642
-0.014422
-0.00684617
0.00267916
0.0136015
0.00306174
-0.00212095
-0.0504896
0.0068908
0.00279102
0.00755746
0.0016886
0.00423903
-0.00303542
-0.0155926
0.00252962
-0.0109086
0.000154302
-0.00211391
0.00450442
-0.0060906
-0.00303115
-0.00291248
-0.00376203
-0.00850498
-0.000314645
0.0350002
-0.0008359
-0.000695326
-0.00136629
-0.000215659
-0.00354968
-0.000210493
0.00182622
-0.00280517
0.00180551
0.000206104
0.00442632
0.00262637
-0.00186963
0.0025267
-0.00318124
0.0197875
-0.00696977
-0.00335391
0.000484708
-0.0047188
-0.00436096
0.00273704
0.0192537
0.00262887
-0.00420879
0.0233982
-0.00855403
0.0211167
0.00795381
-0.000401857
0.0160397
-0.000449641
-3.18198e-05
-0.00825389
0.00106352
-0.000450671
0.00113143
0.00248144
-0.00359806
-0.000914366
0.00120619
0.00727841
-0.00746307
-0.0144694
-0.0544955
-0.0481957
0.0121499
0.00293348
-0.000530675
-0.00497226
0.022446
-0.0374677
0.000586754
-0.0164876
-0.00503209
-0.00600428
0.00259739
0.00220017
-0.000429952
-0.0082474
-0.00383021
-0.00484838
-0.00845492
-0.0135993
-0.0124265
-0.00306953
-0.0013216
-0.00405759
0.00944112
-0.0239215
-0.00959688
-0.00542685
-0.00400485
0.000284519
-0.000916002
0.000155389
-0.0054661
0.00585362
-0.00366402
-0.000552567
0.00515723
0.00147668
-0.00182424
-0.00737234
0.00189304
0.00260602
-0.00627358
-0.00528001
-0.00327735
-0.0014614
-0.000945695
0.0182271
-0.00576088
-0.00208127
-0.00075081
-0.00970169
0.00632753
0.000338811
-0.00225114
-0.00186474
-0.00162517
0.000675018
0.0012395
-0.00203478
-0.00241219
0.0106165
0.00829595
-0.00459062
0.0114188
0.0171044
-0.00876819
-0.0099797
-0.0101423
0.00904348
-0.0242931
-0.00152264
-0.00374567
-0.00285462
-0.00769747
-0.000899801
0.00815652
-0.00512976
-0.00208118
-0.00151072
-0.00400327
-0.0137988
-0.0119016
-0.00161951
-0.00130579
0.0174426
-0.0157759
-0.0177255
0.00366114
-0.00026017
0.00664074
0.00670883
-0.00577516
0.00340146
0.000644734
0.00140056
0.0163512
0.000380076
0.0147361
0.00647393
-0.00418222
-0.00121679
0.00157013
0.00154977
-0.000996757
0.00122622
-0.0045834
0.00107709
-0.0034198
3.04053e-06
0.00375158
0.00122107
-0.00225897
0.00170928
0.0128102
0.00207704
0.00515471
-0.00117892
-0.000259763
-0.00145774
0.00615548
-0.00309952
-7.21878e-05
0.0260133
-0.00410491
0.00115892
0.0151892
0.00400625
-0.0031684
-0.00183349
0.0167552
-0.0109566
-0.00144077
-0.00109879
-0.00267992
-0.00306483
-0.000671762
-0.0104011
-0.00922981
-0.00144448
0.000272965
-0.0058352
-0.00411913
-0.00430034
-0.00403197
-0.00296959
-0.00642558
0.00716996
-0.00117291
-0.00318006
-0.0125079
-0.0104368
-0.000181717
-0.000678395
-0.00143473
-0.000472432
0.00318857
-0.00353881
-0.00368699
0.00160732
-0.00583454
0.00803134
0.00684028
0.0110081
0.00242033
-0.00103186
-0.00265466
0.00762588
0.00285183
-0.0129318
-0.000319843
-0.00332755
-0.00635178
-0.00713048
0.00619093
0.00151676
-0.00138035
-0.00117257
-0.00763818
-0.00239001
0.00190028
0.0076238
-0.00346793
0.0032461
0.018248
-0.000956315
-0.00455479
-0.0202949
0.00770165
-0.00297849
0.00326673
-7.30246e-05
0.00237172
0.00391325
-0.0390888
-0.0566981
-0.0588877
0.00085321
-0.0125926
0.0100947
-0.0046331
0.00139139
-9.66699e-05
-0.0181859
-0.00362687
-0.0609687
-0.00452933
-0.00956367
-0.00417184
-0.000199329
-0.000162811
0.0349468
0.00366087
-0.00439008
0.00119832
0.0196743
0.00196491
-0.00523216
-0.00644608
-0.00836293
0.0492996
0.00986462
-0.001371
6.43851e-05
-0.0027652
0.0191263
-0.00342361
-0.00297375
-0.00692392
-0.00184509
-0.0228389
-0.00129503
0.000326921
-0.0021544
-0.00155173
0.00902857
-0.00444993
-0.0014104
-0.00443704
-0.00170271
-0.0378492
-0.0190602
-0.00163912
0.00245311
0.0277228
-0.00185876
-0.0113282
0.0236197
-0.0026364
0.00531842
-0.00377521
0.000180539
-0.00071806
0.000341899
0.00186288
-0.00234319
0.00102273
-0.0139074
0.00112663
-0.0284307
0.0024988
-0.00270125
0.00135879
-0.0160722
0.00175096
-0.0465999
0.000873548
-0.0146271
-0.00115967
-0.00786679
-0.00418085
-0.00359654
0.0351613
-0.00152251
0.0164995
-0.00430745
0.00955899
-0.0298803
-0.0120391
-0.00614435
-0.00891837
-0.00211343
-0.0459876
-0.00308194
0.0118264
-0.00194527
-0.00473331
0.000293692
-0.00120423
0.00100327
0.0034701
0.00138017
-0.00259158
-0.0155441
-0.00201724
-0.000501032
-0.000706042
0.000811653
0.00614164
0.0176355
0.00643595
0.00352531
-0.00175336
0.0416434
0.000170404
0.0117829
0.000683168
0.0112437
0.00399339
-0.000855035
0.00034176
-0.00141349
5.17854e-05
-0.00366875
-0.00612237
0.00265213
0.00166633
-0.000332182
-0.00520657
0.00940919
-0.0240181
-0.000587332
-0.000512077
-0.00291313
0.00354237
-0.00113715
0.00626513
0.0231863
-0.00107153
-7.69873e-05
0.0318617
-0.013473
0.000714215
-0.0161123
-0.00106203
-0.0262955
-0.00751263
0.0281407
0.00298098
-0.00138653
0.00358611
-0.00406579
0.0155149
-0.000532133
0.00610038
0.0031965
0.0265821
0.00714849
0.00946511
-0.00200731
0.00935254
0.0247371
-0.00920077
0.0057202
0.00825535
0.00213811
0.00583365
0.0195401
0.00436855
0.0217447
-0.0217742
-0.0152767
-0.022141
-0.0152594
-0.0257971
-0.00138996
-0.00375784
-0.0034176
0.0110171
0.022115
0.0304663
0.000202107
0.000579876
0.00997393
-0.00211958
-0.00234784
-0.000636412
-0.00367132
0.00180239
0.00799538
0.00609154
0.00828608
0.0228097
-0.00541764
0.00320078
-0.00254415
-0.0072916
0.00130124
-0.00108819
0.000473397
-0.0204058
0.00122258
0.00688268
0.000593781
-0.00161773
0.0127129
0.00678165
0.0239906
-0.00755643
0.00933509
-0.0148634
-0.00042816
-0.00381714
-0.0152597
0.00600425
-0.00468893
0.0068976
0.000784955
-0.00476963
-0.00393241
0.00923258
0.00489605
-0.000243454
-0.00293708
-0.00105163
-0.0029335
0.00293383
-0.00240146
-0.00418368
-0.00311212
-0.000229194
-0.00400804
-0.0149268
-0.00151404
0.0134621
0.000796752
0.00501443
-0.0045502
0.0141448
-0.0109271
0.00650023
0.000512471
-0.00709833
-0.00211501
0.0297561
-0.0286411
-0.0300027
-0.00528677
-0.00222147
-0.0126206
0.0207767
0.0105773
-0.000842907
-0.00746556
-0.00510304
0.00076082
-0.00324417
-0.00278945
-0.00244643
-0.00193863
-0.00952709
-0.00968279
-0.0326781
-0.000738134
0.0167021
-0.0284247
-0.00825801
0.0091834
0.00880161
0.00106556
-0.00411385
-0.00657458
-0.0227015
-0.0170503
-0.0316189
-0.0199611
-0.0177277
-0.0269714
-0.00981617
2.97145e-05
0.00759102
-0.00433914
0.0173402
0.0202018
0.00686542
0.00209615
-0.00219024
-0.00355844
-0.0092421
0.0362114
-0.0507236
0.00629576
0.0157397
-0.00198342
-0.0020267
0.000335375
0.00323723
0.0115633
-0.00261324
0.00113566
0.000764644
0.0108426
0.00304135
0.0268141
0.00495221
0.00831641
-0.0466606
-0.0559772
-0.00117465
-0.00305452
-0.00354265
0.0108007
0.00760478
0.00230852
0.000263334
-0.000256026
-0.00509656
-0.00200602
-0.00706085
-0.00198974
-0.000370804
-0.00043736
-0.0135219
-0.0273893
0.00129731
-0.00483104
0.00574675
0.00821596
0.00585725
-0.00710561
-0.00282134
-0.00101391
0.000202721
-0.000235495
0.00105588
0.00185479
0.00530339
-0.0029006
0.000220386
0.00223077
0.0028855
0.00319317
0.00527185
0.00575694
-0.033236
0.0018766
-0.00265861
0.00591032
-0.00856674
0.000296247
0.0132716
-0.0241063
-0.00384183
-0.00210633
-0.0049286
0.00416381
0.00446896
-0.00925991
-0.00168096
-0.00366544
-0.00251083
-0.0422523
0.00183673
-0.0019389
0.00273048
0.000508847
0.00403817
-0.00794078
0.000351006
-0.00234195
-0.000746308
0.00543391
-0.00267897
0.000696921
0.00174805
-0.00148264
-0.00235307
0.00157745
-0.0010794
-0.00194933
-0.00152198
0.000525452
-0.000136371
0.00251104
0.00397824
0.0106853
-0.000180718
0.00151644
-0.00166035
0.000831498
0.00357448
0.00234671
0.00340916
-0.000335648
-0.00047557
-0.00141048
-0.0016704
-0.000790598
-0.000801436
-0.00546102
-6.77689e-05
-0.000471403
0.00249903
0.000884501
0.00123061
0.000294299
-0.00633916
-0.000485547
-0.0033545
-0.00166416
-0.00102916
0.00240835
-0.00431947
0.000847773
0.001984
-0.000820993
-0.00338125
0.00439687
-0.00159189
0.00305342
-0.0032942
-0.00105392
0.00479538
0.000449747
0.000739603
0.00138713
0.000883479
-0.00236697
3.09525e-05
-0.000495669
-0.000531574
-0.000903826
0.00164755
-0.0161826
0.00693154
-0.00167192
-0.00114892
-0.0218564
0.00242944
0.000186586
0.00153941
-8.14221e-05
0.000376819
-0.00224254
0.00971978
0.0193078
-0.00148559
-0.00748109
0.00578846
0.00389512
0.038745
0.000808307
-0.000554558
0.00154873
-0.000822302
0.00150968
0.00043764
0.0491687
0.00144959
-5.13637e-05
-0.000301917
0.00738723
0.0151488
-0.00236697
-0.000896546
0.0033558
0.00312652
8.60014e-05
-0.000528158
0.0157156
0.00306104
0.00040163
0.00262255
0.000116007
0.00067248
0.00566238
0.00110398
0.00817397
0.0120021
0.00136077
-0.0111248
0.000366853
0.00163224
0.0102442
-0.000547615
0.00454854
-0.00119885
-0.000595816
0.00137979
-0.00187762
-0.00110185
0.0211858
-0.00256672
0.000870065
0.000365176
-7.54509e-05
8.86956e-05
0.000493309
-0.000273441
-0.000439782
-0.000602733
-0.000575597
-7.45766e-05
-0.000142791
0.000486156
-0.0261659
0.000824097
0.00177103
-0.000473606
-0.0010226
0.000907048
-0.000641806
-0.000405936
0.000158941
-0.000726916
-0.00557247
0.00024189
-0.000390513
-0.00033616
-0.0008767
-2.25195e-05
-7.52775e-06
0.000642737
-0.000139864
-0.000181008
-0.00120218
-0.003007
0.0012436
0.000614968
-0.000631156
-0.000441121
0.000543732
-0.00332567
-2.38036e-05
0.000455271
-0.0017852
-5.51478e-05
-0.000361914
-0.000884954
-0.000237995
-0.00113678
-0.00221062
0.000974717
0.000435877
0.000480073
-0.000777269
-4.60472e-06
-0.000214707
-8.9771e-05
-0.000318901
0.00224876
-0.00253083
0.00247042
0.00217585
-0.00306484
-0.00103739
0.000548275
-0.000675015
-0.00161755
0.00106529
-0.0031741
0.0108234
0.00243149
-0.000603489
-0.000443122
-0.000868084
-0.000679285
0.00377294
-0.00259799
0.00085563
-0.000415082
-0.00024843
-0.00062356
-0.000385905
-0.000279441
-0.000148785
0.0150475
-0.00416092
0.0058967
-0.00459609
-0.0194466
-0.000273091
0.00035719
-0.000448657
-0.00328307
-0.000778448
-0.00464765
0.0012202
-0.000971281
0.00266086
0.00259506
-0.000416164
-0.000470379
-0.00387982
-0.000730614
-0.00318436
-0.00171406
0.00136569
-0.00672569
-0.0130558
-0.00138512
-0.000634425
0.00782305
-0.000213045
8.53073e-05
-0.000296205
0.00117926
-0.000862739
0.00278164
-0.000930211
0.000419048
0.000585795
-0.00583007
-0.00188954
-0.0434329
-0.0034133
-0.00532266
-0.0044813
-0.00552757
-0.00139235
-0.00093302
-0.014613
-0.00158927
-0.00216552
-0.0052575
-0.00274169
-0.000706903
-0.0357155
-0.00691494
-0.0053552
-0.00309012
-0.00149858
-0.000128291
-0.0132498
0.000113038
-0.0010552
-0.000398677
-0.00407406
-0.000362885
0.000109578
-0.011183
0.00164541
-0.00147333
-0.00129814
-0.00225707
-0.000184281
0.000279674
-0.0129313
0.000999196
-0.000457336
-0.00105499
-0.00346389
-0.000208949
0.000154806
-0.00960548
-0.00109192
-0.000290591
-0.00172352
-0.000464907
0.000255238
4.19864e-05
-0.00268673
0.00547451
-0.00276457
-0.00602053
-0.0093427
-0.010974
0.00058495
-0.00066276
-0.00095205
-0.000770639
0.000212402
-0.00514082
-0.00184997
-0.000719666
-0.000810411
0.000377376
0.000683124
0.000986195
-0.00156005
-0.00157969
0.000445414
-0.01541
-0.0104975
0.000303293
-0.000163027
-0.000156009
-0.000920576
-0.000825613
0.000215386
-0.00248928
-1.91175e-05
0.000163082
-0.00786842
0.00149828
0.000325608
0.000552526
-0.00245232
-0.000120981
7.47357e-05
-0.00208446
0.000645407
0.000260953
-0.000440502
-0.00191386
-0.000130223
-0.000203527
0.000600271
0.00230328
6.5322e-05
0.000691533
-0.000221705
0.000440931
0.0018606
0.000167939
-0.00185417
0.00213571
0.000589834
-0.0344926
0.00327703
0.000473214
0.00152016
-8.63449e-05
0.000894895
0.000519884
8.90576e-05
-0.00181618
0.00084105
0.000547572
-0.00230846
-0.00559048
-0.00117842
-0.000150313
0.000411036
0.000384928
-0.008923
0.000297396
-0.000909335
-0.000293123
0.000237149
-0.0067718
-0.00369764
-0.00141448
-0.00132453
0.000343456
0.000252292
-0.010487
0.000414863
-0.00323674
-0.000184563
0.000338586
0.00050579
0.000459237
-0.0106206
-0.00173499
-0.00121791
-0.000835894
0.000306228
0.000693998
-0.0057159
0.00131037
-0.000302595
-0.000797016
-0.000500872
-0.00037823
-0.000910475
-0.000282474
-0.00119822
3.14677e-05
-0.0156861
0.0079224
0.00337821
0.00922147
0.00230882
0.00335548
0.0028078
-0.000263573
-0.00105761
0.00307418
0.000720156
-0.00171285
-0.00124184
-0.00193226
0.00116015
0.000883557
0.00137501
-0.00250659
0.00195763
0.000914246
0.000348685
0.00805741
-0.00239131
0.000152109
-0.000401346
-6.23282e-05
-0.000280719
-0.000119793
-0.00143714
-0.000660994
-3.73201e-05
6.24647e-05
0.0010797
-0.000683358
0.000728933
0.000513058
0.000382449
0.00025783
-0.00118119
0.00395701
0.00469112
0.000291889
0.00272287
0.000310893
0.000555871
0.00116975
0.00023689
0.000316906
0.000779514
-0.00176539
-0.000258858
-0.000128286
0.000457421
-0.00545636
0.000951755
0.00339437
0.00289656
0.00032694
0.013135
-0.00222972
3.77848e-05
0.00316017
3.01577e-05
0.00511272
0.000170614
-1.89698e-05
0.0019656
-0.000102792
0.000236957
-0.0152096
0.000633263
-0.00093317
-3.63726e-06
0.000248953
0.000464657
-0.000590876
-0.00139196
3.79193e-05
-0.00046338
4.81581e-05
0.000106614
0.000343535
0.00755079
0.0002118
-0.00145312
0.00316079
-5.95943e-06
0.000350947
-0.0135598
0.00012319
-0.000833191
-0.000168927
0.000133385
0.000297102
-0.00107868
0.000493584
-0.000557978
-8.74597e-05
0.000231824
0.000196023
0.00915398
0.000242213
-0.00112218
-5.98333e-05
0.000115966
-1.57222e-05
0.000175124
-0.000194766
-0.000343937
-0.000626658
3.72758e-05
7.11058e-05
-0.000575951
0.000394392
-0.00118461
0.00123936
0.0006519
0.000357304
-0.00514339
0.00147041
0.00121679
0.00326125
0.00115607
0.000848412
0.00127375
-0.00055089
0.00129372
0.000852973
0.000547736
0.000458523
-0.00157987
0.00166389
0.000414247
9.19845e-05
-0.000638745
-0.00108911
-0.000259068
-0.000839889
0.000951181
0.000268663
0.000207496
-0.0103467
3.44344e-05
-0.00268376
-0.000708095
0.000253114
-1.89324e-06
-0.000347059
-0.00146044
0.00495444
0.00233275
0.00684201
0.00169995
0.00226529
0.000183302
-0.0012982
-0.000612824
0.00114417
0.000225295
0.00421851
0.00521309
0.00203803
0.00671588
0.00142529
0.00201198
-0.00128864
-6.8926e-05
0.00172011
0.000730904
0.000329519
-0.0026719
0.000596112
-0.000237262
-0.000132772
-0.000183602
-0.000266003
0.00133897
0.000662851
0.00209964
-0.000540509
-0.000387937
0.00255147
0.0017449
0.00143221
2.30675e-05
-0.000248744
0.00716925
-3.13383e-05
-4.03956e-05
-8.30347e-05
-0.000143886
3.12806e-05
-0.000479704
-0.00251381
-0.000830977
-0.000160128
-0.000169609
-0.00445921
0.000100668
0.000152188
0.00110816
4.55327e-05
0.000144375
-0.000412703
-0.00229563
-0.000210854
-2.39839e-05
-0.000157249
-0.00650364
0.00156761
-0.000466708
-0.000277115
-0.000463291
-0.000465016
0.000497628
0.000855507
0.000525163
-3.86899e-05
0.00665032
-0.000375078
-0.000386156
-0.00091107
-0.000266366
-0.000132424
-0.00111358
-0.00347605
-0.000476972
-0.00132082
-0.000420967
-0.00047011
0.000590426
0.00145034
0.00417634
0.00384675
-0.000227499
0.0166215
-5.49832e-05
-0.000970778
-3.58962e-05
-0.000399382
-0.000288998
-0.000145411
0.00341448
-0.000262976
-0.000731135
0.00125164
0.000514608
0.000910323
0.0125365
0.000238152
-0.000817772
0.00109442
0.00061851
5.15763e-05
-0.000130094
0.0024877
-0.000490913
-0.0276142
0.0051045
-0.00400197
-0.000132145
0.0198347
0.000150273
0.0019772
-0.000561143
-0.000721843
-0.000586495
-0.000575566
0.000615321
-0.000171355
-0.000362071
-6.94653e-05
-0.000814928
-0.000265412
-0.000482356
0.00385434
7.61046e-05
0.00130734
-4.99186e-05
-0.00048476
-0.000105447
-0.000422458
0.000568374
-0.000238226
0.000324915
-0.000177289
-0.000782058
-0.000268624
-0.000272235
0.00112259
-0.000118115
0.00161963
-9.94148e-06
-0.000595591
0.00390494
-6.33911e-05
-0.000253382
1.18669e-05
-0.000250295
-0.000154571
0.000897729
-0.000380478
0.000303196
-0.000600267
-0.000688135
-0.000222385
-0.000333552
0.0031349
-3.51964e-05
-0.000137387
-0.000407672
0.000138821
-0.000186127
-0.000349107
0.00989932
-1.01478e-05
0.000614633
-0.000403701
-0.000707419
-0.000174436
-0.000431089
-9.25357e-05
0.000444913
-0.000597064
-0.00043941
0.000165898
-0.000272193
-0.000125718
0.00608308
0.000101396
0.000149087
-0.000317834
-0.000826093
-9.37147e-05
-0.000179588
0.00992113
-2.08813e-05
0.000441888
-0.000362702
-0.000274116
-0.000477387
0.00593805
0.00035103
-0.000180404
0.000690108
0.000268241
-0.000127892
0.00366053
0.000324219
0.000173807
0.000929622
0.00121407
-0.000353136
0.00563448
-0.00143324
-0.000370384
-0.000236625
-0.000419985
-0.000261643
-0.00035904
-0.000414604
-0.00108587
-4.80009e-05
-0.000473688
-0.00119778
-0.00202751
-0.00055917
-0.000846031
-0.000579924
-0.000332172
0.00123285
0.0101917
-0.000468188
-0.0017494
-0.000303903
-0.00282129
-0.000501581
-0.00233725
-0.00050248
-0.000309413
0.000664709
0.00145701
-0.000665116
-0.000330151
0.0108564
-0.00247164
-0.00022055
-0.00106717
-0.000296837
-0.000303828
0.00472689
0.01768
-0.000718077
-0.000775302
-0.000362174
-0.00844606
-0.00181078
-0.00054291
-0.000586202
-0.000530468
-0.000632609
-0.000423308
0.000845935
-0.000541839
-0.00129378
-0.000434037
0.000544907
-0.00529219
-0.000708136
-0.00330979
-0.000646106
-0.00125595
-0.000440503
0.000637158
-0.00247283
-0.00103245
-0.000361536
0.00267472
7.31377e-05
-0.000127767
0.000189923
-0.000256707
-3.62622e-06
0.00273631
0.00729318
-0.000374517
-0.000685407
-0.000785481
0.0588166
-0.00044542
0.00197424
-0.00635181
-0.0012952
-0.000306718
-0.00130514
0.0167608
-0.00100621
0.000101782
0.000962707
3.78413e-05
0.000221209
0.00141141
-9.2871e-05
0.000301796
-0.000211868
-0.000139549
0.00518281
-0.00355325
2.88738e-05
0.00109393
8.44166e-05
-4.73954e-05
-0.00101219
0.00020598
-0.000747727
-1.65209e-05
-0.00022206
0.0143221
-0.00310595
9.80959e-05
0.00112223
7.88267e-05
-1.33252e-05
-0.000179638
5.93095e-05
-0.000260061
9.39969e-05
-0.000183113
0.0106494
-0.00180839
0.000158933
0.000789126
-1.05593e-05
0.000106378
-0.000213581
0.000576647
0.000851605
3.35821e-05
-0.000478786
0.0138913
-0.000351955
0.000266303
0.000833811
0.000113335
0.000248801
0.000120453
-0.00053987
-0.00165725
0.000216174
0.000100755
-0.00181836
0.00305611
0.00162826
0.00545905
0.00135074
0.00162302
0.00204587
0.00119541
-0.000160533
0.00121996
0.000106861
-0.0025204
4.83003e-05
0.000341062
0.000907941
0.000218961
0.000100965
0.000447594
-0.0115813
0.00125501
0.00130168
-0.000511709
0.0193887
-0.00014594
0.000403133
0.000121579
-9.70704e-05
-0.000225933
0.00936932
0.000617336
-0.0023222
0.000324579
0.000718916
-0.000456999
5.17575e-05
0.000604834
0.000272816
0.00146031
-4.27049e-05
0.000128813
-0.000607197
-0.0039239
0.000355169
-0.000337633
-0.000422826
0.0329615
-0.0023228
0.000101251
-0.000245147
0.000130835
-0.000219601
-0.000893836
-0.0493738
0.00216144
-0.000540573
-0.000628596
0.00426537
0.00120147
0.00147433
-0.000573768
0.000163097
-0.000537807
0.0389953
-0.00251806
7.95821e-05
0.00123097
1.17455e-05
-0.000334511
-0.00103614
0.000890094
-0.00273971
-0.000814269
-0.000562038
-0.0137641
0.000414756
-0.000289419
0.000563354
-0.000801277
-0.000238065
-0.000609325
0.0259025
0.000273741
-0.000118872
0.00232688
-0.0006509
-0.000305938
-0.000214793
0.0131093
0.000149315
-0.00140215
0.000731013
-0.000168972
-0.000186836
-0.00124912
0.033381
-0.000290309
-0.00550165
-0.00991342
0.0019307
-0.000238698
0.00907677
-0.000380522
-0.00202886
0.000264152
0.000360398
-0.000400067
0.011651
0.000434571
-0.000921528
0.000986397
0.00147222
-9.41421e-05
0.00572309
-0.00054113
-2.76301e-05
-0.000731648
-0.000553776
-0.000520529
0.00608721
-0.000159197
-3.7363e-05
-3.11013e-05
-0.00040806
-0.000402037
-0.000617581
0.000251895
-0.0030733
-0.000195414
-0.000195484
-0.000247392
-0.000399358
0.000201603
-0.000392012
-0.001584
-0.000421336
-1.19081e-05
0.0138123
0.000326929
-0.00587876
-0.000636414
-0.00045665
-0.000142406
0.028662
-6.42072e-05
-0.000385096
0.00107876
-0.000238002
-0.000110122
-0.000252548
-0.00224806
0.00170648
-0.000678917
0.00314545
0.00104815
-0.000379279
0.0161304
0.00125701
-0.00258752
0.000287817
0.000845463
-0.000615741
-0.00175295
-0.00171839
-0.000714242
-0.000910671
0.00201815
0.000257954
-0.00131742
-0.00068311
-0.000604304
-0.000837576
-0.00072958
-0.000930762
0.00193146
2.65876e-05
-0.000162206
0.00213476
0.00149584
-0.000122984
-0.000428688
-0.000631632
-0.000868153
-0.000491528
0.00678748
0.00313652
-0.00050628
0.000819227
-3.43441e-05
-0.00271504
0.00273397
0.00224934
-0.000250922
-0.000202306
-0.000680351
-5.81472e-05
0.0126805
-0.00482384
-0.00144497
-0.00100686
-0.00105127
-0.00159249
-2.93673e-05
-0.00200976
-0.00115965
-0.00112141
-0.00107988
-0.00127584
-0.00349524
-0.00326211
-0.000603313
-0.00200426
-0.000764135
0.000888308
0.00146324
-0.00190257
-0.000811073
-0.000569355
-0.00148639
-0.000764283
-0.0180439
0.000827438
-0.000761464
-5.95997e-05
-0.000269805
-0.000457243
0.00119579
0.000455407
-0.000134894
-0.000291167
-0.000546677
-0.000329155
0.00569954
0.0124223
-0.000376805
-0.000286611
-0.00020995
-0.00145356
0.0045304
0.00242316
-0.000189094
-0.000262655
-0.000398371
-0.00018797
0.0442376
0.0043621
-0.000375424
-0.000238576
-0.000410294
-0.00240162
0.00040107
0.000592611
-0.000136671
-0.000354968
-0.000504201
-0.000225023
-0.000202782
0.00076259
-0.000710945
-0.000227274
-0.000638876
0.000272583
0.00297837
-0.000641138
-0.000619856
-0.000617827
-0.000656363
-0.000510012
0.0111957
-0.0132505
0.00196775
-0.00102627
-0.00118707
-0.00118243
-0.00322924
0.000200323
-0.00125916
-0.000946972
-0.00120703
-0.00113108
-0.00119118
-0.00122703
0.0227211
-9.83741e-05
0.00311467
0.00112959
0.00167062
-0.00033815
-0.000188161
0.00179563
0.00146389
0.0014668
-0.000952118
0.00188933
0.00148359
-0.000226439
-0.00058666
-0.0004327
-0.000642157
-0.000607689
0.00101766
-0.000424266
-0.000220955
-0.000441572
-0.00061542
-0.000412655
0.0133909
0.00059676
-0.000188303
-0.000361485
-0.000395798
0.00190959
0.000444544
0.000742327
-0.00037372
-0.000733742
-0.00125786
-0.000833519
0.0203551
0.00205647
-0.00127333
-2.32543e-05
-0.000638074
-0.000377561
-0.000279725
-0.000443067
-0.000378701
-0.000462754
-0.000669972
-0.000576526
0.000343349
0.0217554
0.00326011
-0.000422549
-0.000115186
-0.000276598
-0.00118997
0.00203422
0.00190116
-0.000242787
-0.000417586
-0.000917033
-0.000167738
0.0385625
-0.0157166
-0.000288885
-0.000377116
-0.00133752
-0.000279794
-0.00021376
-8.96825e-05
-0.000235551
-0.000728606
-0.01015
0.000675684
0
-0.00277086
0.00174221
-0.00115602
-0.00316452
-0.00441692
-0.000854001
-0.00193641
0.000303964
0.000526966
-0.00154191
0.00106126
-0.000484816
-0.00160065
-0.00169591
-0.00639689
-0.00571705
-0.0017524
-0.00228344
-0.00258079
-0.00318171
-0.00114222
0.00101832
-0.00523299
-0.00391791
-0.00282014
-0.00381137
-0.00523023
-0.00217174
-0.00175351
-0.00294551
-0.00122577
-0.00384373
-0.000437728
-0.00110607
-0.00524854
-0.000196024
-0.00141632
-4.25514e-06
-0.0023082
-0.00357956
-0.00466896
-0.00303557
0.000448823
-0.0016486
-0.00169812
-0.000676315
-0.00132742
-0.00534357
-0.00451619
-0.00104711
0.0097813
0.00383556
-0.00435005
3.53256e-05
0.00118843
-0.00413152
-0.00204545
-0.00226056
-0.00209013
-0.00320703
-0.00109246
-0.00316712
-0.00203912
-0.00311191
-0.00198825
0.000259199
-0.00179873
-0.00313265
-0.00207098
0.000604798
-0.00381202
0.00246663
-0.000585315
-0.000495399
-0.000310938
-0.00346611
0.00237385
0.00455222
-1.34741e-05
0.00209111
-0.00770608
-0.00134909
-0.00305576
6.86667e-05
-0.000993389
0.00117557
0.0086459
-0.00140342
-0.00525798
-0.00161594
-0.00133081
-0.00649582
-0.00232774
-0.00320224
8.17823e-05
-0.00477638
-0.000909536
-0.00246684
0.00429921
-0.00164697
0.00125664
-0.00187073
-0.00081917
-0.0062521
-0.00263711
0.000876575
0.000818456
0.0119795
0.0118685
-0.000549047
0.00110755
-0.000721023
-0.00133187
-0.000349209
-0.00778719
0.000865427
-0.000731237
-0.0018093
0.0015138
-0.00857792
-0.00134815
0.00341166
-0.00593265
-0.000615841
-0.00175884
0.00321453
0.098991
0.00113163
0.010036
-0.0175368
-0.00986584
0.00311519
0.0120082
0.00132264
-0.00456448
-0.0456774
0.00675522
0.00155317
0.0143873
0.000787118
0.00497981
-0.0043957
-0.0270902
0.00206998
-0.0219937
-0.00212593
-0.00551194
0.00500876
-0.00617422
-0.00590637
-0.00140729
-0.00516813
-0.0122078
0.00240632
0.0328267
-0.00132306
-0.000908315
-0.000581249
0.00010954
-0.00432131
0.0002912
1.11911e-05
-0.00235354
-8.62704e-05
0.000565806
0.00611399
0.00843638
-0.00229368
3.08462e-05
-0.00335171
0.0222045
-0.0100405
-0.00317394
0.00357677
-0.00591646
-0.00403877
0.00377516
0.0175739
0.00966214
-0.00412944
0.019898
0.0147433
0.0277274
0.0102604
0.00122347
0.0173798
-0.000470397
-3.04473e-05
-0.00935164
0.00225288
0.000193807
0.000181415
0.00489116
-0.00300113
-0.00259554
0.000456199
0.0070982
-0.0120157
-0.0124865
-0.0621248
-0.0440851
0.00842885
-0.000415192
-0.00128028
-0.000653266
0.0207708
-0.00548841
0.0266095
-0.0234294
-0.00382307
0.00058326
0.00676719
-0.000537799
-0.000774246
-0.00870923
-0.00244735
-0.00544673
-0.00339677
0.00228774
0.00135526
-0.00236192
-2.09556e-05
0.00171562
0.0116971
-0.0231268
-0.00670544
-0.00263296
-0.0070088
0.000181042
-0.000814129
-0.000377663
-0.00522339
0.0192457
-0.000427656
0.00399485
0.0101944
0.00220015
-0.00262769
-0.00762818
0.00241567
0.00274964
-0.00714471
-0.00658259
-0.00585259
-0.00197791
0.00153024
0.020988
0.00866749
-0.001369
0.000211019
-0.00990674
0.0112664
0.00372369
0.0016772
0.00360927
0.00189718
0.0042591
0.00836008
0.00509664
0.00377505
0.0250674
0.00365855
-0.0240794
0.0122718
0.0226471
0.00171959
-0.01317
-0.0044959
0.00717651
-0.0516092
0.00955779
0.00303256
0.000850664
-0.00940597
-0.0115393
0.00690457
0.00476102
0.0177612
0.00388436
0.00782654
-0.00871907
0.0137276
0.00223257
0.0103074
0.018546
-0.0224959
-0.0125888
0.0113767
0.004013
0.0199321
0.0304449
0.0077461
0.0142272
0.00496596
0.00892685
0.0404182
0.00598166
0.0319061
0.0215328
-0.00763925
0.00839488
0.0114689
-0.00518592
-0.0112753
-0.00839593
0.00419438
0.00728033
-0.0165916
-0.00721105
0.0153729
0.0159004
0.00307228
0.0109424
0.0273412
0.0125786
0.00940558
0.00421215
0.00362021
-0.00828146
0.00875705
0.00224889
0.00561439
0.0408957
0.0193429
0.00644474
0.00782744
0.0100454
0.0081782
0.00426728
0.0392025
-0.00868782
0.00307076
0.002838
0.0109539
0.0077734
0.0212037
-0.00688058
0.00304256
-0.00326265
0.00839929
-0.00331338
-8.13136e-05
0.00138164
0.00265437
0.00303169
-0.000768223
0.0209989
0.010876
-0.00201612
0.00497327
-0.00447871
0.0082507
0.00391928
0.0034594
0.00166925
0.0193851
-0.00441349
0.00260006
0.0123744
0.000283373
0.0174245
0.0230131
0.0228152
0.0066628
0.0136087
-0.00105899
0.0190762
0.00870437
-0.00604124
0.00565574
0.00151013
0.00925748
-0.00624573
0.0120551
0.00529852
0.00288039
0.00341695
-0.00746879
0.0051205
0.00630927
0.0146207
0.000900444
0.00838473
0.0255179
0.00195584
-0.00252309
-0.0214869
0.0118842
0.00380453
0.00795975
0.00442852
0.0070562
0.00417389
-0.0377
-0.080614
-0.0816976
0.00130617
-0.0212763
0.0145559
0.00116404
0.00442865
0.00693827
-0.0166485
0.000230248
-0.0735075
-0.0087709
-0.00757704
0.00432692
0.00309523
0.00626578
0.0408757
0.00657336
0.00227595
0.00384616
0.0273535
0.0054944
-0.00130942
-0.000257617
-0.00452278
0.0936521
0.0167706
0.00122875
0.00268398
-0.000531828
0.0165034
0.00591668
-0.000215454
-0.00456981
0.00188919
-0.0104384
0.0122258
0.0031047
-2.21305e-05
0.00105066
0.00925732
-0.00705709
0.00108196
-0.00287108
-0.00365654
-0.0385841
-0.00908745
0.00220341
0.00559174
0.0215554
0.00300955
-0.0109558
0.0322153
0.000868625
0.00201364
0.0118648
0.00505453
0.00150702
0.00747272
0.00417808
0.000145616
0.00285481
-0.00719018
0.00340325
-0.0169148
0.00464111
0.000867413
0.00292679
-0.0046778
0.00383735
-0.0385614
0.00252031
-0.0168175
0.00779505
-0.012241
0.000125993
-0.00261297
0.0303357
0.00282086
0.0216026
-0.00133012
0.0117409
-0.0161193
-0.0138574
-0.00572012
-0.0104763
-0.00517804
-0.0467103
-0.00362943
0.0110478
-0.00220001
-0.0065218
-0.000567974
-0.00061176
0.00180485
0.00530244
0.00139854
-0.00197093
-0.00396761
0.000356246
-0.00145347
-0.00139001
-0.0044292
0.00224311
0.0204232
0.00850531
0.00433473
-0.000492992
0.0342656
0.0043887
0.0051719
0.00112749
0.0040978
0.00543527
-0.000432343
0.0010351
-0.00179175
-0.000383473
-0.0019487
-0.00568334
0.00345771
0.00311237
-0.00101157
-0.0046658
0.00997547
-0.0148263
0.000154345
0.000114182
-0.00245498
0.00487274
9.76757e-05
0.00851951
0.0365912
2.91806e-05
0.000416448
0.0359001
-0.015068
0.00163058
0.0244416
-0.00138265
0.00398514
-0.00814069
0.0349467
0.00383874
-0.0019035
-0.00181983
0.01883
0.01912
0.00163153
0.0130554
0.00811815
0.0161139
0.00854866
0.0119431
-0.00254351
0.0120099
0.027777
-0.00653223
0.00677699
-0.00139042
0.00253047
0.00272722
0.0190166
-0.00620002
0.0184825
-0.0243163
-0.0202313
-0.0468631
-0.0367521
-0.0573212
-0.00221143
-0.00464169
-0.00388786
0.00974405
0.0158633
0.0254358
0.000802647
0.000935467
0.0141064
-0.00595291
-0.00259406
-0.00907015
-0.00657707
0.00178038
0.0109051
0.00618476
0.00819058
0.0154396
-0.0119532
0.00253753
0.00278109
-0.0080587
0.00139475
0.00229676
0.00123471
-0.036182
0.00172334
0.0083201
0.00458209
0.000128321
0.0126738
0.00865445
0.0261402
-0.00767232
0.00926322
-0.00736064
0.00256009
-0.00403184
-0.00937804
0.00679037
-0.00445817
0.0141449
0.0140075
0.0115784
0.0111267
0.0168729
0.00615343
9.96266e-05
-0.0031307
-0.000824585
-0.00298737
0.0041571
0.00247215
-0.00140373
-0.00441608
0.00064776
-0.00499074
-0.0132318
0.00594314
0.0258365
0.00261464
0.00724755
-0.00477192
0.018262
-0.00104818
0.0138138
0.00353281
-0.00677645
0.00127951
0.0334725
-0.0299174
-0.0194079
-0.00382666
-0.000663754
-0.0110965
0.0258744
0.0114158
0.000986168
-0.00563531
-0.00423786
0.00857814
-0.00225239
-0.00192611
-0.00165469
-0.00128506
-0.0139918
-0.0112615
-0.0385694
-0.000783301
0.0255683
-0.0422353
-0.00853624
0.0427026
0.00802163
-0.000986091
0.00439151
-0.0104116
-0.016952
-0.0103174
-0.0244304
-0.0142791
-0.0120345
-0.0164598
-0.00643604
0.00157266
0.0130677
-0.00415909
0.0302258
0.0182567
0.00860206
0.00334666
-0.00675152
-0.00503338
-0.00963619
0.0591169
-0.0453864
0.00171977
0.0111909
-0.0087522
-0.0111402
-0.00642576
0.00215359
0.0116686
-0.00430642
0.000793012
0.000395586
0.0112051
-0.00134399
0.0236352
0.00155809
0.00687091
-0.0893662
-0.047726
-0.00272385
-0.0155773
-0.0125881
0.0107722
0.00757561
0.00232279
0.00305273
-0.00322458
-0.00728223
-0.00400487
-0.000108302
-0.00168348
-0.0005693
-0.000560335
-0.0219867
-0.0370142
0.000972616
-0.0137645
0.0056152
0.0174331
0.00285082
-0.00602598
-0.00258018
-0.0016562
-0.000498825
0.000330141
0.00130448
0.0016054
0.00520486
-0.0018928
0.000629848
0.00401117
0.00475862
0.00489206
0.00563082
0.00865099
-0.0291951
-0.000197087
-0.00369955
0.00294644
-0.00834976
-0.000240044
0.0110296
-0.0319319
-0.00386761
-0.00460001
-0.00301641
0.00417163
0.00216599
-0.0126475
-0.00226857
-0.00179641
-0.00422497
-0.0311438
0.000101074
-0.00158259
0.00343872
0.00122884
0.00504214
-0.00988591
0.000334219
-0.00244712
-0.00140659
0.00641521
-0.00349967
0.000480351
0.00124647
-0.000161257
-0.00255565
0.00190601
-0.00108896
-0.00155797
-0.000325465
0.000777159
-0.000248281
0.000495662
0.00514951
0.0126646
-0.000627347
0.00103333
-0.00241672
0.00111639
0.00263477
0.00111261
0.00208103
-0.000871243
-0.001571
-0.00172129
-0.00205842
-0.000772682
-0.000533808
-0.00803845
0.000243954
-0.00337129
0.000935504
-0.00404582
0.00212736
-0.000956358
-0.00883427
7.13248e-05
-0.00288579
-0.00105922
-0.00147347
0.00186931
-0.0058436
7.98023e-06
0.00277188
-0.00465003
-0.00354432
0.00166839
-0.00158253
0.00301727
-0.00466542
-0.0011136
0.00441719
-0.000605986
-0.00294337
0.000973771
0.00198037
-0.00960072
0.00183419
-0.00102317
-0.00104852
-0.011764
0.00273503
-0.0425728
0.013234
-0.00287417
-0.003191
-0.0513765
0.00133392
-0.000198734
0.00111969
-0.000463737
-0.00015448
-0.00389131
-0.00391713
0.0139474
-0.00721453
-0.0294765
-0.00362519
0.0011641
0.0392249
-0.000332994
-0.0115849
0.000173848
-0.00237983
0.00282999
0.00142201
0.0444638
0.00235794
-0.000425675
-0.000771899
0.00342471
0.0181824
-0.00293061
-0.00168672
0.00546571
-0.00014882
-0.00191441
-0.000969332
0.0155789
0.0018852
0.000239718
0.00329871
2.94296e-05
0.000485366
0.0015031
0.00217887
0.0178772
0.0111717
0.00168737
-0.0151191
0.000118179
0.0030754
-0.00398256
-0.000429342
0.00961554
-0.00152407
-0.000474206
-0.0020215
-0.00316173
-0.00131091
0.0220915
-0.00263053
0.000783847
0.000345774
0.000167007
9.64634e-05
0.000375742
-0.000526768
-0.000853807
-0.000892717
-0.000811398
-0.000397985
-0.000766145
-0.000141046
-0.0185671
0.000695234
0.00297872
7.08922e-06
-0.00192191
0.0010535
-0.00108806
-0.000811944
-0.000620781
-0.00163819
-0.00746432
-0.00237452
-0.00130213
-0.000788339
-0.0014074
0.000182683
0.000158963
0.00200898
7.64433e-05
-5.17901e-05
-0.00161358
-0.0049407
0.00220161
0.00162703
-0.00207435
-0.00140081
0.000524034
-0.00494589
0.00012642
0.000896721
-0.00251553
-0.000461969
-0.000604705
-0.00124855
-0.00050285
-0.00736491
-0.00288558
-0.00294141
0.000256761
0.000179307
-0.00120747
-7.4372e-05
-0.000242591
-0.000133456
-0.000483854
0.00766541
-0.000521971
0.00696136
0.00763673
-0.00468093
-0.00338432
0.000850945
-0.00154907
-0.0030946
0.00122022
-0.00824503
0.0116403
0.00454954
-0.000988856
-0.000804541
-0.00551437
-0.00113358
-0.000469882
-0.0053707
0.00063698
-0.00158879
-0.000517802
-0.000948905
-0.000604171
-0.000594315
-0.00074826
0.0151667
-0.00727766
0.00244654
-0.00946531
-0.0268913
-0.000143162
-0.000214097
-0.00215951
-0.0184196
-0.00173702
-0.00655663
0.00227764
-0.00283432
0.00304196
0.00340842
-0.00094847
-0.000948792
-0.00580105
-0.00255612
-0.00545454
-0.0026546
0.000953504
-0.0121805
-0.0304673
-0.00404856
-0.00808262
0.00946878
-7.53405e-05
0.000951708
-0.000252322
0.00366138
-0.00121955
-0.000995856
-0.000993087
0.00160088
0.0021204
-0.000329685
-0.00107307
-0.0170798
-0.000116504
0.00146305
-0.000705135
0.00336753
-0.00102921
-0.00146642
0.000205751
-0.00124825
0.00218649
-0.00279356
0.00142773
-0.000990377
-0.00213731
-0.00362237
-0.000982699
-0.00410811
0.00511273
-0.000860571
-0.00467567
-0.00120506
0.00308344
0.00439342
0.00014207
-0.000956394
-0.00228697
0.0149337
-0.000658778
0.00225497
0.000742218
0.00156575
-0.000773413
-0.000853995
-0.0010384
-0.0013086
0.00280364
0.00258795
0.00260098
-0.000856293
-0.00147101
0.00775887
-0.00396474
-0.000813603
-0.0012337
-0.000566611
-0.000544178
-0.00118498
-0.00182166
0.0042509
0.000885232
-0.00190606
-0.00545762
-0.00366399
-0.000139368
-0.000970115
0.000385755
-0.00104656
-0.0001998
-0.00350171
-0.00174127
-0.00122598
-2.51562e-05
-8.25119e-05
-0.000230611
-0.000307555
-0.00247141
-0.00194589
-0.000138077
-0.023069
-0.00136467
0.00431355
-0.00058616
-0.000740529
-0.000238639
0.00146667
0.00310973
-0.000125829
-0.000610623
-0.000888912
0.0260276
-0.000672859
0.0024146
0.00600003
0.000263997
-0.000692266
-0.00088673
0.0280974
-0.000627375
0.00228586
0.00300013
0.00122072
-0.000592131
-0.000942732
0.0232969
0.00120975
-0.00021801
0.00131276
-0.000367519
-0.000203704
-0.00179016
0.00200587
0.00223192
0.0100779
-0.000302917
0.00586387
0.00246275
0.000207849
0.00269416
-0.000126254
0.000414271
-0.00145315
0.00142305
-0.00252332
0.00223837
-0.000165811
0.00317112
-0.00598219
0.00118931
0.00200514
0.000201785
0.000265124
-0.00420413
0.00223222
0.00131599
0.000614277
-0.000495566
0.0107125
-0.00380655
-0.000847802
-0.000432672
-8.9048e-05
-9.57401e-05
-0.00537271
0.000405509
-0.00241995
0.00183568
0.00253157
-4.62761e-05
-0.000225374
-0.00269406
-0.000147598
-0.00104048
-0.001294
-0.000382454
0.000413174
-0.00202646
-0.00215959
-0.000891488
-0.00155529
-0.000870383
-0.0010123
0.000580761
0.00271304
-0.00131659
-0.000573422
-0.00358174
0.00444927
0.0026893
0.00748951
0.00261489
0.00227848
0.00281618
0.000258473
0.000470131
0.00527487
0.000233748
-0.00133807
-0.00120229
-0.00269216
0.00182843
0.00034899
0.00918036
-0.000502137
-0.00276792
0.00145655
-4.36929e-05
0.00765659
-0.00554322
-0.000386862
-0.00200763
-0.000286278
-0.000953429
-3.13101e-05
-0.00226763
0.00164736
0.000435759
-0.000422276
0.0162482
-0.00232941
0.00057419
-0.000197573
0.000556513
-0.00018181
-0.003711
0.00762675
0.0121596
0.000220507
0.0018908
-0.00160583
0.000300318
0.000150139
0.00019274
-9.11655e-05
0.00141489
-0.00212696
0.00189279
-0.000324044
0.000241464
0.00671405
0.00049431
0.00648381
0.0042772
0.000112097
0.0256555
-0.00384383
0.00114751
0.00549247
-0.000224494
0.00792993
0.000388141
-0.00220894
0.00850719
0.000559703
5.49904e-05
-0.0135183
0.000736644
-0.00295953
0.00327907
0.00118493
0.000456178
-0.000808964
0.00161161
0.000416698
-0.00117644
0.000187997
0.000780669
0.000299413
0.0150491
0.000484669
-0.00282573
0.0161415
0.000618212
0.000552979
-0.00426246
0.000710019
-0.000739623
0.00229068
0.000835387
0.00045418
0.00645043
0.000884205
-0.000294149
0.000158024
0.00094559
0.000272067
0.0278454
0.000880723
-0.00133444
0.00320487
0.000764874
4.08025e-06
0.00552273
0.000404558
6.48513e-05
-0.000429334
0.000519874
9.55667e-05
0.00588049
0.000887227
-0.0023807
0.00573953
0.00126988
0.00030919
-0.000809045
-0.000573315
0.00100195
0.00184202
0.00134253
0.000437993
0.00167322
-0.00158532
0.00676414
0.00114547
0.000391315
0.000585544
-0.00274081
0.00712075
0.00101267
-0.000113998
-0.000560322
0.000616029
-0.000235656
-0.00437945
0.00397684
0.00137964
0.000154279
-0.0114596
0.000424013
-0.00257821
0.000618916
0.00128822
-0.000117517
-0.000499751
0.00268735
0.00448697
0.00283291
0.00860645
0.00235327
0.00245557
0.000835711
-0.00209969
-3.09641e-05
0.00230235
0.000227622
0.0080874
0.00524271
0.00228233
0.00802932
0.00191998
0.00200929
-0.00216961
0.000913845
0.0032994
0.000953415
0.00254655
-0.00333421
0.00338568
0.000200657
-0.000239776
-0.000349627
-0.000363404
0.00376624
0.00131201
0.00628524
-0.000355044
-0.000602234
0.00685804
0.0016805
0.00492651
0.000854797
-0.000332325
0.0163077
-0.00053748
9.04795e-05
0.00143467
6.97179e-05
0.000146634
-0.000597876
-0.00377454
-0.00141477
-2.79244e-05
-0.000323336
-0.00638226
-0.000865526
0.000163849
0.00221089
0.000102682
4.05572e-06
-0.000785168
-0.00341443
-0.00105067
-0.000295868
-0.000556196
-0.00784047
-0.000176
-0.000940054
-0.000967288
-0.000861194
-0.00102753
0.000536485
0.00213959
0.000615166
-0.000534063
0.0063343
-0.000773669
-0.000603087
-0.00155414
-0.000696247
-0.000734548
-0.00366417
-0.00670698
-0.000971906
-0.00230872
-0.000820816
-0.00107516
-0.000845679
0.00232266
0.00991529
0.0039619
-0.00099538
0.00915955
-0.000469783
-0.00137862
0.000529629
-0.000621741
-0.000966389
-0.00660111
0.00352966
-0.000943561
-0.00120151
0.00119735
0.000136457
0.000983614
0.019809
0.000271037
-0.00102755
0.00257384
0.000856262
-0.000334363
-0.000408541
0.000797856
-0.00147673
-0.0393457
0.00941786
-0.00123375
-0.000202808
0.0205278
0.000316292
0.00376967
-0.000549575
-0.00121724
-0.000930553
-0.000613142
-0.00328496
-0.000268812
-0.000579805
-0.00115947
-0.00186863
-0.00043521
-0.000729502
0.00472817
0.000224241
0.000736102
-0.000583371
-0.00107728
-0.000232164
-0.000497906
0.00372445
-0.000304392
0.000418184
-0.000984676
-0.00163498
-0.000369971
-0.000344558
-0.00132854
-0.00047591
0.00466116
0.000514485
-0.000818274
0.00551951
7.68172e-05
-7.61307e-05
3.04745e-05
-0.000463736
-0.000179824
2.53555e-05
-0.000446538
0.000301776
-0.00186689
-0.0021014
-0.000331355
-0.000461254
0.00678061
-3.28574e-05
-0.000534824
-0.00242792
-0.000506775
-0.000312178
-0.000509372
0.0147194
5.12628e-05
0.000157322
-0.00387347
-0.00147567
-0.000262289
-0.000588967
-0.0043304
0.000727355
-0.000770888
-0.000672624
-0.00034102
-0.000486709
-0.000258135
0.000598968
0.000238128
-8.51565e-05
-0.00038544
-0.00133559
-0.000127839
-3.35951e-05
0.00654607
0.000149798
0.00204266
-0.000668126
-0.000390538
-0.000561748
0.0115845
0.000922601
-0.000319975
-0.0128309
-0.00632345
-0.00160254
-0.0564838
-0.000415179
-0.0150797
-0.00884472
-0.00680022
-0.000812724
-0.0400517
-0.00364752
-0.00132943
-0.00327967
-0.00138304
-0.00030701
-0.000278725
-0.00535493
-0.00749772
-0.00193004
3.90784e-05
-0.0272841
0.000675516
-0.00040046
-0.000426764
-0.0008365
7.99073e-05
-0.0040412
-0.0255206
-0.0026353
0.000221152
0.00674292
-0.00128304
-0.000394283
-0.00235558
-0.000573572
0.000335692
-0.00376544
-0.00222957
-0.00334807
-4.14761e-05
-0.0205539
-0.000929824
-0.000263443
-0.00146752
-0.000673672
-7.90049e-05
8.3297e-05
-0.0168945
-0.00347594
-8.00764e-05
-2.69838e-05
-0.0141322
0.00155716
-0.000103306
0.00132256
-0.000333971
0.00049931
0.00068361
-0.00208031
-0.00479611
-0.00361404
0.000511168
-0.00929911
-0.00123702
0.000210285
-0.00063083
-0.000124344
0.000524753
0.000776153
-0.00172602
-0.00608272
-0.00269268
0.000436805
-0.0164819
0.00192004
0.000317935
0.00124243
-0.000157599
0.00076408
-0.000531976
-0.00889553
-0.00275325
0.000200531
0.000379966
0.0187362
0.00122156
-0.00702978
-0.0361358
-0.00300104
0.000813281
-0.00019679
-0.0335521
0.00166269
0.000615421
0.00286943
0.000381341
0.000949668
-0.00047365
-0.00540522
0.000103685
0.000666356
0.000880974
-0.0266073
-0.00131451
0.000496912
0.0030989
0.000407735
0.000594823
-0.000354542
-0.000933415
-0.00484026
-0.000587302
0.000447992
-0.0146275
-0.00104642
0.000472723
0.00297208
0.000315472
0.000556579
0.000456459
-0.0012582
-0.00307699
-0.000551173
0.000608867
-0.00544673
-0.00156807
0.000319863
0.00160864
3.65963e-05
0.000277672
0.000480027
-0.000648866
0.00067586
-7.02415e-05
0.000114335
0.00250915
0.00105633
0.000571939
0.00234973
0.000263866
0.000792747
0.00054058
-0.00150658
-0.00466972
-0.000347162
0.000662579
-0.01359
0.00646497
0.00271511
0.00926558
0.00227302
0.00281079
0.00392195
0.000914004
-0.00228615
0.002271
0.000911877
-0.00748439
0.000529437
0.00055638
0.0017104
0.000428328
0.000398232
0.00121534
-0.0268693
0.00100653
-0.000879817
-0.000381602
-0.00351236
0.000243854
-0.0021004
-0.00445523
-0.00177282
0.000293639
-0.0255462
0.00139328
-0.00632872
-0.000599499
0.00102929
0.000128883
-0.00872106
0.00171238
0.000573511
0.00307703
0.000181539
0.000510701
-0.0012288
-0.00911482
-0.00636429
-0.00584645
-0.000174646
0.0143005
-0.00260374
0.000127437
6.47533e-05
0.000265079
-0.000157809
-0.000860482
-0.0470477
0.0046267
-0.0019562
-0.000406181
-0.0106238
0.00172242
0.00236357
-0.00125627
0.000210008
-0.00022914
0.0169592
-0.00270527
0.000240991
0.0019681
0.000169555
-0.000250869
-0.000770558
0.000360729
-0.0240638
-0.00342832
-0.000172582
-0.0618272
0.00136726
-0.000856919
6.34339e-05
-0.000891774
0.000101558
-0.000121058
0.0182639
0.0009832
-0.000264522
0.00389045
-0.00108339
-0.00013394
0.00011137
-0.00505127
0.000418112
-0.0026744
-0.00112946
-0.00096937
0.000100112
-0.00104438
0.0269793
-8.07821e-06
-0.00826186
-0.0103944
0.00270187
0.000157362
-0.0111721
-0.000320188
-0.00340144
2.48495e-05
2.39209e-05
-0.000227634
-0.0197855
0.00107208
-0.00269487
0.00150071
0.000972221
0.000426076
-0.0113119
-0.000801151
-0.00184838
-0.00180388
-0.000522703
-0.00050862
-0.0221696
-1.05678e-05
-0.000114695
-0.00169729
-0.000949023
-0.000266262
-0.000441569
-0.0313624
-0.00333483
-5.76772e-05
0.00101169
-6.64248e-05
-0.000255586
0.000845173
-0.00105431
-0.00708574
2.53343e-05
0.00074687
-0.00358435
0.000932958
-0.0175747
-0.00125299
-0.000327672
0.000262714
0.0293768
0.000154651
-0.000909199
-0.000259535
-0.000718732
9.7003e-05
6.58226e-05
-0.0513747
0.00296145
-0.0012492
0.00890692
0.00265052
-2.91266e-05
0.00874016
0.00236331
-0.00450411
-0.0001088
0.00184031
-0.000596265
-0.00631509
-0.00217829
-0.000905356
-0.00101895
0.00257404
-0.00135605
-0.00239466
-0.00100987
-0.000875689
-0.00203889
-0.000882285
-0.0213589
0.00471876
0.000345377
0.000279635
0.00490284
0.00283401
0.0010879
-6.75203e-05
-0.00044644
-0.00174729
-0.000178269
0.00442205
0.0065187
-3.02294e-06
0.00119449
0.000841549
-0.00365163
0.00163386
0.00827663
0.000106574
0.000123583
-0.000425853
0.000464296
0.00622218
-0.0064427
-0.00184096
-0.00151862
-0.00126283
-0.0098097
-0.0013761
-0.00349079
-0.00161651
-0.00146996
-0.00203548
-0.00162265
-0.0396025
-0.0108718
-0.00115351
-0.00284596
-0.0010983
0.00208602
0.00188829
-0.0038348
-0.00104867
-0.000640838
-0.00194413
-0.000861472
-0.0527432
0.0032756
-0.000817782
0.000107864
-0.000149234
4.96534e-06
1.03059e-05
0.000477411
2.12254e-05
-6.59514e-05
-0.00107044
-0.000198698
-0.00676937
0.00432606
-0.000494434
-0.000148938
-0.000252173
-0.00227385
0.00249682
0.00428792
2.31849e-05
-7.47338e-05
-0.0002389
0.000140674
0.0251275
0.00423863
-0.000373673
-1.62466e-05
-0.000517376
-0.00420286
-0.00298642
0.000726852
0.000142586
-0.000115204
-0.000532097
7.17281e-05
-0.0207638
0.000521721
-0.000417717
0.000221692
-0.000149065
0.000737389
0.00790901
-0.000189855
-0.000457659
-0.000407523
-0.000996487
-0.000280382
0.00607134
-0.0459259
-0.00156728
-0.00136837
-0.00164547
-0.00159571
-0.00525655
-0.00346615
-0.00231607
-0.0015801
-0.00188099
-0.00189925
-0.00173912
-0.00900385
0.0189658
-0.0028304
0.00360234
0.0014528
0.00268414
-0.000648498
-0.00252442
0.00320563
0.0018294
0.00178902
-0.00148094
0.00240514
0.000173324
-0.000269383
-0.00110264
-0.000723931
-0.00121082
-0.00130246
-0.000828006
-0.00134914
-0.000470605
-0.000730185
-0.00147993
-0.000739352
0.00831501
-0.000784483
-0.00064281
-0.000732575
-0.000998272
0.00263395
-0.00374327
-0.000595184
-0.000670151
-0.00103077
-0.00181703
-0.001214
0.00507654
0.00332471
-0.00237095
-0.000259514
-0.00118276
-0.000169465
-0.0024174
-0.00134262
-0.000719004
-0.000782566
-0.00178181
-0.0009587
-0.0151745
0.0322164
0.00365185
-0.000703325
-0.000163229
-0.000473515
-0.00197403
0.00620469
0.00240097
-0.000305804
-0.000442907
-0.00155653
-0.000246057
0.0281392
-0.0179455
-0.000260765
-0.000666727
-0.00248053
-0.0013287
-0.000480813
-0.000164276
-0.000349031
-0.00154957
-0.0352648
-0.000393663
0
-0.00364594
0.00402481
-0.000988754
-0.00150832
-0.00531312
0.00043716
-0.00184782
0.00223433
0.00250254
0.000400184
0.00373645
0.00201031
0.000624917
-0.00272906
-0.00891188
-0.00754416
-0.00252493
-0.00230667
-0.00314357
-0.00484527
-0.00166311
0.000434703
-0.00811545
-0.00612128
-0.00450094
-0.00478474
-0.00701892
-0.00172819
-0.000657888
-0.00271863
-0.000318979
-0.00444724
0.00057863
-0.000363525
-0.00680544
0.00134592
-0.000606106
0.00291243
-0.00211245
-0.00416217
-0.00380418
-0.00228977
0.00318564
-0.000551465
-0.000595569
0.000900748
-0.00143972
-0.00453904
-0.00733311
0.00169137
0.0167426
0.00781873
-0.00592676
0.00395943
0.00142853
-0.00531752
-0.0032569
-0.00235429
-0.00205418
-0.00301543
0.00078793
-0.00343681
-0.0034022
-0.00383803
-0.0024324
0.00329543
0.00306464
0.000683969
0.00253324
0.00107143
-0.00282384
0.00500449
0.00126349
0.00267836
0.00250549
-0.000803075
0.00534691
0.00849204
0.000739766
0.00575867
-0.0110235
-0.00072006
-0.00224311
0.00207358
4.04379e-05
0.00473451
0.0155639
-0.000769688
-0.00522958
0.000545089
0.000639253
-0.00672945
-0.00139447
-0.00292212
0.00313878
-0.00494643
0.000796506
-0.00208911
0.00745615
0.000315463
0.0026973
-0.00162147
0.000363475
-0.00521259
-0.00272283
0.00437622
0.00597171
0.0183581
0.0184032
0.00120599
0.00349734
0.000730093
0.0007363
-0.000676874
-0.00909053
0.0019364
0.00162767
-0.00145488
0.00444706
-0.00631725
-0.00133116
0.00870315
-0.00766823
0.00146232
-0.000174073
0.0107333
0.0905055
0.0060251
0.021953
-0.0188391
-0.00686692
0.0101893
0.0138516
0.00184652
-0.00231539
-0.0518857
0.0089265
0.00865639
0.0282331
0.00921019
0.0195268
0.00115663
-0.0202324
0.00715044
-0.0168914
0.00157962
-0.00440113
0.00690077
-0.00359405
-0.00502395
-0.00372145
-0.0047232
-0.0138665
0.00674946
0.0238189
-0.000750775
0.00038718
0.000590515
0.00226346
-0.00345616
0.00756806
0.00494253
0.00502384
0.00442068
0.00608347
0.015757
0.0144395
0.00239773
0.00411706
-0.000607361
0.0210583
-0.0161867
-0.00248769
0.01116
-0.00125297
-0.00307904
0.00435222
0.00243821
0.000350346
-0.00403346
0.0138978
0.0117714
0.0132425
0.00771655
-0.000136813
0.00453613
-0.00095026
-0.000416106
-0.0123091
0.00343889
0.000429452
-0.00207872
0.00632554
-0.00258369
-0.00421549
0.0011131
0.00892152
-0.00476452
-0.0178429
-0.0724741
-0.0426084
0.00383227
-0.0167157
-0.001155
0.00889751
0.019848
0.0604498
0.0746767
-0.0166619
0.00226067
0.0198817
0.0223446
0.000546274
0.00153749
-0.00522396
0.00355664
-0.00271682
0.0189908
0.0328562
0.0257844
0.00850652
0.0161339
0.0157583
0.0153381
-0.00722498
0.00304445
0.00868925
-0.00306057
0.00171846
0.000582122
0.000149927
-0.000437825
0.0575719
0.0155734
0.0133487
0.0165967
0.00424014
-0.000983163
-0.00280367
0.00834969
0.00582535
-0.00179093
-0.00208613
-0.00604987
-0.000290074
0.00413213
0.0236193
0.0228769
0.000186837
0.00209132
-0.00710124
0.0603665
0.0014526
-0.000654388
0.00230953
0.000761462
0.00282228
0.00172349
-0.000404763
-0.00360148
0.0132742
0.0066934
-0.00390211
0.00652409
0.0149761
-0.00517461
-0.0259825
-0.0307558
0.0126173
-0.0130722
-0.00975885
-0.00359248
-0.00462174
-0.00501798
0.00568888
0.00167082
-0.00770488
0.00259897
-0.00446199
-0.00454215
-0.0207015
-0.00341981
-0.00338618
-0.00169725
0.0118594
-0.0361162
-0.0202104
0.00100771
-0.00112394
0.00696587
0.00745259
-0.00430933
0.0286996
0.000813343
0.000848849
0.0199988
-0.0120737
0.025523
0.00209719
-0.00153786
0.000872981
-0.00719571
-0.00234364
-0.00377876
-0.000186709
-0.00305292
-0.00783356
-0.0191901
-0.0164142
-0.00152017
0.00176437
-0.00379263
0.000372149
0.0188261
0.00182841
-0.000720314
-0.000988669
-0.000840949
-0.00236495
-0.0022232
-0.00362993
-0.000509835
0.0337957
0.00318822
0.00119532
0.000946123
0.0032497
0.000729194
-0.00173354
0.0231703
-0.040862
0.00044488
-0.000242501
-5.95519e-05
0.00191147
0.0111076
-0.0115636
0.00884951
-0.00146874
0.00332043
-0.00945766
-0.00424444
-0.00152283
-0.00427621
-0.013729
-0.00494936
0.0547049
0.00331402
-0.0055207
0.00518969
-0.0112114
0.0072601
3.50431e-05
-0.000486472
-0.000885671
0.0296607
-0.000545131
-0.00428803
0.00420356
-0.00813589
0.00914796
0.00974995
0.028717
0.00251955
0.00325099
-0.00143672
0.00596823
0.0060943
-0.0122995
-0.000512964
-0.00310873
-0.00260442
-0.0153346
0.0244356
0.000524118
-0.00314735
7.26891e-05
-0.00351838
0.000744071
0.00134322
0.0129357
-0.000720897
0.00549424
0.0208154
-0.000659205
-0.00107592
0.00655391
0.021558
-0.002007
0.00482577
0.00094064
0.00309325
0.0092718
-0.0233926
-0.0553278
-0.0551469
0.018209
-0.000694066
0.0269753
0.000458888
0.00364127
-0.00202507
-0.00467558
-0.00267037
-0.0596997
-0.00248176
-0.00415319
0.00481078
0.00249851
0.00860913
0.0382711
0.00625883
0.00591206
0.00420397
0.0267123
0.0148548
-0.00364178
0.0337448
-0.0054299
0.162511
0.0237981
-4.11474e-05
0.00156161
-0.000780186
0.0108954
0.0146743
-0.000170321
-0.00368938
-0.000847417
0.0138506
0.0281604
0.00381212
-0.000273397
0.00061065
0.0082135
0.00522424
0.00165295
-0.00291824
0.00430774
-0.0436387
0.00887976
0.00361176
0.0070142
0.0142314
0.0032732
-0.00993055
0.0363884
0.0040318
0.000980167
0.0213952
0.00739995
0.0017613
0.00578014
0.00400806
-0.00108227
0.00226407
-0.00557052
0.00324744
-0.0151264
0.00403082
0.000560096
0.00235982
-0.00037467
0.0036754
-0.037548
0.00214281
-0.0275175
0.00717162
-0.0131455
-0.00173989
-0.00400276
0.015035
-0.000131691
0.0226499
-0.00426951
0.00372356
0.0176113
-0.0171342
